%YAML:1.0
---
opencv_ml_svm:
   format: 3
   svmType: C_SVC
   kernel:
      type: RBF
      gamma: 5.0624999999999998e-01
   C: 1.2500000000000000e+01
   term_criteria: { epsilon:1.1920928955078125e-07, iterations:1000 }
   var_count: 324
   class_count: 9
   class_labels: !!opencv-matrix
      rows: 9
      cols: 1
      dt: i
      data: [ 0, 1, 2, 3, 4, 5, 6, 7, 8 ]
   sv_total: 316
   support_vectors:
      - [ 4.89945382e-01, 4.89945382e-01, 3.33058000e-01, 5.57189509e-02,
          1.91161796e-01, 9.87473726e-02, 1.17935836e-01, 3.17383409e-01,
          4.89945382e-01, 2.07811117e-01, 1.56428441e-01, 5.23311317e-01,
          2.44700626e-01, 2.84591969e-02, 1.66101940e-02, 2.11163774e-01,
          5.23311317e-01, 5.23311317e-01, 9.12557766e-02, 3.56788784e-01,
          4.25032705e-01, 4.25032705e-01, 4.25032705e-01, 3.74581188e-01,
          1.10995188e-01, 3.76662105e-01, 1.53832987e-01, 2.18712077e-01,
          4.12643105e-01, 4.12643105e-01, 4.12643105e-01, 4.12643105e-01,
          4.12643105e-01, 2.11632773e-01, 1.89902961e-01, 1.25776350e-01,
          5.14610410e-02, 2.41349950e-01, 3.06616902e-01, 3.32702041e-01,
          2.14052841e-01, 4.25912201e-01, 4.71522629e-01, 4.71522629e-01,
          2.40418106e-01, 3.68620664e-01, 2.70733207e-01, 1.99638411e-01,
          3.68620664e-01, 3.68620664e-01, 3.68620664e-01, 3.68620664e-01,
          3.42115253e-01, 2.94476599e-01, 3.81770819e-01, 3.05006087e-01,
          3.81770819e-01, 3.81770819e-01, 2.25539237e-01, 3.47885758e-01,
          2.10583404e-01, 3.22371930e-01, 3.81770819e-01, 6.18198514e-02,
          5.38686872e-01, 3.16266358e-01, 5.53226583e-02, 1.02765694e-01,
          5.38686872e-01, 5.38686872e-01, 8.04325193e-02, 1.15343975e-02,
          4.81974334e-01, 4.81974334e-01, 4.81974334e-01, 1.56847872e-02,
          9.80197936e-02, 2.25414485e-01, 4.66551781e-01, 3.29678208e-02,
          1.37351230e-01, 3.81770819e-01, 3.05006087e-01, 3.81770819e-01,
          3.81770819e-01, 2.25539237e-01, 3.47885758e-01, 2.10583404e-01,
          3.22371930e-01, 3.81770819e-01, 6.18198514e-02, 5.38686872e-01,
          3.16266358e-01, 5.53226583e-02, 1.02765694e-01, 5.38686872e-01,
          5.38686872e-01, 8.04325193e-02, 1.15343975e-02, 4.81974334e-01,
          4.81974334e-01, 4.81974334e-01, 1.56847872e-02, 9.80197936e-02,
          2.25414485e-01, 4.66551781e-01, 3.29678208e-02, 1.37351230e-01,
          3.81233394e-01, 1.02471806e-01, 3.07635993e-01, 3.81233394e-01,
          3.81233394e-01, 3.50137621e-01, 3.46152455e-01, 3.81233394e-01,
          2.59379297e-01, 3.14671338e-01, 3.91234070e-01, 3.91234070e-01,
          1.32553905e-01, 3.91234070e-01, 3.91234070e-01, 3.91234070e-01,
          1.77495912e-01, 2.87537158e-01, 1.79551765e-01, 6.46924555e-01,
          6.46924555e-01, 2.02195883e-01, 6.64289147e-02, 1.62513033e-01,
          1.76233619e-01, 1.26765922e-01, 7.37934932e-02, 4.56617266e-01,
          4.56617266e-01, 2.11374030e-01, 1.26323208e-01, 1.63733423e-01,
          1.89574331e-01, 4.56617266e-01, 1.95084691e-01, 4.56617266e-01,
          4.11989987e-01, 6.60809204e-02, 4.40678209e-01, 3.58126938e-01,
          7.83594400e-02, 7.87465572e-02, 3.13540697e-01, 4.40678209e-01,
          4.40678209e-01, 2.82181744e-02, 1.16087653e-01, 5.59752941e-01,
          5.59752941e-01, 5.87577783e-02, 4.24406230e-02, 1.82160959e-01,
          5.59752941e-01, 4.16077003e-02, 9.12557766e-02, 3.56788784e-01,
          4.25032705e-01, 4.25032705e-01, 4.25032705e-01, 3.74581188e-01,
          1.10995188e-01, 3.76662105e-01, 1.53832987e-01, 7.84025490e-02,
          4.76269454e-01, 1.68430150e-01, 7.04303980e-02, 3.36593568e-01,
          5.49412906e-01, 5.49412906e-01, 1.00775406e-01, 3.23220342e-02,
          5.00080824e-01, 5.00080824e-01, 2.93989301e-01, 8.22206214e-03,
          4.42375392e-02, 2.21334875e-01, 5.00080824e-01, 8.95580202e-02,
          3.15117031e-01, 3.68620664e-01, 2.70733207e-01, 1.99638411e-01,
          3.68620664e-01, 3.68620664e-01, 3.68620664e-01, 3.68620664e-01,
          3.42115253e-01, 2.94476599e-01, 3.75118941e-01, 2.64541447e-01,
          3.75118941e-01, 2.32949153e-01, 3.75118941e-01, 3.75118941e-01,
          1.66492507e-01, 3.75118941e-01, 3.75118941e-01, 1.31067485e-01,
          5.08260667e-01, 5.08260667e-01, 4.58841354e-01, 6.23008795e-02,
          9.65981111e-02, 7.29050264e-02, 3.97171289e-01, 2.72542059e-01,
          4.81974334e-01, 4.81974334e-01, 4.81974334e-01, 1.56847872e-02,
          9.80197936e-02, 2.25414485e-01, 4.66551781e-01, 3.29678208e-02,
          1.37351230e-01, 4.32115376e-01, 7.56650418e-02, 3.67313653e-01,
          2.02290818e-01, 1.30913168e-01, 7.56663010e-02, 3.40577304e-01,
          5.48726559e-01, 4.31593627e-01, 2.14597173e-02, 2.60943174e-02,
          5.39277971e-01, 5.39277971e-01, 2.60922074e-01, 6.37904406e-02,
          1.71661273e-01, 5.39277971e-01, 1.39260724e-01, 4.81974334e-01,
          4.81974334e-01, 4.81974334e-01, 1.56847872e-02, 9.80197936e-02,
          2.25414485e-01, 4.66551781e-01, 3.29678208e-02, 1.37351230e-01,
          4.32115376e-01, 7.56650418e-02, 3.67313653e-01, 2.02290818e-01,
          1.30913168e-01, 7.56663010e-02, 3.40577304e-01, 5.48726559e-01,
          4.31593627e-01, 2.14597173e-02, 2.60943174e-02, 5.39277971e-01,
          5.39277971e-01, 2.60922074e-01, 6.37904406e-02, 1.71661273e-01,
          5.39277971e-01, 1.39260724e-01, 1.79551765e-01, 6.46924555e-01,
          6.46924555e-01, 2.02195883e-01, 6.64289147e-02, 1.62513033e-01,
          1.76233619e-01, 1.26765922e-01, 7.37934932e-02, 1.38076767e-01,
          2.42388532e-01, 8.99681821e-02, 7.08529800e-02, 1.02427289e-01,
          4.30999756e-01, 5.42540312e-01, 5.42540312e-01, 3.44525725e-01,
          4.07049954e-01, 2.25554764e-01, 1.15794294e-01, 4.07049954e-01,
          4.07049954e-01, 2.71436274e-01, 4.07049954e-01, 4.07049954e-01,
          1.71827108e-01, 2.82181744e-02, 1.16087653e-01, 5.59752941e-01,
          5.59752941e-01, 5.87577783e-02, 4.24406230e-02, 1.82160959e-01,
          5.59752941e-01, 4.16077003e-02, 5.95300868e-02, 1.85059056e-01,
          2.00829282e-01, 9.00651738e-02, 4.42553610e-01, 5.87934196e-01,
          5.87934196e-01, 1.30951032e-01, 5.96602410e-02, 3.46606940e-01,
          4.83011097e-01, 3.45628500e-01, 2.12070928e-03, 5.34668900e-02,
          4.83011097e-01, 4.83011097e-01, 2.08402276e-01, 9.68842134e-02 ]
      - [ 6.07157588e-01, 6.07157588e-01, 1.73815846e-01, 0.,
          4.91294265e-03, 7.52384663e-02, 7.57617429e-02, 5.90061322e-02,
          4.59933162e-01, 6.23002052e-01, 4.48220372e-01, 2.32463107e-02,
          2.73732876e-04, 0., 1.81193650e-02, 2.03163102e-02,
          1.23828687e-01, 6.23002052e-01, 6.95236921e-01, 3.05938330e-02,
          2.01966967e-02, 7.00723467e-05, 1.33307258e-04, 4.07292647e-03,
          7.48559274e-03, 1.57906204e-01, 6.95236921e-01, 6.21138752e-01,
          6.21138752e-01, 4.54702288e-01, 9.97985061e-03, 1.05594657e-02,
          1.75835434e-02, 5.14872000e-02, 2.39209738e-02, 1.08046710e-01,
          4.72419590e-01, 4.72419590e-01, 2.37944424e-02, 9.24757030e-03,
          4.72419590e-01, 4.72419590e-01, 1.81467101e-01, 7.89129511e-02,
          2.50501394e-01, 2.99015015e-01, 1.33968517e-01, 1.20823205e-01,
          1.66188210e-01, 5.70563257e-01, 5.70563257e-01, 3.33662421e-01,
          3.38466279e-02, 2.84898341e-01, 1.98946089e-01, 5.49545467e-01,
          5.49545467e-01, 7.20250383e-02, 8.32837746e-02, 4.07426991e-02,
          5.49545467e-01, 1.81563452e-01, 4.67219725e-02, 1.74780205e-01,
          2.24105150e-01, 2.01753899e-01, 2.21184138e-02, 4.88183498e-01,
          4.88183498e-01, 4.88183498e-01, 3.88697535e-01, 8.42843354e-02,
          4.23561096e-01, 4.23561096e-01, 2.87851125e-01, 1.40561014e-01,
          4.23561096e-01, 4.23561096e-01, 3.52516562e-01, 1.54739683e-02,
          2.25898072e-01, 1.98946089e-01, 5.49545467e-01, 5.49545467e-01,
          7.20250383e-02, 8.32837746e-02, 4.07426991e-02, 5.49545467e-01,
          1.81563452e-01, 4.67219725e-02, 1.74780205e-01, 2.24105150e-01,
          2.01753899e-01, 2.21184138e-02, 4.88183498e-01, 4.88183498e-01,
          4.88183498e-01, 3.88697535e-01, 8.42843354e-02, 4.23561096e-01,
          4.23561096e-01, 2.87851125e-01, 1.40561014e-01, 4.23561096e-01,
          4.23561096e-01, 3.52516562e-01, 1.54739683e-02, 2.25898072e-01,
          9.67934169e-03, 2.13168278e-01, 5.95857084e-01, 5.95857084e-01,
          1.04089089e-01, 1.81146711e-01, 4.17369425e-01, 1.42979160e-01,
          1.16530452e-02, 8.75098333e-02, 3.31555128e-01, 2.52492130e-01,
          1.41990170e-01, 8.85022059e-02, 4.67375815e-01, 4.67375815e-01,
          4.67375815e-01, 3.61494660e-01, 4.52519000e-01, 4.52519000e-01,
          4.52519000e-01, 4.21510577e-01, 1.73285052e-01, 2.66800910e-01,
          2.70298988e-01, 1.35301128e-01, 1.04451932e-01, 2.39148624e-02,
          5.69648296e-02, 4.94343370e-01, 4.94343370e-01, 4.52952892e-01,
          4.94343370e-01, 2.29678243e-01, 8.74866359e-03, 1.11630959e-02,
          2.42426679e-01, 3.56626630e-01, 3.09795350e-01, 3.56626630e-01,
          2.80352831e-01, 3.56626630e-01, 3.56626630e-01, 3.56626630e-01,
          3.56626630e-01, 2.24225655e-01, 4.21285868e-01, 4.21285868e-01,
          3.50775063e-01, 3.79562467e-01, 2.03294978e-01, 8.82776603e-02,
          3.71705741e-01, 3.68989289e-01, 6.95236921e-01, 3.05938330e-02,
          2.01966967e-02, 7.00723467e-05, 1.33307258e-04, 4.07292647e-03,
          7.48559274e-03, 1.57906204e-01, 6.95236921e-01, 4.46080357e-01,
          4.87302691e-02, 1.95995588e-02, 1.39316078e-02, 1.54898409e-02,
          2.73132384e-01, 3.93360823e-01, 5.30653417e-01, 5.30653417e-01,
          1.47308260e-01, 1.05535753e-01, 1.99689180e-01, 5.24416625e-01,
          2.30823845e-01, 7.90738091e-02, 1.93594083e-01, 5.24416625e-01,
          5.24416625e-01, 2.99015015e-01, 1.33968517e-01, 1.20823205e-01,
          1.66188210e-01, 5.70563257e-01, 5.70563257e-01, 3.33662421e-01,
          3.38466279e-02, 2.84898341e-01, 4.27635133e-01, 2.30557993e-01,
          1.72967061e-01, 2.04351440e-01, 1.90428331e-01, 5.01825094e-01,
          5.01825094e-01, 1.62166864e-01, 3.47943008e-01, 3.63801271e-01,
          3.63801271e-01, 3.63801271e-01, 3.63801271e-01, 2.79835582e-01,
          1.99291110e-01, 2.90227890e-01, 3.63801271e-01, 3.63801271e-01,
          4.23561096e-01, 4.23561096e-01, 2.87851125e-01, 1.40561014e-01,
          4.23561096e-01, 4.23561096e-01, 3.52516562e-01, 1.54739683e-02,
          2.25898072e-01, 5.19255221e-01, 5.19255221e-01, 5.54719605e-02,
          8.33465606e-02, 8.80601704e-02, 5.19255221e-01, 2.26756796e-01,
          1.13739066e-01, 3.22184116e-01, 4.15596813e-01, 4.15596813e-01,
          4.15596813e-01, 1.03641629e-01, 5.76600283e-02, 8.43614712e-02,
          4.15596813e-01, 4.15596813e-01, 3.33259076e-01, 4.23561096e-01,
          4.23561096e-01, 2.87851125e-01, 1.40561014e-01, 4.23561096e-01,
          4.23561096e-01, 3.52516562e-01, 1.54739683e-02, 2.25898072e-01,
          5.19255221e-01, 5.19255221e-01, 5.54719605e-02, 8.33465606e-02,
          8.80601704e-02, 5.19255221e-01, 2.26756796e-01, 1.13739066e-01,
          3.22184116e-01, 4.15596813e-01, 4.15596813e-01, 4.15596813e-01,
          1.03641629e-01, 5.76600283e-02, 8.43614712e-02, 4.15596813e-01,
          4.15596813e-01, 3.33259076e-01, 4.52519000e-01, 4.52519000e-01,
          4.52519000e-01, 4.21510577e-01, 1.73285052e-01, 2.66800910e-01,
          2.70298988e-01, 1.35301128e-01, 1.04451932e-01, 6.25491440e-01,
          6.25491440e-01, 3.95121783e-01, 1.89382862e-02, 5.03102355e-02,
          5.48206940e-02, 5.72991446e-02, 6.66393563e-02, 2.03802466e-01,
          5.33917397e-02, 3.45391519e-02, 1.51360510e-02, 3.05424863e-03,
          4.31949971e-03, 6.41650856e-01, 6.41650856e-01, 4.06547248e-01,
          2.41009668e-02, 2.24225655e-01, 4.21285868e-01, 4.21285868e-01,
          3.50775063e-01, 3.79562467e-01, 2.03294978e-01, 8.82776603e-02,
          3.71705741e-01, 3.68989289e-01, 8.73808414e-02, 1.48598060e-01,
          3.27353209e-01, 2.44652405e-02, 6.40346706e-01, 6.40346706e-01,
          1.78376928e-01, 3.36581394e-02, 5.56087010e-02, 3.72470319e-01,
          3.94099563e-01, 2.41744053e-02, 1.44460369e-02, 3.07126969e-01,
          5.49467504e-01, 5.49467504e-01, 3.20315436e-02, 2.21129209e-02 ]
      - [ 3.61285359e-01, 3.61285359e-01, 3.61285359e-01, 3.38423640e-01,
          3.61285359e-01, 3.61285359e-01, 2.85424620e-01, 1.31263137e-01,
          3.61285359e-01, 4.40066636e-01, 4.40066636e-01, 3.29593658e-01,
          1.58786401e-01, 4.40066636e-01, 1.28486618e-01, 1.65863723e-01,
          2.07617462e-01, 4.40066636e-01, 5.46306789e-01, 5.69754466e-02,
          4.74314950e-02, 4.82303277e-02, 5.46306789e-01, 1.56939864e-01,
          5.98225296e-02, 2.51316696e-01, 5.46306789e-01, 3.93674493e-01,
          3.93674493e-01, 3.93674493e-01, 3.93674493e-01, 3.93674493e-01,
          1.66778803e-01, 1.76158577e-01, 8.56883749e-02, 3.93674493e-01,
          3.55753303e-01, 3.55753303e-01, 3.54270965e-01, 8.25842246e-02,
          3.55753303e-01, 3.23658854e-01, 3.55753303e-01, 3.55753303e-01,
          3.55753303e-01, 4.35632557e-01, 2.97082007e-01, 4.62346897e-02,
          9.10435244e-02, 4.35632557e-01, 3.04322064e-01, 4.35632557e-01,
          2.12718919e-01, 4.35632557e-01, 3.54666740e-01, 3.54666740e-01,
          3.54666740e-01, 3.01867485e-01, 3.54666740e-01, 2.69143850e-01,
          3.54666740e-01, 2.79576838e-01, 3.54666740e-01, 1.11610807e-01,
          3.16927671e-01, 2.06157193e-01, 3.81407261e-01, 4.08206195e-01,
          4.08206195e-01, 4.08206195e-01, 4.08206195e-01, 1.68880373e-01,
          4.07848895e-01, 4.07848895e-01, 3.35959733e-01, 4.07848895e-01,
          2.04206124e-01, 8.38441327e-02, 3.62236679e-01, 2.33945996e-01,
          3.86469454e-01, 3.54666740e-01, 3.54666740e-01, 3.54666740e-01,
          3.01867485e-01, 3.54666740e-01, 2.69143850e-01, 3.54666740e-01,
          2.79576838e-01, 3.54666740e-01, 1.11610807e-01, 3.16927671e-01,
          2.06157193e-01, 3.81407261e-01, 4.08206195e-01, 4.08206195e-01,
          4.08206195e-01, 4.08206195e-01, 1.68880373e-01, 4.07848895e-01,
          4.07848895e-01, 3.35959733e-01, 4.07848895e-01, 2.04206124e-01,
          8.38441327e-02, 3.62236679e-01, 2.33945996e-01, 3.86469454e-01,
          1.93086937e-01, 3.09770137e-01, 6.16034508e-01, 6.16034508e-01,
          8.36228877e-02, 5.53165376e-02, 1.63498193e-01, 1.31481007e-01,
          2.18037561e-01, 1.06108010e-01, 2.22124577e-01, 3.40123117e-01,
          2.08389610e-01, 1.36354016e-02, 4.13245618e-01, 5.34678459e-01,
          5.34678459e-01, 1.79533526e-01, 2.17776358e-01, 4.07116652e-01,
          4.07116652e-01, 4.07116652e-01, 4.06541191e-02, 5.77267185e-02,
          3.38823527e-01, 4.07116652e-01, 4.07116652e-01, 1.94041997e-01,
          6.71785474e-02, 3.83152902e-01, 5.00218511e-01, 2.62507945e-01,
          5.98641858e-02, 7.68732429e-02, 4.76646751e-01, 5.00218511e-01,
          2.81034768e-01, 2.10475788e-01, 7.33475015e-02, 4.15907860e-01,
          4.15907860e-01, 1.31170541e-01, 3.97569776e-01, 4.15907860e-01,
          4.15907860e-01, 3.69245917e-01, 3.69245917e-01, 3.69245917e-01,
          3.17049086e-01, 3.69245917e-01, 2.59909093e-01, 1.00910418e-01,
          3.69245917e-01, 3.69245917e-01, 5.46306789e-01, 5.69754466e-02,
          4.74314950e-02, 4.82303277e-02, 5.46306789e-01, 1.56939864e-01,
          5.98225296e-02, 2.51316696e-01, 5.46306789e-01, 3.93898904e-01,
          7.54898274e-03, 5.54865077e-02, 8.96820799e-02, 5.18861175e-01,
          1.41057253e-01, 3.05831805e-02, 5.18861175e-01, 5.18861175e-01,
          3.70891750e-01, 4.83991265e-01, 2.09329188e-01, 1.12976752e-01,
          1.97899893e-01, 2.71439012e-02, 4.34277654e-02, 5.12204468e-01,
          5.12204468e-01, 4.35632557e-01, 2.97082007e-01, 4.62346897e-02,
          9.10435244e-02, 4.35632557e-01, 3.04322064e-01, 4.35632557e-01,
          2.12718919e-01, 4.35632557e-01, 5.14789760e-01, 1.98244438e-01,
          2.45715186e-01, 2.05712661e-01, 5.14789760e-01, 2.17873439e-01,
          8.77726357e-03, 1.01454586e-01, 5.14789760e-01, 3.44551533e-01,
          3.64280522e-01, 4.05759901e-01, 2.05019638e-01, 2.49048427e-01,
          3.68865691e-02, 3.81036043e-01, 4.05759901e-01, 4.05759901e-01,
          4.07848895e-01, 4.07848895e-01, 3.35959733e-01, 4.07848895e-01,
          2.04206124e-01, 8.38441327e-02, 3.62236679e-01, 2.33945996e-01,
          3.86469454e-01, 5.40705264e-01, 1.62491381e-01, 2.33396977e-01,
          5.40705264e-01, 1.63835838e-01, 3.18590440e-02, 3.06238197e-02,
          8.85506272e-02, 5.40705264e-01, 2.27532849e-01, 1.57678664e-01,
          1.32863745e-01, 2.42940001e-02, 5.85136469e-03, 4.81989719e-02,
          6.56141996e-01, 6.56141996e-01, 1.87538356e-01, 4.07848895e-01,
          4.07848895e-01, 3.35959733e-01, 4.07848895e-01, 2.04206124e-01,
          8.38441327e-02, 3.62236679e-01, 2.33945996e-01, 3.86469454e-01,
          5.40705264e-01, 1.62491381e-01, 2.33396977e-01, 5.40705264e-01,
          1.63835838e-01, 3.18590440e-02, 3.06238197e-02, 8.85506272e-02,
          5.40705264e-01, 2.27532849e-01, 1.57678664e-01, 1.32863745e-01,
          2.42940001e-02, 5.85136469e-03, 4.81989719e-02, 6.56141996e-01,
          6.56141996e-01, 1.87538356e-01, 2.17776358e-01, 4.07116652e-01,
          4.07116652e-01, 4.07116652e-01, 4.06541191e-02, 5.77267185e-02,
          3.38823527e-01, 4.07116652e-01, 4.07116652e-01, 2.95402147e-02,
          4.81105894e-02, 2.77833968e-01, 5.43071628e-01, 1.71044245e-01,
          3.67034506e-03, 1.21519221e-02, 5.43071628e-01, 5.43071628e-01,
          3.40632387e-02, 1.94582213e-02, 9.33636650e-02, 4.87021893e-01,
          3.41731995e-01, 4.87021893e-01, 4.87021893e-01, 3.81004184e-01,
          1.06602676e-01, 3.69245917e-01, 3.69245917e-01, 3.69245917e-01,
          3.17049086e-01, 3.69245917e-01, 2.59909093e-01, 1.00910418e-01,
          3.69245917e-01, 3.69245917e-01, 5.03231809e-02, 1.00265257e-01,
          8.52309540e-02, 3.74794364e-01, 4.28253710e-01, 4.28253710e-01,
          3.19055498e-01, 4.28253710e-01, 4.28253710e-01, 3.54228854e-01,
          3.54228854e-01, 2.22202510e-01, 3.28636855e-01, 3.54228854e-01,
          3.54228854e-01, 3.54228854e-01, 3.54228854e-01, 2.93625534e-01 ]
      - [ 4.21130270e-01, 3.85782123e-01, 2.50484437e-01, 1.63930491e-01,
          2.05057800e-01, 4.36067551e-01, 4.36067551e-01, 2.09796920e-01,
          3.36862922e-01, 3.96147907e-01, 3.96147907e-01, 3.96147907e-01,
          3.96147907e-01, 2.14958310e-01, 3.96147907e-01, 4.58915755e-02,
          1.73406646e-01, 3.64682943e-01, 6.49390161e-01, 1.76701114e-01,
          8.55326429e-02, 2.89966196e-01, 1.00449808e-01, 2.87881810e-02,
          8.47229362e-02, 9.68778506e-02, 6.49390161e-01, 3.85653943e-01,
          3.85653943e-01, 3.85653943e-01, 5.47914021e-02, 4.10802588e-02,
          3.61782849e-01, 3.41944456e-01, 3.85653943e-01, 3.85653943e-01,
          3.49317044e-02, 3.11176181e-02, 3.35690737e-01, 4.62038368e-01,
          1.57189146e-01, 4.33804654e-02, 4.62038368e-01, 4.62038368e-01,
          4.62038368e-01, 4.34661210e-02, 1.16414027e-02, 2.68204719e-01,
          5.76350629e-01, 5.76350629e-01, 4.27357078e-01, 2.06983253e-01,
          1.29755586e-01, 1.16676897e-01, 1.33272782e-01, 4.51510906e-01,
          4.51510906e-01, 3.52798730e-01, 3.69880795e-01, 9.57218036e-02,
          4.51510906e-01, 3.08028162e-01, 2.86258236e-02, 1.34158820e-01,
          1.91818908e-01, 4.36324388e-01, 2.81956404e-01, 2.32437134e-01,
          1.35010913e-01, 5.43880582e-01, 5.43880582e-01, 7.76527524e-02,
          3.45028758e-01, 3.45028758e-01, 3.45028758e-01, 3.45028758e-01,
          3.45028758e-01, 2.55203962e-01, 3.13224912e-01, 3.45028758e-01,
          3.45028758e-01, 1.33272782e-01, 4.51510906e-01, 4.51510906e-01,
          3.52798730e-01, 3.69880795e-01, 9.57218036e-02, 4.51510906e-01,
          3.08028162e-01, 2.86258236e-02, 1.34158820e-01, 1.91818908e-01,
          4.36324388e-01, 2.81956404e-01, 2.32437134e-01, 1.35010913e-01,
          5.43880582e-01, 5.43880582e-01, 7.76527524e-02, 3.45028758e-01,
          3.45028758e-01, 3.45028758e-01, 3.45028758e-01, 3.45028758e-01,
          2.55203962e-01, 3.13224912e-01, 3.45028758e-01, 3.45028758e-01,
          3.00713200e-02, 1.58857018e-01, 4.38568175e-01, 4.38568175e-01,
          2.92352974e-01, 2.57103801e-01, 4.38568175e-01, 4.38568175e-01,
          2.20314696e-01, 1.00350663e-01, 3.45693618e-01, 3.61138970e-01,
          3.50245774e-01, 3.61138970e-01, 3.61138970e-01, 3.61138970e-01,
          3.61138970e-01, 3.03378910e-01, 3.71371716e-01, 3.71371716e-01,
          3.71371716e-01, 2.15992272e-01, 3.71371716e-01, 3.71371716e-01,
          2.45969877e-01, 3.71371716e-01, 2.48262316e-01, 3.19795012e-02,
          1.91587694e-02, 4.71322447e-01, 5.01859009e-01, 4.78821397e-02,
          1.18954014e-02, 1.15894563e-01, 5.01859009e-01, 5.01859009e-01,
          4.04873371e-01, 4.04873371e-01, 1.09332390e-01, 4.04873371e-01,
          4.04873371e-01, 1.73901115e-02, 1.28335310e-02, 4.04873371e-01,
          4.04873371e-01, 5.01993835e-01, 5.01993835e-01, 1.32938951e-01,
          1.52936161e-01, 5.01993835e-01, 1.35119066e-01, 1.23532824e-01,
          3.05749148e-01, 2.66328126e-01, 6.49390161e-01, 1.76701114e-01,
          8.55326429e-02, 2.89966196e-01, 1.00449808e-01, 2.87881810e-02,
          8.47229362e-02, 9.68778506e-02, 6.49390161e-01, 5.04672945e-01,
          3.19097266e-02, 1.07119888e-01, 3.43910098e-01, 3.10504287e-01,
          3.74346301e-02, 4.78966795e-02, 5.04672945e-01, 5.04672945e-01,
          6.35838285e-02, 1.26743168e-02, 2.48652712e-01, 5.04108429e-01,
          2.61633545e-01, 4.27684002e-02, 3.10284346e-01, 5.04108429e-01,
          5.04108429e-01, 4.34661210e-02, 1.16414027e-02, 2.68204719e-01,
          5.76350629e-01, 5.76350629e-01, 4.27357078e-01, 2.06983253e-01,
          1.29755586e-01, 1.16676897e-01, 2.88220465e-01, 7.19162598e-02,
          1.38676614e-01, 5.17975807e-01, 6.22909427e-01, 4.20856684e-01,
          1.35056198e-01, 1.05272532e-01, 1.53455436e-01, 1.23388328e-01,
          2.99565107e-01, 4.01549965e-01, 4.01549965e-01, 4.01549965e-01,
          9.90969986e-02, 3.36758643e-01, 4.01549965e-01, 3.50468785e-01,
          3.45028758e-01, 3.45028758e-01, 3.45028758e-01, 3.45028758e-01,
          3.45028758e-01, 2.55203962e-01, 3.13224912e-01, 3.45028758e-01,
          3.45028758e-01, 4.71489966e-01, 2.06888691e-01, 2.17576638e-01,
          4.71489966e-01, 4.62635100e-01, 1.28516406e-01, 5.97213842e-02,
          6.42295331e-02, 4.71489966e-01, 3.85616988e-01, 3.85616988e-01,
          3.85616988e-01, 2.23530382e-01, 1.78760871e-01, 1.48403153e-01,
          3.85616988e-01, 3.85616988e-01, 3.85616988e-01, 3.45028758e-01,
          3.45028758e-01, 3.45028758e-01, 3.45028758e-01, 3.45028758e-01,
          2.55203962e-01, 3.13224912e-01, 3.45028758e-01, 3.45028758e-01,
          4.71489966e-01, 2.06888691e-01, 2.17576638e-01, 4.71489966e-01,
          4.62635100e-01, 1.28516406e-01, 5.97213842e-02, 6.42295331e-02,
          4.71489966e-01, 3.85616988e-01, 3.85616988e-01, 3.85616988e-01,
          2.23530382e-01, 1.78760871e-01, 1.48403153e-01, 3.85616988e-01,
          3.85616988e-01, 3.85616988e-01, 3.71371716e-01, 3.71371716e-01,
          3.71371716e-01, 2.15992272e-01, 3.71371716e-01, 3.71371716e-01,
          2.45969877e-01, 3.71371716e-01, 2.48262316e-01, 2.67109990e-01,
          1.80570811e-01, 4.64076757e-01, 4.64076757e-01, 1.37821540e-01,
          6.80842698e-02, 7.94468820e-02, 4.64076757e-01, 4.64076757e-01,
          7.38224313e-02, 1.15430586e-01, 4.70517129e-01, 4.70517129e-01,
          1.45734385e-01, 4.70517129e-01, 4.70517129e-01, 2.49297097e-01,
          8.71398449e-02, 5.01993835e-01, 5.01993835e-01, 1.32938951e-01,
          1.52936161e-01, 5.01993835e-01, 1.35119066e-01, 1.23532824e-01,
          3.05749148e-01, 2.66328126e-01, 9.16359127e-02, 8.10573101e-02,
          1.46560848e-01, 3.20715308e-01, 4.13898379e-01, 4.13898379e-01,
          4.13898379e-01, 4.13898379e-01, 4.13898379e-01, 1.73387304e-01,
          5.48071750e-02, 2.94998348e-01, 4.11568135e-01, 4.11568135e-01,
          4.11568135e-01, 4.11568135e-01, 4.11568135e-01, 1.69870064e-01 ]
      - [ 4.74723905e-01, 4.74723905e-01, 2.30528340e-01, 3.56418528e-02,
          6.50421008e-02, 4.74723905e-01, 4.74723905e-01, 2.06874162e-02,
          1.86373800e-01, 4.41755533e-01, 4.41755533e-01, 3.99103284e-01,
          8.33136309e-03, 1.28748477e-01, 4.41755533e-01, 4.41755533e-01,
          1.51795924e-01, 1.26587912e-01, 3.89829576e-01, 3.89829576e-01,
          2.19802171e-01, 5.16514257e-02, 1.82543561e-01, 3.89829576e-01,
          3.89829576e-01, 3.89829576e-01, 3.89829576e-01, 2.57921606e-01,
          4.67693955e-01, 4.67693955e-01, 1.47803441e-01, 2.60335784e-02,
          4.67693955e-01, 4.67693955e-01, 1.67104051e-01, 5.83711825e-02,
          9.93058905e-02, 4.07715410e-01, 4.07715410e-01, 4.07715410e-01,
          1.61115944e-01, 2.48907566e-01, 4.07715410e-01, 4.07715410e-01,
          2.58829594e-01, 3.63751233e-01, 3.63751233e-01, 2.37248167e-01,
          1.37434378e-01, 3.63751233e-01, 3.63751233e-01, 3.63751233e-01,
          3.63751233e-01, 3.56792808e-01, 1.22244507e-01, 1.56764552e-01,
          3.88530165e-01, 1.99507639e-01, 1.66559055e-01, 4.76668835e-01,
          5.02672613e-01, 5.02672613e-01, 6.62359744e-02, 2.45472267e-01,
          2.31975093e-01, 4.08782989e-01, 4.50620264e-01, 4.50620264e-01,
          4.50620264e-01, 2.31145650e-01, 1.12484284e-01, 1.97659805e-01,
          4.56488043e-01, 4.56488043e-01, 1.19054630e-01, 2.06003234e-01,
          4.56488043e-01, 4.56488043e-01, 2.09250748e-01, 4.57544774e-02,
          2.43771002e-01, 1.22244507e-01, 1.56764552e-01, 3.88530165e-01,
          1.99507639e-01, 1.66559055e-01, 4.76668835e-01, 5.02672613e-01,
          5.02672613e-01, 6.62359744e-02, 2.45472267e-01, 2.31975093e-01,
          4.08782989e-01, 4.50620264e-01, 4.50620264e-01, 4.50620264e-01,
          2.31145650e-01, 1.12484284e-01, 1.97659805e-01, 4.56488043e-01,
          4.56488043e-01, 1.19054630e-01, 2.06003234e-01, 4.56488043e-01,
          4.56488043e-01, 2.09250748e-01, 4.57544774e-02, 2.43771002e-01,
          6.42605349e-02, 1.49611294e-01, 2.17324495e-01, 3.77956122e-01,
          3.85709256e-01, 4.27067131e-01, 4.27067131e-01, 4.27067131e-01,
          2.88460702e-01, 4.71082032e-01, 4.71082032e-01, 2.21050218e-01,
          4.83892597e-02, 3.21885526e-01, 4.71082032e-01, 3.04396749e-01,
          6.64117709e-02, 2.78669953e-01, 4.11103457e-01, 4.11103457e-01,
          3.55212867e-01, 4.11103457e-01, 4.11103457e-01, 3.68948877e-01,
          1.38786480e-01, 4.46705148e-02, 1.90558061e-01, 9.40791517e-02,
          3.33030552e-01, 2.95822799e-01, 4.45897669e-01, 1.67753562e-01,
          2.49076590e-01, 3.18779051e-01, 4.45897669e-01, 4.45897669e-01,
          3.97385478e-01, 3.97385478e-01, 3.97385478e-01, 3.97385478e-01,
          1.34333909e-01, 1.72112942e-01, 2.95010693e-02, 3.97385478e-01,
          3.97385478e-01, 4.88717288e-01, 1.17161855e-01, 4.35790680e-02,
          3.97143722e-01, 4.88717288e-01, 4.86939698e-02, 6.16460107e-03,
          3.20666254e-01, 4.88717288e-01, 3.89829576e-01, 3.89829576e-01,
          2.19802171e-01, 5.16514257e-02, 1.82543561e-01, 3.89829576e-01,
          3.89829576e-01, 3.89829576e-01, 3.89829576e-01, 3.07687432e-01,
          3.63546491e-01, 3.63546491e-01, 3.63546491e-01, 2.30219215e-01,
          2.63927221e-01, 3.43813509e-01, 3.63546491e-01, 3.63546491e-01,
          1.19700089e-01, 1.91654816e-01, 3.38247240e-01, 3.83286148e-01,
          3.83286148e-01, 3.83286148e-01, 3.83286148e-01, 3.83286148e-01,
          3.10094595e-01, 3.63751233e-01, 3.63751233e-01, 2.37248167e-01,
          1.37434378e-01, 3.63751233e-01, 3.63751233e-01, 3.63751233e-01,
          3.63751233e-01, 3.56792808e-01, 3.82630527e-01, 3.82630527e-01,
          1.43749073e-01, 3.82630527e-01, 3.05003464e-01, 3.82630527e-01,
          3.82630527e-01, 3.82630527e-01, 6.36358708e-02, 4.41142380e-01,
          4.41142380e-01, 2.02275395e-01, 2.27965146e-01, 2.62084246e-01,
          4.41142380e-01, 4.41142380e-01, 2.10848257e-01, 1.05538353e-01,
          4.56488043e-01, 4.56488043e-01, 1.19054630e-01, 2.06003234e-01,
          4.56488043e-01, 4.56488043e-01, 2.09250748e-01, 4.57544774e-02,
          2.43771002e-01, 3.97296399e-01, 3.97296399e-01, 2.28466794e-01,
          8.00661296e-02, 3.97296399e-01, 3.97296399e-01, 2.55631447e-01,
          2.87843406e-01, 3.97296399e-01, 3.77351433e-01, 3.77351433e-01,
          8.56670588e-02, 6.60271049e-02, 3.60786796e-01, 3.77351433e-01,
          3.77351433e-01, 3.77351433e-01, 3.77351433e-01, 4.56488043e-01,
          4.56488043e-01, 1.19054630e-01, 2.06003234e-01, 4.56488043e-01,
          4.56488043e-01, 2.09250748e-01, 4.57544774e-02, 2.43771002e-01,
          3.97296399e-01, 3.97296399e-01, 2.28466794e-01, 8.00661296e-02,
          3.97296399e-01, 3.97296399e-01, 2.55631447e-01, 2.87843406e-01,
          3.97296399e-01, 3.77351433e-01, 3.77351433e-01, 8.56670588e-02,
          6.60271049e-02, 3.60786796e-01, 3.77351433e-01, 3.77351433e-01,
          3.77351433e-01, 3.77351433e-01, 4.11103457e-01, 4.11103457e-01,
          3.55212867e-01, 4.11103457e-01, 4.11103457e-01, 3.68948877e-01,
          1.38786480e-01, 4.46705148e-02, 1.90558061e-01, 2.73822367e-01,
          3.17811400e-01, 4.01232958e-01, 4.01232958e-01, 4.01232958e-01,
          1.46313477e-02, 1.21882252e-01, 4.01232958e-01, 4.01232958e-01,
          6.24832101e-02, 2.33550534e-01, 3.18013847e-01, 2.18387648e-01,
          4.29287218e-02, 7.00516403e-02, 5.24087906e-01, 5.24087906e-01,
          4.81044412e-01, 4.88717288e-01, 1.17161855e-01, 4.35790680e-02,
          3.97143722e-01, 4.88717288e-01, 4.86939698e-02, 6.16460107e-03,
          3.20666254e-01, 4.88717288e-01, 4.26344872e-01, 4.26344872e-01,
          3.56572747e-01, 1.90103203e-01, 3.41058701e-01, 4.26344872e-01,
          3.56254905e-01, 8.69050324e-02, 1.90674588e-01, 4.57285702e-01,
          4.57285702e-01, 2.03334913e-01, 5.59691489e-02, 5.84575944e-02,
          4.57285702e-01, 4.57285702e-01, 3.32999259e-01, 1.44294631e-02 ]
      - [ 5.38975477e-01, 5.38975477e-01, 2.65964605e-02, 1.41257336e-02,
          8.00827146e-02, 5.38975477e-01, 3.23135197e-01, 7.46055543e-02,
          7.63628408e-02, 4.42018569e-01, 4.42018569e-01, 4.42018569e-01,
          8.22168589e-02, 4.42018569e-01, 4.42018569e-01, 8.20427760e-02,
          2.15611979e-02, 6.87547326e-02, 4.51631695e-01, 4.51631695e-01,
          4.51631695e-01, 5.66883907e-02, 1.28476799e-01, 7.57648274e-02,
          3.02756041e-01, 2.49964893e-01, 4.51631695e-01, 2.77492613e-01,
          4.67308313e-01, 5.11947200e-02, 2.12077927e-02, 7.35980868e-02,
          5.79183042e-01, 5.79183042e-01, 1.29876226e-01, 5.07562831e-02,
          1.59235429e-02, 7.02906847e-01, 7.02906847e-01, 9.53181367e-03,
          1.35201802e-02, 6.03413209e-02, 1.65643338e-02, 1.58357266e-02,
          1.15681943e-02, 2.88930978e-03, 6.17153823e-01, 6.17153823e-01,
          1.19578317e-02, 2.30191052e-02, 9.24349111e-03, 4.55971539e-01,
          1.52965739e-01, 2.30358867e-03, 1.10484444e-01, 6.77144825e-02,
          1.04751594e-01, 1.37720164e-02, 1.32555157e-01, 4.17683899e-01,
          6.13276184e-01, 6.13276184e-01, 1.47228256e-01, 2.40449546e-04,
          7.04512119e-01, 7.04512119e-01, 1.97073590e-04, 1.59710310e-02,
          3.29600356e-04, 5.66131528e-03, 2.31595919e-03, 2.67139811e-04,
          0., 6.32950544e-01, 6.32950544e-01, 4.18959325e-03,
          1.71425082e-02, 2.34978534e-02, 4.14160252e-01, 1.41547352e-01,
          0., 1.10484444e-01, 6.77144825e-02, 1.04751594e-01,
          1.37720164e-02, 1.32555157e-01, 4.17683899e-01, 6.13276184e-01,
          6.13276184e-01, 1.47228256e-01, 2.40449546e-04, 7.04512119e-01,
          7.04512119e-01, 1.97073590e-04, 1.59710310e-02, 3.29600356e-04,
          5.66131528e-03, 2.31595919e-03, 2.67139811e-04, 0.,
          6.32950544e-01, 6.32950544e-01, 4.18959325e-03, 1.71425082e-02,
          2.34978534e-02, 4.14160252e-01, 1.41547352e-01, 0.,
          4.88344282e-02, 2.41323635e-02, 9.36155170e-02, 2.07579002e-01,
          1.88584700e-01, 2.66052410e-02, 5.89287460e-01, 5.89287460e-01,
          4.56622809e-01, 8.35991371e-03, 7.04172194e-01, 7.04172194e-01,
          0., 5.99673996e-03, 1.69473852e-03, 2.78247707e-02,
          1.59264244e-02, 1.08269807e-02, 6.48895861e-04, 6.40040994e-01,
          6.40040994e-01, 1.47989209e-04, 0., 1.46155793e-03,
          3.92848879e-01, 1.41323105e-01, 0., 5.95415793e-02,
          1.20877046e-02, 2.96682209e-01, 5.42127192e-01, 9.64349955e-02,
          4.00614440e-02, 1.01312280e-01, 5.42127192e-01, 5.42127192e-01,
          1.53260633e-01, 4.82088774e-01, 4.82088774e-01, 1.99717551e-01,
          1.61076523e-02, 1.10914446e-02, 4.22863401e-02, 4.82088774e-01,
          4.82088774e-01, 2.08015665e-02, 6.05278730e-01, 6.05278730e-01,
          1.90388590e-01, 3.31378877e-01, 5.22416197e-02, 3.05361778e-01,
          1.26524284e-01, 5.24959266e-02, 4.51631695e-01, 4.51631695e-01,
          4.51631695e-01, 5.66883907e-02, 1.28476799e-01, 7.57648274e-02,
          3.02756041e-01, 2.49964893e-01, 4.51631695e-01, 1.31795183e-01,
          1.11681921e-02, 2.72455439e-02, 4.48380917e-01, 2.83428758e-01,
          1.24753319e-01, 5.29449522e-01, 5.29449522e-01, 3.44820499e-01,
          4.04379778e-02, 7.81669747e-03, 2.03213990e-01, 5.34776390e-01,
          2.62401521e-01, 6.25874624e-02, 1.44700438e-01, 5.34776390e-01,
          5.34776390e-01, 2.88930978e-03, 6.17153823e-01, 6.17153823e-01,
          1.19578317e-02, 2.30191052e-02, 9.24349111e-03, 4.55971539e-01,
          1.52965739e-01, 2.30358867e-03, 5.65477833e-03, 4.94737457e-03,
          2.21948489e-03, 3.86664690e-03, 5.26945293e-03, 8.24683346e-03,
          7.04540074e-01, 7.04540074e-01, 6.44952385e-03, 6.62244111e-02,
          8.04177821e-02, 4.86076087e-01, 4.86076087e-01, 5.57918437e-02,
          8.21020156e-02, 4.86076087e-01, 4.86076087e-01, 1.71344876e-01,
          0., 6.32950544e-01, 6.32950544e-01, 4.18959325e-03,
          1.71425082e-02, 2.34978534e-02, 4.14160252e-01, 1.41547352e-01,
          0., 1.86984835e-03, 3.91884940e-03, 4.70390590e-03,
          3.79779818e-03, 5.40004391e-03, 6.19100686e-03, 7.04559684e-01,
          7.04559684e-01, 5.94616542e-03, 5.17837442e-02, 7.54629299e-02,
          8.43172222e-02, 1.71445888e-02, 6.88492805e-02, 6.93203509e-02,
          6.88474834e-01, 6.88474834e-01, 1.40736952e-01, 0.,
          6.32950544e-01, 6.32950544e-01, 4.18959325e-03, 1.71425082e-02,
          2.34978534e-02, 4.14160252e-01, 1.41547352e-01, 0.,
          1.86984835e-03, 3.91884940e-03, 4.70390590e-03, 3.79779818e-03,
          5.40004391e-03, 6.19100686e-03, 7.04559684e-01, 7.04559684e-01,
          5.94616542e-03, 5.17837442e-02, 7.54629299e-02, 8.43172222e-02,
          1.71445888e-02, 6.88492805e-02, 6.93203509e-02, 6.88474834e-01,
          6.88474834e-01, 1.40736952e-01, 6.48895861e-04, 6.40040994e-01,
          6.40040994e-01, 1.47989209e-04, 0., 1.46155793e-03,
          3.92848879e-01, 1.41323105e-01, 0., 2.19196896e-04,
          4.40080138e-03, 9.13720112e-03, 1.24610239e-03, 2.60610925e-03,
          2.66719144e-03, 7.04573750e-01, 7.04573750e-01, 0.,
          6.64240420e-02, 3.45380783e-01, 1.06442213e-01, 5.44440225e-02,
          9.54630896e-02, 9.65279862e-02, 6.46931350e-01, 6.46931350e-01,
          8.71297903e-03, 2.08015665e-02, 6.05278730e-01, 6.05278730e-01,
          1.90388590e-01, 3.31378877e-01, 5.22416197e-02, 3.05361778e-01,
          1.26524284e-01, 5.24959266e-02, 1.10257685e-01, 3.39169987e-02,
          2.90464354e-03, 3.65760038e-03, 1.28105134e-01, 1.50782034e-01,
          6.85015082e-01, 6.85015082e-01, 4.68546860e-02, 4.81216103e-01,
          4.81216103e-01, 1.35675650e-02, 8.05047620e-03, 6.74236640e-02,
          4.81216103e-01, 4.81216103e-01, 2.09915340e-01, 1.41629055e-01 ]
      - [ 2.41919637e-01, 2.40165457e-01, 4.41661179e-01, 4.41661179e-01,
          4.41661179e-01, 4.41661179e-01, 2.78999776e-01, 5.34070563e-03,
          1.45794466e-01, 5.50330244e-02, 1.06741954e-02, 1.59729049e-02,
          1.12364106e-02, 6.01086438e-01, 6.01086438e-01, 4.63707924e-01,
          3.18257511e-02, 2.27654412e-01, 2.34545320e-01, 4.14814442e-01,
          8.98653418e-02, 2.51978725e-01, 6.46372497e-01, 5.00998139e-01,
          1.28529966e-01, 3.36077474e-02, 9.19200480e-02, 2.43434042e-01,
          7.89866298e-02, 1.72948867e-01, 5.51777601e-01, 5.52584350e-01,
          5.26480794e-01, 4.22687978e-02, 1.10045960e-02, 1.00864656e-01,
          1.39173418e-01, 3.97705846e-03, 1.21196462e-02, 2.81179976e-02,
          6.56561792e-01, 6.56561792e-01, 6.96025491e-02, 4.35996018e-02,
          3.22847098e-01, 2.47352377e-01, 5.25061786e-02, 2.50493139e-02,
          1.15948565e-01, 7.17598200e-01, 3.11494291e-01, 4.49404307e-02,
          8.48955885e-02, 5.41869521e-01, 1.77715331e-01, 1.30542070e-01,
          1.63764775e-01, 2.23195434e-01, 6.29069924e-01, 6.29069924e-01,
          1.86914369e-01, 1.34809583e-01, 1.54569328e-01, 6.62292987e-02,
          3.88849117e-02, 1.89162999e-01, 5.91564119e-01, 6.66232944e-01,
          3.11226100e-01, 1.71167806e-01, 9.25447121e-02, 1.52081028e-01,
          9.69871730e-02, 7.36851320e-02, 2.55483955e-01, 4.56042647e-01,
          5.77949941e-01, 4.06581581e-01, 3.98444802e-01, 1.39452457e-01,
          1.67996526e-01, 1.77715331e-01, 1.30542070e-01, 1.63764775e-01,
          2.23195434e-01, 6.29069924e-01, 6.29069924e-01, 1.86914369e-01,
          1.34809583e-01, 1.54569328e-01, 6.62292987e-02, 3.88849117e-02,
          1.89162999e-01, 5.91564119e-01, 6.66232944e-01, 3.11226100e-01,
          1.71167806e-01, 9.25447121e-02, 1.52081028e-01, 9.69871730e-02,
          7.36851320e-02, 2.55483955e-01, 4.56042647e-01, 5.77949941e-01,
          4.06581581e-01, 3.98444802e-01, 1.39452457e-01, 1.67996526e-01,
          3.23887676e-01, 1.10408612e-01, 8.91598016e-02, 2.69736290e-01,
          5.80767989e-01, 4.63984251e-01, 2.44089603e-01, 1.37241885e-01,
          4.06709462e-01, 2.62946635e-01, 1.72090605e-02, 1.49915656e-02,
          2.18255490e-01, 5.25203347e-01, 5.25203347e-01, 2.78570712e-01,
          1.41456321e-01, 4.77670401e-01, 5.33088923e-01, 1.21081555e-02,
          2.64638569e-02, 3.96572053e-01, 5.33088923e-01, 2.71588087e-01,
          1.44824907e-01, 4.24363650e-02, 4.14315164e-01, 6.96894765e-01,
          9.68142077e-02, 1.22291744e-02, 0., 2.52742302e-02,
          5.46760671e-02, 6.08006418e-02, 6.97942749e-02, 6.96894765e-01,
          7.01250792e-01, 7.17584696e-03, 3.76563449e-03, 3.52009549e-03,
          1.97877698e-02, 8.10097381e-02, 4.83460389e-02, 1.11777671e-02,
          7.01250792e-01, 7.03025043e-01, 1.00047456e-03, 1.34328881e-03,
          3.06862220e-03, 6.06393702e-02, 2.79347803e-02, 4.39976854e-03,
          2.15502223e-03, 7.03025043e-01, 2.34545320e-01, 4.14814442e-01,
          8.98653418e-02, 2.51978725e-01, 6.46372497e-01, 5.00998139e-01,
          1.28529966e-01, 3.36077474e-02, 9.19200480e-02, 2.53438383e-01,
          1.30396202e-01, 1.07603157e-02, 2.60483712e-01, 6.37407482e-01,
          6.37407482e-01, 5.25433235e-02, 1.50151461e-01, 8.09403360e-02,
          6.17360929e-03, 2.02346742e-02, 7.78860785e-03, 4.45926040e-01,
          4.45926040e-01, 4.45926040e-01, 4.45926040e-01, 4.45926040e-01,
          2.80600991e-02, 2.47352377e-01, 5.25061786e-02, 2.50493139e-02,
          1.15948565e-01, 7.17598200e-01, 3.11494291e-01, 4.49404307e-02,
          8.48955885e-02, 5.41869521e-01, 2.60048747e-01, 2.02877045e-01,
          9.54654366e-02, 1.13661394e-01, 4.54798430e-01, 4.33639973e-01,
          4.54798430e-01, 4.54798430e-01, 2.36794591e-01, 2.14696042e-02,
          9.57430378e-02, 4.30200160e-01, 4.30200160e-01, 4.30200160e-01,
          2.45522991e-01, 4.30200160e-01, 4.30200160e-01, 2.07994208e-02,
          9.69871730e-02, 7.36851320e-02, 2.55483955e-01, 4.56042647e-01,
          5.77949941e-01, 4.06581581e-01, 3.98444802e-01, 1.39452457e-01,
          1.67996526e-01, 2.04389840e-02, 9.47972238e-02, 5.44197738e-01,
          2.38288119e-01, 3.09806596e-02, 6.43212870e-02, 5.59736788e-01,
          5.59736788e-01, 1.91348065e-02, 1.09031412e-03, 2.98771858e-01,
          5.43428004e-01, 1.14719696e-01, 6.74825013e-02, 8.66626855e-03,
          5.43428004e-01, 5.43428004e-01, 3.96955609e-02, 9.69871730e-02,
          7.36851320e-02, 2.55483955e-01, 4.56042647e-01, 5.77949941e-01,
          4.06581581e-01, 3.98444802e-01, 1.39452457e-01, 1.67996526e-01,
          2.04389840e-02, 9.47972238e-02, 5.44197738e-01, 2.38288119e-01,
          3.09806596e-02, 6.43212870e-02, 5.59736788e-01, 5.59736788e-01,
          1.91348065e-02, 1.09031412e-03, 2.98771858e-01, 5.43428004e-01,
          1.14719696e-01, 6.74825013e-02, 8.66626855e-03, 5.43428004e-01,
          5.43428004e-01, 3.96955609e-02, 5.33088923e-01, 1.21081555e-02,
          2.64638569e-02, 3.96572053e-01, 5.33088923e-01, 2.71588087e-01,
          1.44824907e-01, 4.24363650e-02, 4.14315164e-01, 4.42650706e-01,
          3.72954533e-02, 3.95137906e-01, 2.35735208e-01, 2.89344966e-01,
          1.45199075e-01, 4.42650706e-01, 4.42650706e-01, 2.99766839e-01,
          4.11273956e-01, 4.11273956e-01, 4.11273956e-01, 3.08923945e-02,
          1.34004150e-02, 1.57292485e-02, 4.11273956e-01, 4.11273956e-01,
          3.85718644e-01, 7.03025043e-01, 1.00047456e-03, 1.34328881e-03,
          3.06862220e-03, 6.06393702e-02, 2.79347803e-02, 4.39976854e-03,
          2.15502223e-03, 7.03025043e-01, 6.98742867e-01, 7.46847829e-03,
          8.65712482e-03, 1.03729060e-02, 3.60898077e-02, 1.71445385e-02,
          7.85767436e-02, 9.23722610e-02, 6.98742867e-01, 4.91471916e-01,
          4.91471916e-01, 4.25312445e-02, 5.96821532e-02, 7.49188215e-02,
          1.25937447e-01, 2.97875673e-01, 3.93552333e-01, 4.91471916e-01 ]
      - [ 3.65378112e-01, 3.65378112e-01, 3.65378112e-01, 3.65378112e-01,
          2.86025643e-01, 3.65378112e-01, 2.13869408e-01, 2.60368735e-01,
          3.65378112e-01, 3.63887876e-01, 3.63887876e-01, 3.63887876e-01,
          3.63887876e-01, 2.69747406e-01, 3.63887876e-01, 3.63887876e-01,
          3.25572938e-01, 1.52042285e-01, 4.55895483e-01, 2.43795395e-01,
          4.55895483e-01, 4.55895483e-01, 1.07376613e-01, 1.77651823e-01,
          2.37509191e-01, 7.17399493e-02, 4.55895483e-01, 3.34805012e-01,
          4.57324356e-01, 4.57324356e-01, 2.05810368e-01, 2.82337386e-02,
          2.44070869e-02, 5.48129752e-02, 4.57324356e-01, 4.57324356e-01,
          2.69697774e-02, 1.72715619e-01, 4.20313329e-01, 4.20313329e-01,
          2.40901276e-01, 1.54575258e-01, 4.20313329e-01, 4.20313329e-01,
          4.20313329e-01, 3.78719270e-02, 4.94973779e-01, 5.67026079e-01,
          5.67026079e-01, 1.20458148e-01, 4.34529632e-02, 1.57320485e-01,
          2.29557902e-01, 1.04987741e-01, 4.65169437e-02, 5.93674600e-01,
          5.93674600e-01, 4.71445918e-01, 7.53528671e-03, 2.07547732e-02,
          1.31671533e-01, 2.00317442e-01, 8.24380293e-02, 2.39046812e-02,
          7.16347098e-02, 2.76646256e-01, 1.25624254e-01, 4.16225456e-02,
          7.67305046e-02, 6.32722795e-01, 6.32722795e-01, 2.95582324e-01,
          3.08874011e-01, 3.36236209e-02, 4.01273221e-01, 4.01273221e-01,
          2.98937708e-01, 7.06596226e-02, 4.01273221e-01, 4.01273221e-01,
          4.01273221e-01, 4.65169437e-02, 5.93674600e-01, 5.93674600e-01,
          4.71445918e-01, 7.53528671e-03, 2.07547732e-02, 1.31671533e-01,
          2.00317442e-01, 8.24380293e-02, 2.39046812e-02, 7.16347098e-02,
          2.76646256e-01, 1.25624254e-01, 4.16225456e-02, 7.67305046e-02,
          6.32722795e-01, 6.32722795e-01, 2.95582324e-01, 3.08874011e-01,
          3.36236209e-02, 4.01273221e-01, 4.01273221e-01, 2.98937708e-01,
          7.06596226e-02, 4.01273221e-01, 4.01273221e-01, 4.01273221e-01,
          2.66021565e-02, 1.30953550e-01, 5.52037656e-01, 5.52037656e-01,
          6.74320804e-03, 7.47524714e-03, 1.26695558e-01, 5.52037656e-01,
          2.15036735e-01, 1.06525183e-01, 3.19371223e-02, 4.42359686e-01,
          4.42359686e-01, 5.93216345e-02, 3.58350016e-02, 4.42359686e-01,
          4.42359686e-01, 4.42359686e-01, 5.25942266e-01, 2.16472638e-03,
          1.12448156e-01, 2.84429163e-01, 2.39705741e-01, 5.08786663e-02,
          1.06324680e-01, 5.25942266e-01, 5.25942266e-01, 7.03419596e-02,
          5.39624318e-02, 3.40888947e-01, 5.20540178e-01, 1.06895445e-02,
          3.28849256e-02, 2.38021746e-01, 5.20540178e-01, 5.20540178e-01,
          2.58336905e-02, 8.73937551e-03, 1.53738588e-01, 5.84059715e-01,
          4.57612783e-01, 2.04483997e-02, 2.59689204e-02, 4.23090160e-01,
          4.89035487e-01, 2.13322937e-01, 8.08109064e-03, 1.30957970e-02,
          6.08308673e-01, 6.08308673e-01, 6.15077727e-02, 1.09951906e-02,
          1.19287759e-01, 4.35855776e-01, 4.55895483e-01, 2.43795395e-01,
          4.55895483e-01, 4.55895483e-01, 1.07376613e-01, 1.77651823e-01,
          2.37509191e-01, 7.17399493e-02, 4.55895483e-01, 2.90350020e-01,
          4.22517508e-02, 6.19706325e-02, 6.10021800e-02, 3.17349359e-02,
          1.51755922e-02, 2.75820736e-02, 5.93120933e-01, 7.38369405e-01,
          1.60254166e-01, 8.97848420e-03, 1.06212385e-01, 5.63248694e-01,
          5.99952564e-02, 2.38842727e-03, 4.44952324e-02, 5.63248694e-01,
          5.63248694e-01, 3.78719270e-02, 4.94973779e-01, 5.67026079e-01,
          5.67026079e-01, 1.20458148e-01, 4.34529632e-02, 1.57320485e-01,
          2.29557902e-01, 1.04987741e-01, 1.78611681e-01, 2.10001662e-01,
          3.31173271e-01, 6.13940418e-01, 4.19387221e-01, 7.60752782e-02,
          1.47584453e-01, 2.29474664e-01, 4.18516129e-01, 4.27619629e-02,
          5.49894571e-02, 1.34357125e-01, 1.26039520e-01, 6.10453971e-02,
          5.87259978e-02, 2.07267687e-01, 6.72443867e-01, 6.72443867e-01,
          3.08874011e-01, 3.36236209e-02, 4.01273221e-01, 4.01273221e-01,
          2.98937708e-01, 7.06596226e-02, 4.01273221e-01, 4.01273221e-01,
          4.01273221e-01, 1.57597199e-01, 2.26579010e-02, 9.85655263e-02,
          6.66849971e-01, 6.66849971e-01, 1.15778469e-01, 1.18730851e-01,
          1.27991885e-01, 1.58164516e-01, 4.62691709e-02, 4.79495488e-02,
          1.25850931e-01, 6.65358722e-01, 6.65358722e-01, 1.91833839e-01,
          1.06731236e-01, 1.82011902e-01, 7.97157064e-02, 3.08874011e-01,
          3.36236209e-02, 4.01273221e-01, 4.01273221e-01, 2.98937708e-01,
          7.06596226e-02, 4.01273221e-01, 4.01273221e-01, 4.01273221e-01,
          1.57597199e-01, 2.26579010e-02, 9.85655263e-02, 6.66849971e-01,
          6.66849971e-01, 1.15778469e-01, 1.18730851e-01, 1.27991885e-01,
          1.58164516e-01, 4.62691709e-02, 4.79495488e-02, 1.25850931e-01,
          6.65358722e-01, 6.65358722e-01, 1.91833839e-01, 1.06731236e-01,
          1.82011902e-01, 7.97157064e-02, 5.25942266e-01, 2.16472638e-03,
          1.12448156e-01, 2.84429163e-01, 2.39705741e-01, 5.08786663e-02,
          1.06324680e-01, 5.25942266e-01, 5.25942266e-01, 5.11801660e-01,
          3.95237394e-02, 3.09930053e-02, 5.11801660e-01, 3.54091048e-01,
          8.33020806e-02, 2.17603296e-02, 2.71569133e-01, 5.11801660e-01,
          4.01197642e-01, 2.34844297e-01, 3.36307734e-01, 4.01197642e-01,
          4.01197642e-01, 1.48350805e-01, 3.05215921e-02, 4.01197642e-01,
          4.01197642e-01, 2.13322937e-01, 8.08109064e-03, 1.30957970e-02,
          6.08308673e-01, 6.08308673e-01, 6.15077727e-02, 1.09951906e-02,
          1.19287759e-01, 4.35855776e-01, 2.25126386e-01, 3.55420522e-02,
          9.17329546e-03, 1.47350177e-01, 5.48199356e-01, 5.48199356e-01,
          4.40354832e-02, 1.88665196e-01, 5.31230152e-01, 2.38418967e-01,
          9.96268019e-02, 6.24080412e-02, 1.25307068e-01, 4.60348368e-01,
          4.60348368e-01, 2.47696757e-01, 4.60348368e-01, 4.60348368e-01 ]
      - [ 3.59697014e-01, 2.81176418e-01, 3.59697014e-01, 3.59697014e-01,
          3.59697014e-01, 1.08039767e-01, 3.59697014e-01, 3.59697014e-01,
          3.59697014e-01, 3.79533350e-01, 2.18424231e-01, 1.57360241e-01,
          3.79533350e-01, 3.79533350e-01, 3.79533350e-01, 3.79533350e-01,
          2.43851528e-01, 3.79533350e-01, 3.96252006e-01, 3.96252006e-01,
          3.40086818e-01, 3.96252006e-01, 3.96252006e-01, 3.96252006e-01,
          2.03264356e-01, 1.08195223e-01, 2.05624744e-01, 4.00654614e-01,
          1.66001379e-01, 2.45311826e-01, 2.65174061e-01, 4.00654614e-01,
          2.03960359e-01, 4.00654614e-01, 3.92746001e-01, 4.00654614e-01,
          3.59764427e-01, 1.89378873e-01, 2.54244477e-01, 3.59764427e-01,
          3.59764427e-01, 3.45425040e-01, 3.59764427e-01, 3.59764427e-01,
          3.59764427e-01, 3.79503369e-01, 3.79503369e-01, 3.79503369e-01,
          3.79503369e-01, 3.79503369e-01, 3.79503369e-01, 2.56945521e-01,
          1.48175463e-01, 2.09987536e-01, 3.70696217e-01, 8.88804570e-02,
          2.70160854e-01, 4.37468588e-01, 4.37468588e-01, 4.37468588e-01,
          3.31361890e-01, 1.00128107e-01, 2.88730323e-01, 3.63321483e-01,
          2.14100167e-01, 3.63321483e-01, 3.63321483e-01, 3.63321483e-01,
          3.63321483e-01, 3.63321483e-01, 2.22603157e-01, 3.30097169e-01,
          3.82375091e-01, 3.82375091e-01, 3.82375091e-01, 3.82375091e-01,
          3.82375091e-01, 3.82375091e-01, 2.61701554e-01, 1.00524500e-01,
          2.00805321e-01, 3.70696217e-01, 8.88804570e-02, 2.70160854e-01,
          4.37468588e-01, 4.37468588e-01, 4.37468588e-01, 3.31361890e-01,
          1.00128107e-01, 2.88730323e-01, 3.63321483e-01, 2.14100167e-01,
          3.63321483e-01, 3.63321483e-01, 3.63321483e-01, 3.63321483e-01,
          3.63321483e-01, 2.22603157e-01, 3.30097169e-01, 3.82375091e-01,
          3.82375091e-01, 3.82375091e-01, 3.82375091e-01, 3.82375091e-01,
          3.82375091e-01, 2.61701554e-01, 1.00524500e-01, 2.00805321e-01,
          3.59314948e-01, 3.59314948e-01, 2.77828068e-01, 3.59314948e-01,
          3.59314948e-01, 1.24383017e-01, 3.59314948e-01, 3.59314948e-01,
          3.59314948e-01, 3.36228758e-01, 3.36228758e-01, 3.36228758e-01,
          3.03714395e-01, 3.36228758e-01, 3.36228758e-01, 3.36228758e-01,
          3.36228758e-01, 3.36228758e-01, 3.78437489e-01, 3.78437489e-01,
          3.78437489e-01, 3.78437489e-01, 3.78437489e-01, 3.78437489e-01,
          2.03230262e-01, 1.13754451e-01, 2.87553430e-01, 3.87184352e-01,
          1.59342885e-01, 3.87184352e-01, 3.87184352e-01, 3.87184352e-01,
          1.48043022e-01, 3.87184352e-01, 2.22159564e-01, 3.87184352e-01,
          3.18515688e-01, 2.59305120e-01, 3.43900442e-01, 3.43900442e-01,
          3.43900442e-01, 3.43900442e-01, 3.43900442e-01, 3.43900442e-01,
          3.43900442e-01, 3.83874834e-01, 3.83874834e-01, 3.83874834e-01,
          3.83874834e-01, 3.83874834e-01, 2.97419488e-01, 1.19696945e-01,
          9.60208699e-02, 3.83874834e-01, 3.96252006e-01, 3.96252006e-01,
          3.40086818e-01, 3.96252006e-01, 3.96252006e-01, 3.96252006e-01,
          2.03264356e-01, 1.08195223e-01, 2.05624744e-01, 3.92168432e-01,
          3.92168432e-01, 3.92168432e-01, 2.97798187e-01, 3.92168432e-01,
          3.65442961e-01, 4.57552783e-02, 5.26873320e-02, 3.92168432e-01,
          4.24212456e-01, 1.03259757e-01, 2.24052314e-02, 2.68996507e-01,
          4.24212456e-01, 4.24212456e-01, 2.08809137e-01, 3.85762274e-01,
          4.24212456e-01, 3.79503369e-01, 3.79503369e-01, 3.79503369e-01,
          3.79503369e-01, 3.79503369e-01, 3.79503369e-01, 2.56945521e-01,
          1.48175463e-01, 2.09987536e-01, 4.29753274e-01, 3.62002909e-01,
          7.14583769e-02, 3.08348238e-01, 4.29753274e-01, 4.29753274e-01,
          8.34095553e-02, 1.36994585e-01, 4.29753274e-01, 3.56595457e-01,
          2.41536014e-02, 4.65465244e-03, 1.50884464e-01, 4.83138531e-01,
          4.83138531e-01, 1.94058076e-01, 3.26674014e-01, 4.83138531e-01,
          3.82375091e-01, 3.82375091e-01, 3.82375091e-01, 3.82375091e-01,
          3.82375091e-01, 3.82375091e-01, 2.61701554e-01, 1.00524500e-01,
          2.00805321e-01, 3.83470058e-01, 3.31713706e-01, 3.75344574e-01,
          3.83470058e-01, 3.83470058e-01, 3.83470058e-01, 2.32357487e-01,
          1.26448035e-01, 2.95085043e-01, 1.51055932e-01, 1.74725614e-02,
          4.96936776e-02, 1.36085391e-01, 4.36240882e-01, 4.36240882e-01,
          4.36240882e-01, 4.36240882e-01, 4.36240882e-01, 3.82375091e-01,
          3.82375091e-01, 3.82375091e-01, 3.82375091e-01, 3.82375091e-01,
          3.82375091e-01, 2.61701554e-01, 1.00524500e-01, 2.00805321e-01,
          3.83470058e-01, 3.31713706e-01, 3.75344574e-01, 3.83470058e-01,
          3.83470058e-01, 3.83470058e-01, 2.32357487e-01, 1.26448035e-01,
          2.95085043e-01, 1.51055932e-01, 1.74725614e-02, 4.96936776e-02,
          1.36085391e-01, 4.36240882e-01, 4.36240882e-01, 4.36240882e-01,
          4.36240882e-01, 4.36240882e-01, 3.78437489e-01, 3.78437489e-01,
          3.78437489e-01, 3.78437489e-01, 3.78437489e-01, 3.78437489e-01,
          2.03230262e-01, 1.13754451e-01, 2.87553430e-01, 3.85780901e-01,
          3.85780901e-01, 3.85780901e-01, 3.85780901e-01, 3.85780901e-01,
          3.85780901e-01, 7.01501518e-02, 1.23464726e-01, 2.88131803e-01,
          1.61303475e-01, 8.38972405e-02, 1.56743377e-01, 1.58068016e-01,
          3.67154092e-01, 4.41072673e-01, 4.41072673e-01, 4.41072673e-01,
          4.41072673e-01, 3.83874834e-01, 3.83874834e-01, 3.83874834e-01,
          3.83874834e-01, 3.83874834e-01, 2.97419488e-01, 1.19696945e-01,
          9.60208699e-02, 3.83874834e-01, 3.88871640e-01, 3.88871640e-01,
          3.88871640e-01, 2.05846071e-01, 3.88871640e-01, 3.88871640e-01,
          2.08031610e-01, 5.60206249e-02, 3.88871640e-01, 8.29581395e-02,
          3.16294916e-02, 1.22494087e-01, 2.81277716e-01, 4.69542265e-01,
          4.69542265e-01, 4.69542265e-01, 4.29809958e-01, 2.17161775e-01 ]
      - [ 5.44508994e-01, 5.44508994e-01, 1.01597607e-01, 2.01321691e-02,
          5.54824807e-02, 5.44508994e-01, 2.33816102e-01, 2.78875958e-02,
          1.89311653e-01, 3.25031936e-01, 4.86312449e-01, 4.86312449e-01,
          3.75137553e-02, 3.96352947e-01, 4.86312449e-01, 1.43547669e-01,
          2.77211722e-02, 1.09726964e-02, 3.92660826e-01, 3.92660826e-01,
          3.92660826e-01, 9.75729898e-02, 2.08376795e-01, 3.52907956e-01,
          3.92660826e-01, 3.46476793e-01, 2.86034286e-01, 4.89267200e-01,
          4.89267200e-01, 9.21101123e-02, 4.04229388e-02, 1.63749725e-01,
          4.89267200e-01, 4.89267200e-01, 2.27357280e-02, 1.15985097e-02,
          3.89005840e-02, 5.88742316e-01, 5.88742316e-01, 1.23049118e-01,
          1.41474783e-01, 5.04619896e-01, 9.76157710e-02, 6.78581232e-03,
          7.51637330e-04, 0., 5.44857800e-01, 5.44857800e-01,
          2.59622522e-02, 4.91637923e-03, 7.09359627e-03, 5.44857800e-01,
          3.21248114e-01, 0., 2.90091097e-01, 2.76019335e-01,
          2.29922771e-01, 9.94800776e-02, 3.49429280e-01, 4.66039956e-01,
          4.66039956e-01, 4.26992893e-01, 1.82851076e-01, 3.92176986e-01,
          5.07974327e-01, 5.07974327e-01, 7.77913556e-02, 6.95544034e-02,
          3.17241810e-02, 3.14252861e-02, 2.32651681e-01, 5.07974327e-01,
          3.01315673e-02, 5.46801388e-01, 5.46801388e-01, 1.48995537e-02,
          2.59149773e-03, 1.32600190e-02, 5.46801388e-01, 3.04692805e-01,
          5.84299564e-02, 2.90091097e-01, 2.76019335e-01, 2.29922771e-01,
          9.94800776e-02, 3.49429280e-01, 4.66039956e-01, 4.66039956e-01,
          4.26992893e-01, 1.82851076e-01, 3.92176986e-01, 5.07974327e-01,
          5.07974327e-01, 7.77913556e-02, 6.95544034e-02, 3.17241810e-02,
          3.14252861e-02, 2.32651681e-01, 5.07974327e-01, 3.01315673e-02,
          5.46801388e-01, 5.46801388e-01, 1.48995537e-02, 2.59149773e-03,
          1.32600190e-02, 5.46801388e-01, 3.04692805e-01, 5.84299564e-02,
          8.59140083e-02, 3.99328232e-01, 4.60854858e-01, 6.99905604e-02,
          2.67411292e-01, 8.86563286e-02, 4.60854858e-01, 4.60854858e-01,
          3.27297211e-01, 2.39330679e-01, 4.99144465e-01, 4.99144465e-01,
          1.42192885e-01, 1.53960753e-02, 4.53071389e-03, 7.82376062e-03,
          4.12022412e-01, 4.99144465e-01, 2.96742320e-01, 4.57560778e-01,
          4.57560778e-01, 4.78360504e-02, 2.56580114e-02, 2.23439075e-02,
          2.76542932e-01, 4.46504325e-01, 4.57560778e-01, 1.14922896e-01,
          1.16542146e-01, 4.45073485e-01, 4.63779360e-01, 2.77209252e-01,
          6.38022050e-02, 2.10471168e-01, 4.63779360e-01, 4.63779360e-01,
          6.33580089e-02, 2.81058073e-01, 6.39010549e-01, 6.39010549e-01,
          2.30594084e-01, 4.83685695e-02, 1.95376202e-02, 8.09357464e-02,
          1.77476645e-01, 1.00095086e-01, 6.09053969e-02, 2.58832604e-01,
          5.61686277e-01, 4.22386974e-01, 5.61686277e-01, 2.74031162e-01,
          3.57517265e-02, 1.67043015e-01, 3.92660826e-01, 3.92660826e-01,
          3.92660826e-01, 9.75729898e-02, 2.08376795e-01, 3.52907956e-01,
          3.92660826e-01, 3.46476793e-01, 2.86034286e-01, 2.52034217e-01,
          1.87339187e-02, 4.60145175e-02, 1.93500713e-01, 4.22589540e-01,
          9.98990610e-02, 5.58870137e-01, 5.58870137e-01, 2.78843343e-01,
          5.64455101e-03, 1.81176346e-02, 2.92569995e-01, 5.03044784e-01,
          5.03044784e-01, 2.18019247e-01, 1.68797135e-01, 5.03044784e-01,
          2.71719694e-01, 0., 5.44857800e-01, 5.44857800e-01,
          2.59622522e-02, 4.91637923e-03, 7.09359627e-03, 5.44857800e-01,
          3.21248114e-01, 0., 1.14048868e-02, 5.36950305e-02,
          1.30761832e-01, 1.84584539e-02, 7.93173816e-03, 7.33256945e-03,
          6.97229445e-01, 6.97229445e-01, 1.45867486e-02, 9.81347337e-02,
          2.28076145e-01, 3.96793008e-01, 3.52901399e-01, 2.26142943e-01,
          4.56353515e-01, 4.56353515e-01, 2.89712310e-01, 3.16571295e-01,
          3.01315673e-02, 5.46801388e-01, 5.46801388e-01, 1.48995537e-02,
          2.59149773e-03, 1.32600190e-02, 5.46801388e-01, 3.04692805e-01,
          5.84299564e-02, 4.76779610e-01, 4.96557534e-01, 6.57269210e-02,
          8.36790167e-03, 4.33059083e-03, 8.27998016e-03, 4.96557534e-01,
          4.96557534e-01, 1.53415710e-01, 4.64069903e-01, 4.47478205e-01,
          5.54195382e-02, 2.77308729e-02, 2.72806380e-02, 8.77733603e-02,
          4.64069903e-01, 4.64069903e-01, 3.69806230e-01, 3.01315673e-02,
          5.46801388e-01, 5.46801388e-01, 1.48995537e-02, 2.59149773e-03,
          1.32600190e-02, 5.46801388e-01, 3.04692805e-01, 5.84299564e-02,
          4.76779610e-01, 4.96557534e-01, 6.57269210e-02, 8.36790167e-03,
          4.33059083e-03, 8.27998016e-03, 4.96557534e-01, 4.96557534e-01,
          1.53415710e-01, 4.64069903e-01, 4.47478205e-01, 5.54195382e-02,
          2.77308729e-02, 2.72806380e-02, 8.77733603e-02, 4.64069903e-01,
          4.64069903e-01, 3.69806230e-01, 2.96742320e-01, 4.57560778e-01,
          4.57560778e-01, 4.78360504e-02, 2.56580114e-02, 2.23439075e-02,
          2.76542932e-01, 4.46504325e-01, 4.57560778e-01, 4.14705276e-01,
          4.14705276e-01, 9.85922515e-02, 1.43947061e-02, 1.55572090e-02,
          4.14705276e-01, 4.14705276e-01, 4.14705276e-01, 3.54662120e-01,
          2.32031807e-01, 4.85967249e-01, 1.28267020e-01, 1.54932560e-02,
          3.71130332e-02, 4.61269379e-01, 4.85967249e-01, 4.85967249e-01,
          4.44495641e-02, 1.00095086e-01, 6.09053969e-02, 2.58832604e-01,
          5.61686277e-01, 4.22386974e-01, 5.61686277e-01, 2.74031162e-01,
          3.57517265e-02, 1.67043015e-01, 2.14779153e-01, 1.74449727e-01,
          1.67684834e-02, 1.05257891e-01, 7.98292607e-02, 6.67794645e-01,
          6.67794645e-01, 7.27398694e-02, 4.29764353e-02, 4.83602345e-01,
          4.83602345e-01, 8.87139738e-02, 4.91125807e-02, 1.61053270e-01,
          4.83602345e-01, 4.83602345e-01, 1.39718369e-01, 6.27960414e-02 ]
      - [ 1.62477061e-01, 4.83634144e-01, 4.83634144e-01, 3.63842584e-02,
          2.77522597e-02, 1.34811725e-03, 4.83634144e-01, 4.83634144e-01,
          1.76258475e-01, 4.24156338e-01, 4.24156338e-01, 4.24156338e-01,
          4.24156338e-01, 3.09291601e-01, 1.65738594e-02, 6.07118290e-03,
          1.57205965e-02, 4.24156338e-01, 3.14317614e-01, 2.95447409e-01,
          4.18936670e-01, 4.85149533e-01, 4.85149533e-01, 2.49893934e-01,
          8.26020688e-02, 1.68335333e-01, 2.55371869e-01, 1.83765501e-01,
          5.32649696e-01, 5.32649696e-01, 2.63725668e-02, 1.25473309e-02,
          8.65597799e-02, 5.32649696e-01, 2.25723103e-01, 2.24648640e-01,
          5.41800380e-01, 5.41800380e-01, 3.35061222e-01, 3.03290058e-02,
          1.36192646e-02, 2.91993096e-03, 3.11288750e-03, 2.36001499e-02,
          5.41800380e-01, 6.52560472e-01, 4.78672571e-02, 9.26469117e-02,
          1.38956651e-01, 1.24991052e-01, 5.11165895e-02, 4.76335958e-02,
          3.01871449e-01, 6.52560472e-01, 2.84695420e-02, 5.96936166e-01,
          5.96936166e-01, 1.57218814e-01, 5.49451709e-02, 1.34646401e-01,
          4.77651358e-01, 7.75561705e-02, 2.30509024e-02, 4.11393225e-01,
          4.11393225e-01, 4.11393225e-01, 3.86352181e-01, 4.11393225e-01,
          2.00099368e-02, 0., 0., 4.11393225e-01, 5.36038280e-01,
          3.31086963e-02, 3.95627739e-03, 3.62655163e-01, 5.36038280e-01,
          2.27216026e-03, 0., 0., 5.36038280e-01, 2.84695420e-02,
          5.96936166e-01, 5.96936166e-01, 1.57218814e-01, 5.49451709e-02,
          1.34646401e-01, 4.77651358e-01, 7.75561705e-02, 2.30509024e-02,
          4.11393225e-01, 4.11393225e-01, 4.11393225e-01, 3.86352181e-01,
          4.11393225e-01, 2.00099368e-02, 0., 0., 4.11393225e-01,
          5.36038280e-01, 3.31086963e-02, 3.95627739e-03, 3.62655163e-01,
          5.36038280e-01, 2.27216026e-03, 0., 0., 5.36038280e-01,
          4.45098132e-01, 4.45098132e-01, 4.45098132e-01, 3.41459632e-01,
          1.45228073e-01, 1.49004743e-01, 9.30062309e-02, 1.85919598e-01,
          4.45098132e-01, 2.99304783e-01, 8.23464692e-02, 4.71509069e-01,
          4.72644180e-01, 5.35618246e-01, 2.23738164e-01, 0.,
          1.49606578e-02, 3.39711428e-01, 3.28435838e-01, 4.12177108e-02,
          5.15701249e-02, 6.42453909e-01, 6.42453909e-01, 9.71616153e-03,
          0., 1.45694369e-03, 2.36149937e-01, 5.74711144e-01,
          2.30102077e-01, 1.01159886e-01, 9.45999548e-02, 4.30332452e-01,
          1.00046188e-01, 4.61247675e-02, 2.53423005e-01, 5.74711144e-01,
          5.64526618e-01, 7.05607384e-02, 2.89883576e-02, 1.19283803e-01,
          5.64526618e-01, 1.33034781e-01, 0., 2.33620089e-02,
          5.64526618e-01, 5.74501991e-01, 5.48041388e-02, 1.45696014e-01,
          3.58691543e-01, 4.13439840e-01, 7.36142918e-02, 2.37854030e-02,
          6.59578145e-02, 5.74501991e-01, 3.14317614e-01, 2.95447409e-01,
          4.18936670e-01, 4.85149533e-01, 4.85149533e-01, 2.49893934e-01,
          8.26020688e-02, 1.68335333e-01, 2.55371869e-01, 3.82057071e-01,
          4.18548360e-02, 2.16469258e-01, 5.13362348e-01, 5.13362348e-01,
          4.69490103e-02, 6.39557764e-02, 5.81144094e-02, 5.13362348e-01,
          4.78806734e-01, 5.83612472e-02, 8.06177482e-02, 4.78806734e-01,
          4.78806734e-01, 9.49380100e-02, 1.23522557e-01, 2.09804356e-01,
          4.78806734e-01, 6.52560472e-01, 4.78672571e-02, 9.26469117e-02,
          1.38956651e-01, 1.24991052e-01, 5.11165895e-02, 4.76335958e-02,
          3.01871449e-01, 6.52560472e-01, 5.29858053e-01, 9.15248990e-02,
          2.03700379e-01, 5.29858053e-01, 2.99325943e-01, 2.71829311e-03,
          2.94912583e-03, 1.13917299e-01, 5.29858053e-01, 1.29024073e-01,
          8.48143175e-03, 3.27349938e-02, 4.89720106e-01, 4.89720106e-01,
          1.13114081e-01, 7.22498372e-02, 4.89720106e-01, 4.89720106e-01,
          5.36038280e-01, 3.31086963e-02, 3.95627739e-03, 3.62655163e-01,
          5.36038280e-01, 2.27216026e-03, 0., 0., 5.36038280e-01,
          5.47323942e-01, 6.26009132e-04, 0., 1.50762931e-01,
          5.47323942e-01, 4.07402478e-02, 5.72159095e-03, 2.67247856e-01,
          5.47323942e-01, 4.40180004e-01, 1.28656793e-02, 7.41488580e-03,
          8.50294679e-02, 1.92323118e-01, 3.50218490e-02, 4.70726937e-02,
          6.13285005e-01, 6.13285005e-01, 5.36038280e-01, 3.31086963e-02,
          3.95627739e-03, 3.62655163e-01, 5.36038280e-01, 2.27216026e-03,
          0., 0., 5.36038280e-01, 5.47323942e-01, 6.26009132e-04, 0.,
          1.50762931e-01, 5.47323942e-01, 4.07402478e-02, 5.72159095e-03,
          2.67247856e-01, 5.47323942e-01, 4.40180004e-01, 1.28656793e-02,
          7.41488580e-03, 8.50294679e-02, 1.92323118e-01, 3.50218490e-02,
          4.70726937e-02, 6.13285005e-01, 6.13285005e-01, 3.28435838e-01,
          4.12177108e-02, 5.15701249e-02, 6.42453909e-01, 6.42453909e-01,
          9.71616153e-03, 0., 1.45694369e-03, 2.36149937e-01,
          1.15345940e-01, 1.11753093e-02, 2.82307807e-02, 6.87168241e-01,
          6.87168241e-01, 2.32526790e-02, 5.01128845e-03, 7.88458213e-02,
          1.66525647e-01, 1.01422131e-01, 2.94849016e-02, 9.20892283e-02,
          6.58405960e-01, 6.58405960e-01, 1.00290224e-01, 1.02198690e-01,
          1.49225414e-01, 2.53027171e-01, 5.74501991e-01, 5.48041388e-02,
          1.45696014e-01, 3.58691543e-01, 4.13439840e-01, 7.36142918e-02,
          2.37854030e-02, 6.59578145e-02, 5.74501991e-01, 4.54836667e-01,
          1.40875410e-02, 4.55876030e-02, 4.50589448e-01, 3.25550109e-01,
          4.01852168e-02, 2.48841792e-01, 4.54836667e-01, 4.54836667e-01,
          1.00938104e-01, 0., 3.71188787e-03, 4.92414862e-01,
          4.92414862e-01, 2.21602768e-01, 7.21435845e-02, 4.50721830e-01,
          4.92414862e-01 ]
      - [ 4.00500625e-01, 1.09506689e-01, 6.17976971e-02, 2.16820464e-02,
          5.13327360e-01, 5.13327360e-01, 5.13327360e-01, 6.36813939e-02,
          1.53693259e-01, 4.35982347e-01, 4.93941069e-01, 1.31196469e-01,
          2.02654958e-01, 4.93941069e-01, 4.93941069e-01, 5.04208989e-02,
          8.18916783e-03, 1.10280529e-01, 4.80003655e-01, 2.28209078e-01,
          1.09335758e-01, 4.80003655e-01, 4.80003655e-01, 2.37088293e-01,
          4.73593920e-03, 5.75508131e-03, 4.28596675e-01, 1.68490306e-01,
          4.38980311e-01, 4.38980311e-01, 1.82321981e-01, 3.78881335e-01,
          4.38980311e-01, 4.38980311e-01, 1.19782791e-01, 7.26015642e-02,
          3.77378911e-01, 3.77378911e-01, 3.77378911e-01, 3.77378911e-01,
          3.22661638e-01, 2.29154393e-01, 1.24872841e-01, 3.77378911e-01,
          3.34574431e-01, 4.52336609e-01, 4.52336609e-01, 4.52336609e-01,
          4.52336609e-01, 2.89853722e-01, 1.16413787e-01, 3.21047679e-02,
          8.50697383e-02, 2.66858101e-01, 2.33893797e-01, 3.91091436e-01,
          3.91091436e-01, 3.91091436e-01, 8.68011713e-02, 3.91091436e-01,
          3.91091436e-01, 3.64332229e-01, 1.90661147e-01, 3.85452002e-01,
          3.85452002e-01, 3.85452002e-01, 3.71189415e-01, 2.48330563e-01,
          1.98741302e-01, 1.94054589e-01, 3.53908598e-01, 3.85452002e-01,
          3.67093712e-01, 3.67093712e-01, 3.67093712e-01, 3.67093712e-01,
          3.67093712e-01, 3.67093712e-01, 1.29702687e-01, 1.90276608e-01,
          3.67093712e-01, 2.33893797e-01, 3.91091436e-01, 3.91091436e-01,
          3.91091436e-01, 8.68011713e-02, 3.91091436e-01, 3.91091436e-01,
          3.64332229e-01, 1.90661147e-01, 3.85452002e-01, 3.85452002e-01,
          3.85452002e-01, 3.71189415e-01, 2.48330563e-01, 1.98741302e-01,
          1.94054589e-01, 3.53908598e-01, 3.85452002e-01, 3.67093712e-01,
          3.67093712e-01, 3.67093712e-01, 3.67093712e-01, 3.67093712e-01,
          3.67093712e-01, 1.29702687e-01, 1.90276608e-01, 3.67093712e-01,
          7.68496320e-02, 4.85534489e-01, 4.85534489e-01, 4.85534489e-01,
          9.77073982e-02, 2.17576161e-01, 3.53362620e-01, 2.93565571e-01,
          1.18665487e-01, 7.73019046e-02, 3.95159185e-01, 3.95159185e-01,
          3.95159185e-01, 3.95159185e-01, 3.03081751e-01, 3.95159185e-01,
          3.34347427e-01, 7.53390789e-02, 4.12217826e-01, 1.94089681e-01,
          2.96422303e-01, 4.12217826e-01, 4.12217826e-01, 3.17948371e-01,
          2.27162004e-01, 1.94825917e-01, 4.12217826e-01, 4.05521303e-01,
          4.05521303e-01, 4.05521303e-01, 1.96800202e-01, 1.28480792e-01,
          2.22567216e-01, 2.62559623e-01, 4.05521303e-01, 4.05521303e-01,
          2.49304116e-01, 4.45833832e-01, 4.45833832e-01, 2.73224920e-01,
          1.25642359e-01, 1.46268234e-01, 4.45833832e-01, 4.34611976e-01,
          1.90711707e-01, 4.31144714e-01, 1.66973233e-01, 1.63912982e-01,
          4.31144714e-01, 4.31144714e-01, 9.33403373e-02, 3.85615289e-01,
          1.99977651e-01, 4.31144714e-01, 4.80003655e-01, 2.28209078e-01,
          1.09335758e-01, 4.80003655e-01, 4.80003655e-01, 2.37088293e-01,
          4.73593920e-03, 5.75508131e-03, 4.28596675e-01, 3.99092704e-01,
          3.43474448e-02, 2.30870932e-01, 3.25079769e-01, 3.99092704e-01,
          3.99092704e-01, 3.99092704e-01, 1.98696569e-01, 3.99092704e-01,
          1.21820427e-01, 4.14720029e-01, 4.53315407e-01, 4.53315407e-01,
          4.53315407e-01, 3.75253469e-01, 2.07158595e-01, 8.07405338e-02,
          4.36546206e-02, 4.52336609e-01, 4.52336609e-01, 4.52336609e-01,
          4.52336609e-01, 2.89853722e-01, 1.16413787e-01, 3.21047679e-02,
          8.50697383e-02, 2.66858101e-01, 2.30623737e-01, 2.06159890e-01,
          2.13000268e-01, 1.58002496e-01, 2.70293176e-01, 4.34906334e-01,
          4.34906334e-01, 4.34906334e-01, 4.34906334e-01, 2.18864337e-01,
          3.75562638e-01, 3.75562638e-01, 3.75562638e-01, 3.24720502e-01,
          3.75562638e-01, 3.21448803e-01, 3.11131597e-01, 2.80324370e-01,
          3.67093712e-01, 3.67093712e-01, 3.67093712e-01, 3.67093712e-01,
          3.67093712e-01, 3.67093712e-01, 1.29702687e-01, 1.90276608e-01,
          3.67093712e-01, 1.76797152e-01, 7.93902799e-02, 9.37692225e-02,
          2.60321498e-01, 4.21808720e-01, 4.21808720e-01, 4.21808720e-01,
          4.12281156e-01, 4.21808720e-01, 2.02218205e-01, 4.01422411e-01,
          4.01422411e-01, 4.01422411e-01, 2.45728344e-01, 4.01422411e-01,
          4.01422411e-01, 2.10200191e-01, 2.11734116e-01, 3.67093712e-01,
          3.67093712e-01, 3.67093712e-01, 3.67093712e-01, 3.67093712e-01,
          3.67093712e-01, 1.29702687e-01, 1.90276608e-01, 3.67093712e-01,
          1.76797152e-01, 7.93902799e-02, 9.37692225e-02, 2.60321498e-01,
          4.21808720e-01, 4.21808720e-01, 4.21808720e-01, 4.12281156e-01,
          4.21808720e-01, 2.02218205e-01, 4.01422411e-01, 4.01422411e-01,
          4.01422411e-01, 2.45728344e-01, 4.01422411e-01, 4.01422411e-01,
          2.10200191e-01, 2.11734116e-01, 4.12217826e-01, 1.94089681e-01,
          2.96422303e-01, 4.12217826e-01, 4.12217826e-01, 3.17948371e-01,
          2.27162004e-01, 1.94825917e-01, 4.12217826e-01, 3.95443439e-01,
          1.05571851e-01, 6.30404353e-02, 3.95443439e-01, 3.95443439e-01,
          3.95443439e-01, 3.95443439e-01, 2.06583694e-01, 3.95443439e-01,
          3.58122259e-01, 3.58122259e-01, 3.58122259e-01, 3.58122259e-01,
          3.58122259e-01, 3.58122259e-01, 3.58122259e-01, 1.20550215e-01,
          2.90049493e-01, 4.31144714e-01, 1.66973233e-01, 1.63912982e-01,
          4.31144714e-01, 4.31144714e-01, 9.33403373e-02, 3.85615289e-01,
          1.99977651e-01, 4.31144714e-01, 4.50001717e-01, 2.00579658e-01,
          8.85758698e-02, 3.11320335e-01, 4.50001717e-01, 4.21196312e-01,
          2.23688453e-01, 1.24737166e-01, 4.50001717e-01, 4.04355526e-01,
          4.04355526e-01, 4.04355526e-01, 2.75636077e-01, 3.59551549e-01,
          4.04355526e-01, 2.04789311e-01, 5.54345027e-02, 3.02791446e-01 ]
      - [ 4.67464149e-01, 4.57386732e-01, 5.86545885e-01, 2.81277120e-01,
          2.05308832e-02, 1.90230552e-02, 2.68865265e-02, 1.12284282e-02,
          3.76340926e-01, 2.55636483e-01, 8.44651386e-02, 8.28598738e-02,
          1.82734523e-02, 2.57753670e-01, 6.32906020e-01, 6.32906020e-01,
          4.39347103e-02, 2.10925624e-01, 3.54945719e-01, 4.53468747e-02,
          1.03788655e-02, 3.08281690e-01, 5.78108013e-01, 5.78108013e-01,
          1.62767783e-01, 4.82316455e-03, 2.75871158e-01, 1.83864757e-02,
          3.39763343e-01, 6.46786213e-01, 6.46786213e-01, 2.52734795e-02,
          6.39207102e-03, 1.85954511e-01, 7.50366822e-02, 1.45428283e-02,
          1.38773948e-01, 4.70461100e-01, 3.78924876e-01, 7.57259736e-03,
          9.73904319e-03, 5.22151470e-01, 5.22151470e-01, 2.55228877e-01,
          5.58248162e-03, 4.47895497e-01, 4.47895497e-01, 3.42326552e-01,
          3.07245497e-02, 1.53262690e-01, 3.65438938e-01, 3.40916872e-01,
          4.80001234e-02, 4.47895497e-01, 1.19694285e-02, 1.18341438e-01,
          6.58322692e-01, 6.58322692e-01, 1.37326987e-02, 6.55622268e-03,
          2.77977645e-01, 1.77537680e-01, 5.89874908e-02, 8.61125998e-03,
          3.06863308e-01, 5.36251307e-01, 1.85576990e-01, 3.27242119e-03,
          5.67753613e-02, 5.36251307e-01, 5.36251307e-01, 6.00514561e-03,
          1.09411687e-01, 4.95028496e-01, 4.95028496e-01, 4.95028496e-01,
          1.72155529e-01, 4.63836715e-02, 3.63388479e-01, 2.85366714e-01,
          5.14887311e-02, 1.19694285e-02, 1.18341438e-01, 6.58322692e-01,
          6.58322692e-01, 1.37326987e-02, 6.55622268e-03, 2.77977645e-01,
          1.77537680e-01, 5.89874908e-02, 8.61125998e-03, 3.06863308e-01,
          5.36251307e-01, 1.85576990e-01, 3.27242119e-03, 5.67753613e-02,
          5.36251307e-01, 5.36251307e-01, 6.00514561e-03, 1.09411687e-01,
          4.95028496e-01, 4.95028496e-01, 4.95028496e-01, 1.72155529e-01,
          4.63836715e-02, 3.63388479e-01, 2.85366714e-01, 5.14887311e-02,
          5.60992099e-02, 8.01941305e-02, 5.59893966e-01, 5.59893966e-01,
          1.17644019e-01, 8.31063429e-04, 1.43373981e-01, 5.59893966e-01,
          9.99509022e-02, 1.10670403e-02, 4.55603376e-02, 4.87261921e-01,
          4.87261921e-01, 1.52806966e-02, 9.97236557e-03, 4.87261921e-01,
          4.87261921e-01, 2.07136229e-01, 7.31286556e-02, 3.20214629e-02,
          3.54099423e-01, 4.58973974e-01, 4.58973974e-01, 1.15116499e-01,
          8.81794319e-02, 4.58973974e-01, 4.58973974e-01, 1.01987861e-01,
          3.60758722e-01, 4.29781348e-01, 4.29781348e-01, 4.29781348e-01,
          1.83029592e-01, 3.05969208e-01, 3.93538624e-01, 1.37959078e-01,
          1.20848268e-02, 7.05247652e-03, 4.23338354e-01, 6.26369894e-01,
          1.70283124e-01, 3.30595742e-03, 4.66200933e-02, 5.50678670e-01,
          2.95919061e-01, 3.90445501e-01, 1.32688181e-03, 2.87453327e-02,
          4.58470315e-01, 4.58470315e-01, 3.39980610e-02, 1.44497212e-02,
          4.58470315e-01, 4.58470315e-01, 3.54945719e-01, 4.53468747e-02,
          1.03788655e-02, 3.08281690e-01, 5.78108013e-01, 5.78108013e-01,
          1.62767783e-01, 4.82316455e-03, 2.75871158e-01, 1.25155494e-01,
          4.48832922e-02, 3.33303243e-01, 6.12359524e-01, 6.12359524e-01,
          5.92813529e-02, 2.53817961e-02, 3.43565382e-02, 3.31374496e-01,
          9.23511237e-02, 2.73938477e-01, 6.16926014e-01, 6.16926014e-01,
          2.99694449e-01, 5.06372079e-02, 1.87305734e-01, 1.19198397e-01,
          8.60302672e-02, 4.47895497e-01, 4.47895497e-01, 3.42326552e-01,
          3.07245497e-02, 1.53262690e-01, 3.65438938e-01, 3.40916872e-01,
          4.80001234e-02, 4.47895497e-01, 2.54534274e-01, 4.55394685e-02,
          4.65538740e-01, 4.65538740e-01, 1.23126328e-01, 2.41492279e-02,
          2.14102194e-01, 4.65538740e-01, 4.65538740e-01, 2.20319047e-03,
          2.06908524e-01, 5.93473434e-01, 5.93473434e-01, 3.16551216e-02,
          1.85671002e-02, 2.10899845e-01, 4.46382940e-01, 4.18756306e-02,
          1.09411687e-01, 4.95028496e-01, 4.95028496e-01, 4.95028496e-01,
          1.72155529e-01, 4.63836715e-02, 3.63388479e-01, 2.85366714e-01,
          5.14887311e-02, 2.35086977e-02, 2.45821968e-01, 5.11100471e-01,
          5.15926778e-02, 1.24807000e-01, 3.49573493e-01, 5.11100471e-01,
          5.11100471e-01, 9.90117788e-02, 1.27847982e-03, 5.34532547e-01,
          5.34532547e-01, 5.45309745e-02, 3.70923150e-03, 1.15712747e-01,
          5.34532547e-01, 3.47992837e-01, 3.03248502e-03, 1.09411687e-01,
          4.95028496e-01, 4.95028496e-01, 4.95028496e-01, 1.72155529e-01,
          4.63836715e-02, 3.63388479e-01, 2.85366714e-01, 5.14887311e-02,
          2.35086977e-02, 2.45821968e-01, 5.11100471e-01, 5.15926778e-02,
          1.24807000e-01, 3.49573493e-01, 5.11100471e-01, 5.11100471e-01,
          9.90117788e-02, 1.27847982e-03, 5.34532547e-01, 5.34532547e-01,
          5.45309745e-02, 3.70923150e-03, 1.15712747e-01, 5.34532547e-01,
          3.47992837e-01, 3.03248502e-03, 7.31286556e-02, 3.20214629e-02,
          3.54099423e-01, 4.58973974e-01, 4.58973974e-01, 1.15116499e-01,
          8.81794319e-02, 4.58973974e-01, 4.58973974e-01, 4.24628764e-01,
          4.31100816e-01, 2.21600384e-01, 9.40152481e-02, 4.31100816e-01,
          4.31100816e-01, 4.31100816e-01, 5.25982045e-02, 1.06208883e-01,
          1.13698952e-01, 4.94942874e-01, 4.94942874e-01, 4.26366879e-03,
          1.86656341e-02, 4.94942874e-01, 4.94942874e-01, 4.34630103e-02,
          0., 3.90445501e-01, 1.32688181e-03, 2.87453327e-02,
          4.58470315e-01, 4.58470315e-01, 3.39980610e-02, 1.44497212e-02,
          4.58470315e-01, 4.58470315e-01, 4.45333332e-01, 4.45333332e-01,
          1.42939361e-02, 5.89300990e-02, 4.45333332e-01, 4.45333332e-01,
          1.16350306e-02, 1.14171896e-02, 4.45333332e-01, 2.83992827e-01,
          5.96375763e-01, 6.15413859e-02, 1.94532622e-03, 1.47531122e-01,
          5.96375763e-01, 4.18817937e-01, 2.92312410e-02, 1.56728514e-02 ]
      - [ 5.35148203e-01, 5.35148203e-01, 3.15715261e-02, 1.92893241e-02,
          5.63454404e-02, 5.35148203e-01, 3.56504232e-01, 5.20918928e-02,
          3.39466333e-02, 4.58798498e-01, 4.58798498e-01, 4.58798498e-01,
          1.14844531e-01, 3.60300094e-01, 4.58798498e-01, 8.49734321e-02,
          9.29230265e-03, 5.58633581e-02, 4.36907381e-01, 4.36907381e-01,
          4.36907381e-01, 7.40639344e-02, 1.08223759e-01, 8.31069797e-02,
          3.67320627e-01, 2.70285785e-01, 4.36907381e-01, 3.74410957e-01,
          4.79147643e-01, 9.53098387e-02, 6.93413941e-03, 3.02594788e-02,
          5.39727390e-01, 5.39727390e-01, 1.72542647e-01, 4.91339490e-02,
          2.14335844e-02, 7.02745795e-01, 7.02745795e-01, 8.85352213e-03,
          2.40967013e-02, 6.11825362e-02, 1.93883721e-02, 4.36682906e-03,
          4.97851893e-03, 2.49753078e-03, 5.78132391e-01, 5.78132391e-01,
          2.85069980e-02, 7.77021237e-03, 1.13197435e-02, 5.35359919e-01,
          1.95267260e-01, 2.42684153e-03, 7.06975013e-02, 4.25724499e-02,
          1.26071230e-01, 6.11893227e-03, 8.60458687e-02, 4.75397140e-01,
          6.01929426e-01, 6.01929426e-01, 1.14906482e-01, 3.45965987e-03,
          7.04535663e-01, 7.04535663e-01, 1.03301499e-02, 9.16314125e-03,
          8.60665168e-04, 3.60736041e-03, 1.87116174e-03, 2.49175658e-03,
          4.39331896e-04, 6.23757541e-01, 6.23757541e-01, 2.55996152e-03,
          6.14692271e-03, 2.24413052e-02, 4.28570658e-01, 1.77211061e-01,
          7.01890211e-04, 7.06975013e-02, 4.25724499e-02, 1.26071230e-01,
          6.11893227e-03, 8.60458687e-02, 4.75397140e-01, 6.01929426e-01,
          6.01929426e-01, 1.14906482e-01, 3.45965987e-03, 7.04535663e-01,
          7.04535663e-01, 1.03301499e-02, 9.16314125e-03, 8.60665168e-04,
          3.60736041e-03, 1.87116174e-03, 2.49175658e-03, 4.39331896e-04,
          6.23757541e-01, 6.23757541e-01, 2.55996152e-03, 6.14692271e-03,
          2.24413052e-02, 4.28570658e-01, 1.77211061e-01, 7.01890211e-04,
          4.07536551e-02, 6.11374155e-02, 1.05636545e-01, 2.25521505e-01,
          2.15798721e-01, 5.94324097e-02, 5.62637508e-01, 5.62637508e-01,
          4.93701071e-01, 6.58731908e-03, 7.04264402e-01, 7.04264402e-01,
          0., 5.31485025e-03, 2.56477040e-03, 2.18366478e-02,
          1.94088295e-02, 7.82455411e-03, 1.21431083e-04, 6.36569321e-01,
          6.36569321e-01, 0., 0., 2.80648470e-04, 4.03225631e-01,
          1.43570065e-01, 2.47192802e-04, 5.77826053e-02, 1.83992982e-02,
          3.03755939e-01, 5.41169345e-01, 9.72645655e-02, 4.65159416e-02,
          9.18359011e-02, 5.41169345e-01, 5.41169345e-01, 1.60708100e-01,
          4.83387232e-01, 4.83387232e-01, 1.83395147e-01, 1.71409138e-02,
          1.79751068e-02, 2.10099779e-02, 4.83387232e-01, 4.83387232e-01,
          2.37790123e-02, 6.06533706e-01, 6.06533706e-01, 1.80470407e-01,
          3.41234058e-01, 4.89569791e-02, 3.00920397e-01, 1.12951249e-01,
          5.37956245e-02, 4.36907381e-01, 4.36907381e-01, 4.36907381e-01,
          7.40639344e-02, 1.08223759e-01, 8.31069797e-02, 3.67320627e-01,
          2.70285785e-01, 4.36907381e-01, 1.22002617e-01, 1.91301424e-02,
          3.66505757e-02, 4.89475459e-01, 2.84856468e-01, 1.60439909e-01,
          5.14328778e-01, 5.14328778e-01, 3.20516735e-01, 3.15644294e-02,
          1.19425878e-02, 2.04838336e-01, 5.33820093e-01, 2.80955851e-01,
          3.04067638e-02, 1.29687175e-01, 5.33820093e-01, 5.33820093e-01,
          2.49753078e-03, 5.78132391e-01, 5.78132391e-01, 2.85069980e-02,
          7.77021237e-03, 1.13197435e-02, 5.35359919e-01, 1.95267260e-01,
          2.42684153e-03, 2.47659348e-03, 4.09780256e-03, 1.36595406e-02,
          7.92865083e-03, 4.05195076e-03, 1.29775945e-02, 7.04418600e-01,
          7.04418600e-01, 9.99732129e-03, 3.86272408e-02, 3.71726193e-02,
          4.89697754e-01, 4.89697754e-01, 1.23919763e-01, 7.66445771e-02,
          4.89697754e-01, 4.68404353e-01, 1.79416910e-01, 4.39331896e-04,
          6.23757541e-01, 6.23757541e-01, 2.55996152e-03, 6.14692271e-03,
          2.24413052e-02, 4.28570658e-01, 1.77211061e-01, 7.01890211e-04,
          1.07954361e-03, 2.25273636e-03, 7.43489293e-03, 5.30342618e-03,
          2.33941549e-03, 4.76255501e-03, 7.04562902e-01, 7.04562902e-01,
          5.58378967e-03, 5.56342900e-02, 2.72927005e-02, 4.91536707e-02,
          3.38790826e-02, 4.87607345e-02, 6.83598444e-02, 6.88178182e-01,
          6.88178182e-01, 1.77474275e-01, 4.39331896e-04, 6.23757541e-01,
          6.23757541e-01, 2.55996152e-03, 6.14692271e-03, 2.24413052e-02,
          4.28570658e-01, 1.77211061e-01, 7.01890211e-04, 1.07954361e-03,
          2.25273636e-03, 7.43489293e-03, 5.30342618e-03, 2.33941549e-03,
          4.76255501e-03, 7.04562902e-01, 7.04562902e-01, 5.58378967e-03,
          5.56342900e-02, 2.72927005e-02, 4.91536707e-02, 3.38790826e-02,
          4.87607345e-02, 6.83598444e-02, 6.88178182e-01, 6.88178182e-01,
          1.77474275e-01, 1.21431083e-04, 6.36569321e-01, 6.36569321e-01,
          0., 0., 2.80648470e-04, 4.03225631e-01, 1.43570065e-01,
          2.47192802e-04, 0., 3.55622498e-03, 9.97053739e-03,
          1.75204128e-03, 2.13172170e-03, 2.59443582e-03, 7.04570949e-01,
          7.04570949e-01, 2.50983576e-04, 7.96537027e-02, 3.85133833e-01,
          1.62048742e-01, 5.10924570e-02, 8.57055336e-02, 1.02489546e-01,
          6.28592908e-01, 6.28592908e-01, 4.55345623e-02, 2.37790123e-02,
          6.06533706e-01, 6.06533706e-01, 1.80470407e-01, 3.41234058e-01,
          4.89569791e-02, 3.00920397e-01, 1.12951249e-01, 5.37956245e-02,
          1.05255999e-01, 3.33190076e-02, 4.86488873e-03, 3.46766552e-03,
          1.26113936e-01, 1.45780608e-01, 6.85912073e-01, 6.85912073e-01,
          5.31105995e-02, 4.76895183e-01, 4.76895183e-01, 1.96508002e-02,
          9.11185518e-03, 5.09973429e-02, 4.76895183e-01, 4.76895183e-01,
          2.12544918e-01, 1.93068340e-01 ]
      - [ 4.14022416e-01, 4.14022416e-01, 4.08445776e-01, 2.15287864e-01,
          1.88456029e-01, 4.14022416e-01, 4.14022416e-01, 1.27397090e-01,
          2.12798879e-01, 3.60638469e-01, 3.21716905e-01, 3.60638469e-01,
          3.60638469e-01, 3.60638469e-01, 3.60638469e-01, 3.25201273e-01,
          8.23313296e-02, 3.60638469e-01, 3.14389527e-01, 4.08385508e-02,
          1.41425997e-01, 5.10912657e-01, 3.01623970e-01, 1.06242485e-02,
          1.42210508e-02, 5.10912657e-01, 5.10912657e-01, 2.79700369e-01,
          3.81074369e-01, 3.81074369e-01, 2.61365652e-01, 1.09543711e-01,
          3.34006667e-01, 3.81074369e-01, 3.81074369e-01, 3.81074369e-01,
          5.08907512e-02, 4.16210651e-01, 4.16210651e-01, 4.16210651e-01,
          1.02245711e-01, 2.62865901e-01, 4.16210651e-01, 4.16210651e-01,
          2.18044102e-01, 8.43434781e-02, 3.80315036e-01, 4.52388048e-01,
          4.52388048e-01, 1.33420184e-01, 3.12882476e-02, 7.95506462e-02,
          4.52388048e-01, 4.52388048e-01, 3.03661022e-02, 4.85227555e-01,
          4.85227555e-01, 2.07407430e-01, 2.67226603e-02, 2.62314994e-02,
          4.85227555e-01, 4.85227555e-01, 8.96010995e-02, 1.45050079e-01,
          2.08831802e-01, 4.43342775e-01, 4.43342775e-01, 1.55167609e-01,
          6.11071214e-02, 4.43342775e-01, 4.43342775e-01, 3.41904670e-01,
          1.78821579e-01, 5.87778054e-02, 4.72329050e-01, 5.51830709e-01,
          5.51830709e-01, 1.15729704e-01, 9.20256153e-02, 1.23404957e-01,
          2.99729079e-01, 3.03661022e-02, 4.85227555e-01, 4.85227555e-01,
          2.07407430e-01, 2.67226603e-02, 2.62314994e-02, 4.85227555e-01,
          4.85227555e-01, 8.96010995e-02, 1.45050079e-01, 2.08831802e-01,
          4.43342775e-01, 4.43342775e-01, 1.55167609e-01, 6.11071214e-02,
          4.43342775e-01, 4.43342775e-01, 3.41904670e-01, 1.78821579e-01,
          5.87778054e-02, 4.72329050e-01, 5.51830709e-01, 5.51830709e-01,
          1.15729704e-01, 9.20256153e-02, 1.23404957e-01, 2.99729079e-01,
          3.16549167e-02, 1.03245504e-01, 5.49445093e-01, 5.49445093e-01,
          1.00403773e-02, 1.57545153e-02, 2.52817929e-01, 5.49445093e-01,
          1.13647997e-01, 4.68756258e-01, 3.99680808e-02, 2.30568662e-01,
          4.45619732e-01, 1.67644203e-01, 4.65320498e-02, 2.29160696e-01,
          4.68756258e-01, 4.68756258e-01, 4.53911066e-01, 3.67363840e-02,
          1.10783279e-01, 3.81963760e-01, 4.53911066e-01, 1.06937520e-01,
          1.92471594e-02, 4.53911066e-01, 4.53911066e-01, 7.42985215e-03,
          3.27674294e-04, 4.21905875e-01, 5.11404276e-01, 5.79794236e-02,
          1.53740039e-02, 1.69208810e-01, 5.11404276e-01, 5.11404276e-01,
          8.89417380e-02, 1.55957439e-03, 8.83282125e-02, 5.83149433e-01,
          5.83149433e-01, 1.54454894e-02, 1.24879426e-03, 1.91717207e-01,
          5.11214256e-01, 4.93504345e-01, 4.89660725e-02, 1.37304328e-02,
          2.15789765e-01, 4.93504345e-01, 4.93504345e-01, 3.66882086e-02,
          2.47432023e-01, 3.90783131e-01, 3.14389527e-01, 4.08385508e-02,
          1.41425997e-01, 5.10912657e-01, 3.01623970e-01, 1.06242485e-02,
          1.42210508e-02, 5.10912657e-01, 5.10912657e-01, 1.70241538e-02,
          1.16817672e-02, 2.60951370e-01, 4.63657856e-01, 2.54243642e-01,
          4.78814133e-02, 4.63657856e-01, 4.63657856e-01, 4.63657856e-01,
          2.77424097e-01, 3.11975479e-01, 3.79388303e-01, 3.79388303e-01,
          3.79388303e-01, 2.61065185e-01, 3.79388303e-01, 3.79388303e-01,
          1.84619844e-01, 8.43434781e-02, 3.80315036e-01, 4.52388048e-01,
          4.52388048e-01, 1.33420184e-01, 3.12882476e-02, 7.95506462e-02,
          4.52388048e-01, 4.52388048e-01, 1.19844237e-02, 2.16751490e-02,
          4.93872724e-02, 2.57739037e-01, 1.29089937e-01, 4.55346219e-02,
          5.58626771e-01, 6.04628503e-01, 4.77602184e-01, 1.50484890e-01,
          4.22170848e-01, 4.22170848e-01, 3.68284941e-01, 2.05304936e-01,
          1.72365785e-01, 4.22170848e-01, 4.22170848e-01, 2.29630738e-01,
          1.78821579e-01, 5.87778054e-02, 4.72329050e-01, 5.51830709e-01,
          5.51830709e-01, 1.15729704e-01, 9.20256153e-02, 1.23404957e-01,
          2.99729079e-01, 9.16254297e-02, 1.60594806e-01, 2.71277696e-01,
          4.66134548e-01, 4.66134548e-01, 9.20242220e-02, 4.66134548e-01,
          4.66134548e-01, 9.98619944e-02, 3.74295324e-01, 3.74295324e-01,
          3.74295324e-01, 3.06657374e-01, 3.28411162e-01, 4.23583202e-02,
          3.74295324e-01, 3.74295324e-01, 3.03461164e-01, 1.78821579e-01,
          5.87778054e-02, 4.72329050e-01, 5.51830709e-01, 5.51830709e-01,
          1.15729704e-01, 9.20256153e-02, 1.23404957e-01, 2.99729079e-01,
          9.16254297e-02, 1.60594806e-01, 2.71277696e-01, 4.66134548e-01,
          4.66134548e-01, 9.20242220e-02, 4.66134548e-01, 4.66134548e-01,
          9.98619944e-02, 3.74295324e-01, 3.74295324e-01, 3.74295324e-01,
          3.06657374e-01, 3.28411162e-01, 4.23583202e-02, 3.74295324e-01,
          3.74295324e-01, 3.03461164e-01, 4.53911066e-01, 3.67363840e-02,
          1.10783279e-01, 3.81963760e-01, 4.53911066e-01, 1.06937520e-01,
          1.92471594e-02, 4.53911066e-01, 4.53911066e-01, 2.82923877e-01,
          3.38484168e-01, 3.38484168e-01, 3.38484168e-01, 3.38484168e-01,
          3.38484168e-01, 3.38484168e-01, 3.38484168e-01, 3.38484168e-01,
          1.07640497e-01, 3.69748116e-01, 3.92784923e-01, 3.92784923e-01,
          3.92784923e-01, 3.62543941e-01, 3.92784923e-01, 3.03818047e-01,
          8.31408352e-02, 4.93504345e-01, 4.89660725e-02, 1.37304328e-02,
          2.15789765e-01, 4.93504345e-01, 4.93504345e-01, 3.66882086e-02,
          2.47432023e-01, 3.90783131e-01, 3.90321761e-01, 3.90321761e-01,
          6.61518499e-02, 6.39323667e-02, 3.90321761e-01, 3.90321761e-01,
          3.90321761e-01, 3.90321761e-01, 2.71165609e-01, 4.30308074e-01,
          4.30308074e-01, 4.30308074e-01, 1.53562382e-01, 1.06925137e-01,
          1.63635075e-01, 4.30308074e-01, 4.30308074e-01, 8.99196789e-02 ]
      - [ 5.04768312e-01, 5.04768312e-01, 1.09953307e-01, 3.94106423e-03,
          1.60974592e-01, 5.04768312e-01, 4.09330815e-01, 6.04570769e-02,
          1.46153077e-01, 5.78498125e-01, 5.78498125e-01, 1.88395940e-02,
          4.80650598e-03, 1.11105770e-01, 4.92785096e-01, 1.12170212e-01,
          1.48406504e-02, 2.37784088e-01, 4.84649330e-01, 1.92495361e-01,
          5.47689684e-02, 7.12128952e-02, 4.84649330e-01, 4.84649330e-01,
          7.40574971e-02, 7.07786903e-02, 4.84649330e-01, 3.58074039e-01,
          5.94765723e-01, 5.94765723e-01, 7.73127424e-03, 4.17132638e-02,
          2.59624839e-01, 2.91990429e-01, 6.03106841e-02, 1.58499777e-02,
          3.88738632e-01, 3.76550585e-01, 1.68241635e-01, 3.57650630e-02,
          1.79365396e-01, 4.53625768e-01, 4.53625768e-01, 4.01350141e-01,
          2.61093795e-01, 4.23738301e-01, 4.23738301e-01, 1.32969707e-01,
          1.52996302e-01, 4.23738301e-01, 4.23738301e-01, 2.94210643e-01,
          2.04670116e-01, 3.28651667e-01, 4.92975488e-02, 6.53165400e-01,
          6.53165400e-01, 2.11122930e-01, 3.04616690e-02, 5.35175391e-02,
          2.79125392e-01, 1.05170146e-01, 2.14943178e-02, 4.37376082e-01,
          7.16899037e-02, 1.07439861e-01, 3.03388163e-02, 1.46760747e-01,
          4.37376082e-01, 4.37376082e-01, 4.37376082e-01, 4.37376082e-01,
          4.85869706e-01, 7.31119290e-02, 5.97065799e-02, 7.71272928e-02,
          4.85869706e-01, 4.85869706e-01, 5.53368852e-02, 1.81517571e-01,
          4.85869706e-01, 4.92975488e-02, 6.53165400e-01, 6.53165400e-01,
          2.11122930e-01, 3.04616690e-02, 5.35175391e-02, 2.79125392e-01,
          1.05170146e-01, 2.14943178e-02, 4.37376082e-01, 7.16899037e-02,
          1.07439861e-01, 3.03388163e-02, 1.46760747e-01, 4.37376082e-01,
          4.37376082e-01, 4.37376082e-01, 4.37376082e-01, 4.85869706e-01,
          7.31119290e-02, 5.97065799e-02, 7.71272928e-02, 4.85869706e-01,
          4.85869706e-01, 5.53368852e-02, 1.81517571e-01, 4.85869706e-01,
          4.36045267e-02, 1.13028109e-01, 6.19101644e-01, 6.19101644e-01,
          3.05583365e-02, 2.14796662e-02, 1.18883513e-01, 4.33265448e-01,
          9.65447053e-02, 8.05331022e-02, 2.55779415e-01, 3.74868989e-01,
          4.09869552e-01, 9.74429920e-02, 4.47766036e-01, 4.47766036e-01,
          4.47766036e-01, 6.41915128e-02, 3.88014883e-01, 3.88014883e-01,
          3.39045733e-01, 2.33085468e-01, 3.88014883e-01, 3.88014883e-01,
          2.79328078e-01, 1.32866830e-01, 3.59085977e-01, 9.22548100e-02,
          7.80966207e-02, 4.86162663e-01, 4.86162663e-01, 1.41104221e-01,
          8.47457200e-02, 8.95849466e-02, 4.86162663e-01, 4.86162663e-01,
          1.06486883e-02, 3.86132300e-02, 1.97704583e-01, 4.97751296e-01,
          3.91075820e-01, 3.74171920e-02, 3.03654522e-01, 4.97751296e-01,
          4.60736454e-01, 2.18623221e-01, 1.26534805e-01, 2.93756545e-01,
          4.57881063e-01, 4.57881063e-01, 4.69675474e-02, 6.70840442e-02,
          4.57881063e-01, 4.57881063e-01, 4.84649330e-01, 1.92495361e-01,
          5.47689684e-02, 7.12128952e-02, 4.84649330e-01, 4.84649330e-01,
          7.40574971e-02, 7.07786903e-02, 4.84649330e-01, 3.05241466e-01,
          1.23869665e-01, 3.88100415e-01, 3.88100415e-01, 3.88100415e-01,
          3.65109593e-01, 3.45252901e-02, 3.88100415e-01, 3.88100415e-01,
          7.07224682e-02, 3.92818861e-02, 2.61538833e-01, 5.43846071e-01,
          1.79586455e-01, 7.56650977e-03, 2.73744599e-03, 5.43846071e-01,
          5.43846071e-01, 4.23738301e-01, 4.23738301e-01, 1.32969707e-01,
          1.52996302e-01, 4.23738301e-01, 4.23738301e-01, 2.94210643e-01,
          2.04670116e-01, 3.28651667e-01, 3.62294644e-01, 2.51424998e-01,
          3.62294644e-01, 3.62294644e-01, 3.62294644e-01, 3.44827741e-01,
          3.27694833e-01, 3.62294644e-01, 2.24919602e-01, 2.34150574e-01,
          1.99184924e-01, 4.50439066e-01, 4.14579540e-01, 3.32004428e-01,
          5.09475730e-02, 8.72621015e-02, 4.50439066e-01, 4.50439066e-01,
          4.85869706e-01, 7.31119290e-02, 5.97065799e-02, 7.71272928e-02,
          4.85869706e-01, 4.85869706e-01, 5.53368852e-02, 1.81517571e-01,
          4.85869706e-01, 3.95131022e-01, 3.95131022e-01, 2.04895198e-01,
          3.95131022e-01, 3.95131022e-01, 1.27098486e-01, 3.38427387e-02,
          3.95131022e-01, 3.95131022e-01, 4.09711212e-01, 4.09711212e-01,
          4.09711212e-01, 4.09711212e-01, 4.09711212e-01, 7.76915103e-02,
          1.61136746e-01, 2.90325195e-01, 2.00750992e-01, 4.85869706e-01,
          7.31119290e-02, 5.97065799e-02, 7.71272928e-02, 4.85869706e-01,
          4.85869706e-01, 5.53368852e-02, 1.81517571e-01, 4.85869706e-01,
          3.95131022e-01, 3.95131022e-01, 2.04895198e-01, 3.95131022e-01,
          3.95131022e-01, 1.27098486e-01, 3.38427387e-02, 3.95131022e-01,
          3.95131022e-01, 4.09711212e-01, 4.09711212e-01, 4.09711212e-01,
          4.09711212e-01, 4.09711212e-01, 7.76915103e-02, 1.61136746e-01,
          2.90325195e-01, 2.00750992e-01, 3.88014883e-01, 3.88014883e-01,
          3.39045733e-01, 2.33085468e-01, 3.88014883e-01, 3.88014883e-01,
          2.79328078e-01, 1.32866830e-01, 3.59085977e-01, 4.24424320e-01,
          4.83726524e-02, 1.64528981e-01, 4.24424320e-01, 4.24424320e-01,
          2.09648386e-01, 1.47370785e-01, 4.24424320e-01, 4.24424320e-01,
          3.36664841e-02, 3.59806001e-01, 4.69380826e-01, 4.69380826e-01,
          1.28126681e-01, 2.35661089e-01, 2.90576935e-01, 4.69380826e-01,
          2.17658818e-01, 2.18623221e-01, 1.26534805e-01, 2.93756545e-01,
          4.57881063e-01, 4.57881063e-01, 4.69675474e-02, 6.70840442e-02,
          4.57881063e-01, 4.57881063e-01, 4.38116372e-01, 4.11095172e-01,
          2.96874084e-02, 1.30433619e-01, 4.38116372e-01, 4.38116372e-01,
          1.52684748e-01, 1.32791996e-01, 4.38116372e-01, 4.61464942e-01,
          4.61464942e-01, 4.44395393e-01, 9.34963748e-02, 3.19492489e-01,
          4.61464942e-01, 2.00233191e-01, 8.90336931e-02, 1.47069832e-02 ]
      - [ 5.42595804e-01, 5.42595804e-01, 1.94699079e-01, 2.66517997e-02,
          2.37042114e-01, 5.42595804e-01, 1.09299801e-01, 7.19944015e-03,
          6.74225241e-02, 4.24429327e-01, 4.06556815e-01, 1.26557767e-01,
          6.05405159e-02, 5.60234129e-01, 5.60234129e-01, 2.53870077e-02,
          3.13652144e-03, 3.02646533e-02, 3.71225387e-01, 3.71225387e-01,
          3.71225387e-01, 3.71225387e-01, 3.71225387e-01, 3.55582565e-01,
          2.38734156e-01, 3.01934093e-01, 1.80699974e-01, 3.25935930e-01,
          2.76450127e-01, 2.84765124e-01, 9.64457020e-02, 3.77338767e-01,
          4.73875821e-01, 4.73875821e-01, 3.57395411e-01, 5.46125844e-02,
          4.14491266e-01, 3.59810472e-01, 4.14491266e-01, 4.10125405e-01,
          4.14491266e-01, 4.14491266e-01, 1.66511443e-02, 1.46717513e-02,
          1.02412768e-01, 2.64523238e-01, 3.74458849e-01, 3.74458849e-01,
          3.74458849e-01, 3.29980910e-01, 2.57616729e-01, 2.23462656e-01,
          3.74458849e-01, 3.74458849e-01, 4.46079783e-02, 2.99525201e-01,
          4.48257715e-01, 1.11227795e-01, 5.77092506e-02, 1.50262378e-02,
          5.80177963e-01, 5.80177963e-01, 1.11470625e-01, 1.50128782e-01,
          3.59404504e-01, 4.96096224e-01, 4.96096224e-01, 4.96096224e-01,
          1.28725931e-01, 1.94088474e-01, 1.49463266e-01, 1.68583646e-01,
          3.81590933e-01, 3.81590933e-01, 3.81590933e-01, 3.81590933e-01,
          3.81590933e-01, 3.81590933e-01, 2.47133479e-01, 1.60689592e-01,
          1.88737527e-01, 4.46079783e-02, 2.99525201e-01, 4.48257715e-01,
          1.11227795e-01, 5.77092506e-02, 1.50262378e-02, 5.80177963e-01,
          5.80177963e-01, 1.11470625e-01, 1.50128782e-01, 3.59404504e-01,
          4.96096224e-01, 4.96096224e-01, 4.96096224e-01, 1.28725931e-01,
          1.94088474e-01, 1.49463266e-01, 1.68583646e-01, 3.81590933e-01,
          3.81590933e-01, 3.81590933e-01, 3.81590933e-01, 3.81590933e-01,
          3.81590933e-01, 2.47133479e-01, 1.60689592e-01, 1.88737527e-01,
          3.21660191e-02, 6.21618442e-02, 2.23532990e-01, 5.39492011e-01,
          3.71585749e-02, 6.48863567e-03, 2.55282164e-01, 5.39492011e-01,
          5.39492011e-01, 1.30361229e-01, 1.67045534e-01, 5.20190477e-01,
          1.05989002e-01, 3.60907614e-02, 2.64774021e-02, 8.26876611e-02,
          5.73889494e-01, 5.73889494e-01, 3.98070574e-01, 3.98070574e-01,
          3.98070574e-01, 3.98070574e-01, 1.18818805e-01, 1.78807512e-01,
          3.02093327e-01, 2.57627517e-01, 3.98070574e-01, 4.27315049e-02,
          6.71457723e-02, 4.36489046e-01, 5.10610044e-01, 1.05759531e-01,
          3.48291658e-02, 5.89669123e-02, 5.10610044e-01, 5.10610044e-01,
          7.28104860e-02, 4.80432063e-02, 2.07589656e-01, 5.56788146e-01,
          1.15363836e-01, 1.00742085e-02, 1.69549212e-02, 5.56788146e-01,
          5.56788146e-01, 3.81896824e-01, 3.81896824e-01, 3.81896824e-01,
