%YAML:1.0
---
opencv_ml_svm:
   format: 3
   svmType: C_SVC
   kernel:
      type: RBF
      gamma: 5.0624999999999998e-01
   C: 1.2500000000000000e+01
   term_criteria: { epsilon:1.1920928955078125e-07, iterations:1000 }
   var_count: 81
   class_count: 10
   class_labels: !!opencv-matrix
      rows: 10
      cols: 1
      dt: i
      data: [ 0, 1, 2, 3, 4, 5, 6, 7, 8, 9 ]
   sv_total: 1062
   support_vectors:
      - [ 6.38751924e-01, 6.38751924e-01, 1.02137633e-01, 0.,
          1.55622199e-01, 2.93472886e-01, 1.82098877e-02, 0.,
          2.37710983e-01, 5.21317899e-01, 9.14488137e-02, 2.95759719e-02,
          7.00721666e-02, 5.21317899e-01, 4.06203061e-01, 9.32330091e-04,
          1.80855822e-02, 5.21317899e-01, 4.14418817e-01, 1.49477467e-01,
          1.89876169e-01, 1.59633055e-01, 2.14454278e-01, 5.29987663e-02,
          9.84696150e-02, 5.83120704e-01, 5.83120704e-01, 3.52803946e-01,
          3.52803946e-01, 3.52803946e-01, 3.52803946e-01, 2.46953830e-01,
          3.52803946e-01, 3.52803946e-01, 2.96370119e-01, 3.17537397e-01,
          4.37541455e-01, 4.37541455e-01, 8.29389840e-02, 1.60035223e-01,
          4.37541455e-01, 4.37541455e-01, 5.99986576e-02, 4.82368097e-02,
          4.37541455e-01, 3.20992440e-01, 3.69504362e-01, 3.69504362e-01,
          1.59089193e-01, 2.20821589e-01, 3.69504362e-01, 3.69504362e-01,
          3.69504362e-01, 3.69504362e-01, 2.14976415e-01, 3.94965708e-02,
          3.61697644e-01, 5.60583055e-01, 5.60583055e-01, 4.92740236e-02,
          1.34150982e-01, 1.86674446e-01, 3.63350600e-01, 5.02233684e-01,
          1.18281372e-01, 3.83575214e-04, 3.91380399e-01, 5.02233684e-01,
          5.02233684e-01, 9.31733381e-03, 1.58296674e-02, 2.66010225e-01,
          1.84096739e-01, 1.49821922e-01, 5.60677145e-03, 0.,
          6.47965789e-01, 6.47965789e-01, 3.11881095e-01, 1.25133675e-02,
          3.92838474e-03 ]
      - [ 4.36579227e-01, 4.36579227e-01, 4.36579227e-01, 2.67210037e-01,
          3.99799943e-01, 4.46326137e-02, 0., 0., 4.36579227e-01,
          5.29611051e-01, 2.15817422e-01, 2.09932476e-01, 1.37938783e-01,
          4.49739546e-01, 2.53058016e-01, 2.17077464e-01, 1.03115089e-01,
          5.29611051e-01, 4.44106191e-01, 7.80074969e-02, 4.96963598e-02,
          1.22164236e-02, 2.66099349e-02, 4.44106191e-01, 4.44106191e-01,
          4.44106191e-01, 4.44106191e-01, 4.32385027e-01, 2.89141089e-01,
          4.32385027e-01, 3.90634656e-01, 4.32385027e-01, 1.07960813e-01,
          0., 0., 4.32385027e-01, 3.85750145e-01, 2.90633261e-01,
          3.85750145e-01, 2.09072039e-01, 3.85750145e-01, 3.79406154e-01,
          3.31222415e-01, 1.38193578e-01, 3.85750145e-01, 4.00999367e-01,
          6.41642734e-02, 1.05319306e-01, 1.26419559e-01, 4.00999367e-01,
          4.00999367e-01, 4.00999367e-01, 4.00999367e-01, 4.00999367e-01,
          4.09401685e-01, 1.38783827e-01, 3.84943575e-01, 4.22518641e-01,
          6.39422119e-01, 2.01280534e-01, 0., 0., 1.75120771e-01,
          3.31346303e-01, 5.36700226e-02, 1.45613803e-02, 1.71842054e-01,
          8.36908340e-01, 3.21144938e-01, 1.73570029e-02, 2.76153404e-02,
          2.11239874e-01, 1.62846595e-01, 9.24640335e-03, 2.83978484e-03,
          3.96303982e-01, 6.18706942e-01, 4.21107322e-01, 2.59004861e-01,
          1.52868941e-01, 3.99463445e-01 ]
      - [ 6.53815806e-01, 6.53815806e-01, 0., 3.72774317e-03,
          5.12718186e-02, 5.17960191e-02, 0., 0., 3.64961207e-01,
          5.54017007e-01, 5.54017007e-01, 3.11183501e-02, 3.78322527e-02,
          2.07216650e-01, 1.11705735e-01, 4.67903093e-02, 1.16863780e-01,
          5.54017007e-01, 4.86349642e-01, 2.19067767e-01, 1.92787629e-02,
          1.07189436e-02, 2.26019509e-02, 3.25103966e-03, 4.86349642e-01,
          4.86349642e-01, 4.86349642e-01, 4.89113569e-01, 4.89113569e-01,
          8.70649070e-02, 8.90233368e-02, 4.89113569e-01, 4.89113569e-01,
          3.61781977e-02, 2.40215473e-03, 1.46172941e-01, 4.03203785e-01,
          4.17442769e-01, 4.17442769e-01, 3.54504704e-01, 4.17442769e-01,
          4.17442769e-01, 5.76011352e-02, 3.02370060e-02, 7.94797242e-02,
          3.59633155e-02, 1.34905905e-01, 4.84806925e-01, 7.42339641e-02,
          5.17436378e-02, 9.81187001e-02, 6.00515962e-01, 6.00515962e-01,
          2.04705130e-02, 9.81347188e-02, 2.02894043e-02, 8.96143988e-02,
          3.14608395e-01, 6.61127090e-01, 6.61127090e-01, 4.28731255e-02,
          6.74929644e-04, 1.82144586e-02, 0., 3.25931847e-01,
          5.14197826e-01, 5.14197826e-01, 3.96369606e-01, 4.37552631e-01,
          1.06056169e-01, 5.01284702e-03, 3.20544583e-04, 0.,
          4.86865044e-02, 3.89319003e-01, 4.48386729e-01, 4.48386729e-01,
          4.48386729e-01, 4.48386729e-01, 1.93336010e-01, 0. ]
      - [ 6.74263537e-01, 2.86313623e-01, 4.50612418e-02, 0., 0., 0., 0.,
          0., 6.74263537e-01, 7.02178538e-01, 3.02732419e-02, 0.,
          1.80032384e-03, 4.17588651e-02, 2.44545620e-02, 0.,
          6.01635985e-02, 7.02178538e-01, 5.75473905e-01, 1.38527364e-03,
          0., 4.44124639e-03, 2.21381858e-02, 8.85729957e-03,
          1.23602692e-02, 5.75473905e-01, 5.75473905e-01, 4.70001370e-01,
          4.70001370e-01, 1.98668569e-01, 1.42797768e-01, 4.70001370e-01,
          4.70001370e-01, 0., 0., 2.27684081e-01, 4.81554985e-01,
          2.58129593e-02, 1.46779893e-02, 2.57550031e-01, 4.81554985e-01,
          4.81554985e-01, 0., 1.98905673e-02, 4.81554985e-01,
          1.32769495e-01, 1.06439693e-02, 2.61283934e-01, 4.14039910e-01,
          4.14039910e-01, 2.29583308e-01, 4.14039910e-01, 4.14039910e-01,
          4.14039910e-01, 9.65312868e-03, 1.46260634e-01, 2.28828982e-01,
          2.70363092e-01, 6.50599897e-01, 6.50599897e-01, 0., 0., 0., 0.,
          3.44318412e-02, 1.52138367e-01, 4.13723588e-01, 6.31741166e-01,
          6.31741166e-01, 0., 0., 0., 0., 8.31303075e-02, 4.36069578e-01,
          4.36069578e-01, 4.36069578e-01, 4.36069578e-01, 4.36069578e-01,
          1.94716826e-01, 5.93827758e-03 ]
      - [ 6.53205276e-01, 6.53205276e-01, 2.17221141e-01, 1.69228185e-02,
          5.89764901e-02, 2.03241438e-01, 2.11488172e-01, 2.15229820e-02,
          5.17421775e-02, 4.42937464e-01, 4.42937464e-01, 9.49482713e-03,
          5.13483305e-03, 4.35773581e-01, 4.42937464e-01, 4.42937464e-01,
          1.16264701e-01, 8.52557719e-02, 4.10079211e-01, 1.75343782e-01,
          5.72760887e-02, 0., 4.10079211e-01, 4.10079211e-01,
          4.10079211e-01, 3.47926289e-01, 4.10079211e-01, 3.08524609e-01,
          4.48408514e-01, 4.48408514e-01, 4.48408514e-01, 2.70575941e-01,
          8.44483301e-02, 4.48408514e-01, 1.19048402e-01, 3.92085053e-02,
          2.01897278e-01, 4.62127119e-01, 2.63077438e-01, 1.36573464e-01,
          8.34362879e-02, 4.62127119e-01, 4.62127119e-01, 4.62127119e-01,
          7.45110139e-02, 2.81095982e-01, 5.01332462e-01, 2.91218311e-01,
          0., 6.81811646e-02, 3.54123920e-01, 5.01332462e-01,
          3.97372782e-01, 2.01355353e-01, 5.46708098e-03, 1.44973755e-01,
          6.21126592e-01, 6.21126592e-01, 1.91432446e-01, 3.01507339e-02,
          2.30485305e-01, 3.32378894e-01, 0., 3.33285958e-01,
          3.33285958e-01, 3.28685045e-01, 3.33285958e-01, 3.33285958e-01,
          3.33285958e-01, 3.33285958e-01, 3.33285958e-01, 3.33285958e-01,
          4.32149887e-01, 5.02255321e-01, 1.77067555e-02, 1.28712896e-02,
          2.04417393e-01, 5.02255321e-01, 5.02255321e-01, 8.28694701e-02,
          4.81262095e-02 ]
      - [ 4.77034062e-01, 4.77034062e-01, 4.77034062e-01, 9.94608924e-02,
          7.55491182e-02, 2.45637059e-01, 7.58974031e-02, 5.73697202e-02,
          4.77034062e-01, 4.87727940e-01, 1.05330549e-01, 5.42099588e-02,
          5.02085080e-03, 4.87727940e-01, 4.87727940e-01, 1.50752440e-01,
          8.26418921e-02, 4.87727940e-01, 4.18646395e-01, 1.38364390e-01,
          0., 0., 3.16779584e-01, 4.18646395e-01, 4.18646395e-01,
          4.18646395e-01, 4.18646395e-01, 7.07173347e-02, 4.68084395e-01,
          4.68084395e-01, 1.91153064e-01, 6.60695583e-02, 4.09828097e-01,
          4.68084395e-01, 2.48135135e-01, 2.50160128e-01, 4.08919066e-01,
          3.46429408e-01, 7.82661587e-02, 2.58565284e-02, 4.08919066e-01,
          4.08919066e-01, 4.08919066e-01, 1.81751117e-01, 4.08919066e-01,
          5.27246177e-01, 5.27246177e-01, 0., 0., 3.58919233e-01,
          5.27246177e-01, 1.33691847e-01, 4.55159508e-02, 1.09548800e-01,
          8.14419612e-02, 2.75137037e-01, 4.98241663e-01, 4.98241663e-01,
          4.98241663e-01, 5.58068193e-02, 1.50886387e-01, 1.67628124e-01,
          3.37603331e-01, 4.85607773e-01, 1.08474545e-01, 2.42071860e-02,
          2.74812758e-01, 4.85607773e-01, 4.85607773e-01, 4.35963832e-02,
          7.43149370e-02, 4.38642383e-01, 5.02708375e-01, 1.54268146e-01,
          0., 0., 5.98795116e-01, 5.98795116e-01, 1.64861493e-02, 0.,
          1.11146271e-02 ]
      - [ 4.71185416e-01, 4.71185416e-01, 4.71185416e-01, 3.27356249e-01,
          8.29169434e-03, 0., 0., 0., 4.71185416e-01, 5.64057171e-01,
          1.16759695e-01, 1.05967738e-01, 1.19903237e-01, 1.13405576e-02,
          0., 2.27743797e-02, 5.64057171e-01, 5.64057171e-01,
          5.69418311e-01, 7.14287744e-04, 3.13572818e-03, 4.95429376e-05,
          0., 0., 1.46942124e-01, 5.69418311e-01, 5.69418311e-01,
          4.05337185e-01, 4.05337185e-01, 4.05337185e-01, 4.05337185e-01,
          4.05337185e-01, 1.00802869e-01, 0., 0., 4.05337185e-01,
          3.40078354e-01, 2.67162651e-01, 3.40078354e-01, 3.40078354e-01,
          3.40078354e-01, 3.40078354e-01, 3.40078354e-01, 3.40078354e-01,
          3.40078354e-01, 4.05076504e-01, 2.22098106e-03, 1.21323941e-02,
          1.06204689e-01, 4.05076504e-01, 4.05076504e-01, 4.05076504e-01,
          4.05076504e-01, 4.05076504e-01, 1.09763622e-01, 8.06061625e-02,
          4.28276479e-01, 5.94616115e-01, 5.94616115e-01, 2.87327439e-01,
          0., 0., 4.90192175e-02, 1.38927437e-02, 1.93465892e-02,
          4.43047106e-01, 4.43047106e-01, 4.43047106e-01, 4.43047106e-01,
          4.43047106e-01, 1.16305217e-01, 5.14354138e-03, 3.32719355e-06,
          1.17456156e-03, 4.29817550e-02, 3.68792892e-01, 5.08283317e-01,
          5.08283317e-01, 5.08283317e-01, 2.86375612e-01, 8.58073545e-05 ]
      - [ 5.20169497e-01, 5.20169497e-01, 1.59329668e-01, 3.81430387e-02,
          2.39618257e-01, 1.49891794e-01, 1.85616493e-01, 4.82649922e-01,
          2.81997651e-01, 4.35375899e-01, 4.35375899e-01, 6.13221601e-02,
          4.73907515e-02, 1.04148440e-01, 2.89921463e-01, 4.06316042e-01,
          4.35375899e-01, 4.01240736e-01, 4.11775589e-01, 3.18801790e-01,
          2.64474541e-01, 2.48239771e-01, 1.71479806e-01, 3.11980844e-01,
          3.56745541e-01, 4.11775589e-01, 4.11775589e-01, 2.59609640e-01,
          4.56632704e-01, 4.56632704e-01, 9.23696309e-02, 2.68365204e-01,
          4.56632704e-01, 4.56632704e-01, 1.09337673e-01, 3.84874567e-02,
          3.74398947e-01, 3.74398947e-01, 3.74398947e-01, 1.41995192e-01,
          1.85158372e-01, 3.74398947e-01, 3.74398947e-01, 3.74398947e-01,
          3.17436248e-01, 2.22614631e-01, 4.18550819e-01, 4.18550819e-01,
          2.24745676e-01, 9.16694477e-02, 4.18550819e-01, 4.18550819e-01,
          4.18550819e-01, 1.06881358e-01, 1.40928060e-01, 4.02886152e-01,
          4.02886152e-01, 4.02886152e-01, 4.02886152e-01, 4.02886152e-01,
          4.02886152e-01, 4.66833822e-02, 5.62826823e-03, 1.77026868e-01,
          2.75073230e-01, 3.80556315e-01, 3.80556315e-01, 3.80556315e-01,
          3.80556315e-01, 1.75080582e-01, 3.80556315e-01, 3.66640806e-01,
          3.24132413e-01, 4.64043707e-01, 5.02425246e-02, 9.77294594e-02,
          4.20132518e-01, 4.64043707e-01, 4.64043707e-01, 1.27896443e-01,
          1.98366284e-01 ]
      - [ 5.37943900e-01, 5.37943900e-01, 3.46639007e-01, 1.21642165e-02,
          4.63806316e-02, 2.56559581e-01, 3.76086384e-01, 9.80653986e-02,
          2.76626557e-01, 3.81543815e-01, 3.81543815e-01, 3.65301341e-01,
          9.94109213e-02, 2.08204970e-01, 3.81543815e-01, 3.81543815e-01,
          2.85714656e-01, 3.81543815e-01, 4.48526353e-01, 2.44939163e-01,
          2.05117226e-01, 1.22897454e-01, 1.45694762e-01, 2.28948101e-01,
          4.48526353e-01, 4.48526353e-01, 4.48526353e-01, 3.14024121e-01,
          4.31157827e-01, 4.31157827e-01, 3.98045152e-01, 2.23940238e-01,
          2.96224862e-01, 4.31157827e-01, 1.32592902e-01, 1.59598127e-01,
          3.40924948e-01, 3.40924948e-01, 3.40924948e-01, 3.06534231e-01,
          3.40924948e-01, 3.40924948e-01, 3.40924948e-01, 3.38444203e-01,
          3.01176041e-01, 1.33567914e-01, 3.47847223e-01, 2.12771878e-01,
          7.30997548e-02, 5.77667430e-02, 5.11989772e-01, 5.11989772e-01,
          5.11989772e-01, 1.25281647e-01, 1.20198622e-01, 1.58639938e-01,
          3.69034410e-01, 5.24979174e-01, 5.24979174e-01, 4.99264896e-01,
          9.33902189e-02, 3.79531570e-02, 9.12279189e-02, 1.67423129e-01,
          9.61517319e-02, 4.45864588e-01, 4.45864588e-01, 4.45864588e-01,
          4.45864588e-01, 3.08374316e-01, 2.54309207e-01, 5.76366000e-02,
          3.58900847e-03, 1.36695085e-02, 4.90319937e-01, 4.47659940e-01,
          1.10793568e-01, 2.46731892e-01, 4.90319937e-01, 4.90319937e-01,
          1.05332574e-02 ]
      - [ 4.69454676e-01, 4.69454676e-01, 1.32596835e-01, 0., 0.,
          1.08502962e-01, 3.76635998e-01, 4.03656274e-01, 4.69454676e-01,
          3.88454616e-01, 3.88454616e-01, 3.88454616e-01, 3.24804336e-01,
          2.21695393e-01, 7.71896392e-02, 2.84656852e-01, 3.88454616e-01,
          3.88454616e-01, 8.19315836e-02, 1.66979551e-01, 4.33469772e-01,
          4.33469772e-01, 3.76746297e-01, 4.32329252e-02, 2.56288886e-01,
          4.33469772e-01, 4.33469772e-01, 3.97084862e-01, 3.97084862e-01,
          3.25827956e-01, 2.53613234e-01, 3.97084862e-01, 3.14271599e-01,
          3.97084862e-01, 2.71958679e-01, 1.48714855e-01, 3.13540250e-01,
          3.76791716e-01, 3.76791716e-01, 3.05543900e-01, 3.36476743e-01,
          2.19935700e-01, 3.76791716e-01, 3.76791716e-01, 2.74034470e-01,
          1.22018479e-01, 4.59271729e-01, 4.59271729e-01, 2.78484553e-01,
          1.96126625e-01, 1.01588324e-01, 4.59271729e-01, 4.59271729e-01,
          1.02286339e-01, 7.97719657e-02, 1.46834418e-01, 2.82753676e-01,
          5.83731592e-01, 5.83731592e-01, 4.42652702e-01, 4.58207019e-02,
          7.12095052e-02, 4.12385724e-02, 1.91260949e-01, 1.11802891e-01,
          4.51954335e-01, 4.51954335e-01, 4.51954335e-01, 2.03602716e-01,
          1.35908052e-01, 4.49242830e-01, 2.68090785e-01, 3.80638361e-01,
          3.80638361e-01, 1.79145470e-01, 3.80638361e-01, 3.80638361e-01,
          3.80638361e-01, 3.80638361e-01, 2.01021805e-01, 2.33197138e-01 ]
      - [ 5.19790590e-01, 5.19790590e-01, 5.75728603e-02, 1.48903772e-01,
          2.01423779e-01, 1.25500023e-01, 0., 3.20083380e-01,
          5.19790590e-01, 4.93751138e-01, 4.93751138e-01, 3.09715103e-02,
          8.05307031e-02, 8.53903964e-02, 7.19152093e-02, 0.,
          4.93751138e-01, 4.93751138e-01, 5.07718563e-01, 3.15960974e-01,
          4.84480076e-02, 1.47544742e-01, 8.93335417e-02, 5.84938712e-02,
          2.93674678e-01, 5.07718563e-01, 5.07718563e-01, 3.34122151e-01,
          3.34122151e-01, 3.34122151e-01, 3.34122151e-01, 3.34122151e-01,
          3.34122151e-01, 3.34122151e-01, 3.26610416e-01, 3.29429507e-01,
          3.32778692e-01, 3.32778692e-01, 3.32778692e-01, 3.32778692e-01,
          3.32778692e-01, 3.32778692e-01, 3.32778692e-01, 3.32778692e-01,
          3.32778692e-01, 3.47337097e-01, 3.47337097e-01, 3.47337097e-01,
          2.60543913e-01, 2.90077806e-01, 3.47337097e-01, 3.47337097e-01,
          3.47337097e-01, 3.47337097e-01, 6.85857330e-03, 2.19519272e-01,
          4.12027895e-01, 4.12027895e-01, 4.12027895e-01, 4.12027895e-01,
          4.12027895e-01, 3.14345807e-01, 0., 1.79831117e-01,
          1.44610047e-01, 4.76916045e-01, 4.76916045e-01, 4.76916045e-01,
          4.42289054e-01, 2.05744803e-01, 9.53787118e-02, 1.12209566e-01,
          3.38684201e-01, 2.50571907e-01, 1.38280764e-01, 3.22961897e-01,
          4.78214800e-01, 4.78214800e-01, 4.78214800e-01, 7.09911436e-02,
          5.65386191e-02 ]
      - [ 4.23884243e-01, 3.10750335e-01, 4.23884243e-01, 4.23884243e-01,
          4.23884243e-01, 2.84730047e-02, 0., 0., 4.23884243e-01,
          4.84450877e-01, 1.20379604e-01, 3.02942783e-01, 3.19777936e-01,
          4.84450877e-01, 1.30567834e-01, 2.16630530e-02, 2.55034477e-01,
          4.84450877e-01, 1.43417418e-01, 1.34298503e-01, 3.41296643e-01,
          1.46464646e-01, 2.44703099e-01, 3.48121375e-02, 5.02444208e-01,
          5.02444208e-01, 5.02444208e-01, 4.76073891e-01, 9.37905312e-02,
          2.80190289e-01, 4.76073891e-01, 4.76073891e-01, 8.30998085e-03,
          0., 3.58780921e-02, 4.76073891e-01, 3.95298362e-01,
          3.26096863e-01, 3.95298362e-01, 2.81056643e-01, 3.95298362e-01,
          4.53024432e-02, 1.65416852e-01, 3.95298362e-01, 3.95298362e-01,
          1.17561340e-01, 3.57723266e-01, 5.21804214e-01, 6.84533343e-02,
          7.61496127e-02, 7.80751258e-02, 5.21804214e-01, 5.21804214e-01,
          1.39939681e-01, 1.93106249e-01, 2.50106081e-02, 1.20129928e-01,
          6.29238546e-01, 6.29238546e-01, 0., 0., 1.53081426e-02,
          3.86334181e-01, 2.47845769e-01, 2.96249576e-02, 8.60409886e-02,
          5.48193991e-01, 5.48193991e-01, 7.57335033e-03, 6.91605434e-02,
          2.30648190e-01, 5.15504718e-01, 1.03618339e-01, 3.42458375e-02,
          9.14832503e-02, 4.66504484e-01, 4.66504484e-01, 1.54952347e-01,
          4.66504484e-01, 4.66504484e-01, 2.83805519e-01 ]
      - [ 5.44123352e-01, 5.44123352e-01, 1.95073619e-01, 2.00792514e-02,
          1.10108614e-01, 1.79179430e-01, 5.77390678e-02, 1.42602757e-01,
          5.44123352e-01, 4.49408770e-01, 4.04518276e-01, 1.95250604e-02,
          3.07406615e-02, 1.03256591e-01, 1.09611981e-01, 4.49408770e-01,
          4.49408770e-01, 4.49408770e-01, 6.27368689e-01, 3.69662911e-01,
          0., 0., 6.37577428e-03, 1.34706898e-02, 1.95403904e-01,
          1.77475974e-01, 6.27368689e-01, 3.47720921e-01, 4.08091277e-01,
          4.08091277e-01, 4.08091277e-01, 4.08091277e-01, 2.32475847e-01,
          3.60835463e-01, 1.21729292e-01, 9.89653245e-02, 3.71391892e-01,
          3.71391892e-01, 5.80583662e-02, 1.65515482e-01, 3.71391892e-01,
          3.71391892e-01, 3.71391892e-01, 3.71391892e-01, 3.71391892e-01,
          5.10780931e-01, 2.70026743e-01, 0., 0., 5.10780931e-01,
          5.10780931e-01, 1.18584119e-01, 2.64653545e-02, 3.52888465e-01,
          9.71345305e-02, 1.24518476e-01, 5.64973772e-01, 5.64973772e-01,
          5.64973772e-01, 0., 7.76269510e-02, 5.81279024e-02,
          4.92700525e-02, 2.20000058e-01, 7.03807548e-02, 6.95839850e-03,
          4.75967824e-01, 5.91596842e-01, 5.91596842e-01, 3.64603736e-02,
          1.43038388e-02, 1.12418458e-01, 1.48605168e-01, 1.42128887e-02,
          0., 0., 6.96468234e-01, 6.96468234e-01, 7.73692224e-03, 0.,
          2.37924382e-02 ]
      - [ 6.84503555e-01, 6.84503555e-01, 8.50209296e-02, 4.92766174e-03,
          1.05054662e-01, 1.93780199e-01, 7.43559981e-03, 0.,
          1.34604229e-02, 4.28369969e-01, 4.28369969e-01, 9.33654606e-02,
          1.13922685e-01, 2.83178031e-01, 1.51856139e-01, 3.85561258e-01,
          4.28369969e-01, 4.14264739e-01, 3.20237488e-01, 7.06371618e-03,
          2.07802504e-02, 1.64093189e-02, 6.04657596e-03, 8.89571533e-02,
          5.69868326e-01, 5.69868326e-01, 4.83276993e-01, 5.28974175e-01,
          5.28974175e-01, 2.62967378e-01, 1.45328594e-02, 1.80890113e-01,
          5.28974175e-01, 2.30564430e-01, 0., 5.66076348e-03,
          1.75630167e-01, 4.24704373e-01, 4.24704373e-01, 2.26555139e-01,
          4.20018405e-01, 4.24704373e-01, 4.24704373e-01, 1.08530141e-01,
          6.24080338e-02, 4.29674476e-01, 2.45991483e-01, 1.08216442e-01,
          1.62747391e-02, 1.09333182e-02, 4.29674476e-01, 4.29674476e-01,
          4.29674476e-01, 4.29674476e-01, 3.90863746e-01, 4.51892436e-01,
          4.51892436e-01, 2.86392812e-02, 4.51892436e-01, 4.51892436e-01,
          1.58247247e-01, 4.70894342e-03, 0., 4.59971309e-01,
          4.87015307e-01, 4.87015307e-01, 5.52526396e-03, 2.19381675e-01,
          4.87015307e-01, 1.50632054e-01, 1.92864612e-02, 2.81005688e-02,
          2.23419040e-01, 1.19116269e-01, 5.94739467e-02, 0.,
          7.30701387e-02, 7.13887155e-01, 6.32239521e-01, 4.67169322e-02,
          9.13705975e-02 ]
      - [ 4.93973941e-01, 4.93973941e-01, 1.07166454e-01, 2.32755318e-02,
          7.98284709e-02, 1.92724727e-02, 1.59676746e-02, 4.93973941e-01,
          4.93973941e-01, 4.19121236e-01, 4.19121236e-01, 4.19121236e-01,
          2.52922803e-01, 2.28432462e-01, 3.53214517e-02, 1.00629227e-02,
          4.19121236e-01, 4.19121236e-01, 3.23967129e-01, 3.06027085e-01,
          2.57048965e-01, 2.67718047e-01, 2.12724552e-01, 3.96185778e-02,
          1.53082997e-01, 5.42206228e-01, 5.42206228e-01, 2.23414555e-01,
          3.90850484e-01, 3.90850484e-01, 3.90850484e-01, 2.20686972e-01,
          3.90850484e-01, 3.90850484e-01, 3.25530738e-01, 1.66395858e-01,
          7.59745091e-02, 2.19663933e-01, 4.53834295e-01, 4.53834295e-01,
          2.91060030e-01, 1.52911827e-01, 9.73766372e-02, 4.53834295e-01,
          4.53834295e-01, 1.18095301e-01, 4.00040954e-01, 4.00040954e-01,
          4.00040954e-01, 2.08611786e-01, 3.21560144e-01, 4.00040954e-01,
          4.00040954e-01, 1.87011957e-01, 0., 2.89051682e-01,
          4.26848650e-01, 4.26848650e-01, 4.26848650e-01, 4.26848650e-01,
          4.26848650e-01, 3.44202034e-02, 1.29338366e-03, 1.13881215e-01,
          9.05945823e-02, 4.41231787e-01, 5.02812922e-01, 4.13450152e-01,
          2.02598825e-01, 5.34437709e-02, 4.05728936e-01, 3.83192062e-01,
          2.39642814e-01, 3.44534725e-01, 1.39263839e-01, 3.06946725e-01,
          4.65866417e-01, 4.65866417e-01, 4.65866417e-01, 1.20327137e-01,
          2.00075179e-01 ]
      - [ 5.52648246e-01, 5.52648246e-01, 1.53291121e-01, 0.,
          2.92151608e-02, 1.24217696e-01, 1.44122690e-01, 1.32920384e-01,
          5.52648246e-01, 4.95057106e-01, 1.14684708e-01, 1.92294829e-02,
          0., 6.56916806e-03, 3.41155045e-02, 4.95057106e-01,
          4.95057106e-01, 4.95057106e-01, 4.72804040e-01, 4.72804040e-01,
          2.10622713e-01, 0., 0., 1.15734346e-01, 4.72804040e-01,
          3.03081274e-01, 4.18368161e-01, 3.79580736e-01, 3.79580736e-01,
          3.79580736e-01, 3.79580736e-01, 3.79580736e-01, 3.79580736e-01,
          2.36807570e-01, 7.03412443e-02, 2.65881509e-01, 3.57371747e-01,
          2.90287733e-01, 3.00429523e-01, 3.57371747e-01, 3.57371747e-01,
          3.57371747e-01, 2.35833451e-01, 3.57371747e-01, 3.57371747e-01,
          4.64260906e-01, 4.64260906e-01, 5.91765679e-02, 5.54751083e-02,
          1.52244687e-01, 4.64260906e-01, 4.64260906e-01, 2.43787453e-01,
          2.09809363e-01, 2.75662784e-02, 7.05609098e-02, 4.03691351e-01,
          5.24417758e-01, 5.24417758e-01, 5.24417758e-01, 2.16505956e-03,
          7.34162284e-04, 3.17841396e-02, 8.45752209e-02, 5.34143783e-02,
          4.85591918e-01, 4.95107800e-01, 4.95107800e-01, 4.95107800e-01,
          9.77047835e-04, 7.19448552e-02, 9.31520388e-02, 1.38115630e-01,
          8.44845176e-02, 3.74404117e-02, 2.87634075e-01, 6.09207928e-01,
          6.09207928e-01, 3.68368745e-01, 4.61919867e-02, 5.89125007e-02 ]
      - [ 1.72245160e-01, 3.98991972e-01, 4.47059244e-01, 4.47059244e-01,
          0., 0., 8.49916488e-02, 4.47059244e-01, 4.47059244e-01,
          4.12613153e-01, 2.49727786e-01, 4.12613153e-01, 4.12613153e-01,
          0., 0., 2.86820620e-01, 4.12613153e-01, 4.12613153e-01,
          4.28764522e-01, 6.12399802e-02, 9.47342021e-04, 0., 0., 0.,
          5.18725753e-01, 5.18725753e-01, 5.18725753e-01, 1.73399821e-02,
          6.41518056e-01, 6.41518056e-01, 4.04968560e-01, 0.,
          2.05750801e-02, 1.27140870e-02, 3.97481769e-02, 6.35551140e-02,
          2.92248666e-01, 3.68917227e-01, 3.68917227e-01, 2.06846118e-01,
          3.68917227e-01, 3.68917227e-01, 3.68917227e-01, 3.68917227e-01,
          2.26980120e-01, 5.65544218e-02, 1.99574530e-02, 5.92514034e-03,
          2.48807669e-02, 4.63803083e-01, 4.94398087e-01, 4.98381764e-01,
          4.98381764e-01, 1.85633987e-01, 0., 5.45332611e-01,
          5.45332611e-01, 5.45332611e-01, 1.46574706e-01, 2.82127202e-01,
          3.62091325e-02, 0., 0., 0., 3.23774904e-01, 4.21749681e-01,
          4.21749681e-01, 4.21749681e-01, 4.21749681e-01, 4.21749681e-01,
          3.99102904e-02, 0., 0., 0., 1.15667284e-03, 2.41340064e-02,
          5.39564192e-01, 5.39564192e-01, 5.39564192e-01, 3.47331762e-01,
          0. ]
      - [ 4.14721102e-01, 4.14721102e-01, 3.68631631e-01, 0., 0., 0.,
          4.14721102e-01, 4.14721102e-01, 4.14721102e-01, 5.60188711e-01,
          5.60188711e-01, 0., 0., 0., 0., 1.63445666e-01, 1.62041426e-01,
          5.60188711e-01, 6.67884529e-01, 1.34190902e-01, 0., 0., 0., 0.,
          1.78374052e-01, 2.26646036e-01, 6.67884529e-01, 3.60702604e-01,
          2.78485686e-01, 3.60702604e-01, 3.60702604e-01, 3.60702604e-01,
          8.99849162e-02, 3.60702604e-01, 3.60702604e-01, 3.60702604e-01,
          4.41045374e-01, 3.00361544e-01, 1.96515724e-01, 2.76175797e-01,
          4.41045374e-01, 4.41045374e-01, 1.41180247e-01, 6.39133826e-02,
          4.27675188e-01, 4.30646330e-01, 7.27762282e-02, 2.87528951e-02,
          8.27088356e-02, 4.30646330e-01, 4.30646330e-01, 4.30646330e-01,
          2.35484526e-01, 4.30646330e-01, 7.91570693e-02, 1.77355055e-02,
          2.22370788e-01, 6.26480520e-01, 6.26480520e-01, 3.67147386e-01,
          9.21817217e-03, 2.48386916e-02, 1.31381556e-01, 8.42377245e-02,
          2.69886348e-02, 4.88771170e-01, 4.88771170e-01, 4.88771170e-01,
          4.88771170e-01, 1.76354587e-01, 1.08778505e-02, 2.20328365e-02,
          4.72118147e-03, 0., 1.08132958e-01, 2.11825430e-01,
          5.58665514e-01, 5.58665514e-01, 5.58413327e-01, 4.23387550e-02,
          1.97322271e-03 ]
      - [ 4.97451514e-01, 4.97451514e-01, 4.97451514e-01, 1.48734245e-02,
          9.24701616e-02, 2.69168884e-01, 3.03488463e-01, 7.13138133e-02,
          2.72475570e-01, 3.90017122e-01, 3.90017122e-01, 1.77800477e-01,
          7.38225062e-04, 2.27618128e-01, 3.90017122e-01, 3.90017122e-01,
          3.90017122e-01, 3.90017122e-01, 4.26653206e-01, 4.26653206e-01,
          2.87937641e-01, 0., 0., 5.16260564e-02, 4.26653206e-01,
          4.26653206e-01, 4.26653206e-01, 9.24235359e-02, 5.26271522e-01,
          5.26271522e-01, 4.42537703e-02, 4.09447402e-02, 1.13899134e-01,
          5.26271522e-01, 3.62649858e-01, 8.48179162e-02, 3.67172360e-01,
          3.67172360e-01, 3.67172360e-01, 8.29985272e-03, 3.37894619e-01,
          3.67172360e-01, 3.67172360e-01, 3.67172360e-01, 2.70548940e-01,
          3.62478495e-01, 3.62478495e-01, 3.62478495e-01, 2.83117197e-03,
          3.62478495e-01, 3.62478495e-01, 3.62478495e-01, 3.62478495e-01,
          2.76831448e-01, 7.20636323e-02, 2.57752568e-01, 4.73580688e-01,
          4.73580688e-01, 4.73580688e-01, 4.73580688e-01, 8.82982612e-02,
          9.97294337e-02, 9.37173367e-02, 5.44242263e-01, 1.45019963e-01,
          1.32817745e-01, 1.17686823e-01, 5.44242263e-01, 5.44242263e-01,
          7.48222992e-02, 8.68740976e-02, 2.00746626e-01, 1.42836288e-01,
          1.32247135e-01, 2.09439155e-02, 5.65495621e-03, 6.75730526e-01,
          6.75730526e-01, 2.04037949e-01, 2.21120915e-03, 5.66779636e-03 ]
      - [ 6.76238835e-01, 6.76238835e-01, 9.00766179e-02, 0.,
          5.29383235e-02, 1.60279676e-01, 8.70074183e-02, 4.26841667e-03,
          1.85625643e-01, 5.06823242e-01, 2.79145330e-01, 4.23324518e-02,
          1.35848731e-01, 5.06823242e-01, 3.52388889e-01, 4.09409367e-02,
          1.74820051e-02, 5.06823242e-01, 4.81626987e-01, 1.67616215e-02,
          1.79879948e-01, 1.80415779e-01, 2.11328387e-01, 1.46232424e-02,
          4.00094867e-01, 4.96457428e-01, 4.96457428e-01, 3.73204678e-01,
          3.73204678e-01, 3.73204678e-01, 3.73204678e-01, 3.73204678e-01,
          2.13978380e-01, 3.66333753e-01, 2.79143900e-01, 2.04827622e-01,
          3.56919289e-01, 3.56919289e-01, 1.77610397e-01, 3.56919289e-01,
          3.56919289e-01, 3.56919289e-01, 2.70460755e-01, 3.56919289e-01,
          3.56919289e-01, 2.39977375e-01, 4.08152074e-01, 4.08152074e-01,
          2.23635584e-01, 1.88535273e-01, 4.08152074e-01, 4.08152074e-01,
          4.08152074e-01, 1.40835002e-01, 1.68166518e-01, 2.14332223e-01,
          5.43741465e-01, 5.43741465e-01, 5.43741465e-01, 1.21717034e-02,
          4.39936668e-02, 1.02546141e-01, 1.44180760e-01, 3.98293287e-01,
          1.77540690e-01, 1.00851327e-01, 4.19415772e-01, 4.19415772e-01,
          4.19415772e-01, 1.71506047e-01, 2.49856606e-01, 4.19415772e-01,
          3.46867114e-01, 2.59795815e-01, 1.13729320e-01, 2.00622771e-02,
          4.71591532e-01, 4.71591532e-01, 4.71591532e-01, 1.33583114e-01,
          3.30305755e-01 ]
      - [ 5.31299829e-01, 5.31299829e-01, 5.31299829e-01, 2.85618175e-02,
          7.30922073e-02, 1.15441352e-01, 2.52827704e-01, 4.05696929e-02,
          2.50605106e-01, 4.32017177e-01, 2.42070496e-01, 2.39448503e-01,
          4.18354362e-01, 2.59774566e-01, 1.34026617e-01, 2.43655175e-01,
          4.32017177e-01, 4.32017177e-01, 4.74081576e-01, 2.75151193e-01,
          4.74081576e-01, 7.23804906e-02, 0., 0., 1.23710491e-01,
          4.74081576e-01, 4.74081576e-01, 1.26547396e-01, 5.34564376e-01,
          5.34564376e-01, 9.89577547e-03, 2.33379137e-02, 3.44005406e-01,
          5.34564376e-01, 4.87540290e-02, 3.29391519e-03, 3.72512080e-02,
          1.19817689e-01, 4.54989910e-01, 4.54989910e-01, 1.50359511e-01,
          3.37420672e-01, 4.54989910e-01, 4.54989910e-01, 1.23237126e-01,
          2.73972213e-01, 4.03916031e-01, 4.03916031e-01, 4.03916031e-01,
          1.83272660e-01, 1.67948186e-01, 2.48334199e-01, 4.03916031e-01,
          3.80586773e-01, 9.49201989e-04, 4.14882988e-01, 4.14882988e-01,
          3.66931796e-01, 4.14882988e-01, 4.14882988e-01, 4.14882988e-01,
          2.40028463e-02, 0., 3.15918028e-03, 2.75463704e-02,
          4.45814043e-01, 4.45814043e-01, 4.22668457e-01, 4.45814043e-01,
          4.45814043e-01, 1.44856289e-01, 1.20593347e-02, 1.73049048e-01,
          9.47974175e-02, 1.92347348e-01, 5.26287735e-01, 5.26287735e-01,
          5.26287735e-01, 1.75713271e-01, 1.62680119e-01, 1.74749956e-01 ]
      - [ 5.30227721e-01, 5.30227721e-01, 3.83417964e-01, 2.92294137e-02,
          1.71004422e-02, 0., 0., 5.58955483e-02, 5.30227721e-01,
          5.44036388e-01, 5.44036388e-01, 1.03861578e-02, 4.59781811e-02,
          1.29205137e-01, 1.62628293e-01, 3.60386521e-02, 2.44903252e-01,
          5.44036388e-01, 5.25175869e-01, 6.13746196e-02, 0.,
          1.25407577e-01, 1.85888141e-01, 1.47986293e-01, 3.02287728e-01,
          5.25175869e-01, 5.25175869e-01, 4.21563387e-01, 5.37011683e-01,
          5.37011683e-01, 3.31569761e-01, 8.10779035e-02, 2.75344700e-01,
          1.07169881e-01, 3.28240804e-02, 1.87799439e-01, 3.37546200e-01,
          3.37546200e-01, 2.91766882e-01, 3.37546200e-01, 3.37546200e-01,
          3.37546200e-01, 3.37546200e-01, 3.37546200e-01, 3.37546200e-01,
          3.16143990e-01, 3.13034147e-01, 2.33043835e-01, 2.63388544e-01,
          2.53736794e-01, 3.90985608e-01, 3.90985608e-01, 3.90985608e-01,
          3.89207095e-01, 0., 1.45248875e-01, 5.39584279e-01,
          5.39584279e-01, 5.39584279e-01, 2.48156428e-01, 1.95933312e-01,
          9.44466516e-03, 0., 1.47187442e-01, 1.27462164e-01,
          1.88371390e-01, 4.71648753e-01, 4.71648753e-01, 4.71648753e-01,
          4.71648753e-01, 1.55274689e-01, 8.92975032e-02, 1.84013456e-01,
          1.33117586e-01, 5.43562882e-02, 4.37259674e-01, 4.74992007e-01,
          4.74992007e-01, 4.74992007e-01, 2.59197474e-01, 7.40829110e-02 ]
      - [ 6.94596708e-01, 6.94596708e-01, 1.42885344e-02, 0.,
          7.47391582e-03, 4.82857414e-02, 6.86520385e-03, 0.,
          1.59681827e-01, 5.43409348e-01, 3.45271379e-01, 8.64131562e-03,
          3.73240672e-02, 3.10071915e-01, 4.31423992e-01, 5.36239333e-03,
          3.17143239e-02, 5.43409348e-01, 4.93706673e-01, 2.66989619e-02,
          1.68136641e-01, 2.46175289e-01, 3.52097213e-01, 1.24455310e-01,
          1.86503530e-01, 4.93706673e-01, 4.93706673e-01, 3.85779262e-01,
          3.85779262e-01, 3.85779262e-01, 3.85779262e-01, 3.85779262e-01,
          2.43916735e-01, 3.62415284e-01, 2.44606704e-01, 3.66749428e-02,
          3.37405890e-01, 2.89665073e-01, 1.50688812e-01, 1.34799764e-01,
          4.33466733e-01, 4.33466733e-01, 4.33466733e-01, 4.33466733e-01,
          7.39586130e-02, 6.39594719e-02, 4.05072451e-01, 4.05072451e-01,
          3.20778430e-01, 2.88758516e-01, 3.77813101e-01, 4.05072451e-01,
          4.05072451e-01, 8.06533247e-02, 0., 9.41721629e-03,
          5.65905571e-01, 5.65905571e-01, 4.54137176e-01, 1.71052404e-02,
          1.76352277e-01, 3.38235527e-01, 4.15392630e-02, 3.67433399e-01,
          3.54724705e-01, 1.87820986e-01, 3.67433399e-01, 3.67433399e-01,
          3.25071543e-01, 2.33484015e-01, 3.67433399e-01, 3.67433399e-01,
          3.85943919e-01, 5.02758384e-01, 1.73337936e-01, 1.87621526e-02,
          2.25582540e-01, 5.02758384e-01, 5.02758384e-01, 4.20542099e-02,
          6.83674812e-02 ]
      - [ 4.78387028e-01, 4.78387028e-01, 3.10895622e-01, 6.97945654e-02,
          1.56107843e-01, 8.00452307e-02, 1.22389890e-01, 4.01716173e-01,
          4.78387028e-01, 4.91389751e-01, 4.91389751e-01, 1.89901680e-01,
          6.09408692e-02, 8.88401791e-02, 3.31733316e-01, 1.49149030e-01,
          3.01229089e-01, 4.91389751e-01, 4.61648673e-01, 2.89691955e-01,
          2.10518599e-01, 2.72023559e-01, 1.72794417e-01, 2.84012139e-01,
          2.08022326e-01, 4.61648673e-01, 4.61648673e-01, 3.47576559e-01,
          3.47576559e-01, 3.47576559e-01, 3.28331411e-01, 3.47576559e-01,
          3.47576559e-01, 3.28064770e-01, 2.37155318e-01, 3.47576559e-01,
          3.43770117e-01, 3.43770117e-01, 2.26146325e-01, 3.43770117e-01,
          3.43770117e-01, 3.43770117e-01, 3.43770117e-01, 3.43770117e-01,
          3.43770117e-01, 2.55366802e-01, 3.51902455e-01, 3.51902455e-01,
          3.51902455e-01, 2.53819585e-01, 3.51902455e-01, 3.51902455e-01,
          3.51902455e-01, 3.51902455e-01, 7.67498091e-02, 1.17144763e-01,
          2.98049897e-01, 5.40943623e-01, 5.40943623e-01, 5.40943623e-01,
          1.01607013e-02, 1.98845342e-02, 8.82730260e-02, 5.70621602e-02,
          2.33219471e-02, 1.13806769e-01, 5.58119714e-01, 5.58119714e-01,
          5.58119714e-01, 4.38971855e-02, 9.11949351e-02, 1.81488976e-01,
          1.59452021e-01, 1.14829786e-01, 5.99103533e-02, 4.77941722e-01,
          4.77941722e-01, 4.77941722e-01, 4.77941722e-01, 7.08649009e-02,
          1.85178965e-01 ]
      - [ 5.07512093e-01, 5.07512093e-01, 4.08602178e-01, 4.07177769e-02,
          9.13833976e-02, 5.11339419e-02, 9.81851295e-02, 1.81675956e-01,
          5.07512093e-01, 5.62283337e-01, 8.27930197e-02, 1.07608199e-01,
          8.89665112e-02, 1.05994493e-01, 3.64457332e-02, 8.35763961e-02,
          5.62283337e-01, 5.62283337e-01, 5.69789112e-01, 2.76594907e-02,
          6.18550810e-04, 0., 0., 0., 1.39878184e-01, 5.69789112e-01,
          5.69789112e-01, 1.94370613e-01, 4.88695294e-01, 4.88695294e-01,
          2.81474471e-01, 2.98969269e-01, 2.88032353e-01, 3.79101068e-01,
          1.97513491e-01, 2.13050798e-01, 3.72637272e-01, 2.23176107e-01,
          3.72637272e-01, 3.61223519e-01, 3.72637272e-01, 3.72637272e-01,
          1.35336787e-01, 3.21525127e-01, 3.72637272e-01, 3.95778596e-01,
          1.01238107e-02, 6.33480493e-03, 2.36768693e-01, 3.95778596e-01,
          3.95778596e-01, 3.95778596e-01, 3.95778596e-01, 3.95778596e-01,
          1.90261658e-02, 2.62532920e-01, 4.80987698e-01, 4.80987698e-01,
          4.80987698e-01, 4.80987698e-01, 5.55668352e-03, 7.01843342e-03,
          2.08252855e-02, 4.51995060e-02, 1.03543010e-02, 2.65281852e-02,
          4.33661044e-01, 6.32325590e-01, 6.32325590e-01, 4.65683863e-02,
          1.73714757e-02, 2.50845999e-02, 2.92118522e-04, 4.58422182e-05,
          1.19528947e-02, 5.37280083e-01, 5.66708565e-01, 5.66708565e-01,
          2.50928700e-01, 1.56775750e-02, 5.77870669e-05 ]
      - [ 6.14060879e-01, 6.14060879e-01, 9.40921903e-02, 0., 0.,
          1.76036991e-02, 1.62490904e-02, 2.27811471e-01, 4.22376633e-01,
          4.83063906e-01, 4.83063906e-01, 6.58995882e-02, 3.84595841e-02,
          1.70669973e-01, 6.14568703e-02, 1.51806429e-01, 4.83063906e-01,
          4.83063906e-01, 2.43927270e-01, 1.16083371e-02, 1.99830141e-02,
          1.39732677e-02, 2.58253049e-02, 3.28168017e-03, 5.57829678e-01,
          5.57829678e-01, 5.57829678e-01, 3.88624072e-01, 3.88624072e-01,
          1.75610632e-01, 3.88624072e-01, 1.75595254e-01, 3.88624072e-01,
          1.68145224e-01, 3.88624072e-01, 3.88624072e-01, 1.72360957e-01,
          4.15819943e-01, 4.15819943e-01, 2.25711301e-01, 4.15819943e-01,
          4.15819943e-01, 4.15819943e-01, 2.24649385e-01, 1.39254238e-02,
          2.50089308e-03, 1.05642281e-01, 4.60352033e-01, 6.72756732e-02,
          5.54978177e-02, 8.43015909e-02, 6.14830196e-01, 6.14830196e-01,
          5.04961750e-03, 1.23029262e-01, 2.89252140e-02, 1.37308180e-01,
          5.59004366e-01, 5.59004366e-01, 5.59004366e-01, 1.27105355e-01,
          2.27848291e-02, 7.38837719e-02, 7.32312771e-03, 4.34475750e-01,
          4.34475750e-01, 4.34475750e-01, 4.34475750e-01, 4.34475750e-01,
          2.27179080e-01, 1.22182947e-02, 8.74079182e-04, 0.,
          1.00395992e-01, 3.83925706e-01, 2.60109663e-01, 4.45186675e-01,
          4.45186675e-01, 4.45186675e-01, 4.19338077e-01, 0. ]
      - [ 4.07416642e-01, 4.07416642e-01, 4.07416642e-01, 0., 0., 0.,
          4.07416642e-01, 4.07416642e-01, 4.07416642e-01, 5.61585188e-01,
          5.61585188e-01, 7.33656762e-03, 2.19285786e-02, 1.96505472e-01,
          5.09241045e-01, 1.68130532e-01, 7.61510730e-02, 1.76334381e-01,
          4.61607784e-01, 2.55669713e-01, 1.72341540e-01, 2.46008664e-01,
          3.58378679e-01, 2.52203494e-01, 9.22665298e-02, 4.61607784e-01,
          4.61607784e-01, 4.01151717e-01, 4.01151717e-01, 4.01151717e-01,
          1.02333687e-01, 1.38362525e-02, 4.01151717e-01, 4.01151717e-01,
          4.01151717e-01, 1.40686452e-01, 5.13910472e-01, 5.13910472e-01,
          2.28053033e-02, 1.68081634e-02, 2.39744067e-01, 5.13910472e-01,
          3.77161354e-01, 4.23112288e-02, 1.53324846e-02, 1.07314959e-01,
          2.20871732e-01, 4.04065937e-01, 4.04065937e-01, 3.19296569e-01,
          4.04065937e-01, 4.04065937e-01, 4.04065937e-01, 1.31779566e-01,
          2.31692359e-01, 1.47547662e-01, 4.51521963e-01, 4.51521963e-01,
          4.51521963e-01, 4.51521963e-01, 2.97578335e-01, 5.92241995e-02,
          1.11756355e-01, 1.69026539e-01, 1.21746995e-01, 2.06484809e-03,
          0., 2.19454467e-01, 6.70967162e-01, 6.70967162e-01,
          2.44532563e-02, 2.74431631e-02, 0., 4.10772145e-01,
          4.56987381e-01, 4.22953546e-01, 2.86444873e-01, 2.86240190e-01,
          4.56987381e-01, 2.57201850e-01, 0. ]
      - [ 5.26790202e-01, 5.26790202e-01, 5.26790202e-01, 1.75125316e-01,
          1.87695876e-01, 2.52492756e-01, 1.41118497e-01, 0.,
          1.12470835e-01, 3.95310968e-01, 3.95310968e-01, 2.72949666e-01,
          9.04255137e-02, 2.26784721e-01, 2.83879399e-01, 3.95310968e-01,
          3.95310968e-01, 3.95310968e-01, 4.97177035e-01, 3.39923166e-02,
          4.90037426e-02, 2.63826014e-03, 8.65600363e-04, 5.22470810e-02,
          4.97177035e-01, 4.97177035e-01, 4.97177035e-01, 4.12947088e-01,
          4.12947088e-01, 4.12947088e-01, 4.12947088e-01, 4.12947088e-01,
          3.39219630e-01, 1.65046990e-01, 3.96294566e-03, 3.03669963e-02,
          4.05137300e-01, 4.05137300e-01, 3.59727055e-01, 1.21550806e-01,
          3.46816987e-01, 4.05137300e-01, 4.05137300e-01, 2.25244656e-01,
          1.55603796e-01, 4.37739849e-01, 1.27114475e-01, 8.90169293e-03,
          1.10709615e-01, 4.37739849e-01, 4.37739849e-01, 3.66582543e-01,
          2.57460505e-01, 4.37739849e-01, 4.26924556e-01, 4.26924556e-01,
          4.26924556e-01, 3.87707323e-01, 3.34187657e-01, 4.26924556e-01,
          4.28785048e-02, 8.56090977e-04, 5.32856286e-02, 2.38630548e-01,
          3.80071580e-01, 1.46851465e-01, 3.29954252e-02, 6.14844263e-01,
          6.14844263e-01, 9.77164954e-02, 2.15075947e-02, 6.10722899e-02,
          2.09520370e-01, 2.65643355e-02, 0., 3.85345906e-01,
          6.27409399e-01, 6.27409399e-01, 2.00591628e-02, 3.46924625e-02,
          1.08393066e-01 ]
      - [ 4.81759161e-01, 4.81759161e-01, 4.81759161e-01, 4.00087804e-01,
          1.67860970e-01, 5.78649528e-03, 4.87285480e-02, 1.85162976e-01,
          2.71977305e-01, 4.21808869e-01, 4.21808869e-01, 2.56038010e-01,
          1.71155974e-01, 1.06386155e-01, 2.23337323e-03, 4.21808869e-01,
          4.21808869e-01, 4.21808869e-01, 3.33851516e-01, 4.26326096e-01,
          1.90248787e-01, 9.97376069e-03, 0., 0., 4.54801768e-01,
          4.78991896e-01, 4.78991896e-01, 3.41808975e-01, 4.04394627e-01,
          4.04394627e-01, 3.51899177e-01, 1.72140405e-01, 2.44603738e-01,
          4.04394627e-01, 4.04394627e-01, 1.08122036e-01, 2.85331309e-01,
          3.84040087e-01, 3.84040087e-01, 3.84040087e-01, 3.11528832e-01,
          7.37821162e-02, 3.84040087e-01, 3.84040087e-01, 2.73534834e-01,
          1.07042156e-01, 2.96418279e-01, 1.78957403e-01, 1.71552017e-01,
          1.67716786e-01, 1.67356953e-01, 5.98178089e-01, 5.98178089e-01,
          2.47948065e-01, 7.16885086e-04, 4.33537304e-01, 4.33537304e-01,
          4.33537304e-01, 1.78648233e-01, 4.33537304e-01, 4.33537304e-01,
          1.54857382e-01, 0., 3.45094725e-02, 5.66262417e-02,
          4.96291727e-01, 4.96291727e-01, 4.96291727e-01, 1.93302572e-01,
          4.50971782e-01, 9.36434790e-02, 4.71035615e-02, 8.17253627e-03,
          6.58437563e-03, 2.46848911e-03, 4.61370051e-01, 4.61370051e-01,
          4.61370051e-01, 4.61370051e-01, 3.76002222e-01, 4.94821444e-02 ]
      - [ 4.16541189e-01, 4.16541189e-01, 4.16541189e-01, 1.09715648e-01,
          0., 0., 3.40981513e-01, 4.16541189e-01, 4.16541189e-01,
          4.87010241e-01, 1.53440371e-01, 1.49894491e-01, 2.01868843e-02,
          0., 0., 4.87010241e-01, 4.87010241e-01, 4.87010241e-01,
          6.06114805e-01, 5.07712364e-01, 0., 0., 8.15195311e-03,
          5.53149544e-03, 3.64527963e-02, 0., 6.06114805e-01,
          7.52305537e-02, 2.73366719e-01, 5.19902408e-01, 3.18319470e-01,
          3.17017548e-02, 4.63532694e-02, 5.00276625e-01, 5.19902408e-01,
          1.38073117e-01, 3.82602334e-01, 3.82602334e-01, 1.70954168e-01,
          4.97991890e-02, 3.11107516e-01, 3.82602334e-01, 3.82602334e-01,
          3.82602334e-01, 3.68458390e-01, 4.89831656e-01, 4.58387941e-01,
          0., 0., 4.89831656e-01, 4.89831656e-01, 5.49879484e-02, 0.,
          2.49317944e-01, 4.39984836e-02, 9.78186354e-02, 4.90934193e-01,
          4.90934193e-01, 4.90934193e-01, 4.85497892e-01, 4.93362881e-02,
          1.07069142e-01, 1.04581267e-01, 3.64652663e-01, 1.72935158e-01,
          1.51473835e-01, 2.66054332e-01, 5.91657877e-01, 5.91657877e-01,
          6.49559200e-02, 7.56846443e-02, 1.65588140e-01, 1.48864061e-01,
          3.69550660e-02, 0., 0., 6.96208179e-01, 6.96208179e-01,
          8.84975400e-03, 0., 5.82834054e-03 ]
      - [ 6.25288427e-01, 6.25288427e-01, 1.45657139e-03, 3.84511100e-03,
          6.52923286e-02, 4.43893135e-01, 0., 0., 1.02296472e-01,
          4.60569918e-01, 4.60569918e-01, 8.23824406e-02, 6.39607459e-02,
          2.89887279e-01, 4.60569918e-01, 9.08959936e-03, 2.27828577e-01,
          4.60569918e-01, 4.02549326e-01, 1.21812038e-01, 1.35515988e-01,
          2.49852687e-02, 8.82914439e-02, 6.03792518e-02, 5.12369990e-01,
          5.12369990e-01, 5.12369990e-01, 5.16428947e-01, 5.16428947e-01,
          1.26518548e-01, 4.75260317e-02, 4.19457614e-01, 5.16428947e-01,
          1.43315261e-02, 0., 1.81662459e-02, 4.24024820e-01,
          4.24024820e-01, 4.24024820e-01, 2.90664494e-01, 3.59026462e-01,
          4.24024820e-01, 2.28313968e-01, 9.10120904e-02, 5.27236983e-02,
          1.58667549e-01, 2.65022933e-01, 2.22787023e-01, 3.00556365e-02,
          1.39508188e-01, 3.96381050e-01, 5.73683500e-01, 5.73683500e-01,
          1.16256140e-01, 5.66545166e-02, 2.09364280e-01, 5.52150249e-01,
          1.77469835e-01, 5.52150249e-01, 5.52150249e-01, 3.63732092e-02,
          0., 3.84922838e-03, 5.95025085e-02, 3.00842971e-01,
          4.65730518e-01, 4.65730518e-01, 4.65730518e-01, 4.65730518e-01,
          1.78469151e-01, 2.62087099e-02, 3.38135175e-02, 5.01232743e-02,
          3.33180390e-02, 9.31198373e-02, 2.45645344e-01, 5.51769674e-01,
          5.51769674e-01, 5.51769674e-01, 8.62834230e-02, 3.25661451e-02 ]
      - [ 5.47743618e-01, 5.47743618e-01, 4.71853286e-01, 2.07597725e-02,
          8.37936029e-02, 2.52600610e-01, 3.16529959e-01, 2.45713978e-03,
          1.95399784e-02, 3.64908457e-01, 3.64908457e-01, 3.64908457e-01,
          9.36029330e-02, 2.64353156e-01, 3.64908457e-01, 3.64908457e-01,
          3.64908457e-01, 3.44616890e-01, 4.99080867e-01, 2.50053909e-02,
          9.69384015e-02, 7.36538181e-03, 0., 1.95392340e-01,
          4.99080867e-01, 4.99080867e-01, 4.46671605e-01, 2.37734273e-01,
          5.48782766e-01, 5.48782766e-01, 8.01772997e-02, 2.35942490e-02,
          1.30158022e-01, 5.48782766e-01, 8.96490291e-02, 5.05130030e-02,
          4.08874810e-01, 4.08874810e-01, 4.08874810e-01, 3.52881998e-02,
          2.00434223e-01, 4.08874810e-01, 4.08874810e-01, 2.36755237e-01,
          2.50100315e-01, 4.61618274e-01, 5.79558685e-02, 2.01048721e-02,
          2.29088850e-02, 4.61618274e-01, 4.61618274e-01, 3.53206456e-01,
          1.18239239e-01, 4.61618274e-01, 1.30314827e-01, 3.28741491e-01,
          4.93909806e-01, 4.93909806e-01, 4.93909806e-01, 3.60882938e-01,
          4.91999872e-02, 3.47547419e-02, 6.56384155e-02, 2.67860621e-01,
          1.38990030e-01, 1.56664610e-01, 2.43695825e-01, 6.23448074e-01,
          6.23448074e-01, 1.54390991e-01, 5.15272319e-02, 1.22105725e-01,
          2.86309034e-01, 1.76420491e-02, 0., 1.20419562e-01,
          6.55826628e-01, 6.55826628e-01, 1.35346800e-01, 2.23493967e-02,
          1.32785574e-01 ]
      - [ 6.28325760e-01, 6.28325760e-01, 1.75678402e-01, 9.67577100e-02,
          1.57902077e-01, 3.21791619e-01, 7.27644414e-02, 1.14330940e-03,
          1.73598379e-01, 3.90945166e-01, 3.90945166e-01, 6.26774356e-02,
          3.90945166e-01, 1.77997813e-01, 3.90945166e-01, 3.90945166e-01,
          2.08456218e-01, 3.90945166e-01, 1.52633578e-01, 4.61192615e-02,
          2.29207978e-01, 5.43635547e-01, 5.26433028e-02, 7.47307912e-02,
          1.47091433e-01, 5.43635547e-01, 5.43635547e-01, 4.16530669e-01,
          4.26765412e-01, 4.26765412e-01, 2.39090189e-01, 1.85486630e-01,
          4.26765412e-01, 4.26765412e-01, 4.37766276e-02, 1.54419644e-02,
          2.05396011e-01, 1.55636132e-01, 4.18077290e-01, 4.18077290e-01,
          1.45430297e-01, 3.71127695e-01, 4.18077290e-01, 4.18077290e-01,
          2.67157614e-01, 2.24344417e-01, 3.75431240e-01, 3.75431240e-01,
          3.75431240e-01, 1.34879192e-02, 3.75431240e-01, 3.75431240e-01,
          3.75431240e-01, 3.16299200e-01, 1.16191266e-04, 4.24043864e-01,
          4.24043864e-01, 2.66235769e-01, 4.24043864e-01, 4.24043864e-01,
          4.24043864e-01, 1.60675541e-01, 0., 1.87492535e-01,
          1.01033561e-01, 4.44316059e-01, 4.44316059e-01, 4.44316059e-01,
          1.52308851e-01, 8.06268603e-02, 4.44316059e-01, 3.61710906e-01,
          3.92592996e-01, 4.18016523e-01, 7.50775561e-02, 3.08537453e-01,
          4.18016523e-01, 4.18016523e-01, 4.18016523e-01, 1.10218786e-01,
          1.72521248e-01 ]
      - [ 4.17577565e-01, 4.17577565e-01, 1.82976142e-01, 0., 0.,
          3.00820738e-01, 4.17577565e-01, 4.17577565e-01, 4.17577565e-01,
          5.76471210e-01, 6.26412928e-01, 3.70153993e-01, 2.71692146e-02,
          5.32989902e-03, 1.25551492e-01, 2.21482083e-01, 1.52786598e-01,
          2.07585305e-01, 2.65435189e-01, 4.28660005e-01, 7.03880414e-02,
          3.85469869e-02, 8.64306930e-03, 4.28660005e-01, 4.28660005e-01,
          4.28660005e-01, 4.28660005e-01, 3.43103260e-01, 3.43103260e-01,
          3.43103260e-01, 3.43103260e-01, 3.43103260e-01, 2.79109031e-01,
          3.43103260e-01, 3.07621777e-01, 3.43103260e-01, 3.89080018e-01,
          3.89080018e-01, 3.80546600e-01, 2.53521055e-01, 2.44008765e-01,
          3.89080018e-01, 3.89080018e-01, 2.41301015e-01, 2.52437800e-01,
          4.57487553e-01, 7.74854571e-02, 2.96014212e-02, 4.60003922e-03,
          1.19181843e-02, 5.20845056e-01, 5.20845056e-01, 2.26150975e-01,
          4.29833144e-01, 1.04142480e-01, 2.73792390e-02, 4.37101275e-01,
          6.16493762e-01, 6.16493762e-01, 4.72690426e-02, 1.12648923e-02,
          2.12704055e-02, 1.68074474e-01, 2.29540527e-01, 3.65896225e-02,
          4.69515085e-01, 4.69515085e-01, 4.69515085e-01, 1.69724703e-01,
          2.43580863e-01, 3.30822974e-01, 2.86997348e-01, 3.98319989e-01,
          8.63533560e-03, 2.64384653e-02, 2.08072811e-01, 3.98319989e-01,
          3.98319989e-01, 3.98319989e-01, 3.98319989e-01, 3.98319989e-01 ]
      - [ 5.79188526e-01, 5.79188526e-01, 1.25310853e-01, 9.73769352e-02,
          1.64318770e-01, 2.22973108e-01, 5.04328869e-02, 1.25033837e-02,
          4.67648685e-01, 5.29571652e-01, 6.97354227e-02, 7.14115798e-02,
          1.53975442e-01, 4.51986670e-01, 3.37114781e-01, 1.98326990e-01,
          2.07065463e-01, 5.29571652e-01, 3.39361995e-01, 1.64622180e-02,
          2.41235286e-01, 4.21559989e-01, 3.41803849e-01, 7.25184754e-02,
          1.53166175e-01, 4.99060124e-01, 4.99060124e-01, 3.55189890e-01,
          3.55189890e-01, 3.55189890e-01, 3.55189890e-01, 2.40416348e-01,
          3.55189890e-01, 3.55189890e-01, 3.55189890e-01, 2.35652909e-01,
          2.33857602e-01, 2.48951986e-01, 3.71760339e-01, 3.71760339e-01,
          3.71760339e-01, 3.71760339e-01, 3.71760339e-01, 3.71760339e-01,
          2.24466264e-01, 1.42481923e-01, 4.13156092e-01, 4.13156092e-01,
          4.03824180e-01, 1.91707939e-01, 1.55222476e-01, 4.13156092e-01,
          4.13156092e-01, 2.62411684e-01, 2.60632187e-01, 1.34621501e-01,
          4.25822020e-01, 4.25822020e-01, 4.25822020e-01, 3.13852757e-01,
          1.09049939e-01, 3.49323899e-01, 3.65100592e-01, 2.27825209e-01,
          2.43706077e-01, 1.98111445e-01, 4.59191710e-01, 4.59191710e-01,
          4.59191710e-01, 2.18528494e-01, 3.17895949e-01, 2.51961648e-01,
          2.16266841e-01, 3.31861198e-01, 1.04117326e-01, 4.39710855e-01,
          4.39710855e-01, 4.39710855e-01, 4.39710855e-01, 1.27401590e-01,
          1.95577145e-01 ]
      - [ 4.96916533e-01, 4.96916533e-01, 4.96916533e-01, 8.56314451e-02,
          0., 0., 0., 0., 4.96916533e-01, 4.42367554e-01, 4.42367554e-01,
          3.63963187e-01, 1.08947784e-01, 7.03553930e-02, 0.,
          2.52064168e-01, 4.42367554e-01, 4.42367554e-01, 5.24755001e-01,
          3.67700774e-03, 9.34109837e-03, 4.66522574e-03, 1.44347334e-02,
          0., 4.10274297e-01, 5.24755001e-01, 5.24755001e-01,
          4.36683744e-01, 2.56542534e-01, 4.04913753e-01, 4.36683744e-01,
          4.36683744e-01, 5.56591526e-02, 0., 0., 4.36683744e-01,
          3.45474213e-01, 2.67578512e-01, 3.45474213e-01, 3.45474213e-01,
          3.45474213e-01, 3.45474213e-01, 3.45474213e-01, 2.99137056e-01,
          3.45474213e-01, 3.04639339e-01, 1.27434591e-02, 3.94615456e-02,
          4.87044454e-02, 4.23997074e-01, 4.23997074e-01, 4.23997074e-01,
          4.23997074e-01, 4.23997074e-01, 0., 7.66474381e-02,
          5.69972515e-01, 5.28039038e-01, 6.17157876e-01, 5.81849851e-02,
          0., 0., 0., 0., 1.84428155e-01, 4.38233435e-01, 4.38233435e-01,
          4.38233435e-01, 4.38233435e-01, 4.38233435e-01, 3.69618908e-02,
          0., 0., 2.05623265e-02, 1.00808151e-01, 2.48836309e-01,
          5.51353574e-01, 5.51353574e-01, 5.51353574e-01, 1.00085765e-01,
          0. ]
      - [ 6.20062053e-01, 6.20062053e-01, 4.00528312e-01, 2.88352128e-02,
          1.39236087e-02, 2.48359084e-01, 3.06406897e-02, 0.,
          2.80328225e-02, 3.92052680e-01, 3.92052680e-01, 1.20721720e-01,
          2.28840441e-01, 3.92052680e-01, 3.92052680e-01, 8.31256956e-02,
          3.92052680e-01, 3.92052680e-01, 3.15251090e-02, 4.27560471e-02,
          2.68524438e-01, 2.62401760e-01, 2.09215596e-01, 7.47544616e-02,
          2.77049810e-01, 6.01703465e-01, 6.01703465e-01, 3.95690173e-01,
          3.95690173e-01, 3.95690173e-01, 3.95690173e-01, 9.76769552e-02,
          3.95690173e-01, 2.67848104e-01, 1.99086189e-01, 3.03767592e-01,
          3.93065542e-01, 3.93065542e-01, 3.25220853e-01, 2.02385336e-01,
          3.46927822e-01, 3.93065542e-01, 3.05209607e-01, 1.33532897e-01,
          3.93065542e-01, 2.39544541e-01, 4.46918875e-01, 4.46918875e-01,
          1.58879161e-01, 1.24164782e-01, 2.96612263e-01, 4.46918875e-01,
          4.46918875e-01, 1.02810524e-01, 1.46020770e-01, 1.68277934e-01,
          4.93489712e-01, 5.66067159e-01, 5.66067159e-01, 2.21638810e-02,
          2.90400311e-02, 8.20754617e-02, 2.28562564e-01, 4.34909731e-01,
          7.82212168e-02, 4.62811626e-03, 4.62923050e-01, 4.62923050e-01,
          4.62923050e-01, 2.04177313e-02, 2.69690864e-02, 3.95034611e-01,
          1.37027666e-01, 1.10947520e-01, 1.98892914e-02, 6.58809468e-02,
          5.60227573e-01, 5.60227573e-01, 5.60227573e-01, 1.24949597e-01,
          3.75067219e-02 ]
      - [ 4.95408028e-01, 4.95408028e-01, 7.30218664e-02, 2.41249967e-02,
          2.70829233e-03, 5.00868447e-02, 7.00376406e-02, 4.95408028e-01,
          4.95408028e-01, 5.19231558e-01, 5.19231558e-01, 1.70566812e-01,
          8.18173364e-02, 1.94642097e-01, 5.19231558e-01, 1.04985729e-01,
          1.10972151e-01, 2.98329800e-01, 3.43298286e-01, 2.70446092e-01,
          1.95738032e-01, 6.20903745e-02, 1.00293174e-01, 1.28512457e-01,
          4.95081753e-01, 4.95081753e-01, 4.95081753e-01, 3.55370969e-01,
          3.55370969e-01, 3.55370969e-01, 3.55370969e-01, 3.16206425e-01,
          3.55370969e-01, 1.11550182e-01, 3.55370969e-01, 3.55370969e-01,
          2.55295813e-01, 4.96777534e-01, 4.96777534e-01, 3.84472646e-02,
          1.22124389e-01, 4.96777534e-01, 4.14362550e-01, 2.63128169e-02,
          2.67847106e-02, 4.18834295e-03, 4.93952125e-01, 4.26813573e-01,
          2.54006032e-02, 3.00532524e-02, 3.38809669e-01, 5.22426784e-01,
          4.23477292e-01, 1.91685325e-03, 4.10955362e-02, 1.45061806e-01,
          3.52123976e-01, 5.30296624e-01, 5.30296624e-01, 5.30296624e-01,
          4.42646742e-02, 1.76326709e-03, 4.87332642e-02, 1.90577060e-02,
          4.70334142e-01, 4.70334142e-01, 2.63182104e-01, 2.01653168e-01,
          4.70334142e-01, 4.70334142e-01, 1.23310853e-02, 1.09267246e-03,
          1.88164006e-03, 3.71388614e-01, 2.43227154e-01, 4.21363190e-02,
          5.86944968e-02, 6.21643364e-01, 6.21643364e-01, 1.36379153e-01,
          0. ]
      - [ 6.16880476e-01, 1.77424222e-01, 1.61411330e-01, 0., 0., 0., 0.,
          4.18598682e-01, 6.16880476e-01, 5.42693615e-01, 5.42693615e-01,
          2.88690239e-01, 3.65488377e-04, 1.06863052e-01, 5.95157333e-02,
          1.10679865e-01, 2.18440071e-02, 5.42693615e-01, 4.85553741e-01,
          1.48960859e-01, 7.63881058e-02, 5.95153950e-04, 1.50530577e-01,
          3.76330242e-02, 4.85553741e-01, 4.85553741e-01, 4.85553741e-01,
          3.88672054e-01, 9.02993232e-02, 1.11086980e-01, 5.06818533e-01,
          5.06818533e-01, 1.60232075e-02, 0., 2.29185998e-01,
          5.06818533e-01, 3.73169690e-01, 3.73169690e-01, 3.73169690e-01,
          3.73169690e-01, 3.73169690e-01, 1.74887598e-01, 3.49420965e-01,
          8.97633806e-02, 3.73169690e-01, 3.67494076e-01, 1.73342198e-01,
          2.13787124e-01, 4.87672053e-02, 4.05007660e-01, 4.05007660e-01,
          4.05007660e-01, 4.05007660e-01, 3.55874240e-01, 6.40255511e-02,
          1.20040728e-03, 9.84266587e-03, 6.89780653e-01, 6.89780653e-01,
          6.33345768e-02, 0., 0., 1.82511687e-01, 6.73078373e-02,
          8.27144310e-02, 4.71276283e-01, 4.71276283e-01, 4.71276283e-01,
          2.65084475e-01, 4.71276283e-01, 1.41367540e-01, 7.25312382e-02,
          3.34745757e-02, 9.84389521e-03, 1.84529111e-01, 4.38141644e-01,
          4.38141644e-01, 4.38141644e-01, 4.38141644e-01, 4.38141644e-01,
          2.26804260e-02 ]
      - [ 2.62262940e-01, 4.48996514e-01, 4.48996514e-01, 1.88195735e-01,
          1.43726089e-03, 1.05049023e-02, 2.91224420e-01, 4.48996514e-01,
          4.48996514e-01, 4.09837723e-01, 4.09837723e-01, 4.09837723e-01,
          4.91425022e-02, 4.91098152e-04, 3.58942407e-03, 3.91973078e-01,
          4.09837723e-01, 4.09837723e-01, 1.80332080e-01, 1.44418433e-01,
          2.23308250e-01, 4.74554533e-03, 0., 0., 5.45066118e-01,
          5.45066118e-01, 5.45066118e-01, 7.19765276e-02, 4.15000945e-01,
          5.46728969e-01, 5.46728969e-01, 3.50993350e-02, 1.98584273e-02,
          2.38089532e-01, 2.93904364e-01, 2.73159236e-01, 3.01765442e-01,
          3.59592825e-01, 3.59592825e-01, 3.59592825e-01, 1.39966840e-02,
          3.59592825e-01, 3.59592825e-01, 3.59592825e-01, 3.59592825e-01,
          3.40443626e-02, 1.05173811e-01, 1.67566374e-01, 2.33117137e-02,
          0., 5.62807024e-01, 5.62807024e-01, 5.62807024e-01,
          5.72896786e-02, 1.86140696e-03, 5.71929634e-01, 5.71929634e-01,
          5.71929634e-01, 1.11418776e-01, 2.02741809e-02, 0., 0.,
          1.22345649e-02, 2.42558923e-02, 4.73744482e-01, 4.73744482e-01,
          2.93137640e-01, 8.77540931e-02, 4.73744482e-01, 4.73744482e-01,
          5.60422279e-02, 1.31609254e-02, 1.09009724e-02, 4.47708787e-03,
          4.96525690e-02, 1.00841941e-02, 0., 6.83630049e-01,
          6.83630049e-01, 2.36155599e-01, 0. ]
      - [ 6.90813482e-01, 6.90813482e-01, 5.39938174e-02, 1.86081771e-02,
          5.78047931e-02, 5.44117652e-02, 0., 0., 1.70569003e-01,
          4.17441219e-01, 4.17441219e-01, 3.40247452e-01, 1.96945239e-02,
          2.97654979e-02, 8.66137594e-02, 4.17441219e-01, 4.17441219e-01,
          4.17441219e-01, 4.16105270e-01, 3.59870493e-01, 4.16105270e-01,
          0., 1.98883843e-02, 1.49341663e-02, 4.16105270e-01,
          4.16105270e-01, 4.16105270e-01, 4.34287876e-01, 4.34287876e-01,
          4.31458443e-01, 1.95417240e-01, 2.13879704e-01, 4.34287876e-01,
          3.99582595e-01, 7.04337703e-03, 6.26995787e-03, 3.44679594e-01,
          3.44679594e-01, 3.44679594e-01, 3.44679594e-01, 2.14764699e-01,
          3.44679594e-01, 3.44679594e-01, 3.44679594e-01, 3.44679594e-01,
          1.54321313e-01, 4.25093144e-01, 4.25093144e-01, 1.56688299e-02,
          8.62827674e-02, 4.25093144e-01, 4.25093144e-01, 4.25093144e-01,
          2.46429265e-01, 1.29811820e-02, 4.06977803e-01, 4.06977803e-01,
          4.06977803e-01, 4.06977803e-01, 4.06977803e-01, 4.06977803e-01,
          4.45004031e-02, 0., 1.44488856e-01, 1.37783021e-01,
          4.62754339e-01, 4.62754339e-01, 4.62754339e-01, 4.62754339e-01,
          1.91805407e-01, 1.13947555e-01, 2.21758723e-01, 8.60706642e-02,
          4.24962223e-01, 4.37186569e-01, 1.23329513e-01, 4.37186569e-01,
          4.37186569e-01, 4.37186569e-01, 1.49565816e-01, 7.43186548e-02 ]
      - [ 5.72331965e-01, 5.72331965e-01, 2.12144777e-01, 3.55103007e-03,
          1.16724283e-01, 3.31475675e-01, 9.71072819e-03, 5.11664385e-03,
          4.12938267e-01, 4.97944266e-01, 9.12081003e-02, 2.02439241e-02,
          8.68376344e-02, 4.97944266e-01, 4.83430773e-01, 4.78183938e-04,
          3.47305946e-02, 4.97944266e-01, 4.72793400e-01, 1.48595721e-01,
          1.67216763e-01, 2.28813738e-01, 3.72970760e-01, 5.99632971e-02,
          2.82092452e-01, 4.72793400e-01, 4.72793400e-01, 3.61431718e-01,
          3.27730715e-01, 3.65399331e-01, 3.65399331e-01, 2.29890168e-01,
          3.65399331e-01, 3.65399331e-01, 3.65399331e-01, 1.94618210e-01,
          3.11535150e-01, 3.82621199e-01, 3.82621199e-01, 1.84607565e-01,
          3.82621199e-01, 3.82621199e-01, 1.34414911e-01, 3.39088559e-01,
          3.82621199e-01, 5.66137247e-02, 4.32452053e-01, 4.32452053e-01,
          1.83413625e-01, 2.11594313e-01, 4.32452053e-01, 4.32452053e-01,
          3.97080034e-01, 9.12719965e-02, 4.26980704e-02, 2.42554434e-02,
          4.21948642e-01, 5.65100968e-01, 2.59072721e-01, 4.45263786e-03,
          8.32756683e-02, 5.65100968e-01, 3.18045974e-01, 4.24231827e-01,
          2.50419885e-01, 9.66912284e-02, 4.24231827e-01, 4.24231827e-01,
          3.50914448e-01, 2.47716624e-02, 2.82944620e-01, 4.24231827e-01,
          3.08887601e-01, 4.74906504e-01, 2.56600440e-01, 6.07764488e-03,
          3.61254066e-01, 4.74906504e-01, 4.74906504e-01, 5.62144034e-02,
          1.53920099e-01 ]
      - [ 7.09755838e-01, 3.41650277e-01, 6.82891533e-02, 8.07339675e-04,
          0., 0., 0., 0., 6.06442750e-01, 6.66530669e-01, 2.93046951e-01,
          7.14133680e-02, 7.67928176e-03, 9.02225226e-02, 5.31903096e-02,
          2.31024940e-02, 4.77620028e-02, 6.66530669e-01, 5.67871332e-01,
          0., 3.04078702e-02, 2.96137985e-02, 1.14056773e-01,
          1.91209782e-02, 1.08256988e-01, 5.67871332e-01, 5.67871332e-01,
          5.19307554e-01, 2.90010571e-01, 1.38242170e-01, 2.29369178e-01,
          5.19307554e-01, 5.19307554e-01, 0., 0., 1.73047572e-01,
          4.19030041e-01, 1.72560915e-01, 1.71701759e-01, 4.19030041e-01,
          4.19030041e-01, 3.36581230e-01, 3.13525468e-01, 1.50417134e-01,
          4.19030041e-01, 3.45287979e-01, 1.85594514e-01, 3.35910171e-01,
          1.69258446e-01, 3.74461144e-01, 3.74461144e-01, 3.74461144e-01,
          3.74461144e-01, 3.74461144e-01, 8.17285106e-02, 7.16754869e-02,
          1.19615361e-01, 4.43573624e-01, 6.20841086e-01, 6.20841086e-01,
          0., 0., 5.64102409e-03, 6.12547062e-02, 2.44910587e-02,
          2.05008656e-01, 6.47734284e-01, 6.47734284e-01, 2.99619824e-01,
          6.86643422e-02, 8.13574567e-02, 8.32312629e-02, 9.43772197e-02,
          8.08117539e-02, 9.46605355e-02, 4.36614275e-01, 5.51897824e-01,
          5.51897824e-01, 4.03998375e-01, 7.29110464e-02, 4.17766757e-02 ]
      - [ 5.50691545e-01, 5.50691545e-01, 3.13921392e-01, 7.95081556e-02,
          1.15398593e-01, 2.73827493e-01, 3.84891450e-01, 5.00427969e-02,
          2.10157290e-01, 4.28988546e-01, 2.84916610e-01, 1.93864748e-01,
          4.28988546e-01, 2.33064547e-01, 2.12939560e-01, 2.02895552e-01,
          4.28988546e-01, 4.28988546e-01, 5.70961237e-01, 3.91014740e-02,
          6.67521507e-02, 8.78183171e-02, 4.96206395e-02, 1.18506812e-02,
          3.00366920e-03, 5.70961237e-01, 5.70961237e-01, 1.85231939e-01,
          4.67557967e-01, 4.67557967e-01, 1.87639609e-01, 1.73479728e-02,
          4.34851944e-01, 4.67557967e-01, 2.62787819e-01, 1.07351787e-01,
          3.65590930e-01, 3.65590930e-01, 3.65590930e-01, 3.65590930e-01,
          3.27440917e-01, 3.65590930e-01, 3.65590930e-01, 2.40229964e-01,
          1.71694860e-01, 3.25062037e-01, 1.82399705e-01, 2.65845358e-01,
          3.73726308e-01, 3.73726308e-01, 3.73726308e-01, 2.97154486e-01,
          3.73726308e-01, 3.73726308e-01, 1.68460682e-01, 2.05866069e-01,
          4.81793880e-01, 4.81793880e-01, 4.81793880e-01, 2.63772070e-01,
          2.92260408e-01, 1.98507756e-01, 1.83452249e-01, 1.97897494e-01,
          3.31483662e-01, 9.34961215e-02, 4.48816866e-01, 4.48816866e-01,
          4.48816866e-01, 4.48816866e-01, 1.40768960e-01, 1.10309377e-01,
          5.19229472e-02, 7.75146410e-02, 1.97117031e-01, 5.37722051e-01,
          5.37722051e-01, 5.37722051e-01, 2.46585354e-01, 1.23171628e-01,
          6.04954064e-02 ]
      - [ 3.48951459e-01, 4.53392178e-01, 4.53392178e-01, 0., 0., 0.,
          4.53392178e-01, 4.53392178e-01, 2.26817772e-01, 8.54419991e-02,
          5.09221315e-01, 4.55375373e-01, 0., 4.88407351e-03,
          5.36392024e-03, 5.09221315e-01, 5.09221315e-01, 4.77029309e-02,
          4.25048202e-01, 4.25048202e-01, 3.27459961e-01, 3.23560610e-02,
          7.09401369e-02, 2.14515105e-02, 4.25048202e-01, 4.25048202e-01,
          3.99149835e-01, 2.03102510e-02, 2.17090085e-01, 5.00769973e-01,
          3.83863896e-01, 7.47119822e-03, 8.48970842e-04, 5.00769973e-01,
          5.00769973e-01, 2.18490854e-01, 4.39325064e-01, 4.39325064e-01,
          1.31392762e-01, 1.30997365e-02, 4.04408388e-02, 4.39325064e-01,
          2.91134238e-01, 4.39325064e-01, 3.46056849e-01, 1.58853889e-01,
          4.50484574e-01, 4.50484574e-01, 1.60408989e-01, 2.62329489e-01,
          4.50484574e-01, 4.50484574e-01, 2.52814025e-01, 7.58604705e-03,
          5.00115752e-02, 3.19271050e-02, 4.80576664e-01, 4.80576664e-01,
          4.80576664e-01, 1.00076854e-01, 4.30916362e-02, 4.46859419e-01,
          2.95401514e-01, 4.45460469e-01, 3.64362121e-01, 6.47946671e-02,
          2.22681135e-01, 4.45460469e-01, 4.45460469e-01, 1.48332492e-01,
          2.01918200e-01, 3.88493001e-01, 4.74102423e-02, 4.09948438e-01,
          4.38344568e-01, 2.24964276e-01, 4.34898406e-01, 4.38344568e-01,
          4.38344568e-01, 9.55635235e-02, 0. ]
      - [ 4.01048034e-01, 4.08675432e-01, 4.08675432e-01, 0., 0., 0.,
          4.08675432e-01, 4.08675432e-01, 4.08675432e-01, 1.67623430e-01,
          4.46851939e-01, 4.46851939e-01, 0., 0., 0., 4.46851939e-01,
          4.46851939e-01, 4.10770267e-01, 4.03869241e-01, 4.03869241e-01,
          4.03869241e-01, 0., 0., 1.31540924e-01, 4.03869241e-01,
          4.03869241e-01, 4.03869241e-01, 1.41487205e-02, 4.45179999e-01,
          4.45179999e-01, 4.45179999e-01, 6.09959364e-02, 6.13106135e-03,
          4.45179999e-01, 4.45179999e-01, 2.58598030e-02, 3.95084172e-01,
          4.56410021e-01, 4.56410021e-01, 4.47519794e-02, 1.66184306e-02,
          1.19555164e-02, 4.56410021e-01, 4.56410021e-01, 6.07231930e-02,
          6.16601817e-02, 4.82686251e-01, 4.82686251e-01, 3.92428078e-02,
          1.99818183e-02, 4.82686251e-01, 4.82686251e-01, 2.37884328e-01,
          3.00793462e-02, 1.19399026e-01, 6.90974593e-02, 5.52652955e-01,
          5.52652955e-01, 3.62403572e-01, 2.50015724e-02, 3.06302190e-01,
          3.47229898e-01, 1.35088786e-01, 3.87666017e-01, 3.87666017e-01,
          1.52627915e-01, 3.87666017e-01, 3.87666017e-01, 3.87666017e-01,
          2.66782194e-01, 2.96850830e-01, 2.49226615e-01, 7.29176179e-02,
          1.87085971e-01, 7.96406046e-02, 4.35651392e-01, 4.35651392e-01,
          4.35651392e-01, 4.35651392e-01, 4.35651392e-01, 5.17117977e-03 ]
      - [ 6.47744477e-01, 6.47744477e-01, 4.82484922e-02, 1.34360706e-02,
          1.13306805e-01, 3.89409512e-02, 4.75836694e-02, 1.04678934e-02,
          3.67628127e-01, 5.57266176e-01, 1.52740434e-01, 4.71945181e-02,
          7.27288127e-02, 1.75317511e-01, 2.52704322e-02, 2.40200702e-02,
          5.57266176e-01, 5.57266176e-01, 5.63416839e-01, 9.34251642e-04,
          7.92122353e-03, 2.70325714e-03, 1.54237414e-03, 0.,
          2.04902112e-01, 5.63416839e-01, 5.63416839e-01, 4.13304299e-01,
          4.13304299e-01, 4.13304299e-01, 4.13304299e-01, 2.54601300e-01,
          1.74140871e-01, 2.28092298e-01, 3.68078798e-01, 1.73016071e-01,
          3.50790083e-01, 3.50790083e-01, 3.50790083e-01, 3.50790083e-01,
          3.50790083e-01, 3.42132986e-01, 1.34404302e-01, 3.50790083e-01,
          3.50790083e-01, 4.38512564e-01, 8.12474564e-02, 8.20370391e-02,
          8.48162845e-02, 1.16740331e-01, 4.38512564e-01, 4.38512564e-01,
          4.38512564e-01, 4.38512564e-01, 2.61212662e-02, 5.98828867e-02,
          4.96578366e-01, 4.96578366e-01, 4.96578366e-01, 4.96578366e-01,
          8.23836681e-03, 4.77421619e-02, 4.54362631e-02, 8.49304572e-02,
          6.58594966e-02, 6.80781677e-02, 5.69644809e-01, 5.69644809e-01,
          5.69644809e-01, 1.31858569e-02, 3.19930613e-02, 5.86818233e-02,
          6.33656606e-03, 1.73362605e-02, 1.68556981e-02, 2.50833780e-01,
          6.11624539e-01, 6.11624539e-01, 4.25786138e-01, 2.29767356e-02,
          1.89669374e-02 ]
      - [ 6.86738729e-01, 6.86738729e-01, 6.67025521e-02, 0.,
          5.05680963e-02, 4.12201625e-04, 2.62407959e-02, 3.60169820e-03,
          2.05465823e-01, 4.67139632e-01, 2.62620181e-01, 6.85708746e-02,
          1.04639523e-01, 2.00715773e-02, 4.08023864e-01, 2.98611224e-01,
          4.67139632e-01, 4.67139632e-01, 4.44542855e-01, 3.33224207e-01,
          3.47320378e-01, 3.54012698e-01, 1.49755215e-04, 1.21016443e-01,
          1.76251769e-01, 4.44542855e-01, 4.44542855e-01, 3.80566478e-01,
          4.51966286e-01, 4.51966286e-01, 2.13878632e-01, 3.19528580e-01,
          2.99244255e-01, 4.51966286e-01, 1.96871627e-02, 7.53974356e-03,
          3.43745261e-01, 3.05053562e-01, 3.53346765e-01, 3.53346765e-01,
          1.90072700e-01, 3.53346765e-01, 3.53346765e-01, 3.53346765e-01,
          3.53346765e-01, 2.98093140e-01, 3.91210169e-01, 3.91210169e-01,
          2.73407787e-01, 1.11378767e-02, 3.91210169e-01, 3.91210169e-01,
          3.91210169e-01, 2.59093434e-01, 0., 2.81832665e-01,
          4.28034842e-01, 4.28034842e-01, 4.28034842e-01, 4.28034842e-01,
          4.28034842e-01, 1.50190024e-02, 0., 1.55704528e-01,
          4.95657250e-02, 3.34698915e-01, 5.28537095e-01, 5.28537095e-01,
          4.27345335e-01, 1.52001351e-01, 1.93392068e-01, 2.32735544e-01,
          1.88554749e-01, 1.89774543e-01, 3.78216989e-02, 1.56518102e-01,
          5.78558445e-01, 5.78558445e-01, 4.59131926e-01, 4.29418236e-02,
          1.20918237e-01 ]
      - [ 4.16709661e-01, 3.56873244e-01, 4.16709661e-01, 4.16709661e-01,
          4.16709661e-01, 7.74692092e-03, 0., 1.35620181e-02,
          4.16709661e-01, 4.58668292e-01, 5.02305888e-02, 1.69275016e-01,
          4.58668292e-01, 4.58668292e-01, 3.43361422e-02, 1.02844536e-01,
          3.33135068e-01, 4.58668292e-01, 3.43766242e-01, 1.65362209e-02,
          6.43292591e-02, 5.23750521e-02, 2.19111312e-02, 1.39621571e-02,
          5.38089573e-01, 5.38089573e-01, 5.38089573e-01, 4.80178833e-01,
          2.22877696e-01, 1.52113959e-01, 4.80178833e-01, 4.80178833e-01,
          1.01975380e-02, 0., 0., 4.80178833e-01, 4.13093477e-01,
          4.13093477e-01, 4.13093477e-01, 4.13093477e-01, 4.13093477e-01,
          2.35113408e-02, 1.75467879e-01, 8.69951323e-02, 3.22075129e-01,
          2.87903734e-02, 2.20980868e-01, 3.54163647e-01, 7.34065101e-02,
          2.59042047e-02, 1.67307511e-01, 5.79332471e-01, 5.79332471e-01,
          3.37369472e-01, 4.17483807e-01, 3.31776530e-01, 4.17483807e-01,
          4.17483807e-01, 4.17483807e-01, 1.19541429e-01, 0., 0.,
          4.17483807e-01, 5.03634036e-01, 3.11134785e-01, 7.04863966e-02,
          8.89654160e-02, 5.03634036e-01, 5.03634036e-01, 2.78836768e-02,
          1.58072487e-02, 3.51159155e-01, 3.07982992e-02, 5.42004555e-02,
          2.48553697e-02, 1.42283738e-02, 4.80881363e-01, 4.80881363e-01,
          4.80881363e-01, 4.80881363e-01, 2.55935401e-01 ]
      - [ 5.85284173e-01, 5.85284173e-01, 1.02287091e-01, 5.34310415e-02,
          2.54120499e-01, 4.39170986e-01, 4.80776355e-02, 0.,
          1.89640000e-01, 4.68957871e-01, 3.16503346e-01, 1.74162075e-01,
          3.01638782e-01, 2.89432168e-01, 1.61539674e-01, 6.47508949e-02,
          4.68957871e-01, 4.68957871e-01, 5.45928895e-01, 5.26935160e-02,
          3.43643837e-02, 3.44069116e-02, 0., 0., 2.85924762e-01,
          5.52066207e-01, 5.52066207e-01, 5.00205100e-01, 5.00205100e-01,
          2.15739995e-01, 7.65476525e-02, 3.11709434e-01, 5.00205100e-01,
          3.02743793e-01, 2.49294471e-02, 5.04728071e-02, 3.65829527e-01,
          3.65829527e-01, 3.65829527e-01, 3.65829527e-01, 3.47596228e-01,
          3.65829527e-01, 1.01761155e-01, 3.65829527e-01, 2.49357402e-01,
          3.94583255e-01, 1.96852222e-01, 1.25151664e-01, 1.32071465e-01,
          3.81735086e-01, 3.94583255e-01, 3.94583255e-01, 3.94583255e-01,
          3.94583255e-01, 4.22865242e-01, 4.22865242e-01, 4.22865242e-01,
          3.06026429e-01, 4.22865242e-01, 4.22865242e-01, 6.62764385e-02,
          2.16209777e-02, 5.64669184e-02, 5.18423438e-01, 4.11645353e-01,
          1.04181655e-01, 7.55218491e-02, 5.18423438e-01, 5.18423438e-01,
          3.88816595e-02, 5.57374349e-03, 3.13331373e-02, 1.57686710e-01,
          6.10585883e-02, 4.58172373e-02, 5.52436449e-02, 6.63109124e-01,
          6.63109124e-01, 2.64561325e-01, 6.44941404e-02, 7.78196603e-02 ]
      - [ 5.79993665e-01, 5.79993665e-01, 2.51506180e-01, 2.85929046e-03,
          0., 0., 0., 3.93104516e-02, 5.06571233e-01, 4.48137611e-01,
          4.48137611e-01, 1.99206382e-01, 4.51547932e-03, 9.81865730e-03,
          0., 3.90402913e-01, 4.48137611e-01, 4.48137611e-01,
          3.76390278e-01, 1.00973830e-01, 1.76683012e-02, 6.33232194e-05,
          1.73733162e-03, 0., 5.40757596e-01, 5.40757596e-01,
          5.07525206e-01, 4.93740052e-01, 4.93740052e-01, 4.93740052e-01,
          1.51642635e-01, 1.58530056e-01, 4.18052346e-01, 1.01225637e-01,
          5.09657525e-02, 1.67308018e-01, 3.67796034e-01, 3.67796034e-01,
          3.67796034e-01, 1.72290519e-01, 3.67796034e-01, 3.67796034e-01,
          3.67796034e-01, 3.67796034e-01, 1.40442684e-01, 3.90698016e-03,
          2.86239553e-02, 1.63107499e-01, 1.34542370e-02, 1.78135019e-02,
          4.18857597e-02, 6.94021344e-01, 6.94021344e-01, 7.02173123e-03,
          1.71813217e-03, 2.57498890e-01, 4.78675187e-01, 4.78675187e-01,
          4.78675187e-01, 4.78675187e-01, 1.11229993e-01, 2.91920826e-03,
          3.16684996e-03, 6.90795598e-04, 4.75801796e-01, 4.75801796e-01,
          1.78368002e-01, 2.29417160e-01, 4.75801796e-01, 4.75801796e-01,
          7.24413171e-02, 1.61256117e-03, 0., 1.58033580e-01,
          3.14248592e-01, 2.26267390e-02, 3.23787555e-02, 5.21892905e-01,
          6.67655826e-01, 3.87183428e-01, 0. ]
      - [ 4.24055725e-01, 4.24055725e-01, 4.24055725e-01, 3.02282631e-01,
          0., 0., 7.26139620e-02, 4.24055725e-01, 4.24055725e-01,
          5.30221343e-01, 2.08585337e-01, 2.49077473e-02, 5.28088026e-02,
          0., 0., 3.23084950e-01, 5.30221343e-01, 5.30221343e-01,
          5.84102273e-01, 5.84102273e-01, 0., 0., 4.33680601e-02,
          2.68985152e-01, 1.70755520e-01, 1.44819871e-01, 4.32958037e-01,
          5.54194041e-02, 1.21485144e-01, 5.29847562e-01, 5.29847562e-01,
          7.98009783e-02, 1.49159809e-03, 3.71692628e-02, 5.29847562e-01,
          3.56246054e-01, 3.82395744e-01, 3.82395744e-01, 1.21390708e-01,
          3.19186896e-01, 3.82395744e-01, 3.82395744e-01, 4.69548330e-02,
          3.82395744e-01, 3.82395744e-01, 5.22448301e-01, 5.22448301e-01,
          0., 0., 3.98905009e-01, 5.22448301e-01, 1.06464118e-01,
          2.76385378e-02, 6.85708448e-02, 1.25922486e-02, 5.19697517e-02,
          5.67410469e-01, 5.67410469e-01, 5.67410469e-01, 2.81712543e-02,
          0., 1.14418648e-01, 1.08283676e-01, 2.87338197e-01,
          5.10631427e-02, 7.77361020e-02, 5.35656869e-01, 5.35656869e-01,
          5.35656869e-01, 3.82051500e-03, 8.17287341e-02, 1.89625785e-01,
          1.60373092e-01, 5.97488247e-02, 0., 0., 6.93847179e-01,
          6.93847179e-01, 2.21227668e-02, 2.55888328e-04, 2.11357754e-02 ]
      - [ 7.04206705e-01, 7.04206705e-01, 8.37969407e-03, 2.72112462e-04,
          8.49792501e-04, 9.25555942e-05, 8.44049646e-05, 2.45065254e-04,
          3.29409949e-02, 4.98736829e-01, 4.98736829e-01, 4.69620293e-03,
          5.74439857e-03, 3.17739765e-03, 2.77487445e-04, 1.60491792e-04,
          4.98736829e-01, 4.98736829e-01, 6.09579235e-02, 1.88831127e-05,
          2.68459058e-04, 2.57492508e-03, 1.20065070e-03, 2.79479916e-03,
          4.40279543e-01, 6.30921066e-01, 6.30921066e-01, 4.07413334e-01,
          4.07413334e-01, 4.07413334e-01, 4.07413334e-01, 4.07413334e-01,
          4.07413334e-01, 6.31390896e-04, 6.04541099e-04, 3.93778877e-03,
          2.24748120e-01, 4.05971348e-01, 4.05971348e-01, 3.76642734e-01,
          4.05971348e-01, 4.05971348e-01, 2.04310566e-01, 1.38094321e-01,
          2.88979322e-01, 4.96711629e-03, 1.92961877e-03, 2.24430370e-03,
          2.76392698e-03, 3.91558185e-02, 5.07502735e-01, 5.86001933e-01,
          5.86001933e-01, 2.19587833e-01, 1.19633600e-03, 1.27048776e-01,
          4.94700730e-01, 4.94700730e-01, 4.94700730e-01, 4.94700730e-01,
          1.77089285e-04, 4.48964944e-04, 9.42223065e-04, 3.30071035e-03,
          5.71244583e-02, 4.81142342e-01, 4.81142342e-01, 4.81142342e-01,
          4.81142342e-01, 2.56487966e-01, 1.10746305e-02, 4.46555158e-03,
          2.99287669e-04, 2.86992581e-04, 3.91583657e-04, 3.37694958e-02,
          5.74467063e-01, 5.74467063e-01, 5.74467063e-01, 5.55490181e-02,
          4.41889220e-04 ]
      - [ 5.14510393e-01, 5.14510393e-01, 1.71495602e-01, 5.96681386e-02,
          3.46475154e-01, 2.12941408e-01, 4.83584292e-02, 0.,
          5.14510393e-01, 4.70146745e-01, 3.38003784e-01, 9.72835198e-02,
          3.27605069e-01, 3.37300688e-01, 3.53794247e-02, 3.31074670e-02,
          4.53952551e-01, 4.70146745e-01, 4.78120059e-01, 1.32156357e-01,
          1.46285519e-01, 4.78120059e-01, 1.76464707e-01, 1.22633763e-02,
          1.03317142e-01, 4.78120059e-01, 4.78120059e-01, 3.65714639e-01,
          3.65714639e-01, 3.65714639e-01, 1.16092563e-01, 3.65714639e-01,
          3.65714639e-01, 3.65714639e-01, 2.52048671e-01, 3.41843337e-01,
          1.75875530e-01, 3.11943796e-02, 4.22891587e-01, 4.22891587e-01,
          4.22891587e-01, 1.05419733e-01, 2.42013142e-01, 4.22891587e-01,
          4.22891587e-01, 1.53898999e-01, 1.56946674e-01, 4.30885226e-01,
          4.30885226e-01, 9.14504975e-02, 1.03464596e-01, 4.30885226e-01,
          4.30885226e-01, 4.30885226e-01, 1.19234145e-01, 2.57793337e-01,
          4.67241615e-01, 1.06329262e-01, 4.67241615e-01, 4.67241615e-01,
          4.51700956e-01, 1.06953762e-01, 1.81482360e-01, 4.51641791e-02,
          3.14631537e-02, 4.88905191e-01, 4.88905191e-01, 2.33772501e-01,
          4.80834603e-01, 4.35362995e-01, 1.54709637e-01, 1.21256478e-01,
          6.74244389e-02, 5.02355658e-02, 4.34512436e-01, 4.34512436e-01,
          4.34512436e-01, 4.34512436e-01, 4.34512436e-01, 1.28426626e-01,
          1.67604640e-01 ]
      - [ 4.07329530e-01, 4.07329530e-01, 4.07329530e-01, 2.05594413e-02,
          1.93509553e-03, 6.22125459e-04, 4.07329530e-01, 4.07329530e-01,
          4.07329530e-01, 4.64261532e-01, 3.27299744e-01, 2.27722406e-01,
          0., 8.61090049e-03, 2.76836986e-03, 4.35524911e-01,
          4.64261532e-01, 4.64261532e-01, 4.18763310e-01, 4.18763310e-01,
          4.18763310e-01, 0., 0., 0., 4.18763310e-01, 4.18763310e-01,
          3.44968438e-01, 3.25308949e-01, 4.05353755e-01, 4.05353755e-01,
          4.05353755e-01, 1.71995580e-01, 1.37806803e-01, 4.05353755e-01,
          3.53681684e-01, 2.43339643e-01, 2.45786369e-01, 2.82748938e-01,
          3.35002601e-01, 3.62877905e-01, 3.01752537e-01, 9.05015245e-02,
          4.26169962e-01, 4.39664364e-01, 3.70368212e-01, 3.75015706e-01,
          4.33073193e-01, 4.33073193e-01, 9.29956790e-03, 8.93111154e-03,
          4.33073193e-01, 4.33073193e-01, 3.16209286e-01, 6.83594272e-02,
          1.04606142e-02, 7.38093480e-02, 4.44531441e-01, 4.44531441e-01,
          4.44531441e-01, 4.44531441e-01, 4.44531441e-01, 3.60493585e-02,
          2.57272832e-02, 1.71603426e-01, 9.86734703e-02, 4.20760781e-01,
          4.20760781e-01, 4.20760781e-01, 4.20760781e-01, 2.87647516e-01,
          3.58512163e-01, 1.92826167e-01, 2.91550994e-01, 3.50299984e-01,
          2.32903175e-02, 1.86094686e-01, 4.95026559e-01, 4.95026559e-01,
          4.95026559e-01, 8.31063762e-02, 1.00546680e-01 ]
      - [ 4.15747136e-01, 4.15747136e-01, 4.15747136e-01, 0., 0.,
          8.16888660e-02, 4.15747136e-01, 4.15747136e-01, 3.53476286e-01,
          4.65374708e-01, 3.02634954e-01, 1.80143610e-01, 0., 0.,
          1.14797160e-01, 4.65374708e-01, 4.65374708e-01, 4.56522584e-01,
          5.73492229e-01, 5.73492229e-01, 0., 0., 2.15493739e-02,
          6.17845543e-02, 1.10503407e-02, 5.64744584e-02, 5.73492229e-01,
          2.62679726e-01, 4.42439884e-01, 4.42439884e-01, 3.53965431e-01,
          2.42893666e-01, 2.38783509e-01, 4.42439884e-01, 2.63025314e-01,
          1.69799969e-01, 4.53498125e-01, 2.28613570e-01, 4.88082059e-02,
          7.00656027e-02, 4.53498125e-01, 4.53498125e-01, 4.10888940e-01,
          1.71846941e-01, 3.47234547e-01, 5.12591898e-01, 4.30254608e-01,
          2.34942781e-04, 5.45762153e-03, 5.12591898e-01, 5.12591898e-01,
          3.52984667e-02, 2.88864058e-02, 1.39284089e-01, 1.16974354e-01,
          1.38123304e-01, 5.09764791e-01, 5.09764791e-01, 5.09764791e-01,
          3.99605036e-01, 8.17668810e-02, 7.77111501e-02, 1.00789353e-01,
          4.93308455e-01, 4.34366763e-02, 1.86769757e-02, 2.88582951e-01,
          5.74106455e-01, 5.74106455e-01, 1.88705809e-02, 2.13544238e-02,
          7.34160244e-02, 1.68207213e-01, 1.11796940e-02, 3.16340913e-04,
          6.22413643e-02, 6.93076789e-01, 6.93076789e-01, 8.55761953e-03,
          0., 2.13780301e-03 ]
      - [ 6.85382783e-01, 6.85382783e-01, 1.21987961e-01, 2.79356260e-04,
          9.52469371e-03, 1.01405635e-01, 7.97265321e-02, 3.76212108e-03,
          1.48436710e-01, 4.47661638e-01, 1.37135446e-01, 2.29471549e-01,
          2.20076755e-01, 4.47661638e-01, 4.47661638e-01, 1.47046298e-01,
          2.28921384e-01, 4.47661638e-01, 1.24179825e-01, 2.34617144e-02,
          1.66820645e-01, 7.55008981e-02, 7.70966485e-02, 2.40271818e-02,
          2.94213384e-01, 6.52267098e-01, 6.52267098e-01, 2.42600352e-01,
          3.81497681e-01, 3.81497681e-01, 3.81497681e-01, 3.81497681e-01,
          3.81497681e-01, 3.81497681e-01, 1.52149841e-01, 2.02339768e-01,
          3.91064316e-01, 3.91064316e-01, 3.91064316e-01, 2.08478019e-01,
          3.09393853e-01, 3.91064316e-01, 3.91064316e-01, 1.35864869e-01,
          2.71642804e-01, 7.41738155e-02, 4.05421197e-01, 4.54862118e-01,
          6.86934516e-02, 1.63156644e-01, 3.75442743e-01, 4.54862118e-01,
          4.54862118e-01, 1.80537537e-01, 1.23563699e-01, 1.27183348e-01,
          4.08021986e-01, 6.04444444e-01, 6.04444444e-01, 8.79689455e-02,
          4.03491333e-02, 9.85003114e-02, 2.15090692e-01, 5.40219069e-01,
          1.77355990e-01, 2.18843762e-02, 3.56988221e-01, 5.53257644e-01,
          4.30649996e-01, 5.99488653e-02, 4.67964485e-02, 2.14304835e-01,
          4.88548353e-02, 7.10422248e-02, 2.15725135e-02, 1.82938352e-02,
          5.71367681e-01, 5.71367681e-01, 5.71367681e-01, 8.16948116e-02,
          1.87184312e-03 ]
      - [ 4.63982821e-01, 3.59020621e-01, 4.45965707e-01, 3.34688514e-01,
          1.46544918e-01, 1.37949854e-01, 1.14314675e-01, 2.67272383e-01,
          4.63982821e-01, 3.23927671e-01, 3.73774856e-01, 3.73774856e-01,
          3.73774856e-01, 3.73774856e-01, 2.73299944e-02, 2.28787467e-01,
          3.73774856e-01, 3.73774856e-01, 6.87295943e-02, 5.08840643e-02,
          4.76974785e-01, 4.76974785e-01, 2.06628829e-01, 2.76404971e-05,
          1.87637508e-01, 4.76974785e-01, 4.76974785e-01, 3.22508290e-02,
          4.33124512e-01, 4.33124512e-01, 3.67490262e-01, 2.20512509e-01,
          4.23746884e-01, 4.33124512e-01, 1.79534599e-01, 1.90719575e-01,
          2.47438639e-01, 3.98079783e-01, 3.98079783e-01, 2.21804306e-01,
          9.94936004e-02, 3.95320624e-01, 3.98079783e-01, 3.98079783e-01,
          2.92493671e-01, 2.57783473e-01, 3.93599123e-01, 3.93599123e-01,
          3.90645474e-01, 1.85851697e-02, 3.93599123e-01, 3.93599123e-01,
          3.93599123e-01, 4.54404242e-02, 1.30113978e-02, 3.99117529e-01,
          3.99117529e-01, 3.99117529e-01, 3.99117529e-01, 3.99117529e-01,
          3.99117529e-01, 1.94479525e-01, 4.74610552e-02, 3.35666537e-01,
          3.32969874e-01, 3.11565429e-01, 3.35666537e-01, 3.35666537e-01,
          3.35666537e-01, 3.35666537e-01, 3.35666537e-01, 3.35666537e-01,
          4.54283923e-01, 4.54283923e-01, 3.71071734e-02, 9.68967972e-04,
          4.06961739e-01, 4.54283923e-01, 4.54283923e-01, 1.03779035e-02,
          5.35115264e-02 ]
      - [ 3.21490645e-01, 4.21667397e-01, 4.21667397e-01, 5.84344305e-02,
          0., 0., 4.21667397e-01, 4.21667397e-01, 4.21667397e-01,
          4.70703930e-01, 4.70703930e-01, 1.96444273e-01, 6.71161106e-04,
          6.17151801e-03, 2.39924033e-04, 2.65368998e-01, 4.70703930e-01,
          4.70703930e-01, 4.36017096e-01, 4.36017096e-01, 4.36017096e-01,
          0., 3.20354127e-04, 4.47405502e-02, 4.36017096e-01,
          4.36017096e-01, 2.07576990e-01, 3.52705240e-01, 3.03753346e-01,
          5.24020612e-01, 3.58523160e-01, 1.95261347e-03, 1.14433870e-01,
          4.03564006e-01, 4.31461960e-01, 1.13316886e-01, 3.44725132e-01,
          3.44725132e-01, 3.44725132e-01, 2.14177966e-01, 3.44725132e-01,
          3.44725132e-01, 3.44725132e-01, 3.44725132e-01, 3.44725132e-01,
          3.35001081e-01, 4.31882530e-01, 4.31882530e-01, 2.45141014e-02,
          2.83610355e-02, 4.31882530e-01, 4.31882530e-01, 3.49671364e-01,
          1.17023937e-01, 2.27398407e-02, 5.57185113e-02, 4.84528869e-01,
          4.84528869e-01, 4.84528869e-01, 4.84528869e-01, 2.28582874e-01,
          3.60407191e-03, 1.42407389e-02, 4.37715836e-02, 1.16428643e-01,
          4.42468613e-01, 4.42468613e-01, 4.42468613e-01, 4.42468613e-01,
          4.42468613e-01, 2.01848000e-02, 2.84420121e-02, 7.83832669e-02,
          6.52829483e-02, 3.39063555e-01, 3.40800345e-01, 3.46186161e-01,
          5.60912788e-01, 5.60912788e-01, 4.72893193e-02, 3.94532457e-02 ]
      - [ 4.36189711e-01, 4.36189711e-01, 1.89970404e-01, 0., 0.,
          9.08117592e-02, 4.36189711e-01, 4.36189711e-01, 4.36189711e-01,
          4.47803646e-01, 4.47803646e-01, 3.41751218e-01, 2.21326500e-02,
          3.53482850e-02, 2.64785029e-02, 4.46434319e-01, 2.74599254e-01,
          4.47803646e-01, 4.90049690e-01, 4.90049690e-01, 1.62912652e-01,
          3.46924588e-02, 6.39092550e-02, 0., 5.17905056e-02,
          4.90049690e-01, 4.90049690e-01, 3.15734416e-01, 3.54423761e-01,
          3.54423761e-01, 3.54423761e-01, 3.54423761e-01, 1.32126361e-01,
          3.54423761e-01, 3.54423761e-01, 3.54423761e-01, 4.35689986e-01,
          4.35689986e-01, 5.61031140e-02, 1.52649224e-01, 4.35689986e-01,
          4.35689986e-01, 1.11484632e-01, 8.74116346e-02, 4.35689986e-01,
          2.19640002e-01, 2.83347607e-01, 2.68984765e-01, 3.74725312e-01,
          3.74725312e-01, 3.74725312e-01, 3.05418611e-01, 3.74725312e-01,
          3.74725312e-01, 3.40197906e-02, 2.73840856e-02, 1.68392077e-01,
          6.58134162e-01, 6.58134162e-01, 2.75602013e-01, 9.57452878e-03,
          2.14227960e-02, 1.42752349e-01, 1.77687243e-01, 0.,
          1.00820269e-02, 1.91116259e-01, 6.73355997e-01, 6.73355997e-01,
          4.31060009e-02, 2.48513054e-02, 1.25641048e-01, 8.05815216e-03,
          0., 4.35067028e-01, 4.71654981e-01, 4.71654981e-01,
          4.71654981e-01, 3.29143554e-01, 1.73281476e-01, 1.42672164e-02 ]
      - [ 4.32652682e-01, 4.32652682e-01, 4.32652682e-01, 0., 0., 0.,
          2.44410813e-01, 4.32652682e-01, 4.32652682e-01, 5.68983138e-01,
          5.56205697e-02, 2.76543647e-02, 0., 0., 0., 1.96729705e-01,
          5.51610053e-01, 5.68983138e-01, 6.89611077e-01, 6.67246350e-04,
          0., 0., 0., 0., 0., 2.04911038e-01, 6.89611077e-01,
          3.01461905e-01, 4.35167134e-01, 4.35167134e-01, 2.72576779e-01,
          2.54661620e-01, 4.35167134e-01, 1.12458579e-01, 3.43527108e-01,
          2.58561701e-01, 4.86332089e-01, 2.48807166e-02, 7.33409002e-02,
          1.21404923e-01, 4.86332089e-01, 4.86332089e-01, 5.99568561e-02,
          1.57274306e-01, 4.86332089e-01, 4.88470703e-01, 8.99855397e-04,
          0., 4.88470703e-01, 4.88470703e-01, 9.82207954e-02,
          6.70978129e-02, 1.62961677e-01, 4.88470703e-01, 1.16471918e-02,
          8.57747197e-02, 4.96819824e-01, 4.96819824e-01, 4.96819824e-01,
          4.96819824e-01, 1.12934345e-02, 0., 9.88191087e-03,
          8.56607966e-03, 1.37421186e-03, 6.33777231e-02, 2.17490748e-01,
          6.85736358e-01, 6.85736358e-01, 3.43570039e-02, 0.,
          1.05444621e-02, 1.93465548e-03, 0., 0., 6.98977053e-01,
          6.98977053e-01, 1.20225124e-01, 3.77230793e-02, 0.,
          1.93465548e-03 ]
      - [ 4.40110415e-01, 4.40110415e-01, 4.40110415e-01, 0., 0., 0.,
          1.64675176e-01, 4.40110415e-01, 4.40110415e-01, 4.76154417e-01,
          2.87690163e-01, 7.47411400e-02, 0., 0., 0., 4.76154417e-01,
          4.76154417e-01, 4.76154417e-01, 6.65515244e-01, 2.88939953e-01,
          0., 0., 5.59218712e-02, 1.07680246e-01, 3.91426235e-02,
          8.82844701e-02, 6.65515244e-01, 7.75865689e-02, 4.32673901e-01,
          5.46050847e-01, 5.46050847e-01, 9.51147079e-02, 5.45370113e-03,
          2.24379152e-01, 3.61482412e-01, 1.22006580e-01, 3.64458412e-01,
          3.64458412e-01, 1.40010744e-01, 2.16670990e-01, 3.64458412e-01,
          3.64458412e-01, 3.64458412e-01, 3.64458412e-01, 3.64458412e-01,
          5.34376800e-01, 2.62844115e-01, 0., 4.03292477e-03,
          5.34376800e-01, 5.34376800e-01, 3.79131362e-02, 4.48256209e-02,
          2.55807906e-01, 9.08483099e-03, 6.28875941e-02, 5.72214961e-01,
          5.72214961e-01, 5.72214961e-01, 8.45220834e-02, 8.36101081e-03,
          1.91947073e-02, 1.94034074e-02, 1.42824739e-01, 1.64796580e-02,
          3.88735905e-02, 5.66668212e-01, 5.66668212e-01, 5.66668212e-01,
          1.30548803e-02, 2.50142496e-02, 8.95815864e-02, 4.37177904e-02,
          1.58238318e-02, 0., 1.55697088e-03, 7.03733921e-01,
          7.03733921e-01, 1.28764622e-02, 0., 1.27404584e-02 ]
      - [ 5.67064703e-01, 5.67064703e-01, 7.77233392e-02, 0.,
          1.29365578e-01, 5.67064703e-01, 1.53294066e-02, 0.,
          8.14792588e-02, 4.79807943e-01, 1.77486986e-01, 4.68807891e-02,
          1.90484926e-01, 4.79807943e-01, 4.79807943e-01, 1.93450749e-02,
          6.31401464e-02, 4.79807943e-01, 2.47900471e-01, 4.47518043e-02,
          3.16677451e-01, 4.59478945e-01, 3.20225418e-01, 7.75348246e-02,
          2.99582541e-01, 4.59478945e-01, 4.59478945e-01, 3.74126643e-01,
          3.74126643e-01, 3.74126643e-01, 2.70327538e-01, 1.51875719e-01,
          3.74126643e-01, 3.74126643e-01, 2.45549828e-01, 3.74126643e-01,
          4.33895260e-01, 4.33895260e-01, 1.44119769e-01, 1.75896749e-01,
          4.33895260e-01, 4.33895260e-01, 4.14569490e-02, 3.01911887e-02,
          4.33895260e-01, 3.48896623e-01, 3.48896623e-01, 3.48896623e-01,
          2.80573457e-01, 3.28789800e-01, 3.13099474e-01, 3.48896623e-01,
          3.48896623e-01, 3.20958555e-01, 2.01028302e-01, 3.83021943e-02,
          3.43655676e-01, 5.17312706e-01, 5.17312706e-01, 5.00910282e-02,
          1.05292439e-01, 1.35727271e-01, 5.17312706e-01, 4.80066031e-01,
          7.02087581e-02, 6.36217464e-03, 3.22701722e-01, 4.80066031e-01,
          4.41179693e-01, 2.50992994e-03, 7.93734752e-03, 4.80066031e-01,
          3.24813455e-01, 1.92427918e-01, 1.76345427e-02, 9.33677796e-03,
          5.68664134e-01, 5.68664134e-01, 3.06120902e-01, 2.52520472e-01,
          2.17155799e-01 ]
      - [ 3.98774981e-01, 4.08619225e-01, 4.08619225e-01, 4.52570617e-02,
          0., 0., 4.08619225e-01, 4.08619225e-01, 4.08619225e-01,
          4.41687196e-01, 5.28405011e-01, 5.28405011e-01, 7.25160316e-02,
          0., 5.99904568e-04, 2.04544246e-01, 2.29592279e-01,
          3.76034081e-01, 1.71281934e-01, 9.34175551e-02, 1.20450348e-01,
          3.86830023e-03, 0., 9.10866365e-04, 5.60302436e-01,
          5.60302436e-01, 5.60302436e-01, 5.30152060e-02, 1.67878613e-01,
          5.20198226e-01, 3.86069745e-01, 0., 7.32667139e-03,
          5.20198226e-01, 5.20198226e-01, 5.37493937e-02, 2.92268902e-01,
          4.76064295e-01, 4.76064295e-01, 4.76064295e-01, 6.31217426e-03,
          1.69902109e-03, 3.87651026e-01, 2.79614180e-01, 3.75771113e-02,
          1.50113087e-02, 9.17039737e-02, 3.10647666e-01, 6.14652298e-02,
          9.68370028e-03, 2.02938706e-01, 6.49286270e-01, 6.49286270e-01,
          1.34008517e-02, 3.18250179e-01, 1.34665847e-01, 4.15631443e-01,
          4.15631443e-01, 4.15631443e-01, 4.20741811e-02, 3.89594167e-01,
          4.15631443e-01, 1.78544164e-01, 4.44268286e-01, 4.44268286e-01,
          2.12882876e-01, 3.08576256e-01, 4.44268286e-01, 4.44268286e-01,
          1.09431736e-01, 1.84657991e-01, 1.39472947e-01, 2.89366711e-02,
          7.68028572e-02, 6.10609949e-02, 7.34658614e-02, 4.94620711e-01,
          4.94620711e-01, 4.94620711e-01, 4.94620711e-01, 2.44858731e-02 ]
      - [ 5.54265440e-01, 5.54265440e-01, 3.41503620e-01, 1.83276217e-02,
          8.26457217e-02, 5.30634783e-02, 5.31458389e-03, 0.,
          5.03398299e-01, 4.37224478e-01, 4.37224478e-01, 4.37224478e-01,
          6.85457960e-02, 1.33291811e-01, 3.94534506e-02, 1.25636265e-01,
          4.37224478e-01, 4.37224478e-01, 1.24295488e-01, 2.08470538e-01,
          1.57206208e-01, 3.32367420e-02, 7.58948922e-02, 8.60847067e-03,
          5.48925102e-01, 5.48925102e-01, 5.48925102e-01, 3.83717686e-01,
          4.68239695e-01, 4.68239695e-01, 2.20872760e-01, 2.27600858e-01,
          2.83336639e-01, 4.68239695e-01, 8.78285989e-02, 4.19304706e-02,
          3.49243492e-01, 3.00191700e-01, 3.49243492e-01, 3.49243492e-01,
          3.49243492e-01, 3.49243492e-01, 3.49243492e-01, 3.49243492e-01,
          2.29343474e-01, 9.29309651e-02, 1.54254228e-01, 2.14784607e-01,
          1.82510778e-01, 1.08359359e-01, 2.07949921e-01, 6.40835166e-01,
          6.40835166e-01, 7.35160410e-02, 0., 2.15758845e-01,
          4.62951422e-01, 4.62951422e-01, 4.62951422e-01, 1.09960288e-01,
          4.62951422e-01, 2.81845033e-01, 0., 8.33131596e-02,
          1.36313468e-01, 4.32399333e-01, 4.32399333e-01, 4.32399333e-01,
          4.00442690e-01, 4.32399333e-01, 2.38973111e-01, 6.94195554e-02,
          8.57019573e-02, 5.42011745e-02, 1.53109223e-01, 3.82494926e-01,
          4.83922541e-01, 4.83922541e-01, 4.83922541e-01, 3.33390564e-01,
          3.80391143e-02 ]
      - [ 6.18439913e-01, 6.18439913e-01, 1.12047996e-02, 2.33365994e-04,
          8.98450986e-02, 2.96715684e-02, 0., 0., 4.68840212e-01,
          6.55319571e-01, 7.16226250e-02, 5.58927236e-03, 2.28746887e-02,
          3.52064759e-01, 4.61178049e-02, 0., 5.30038886e-02,
          6.55319571e-01, 5.71201980e-01, 3.52802733e-03, 1.48461675e-02,
          3.04409862e-02, 7.80216008e-02, 9.43558291e-03, 9.02497172e-02,
          5.71201980e-01, 5.71201980e-01, 4.03436482e-01, 4.03436482e-01,
          3.11771601e-01, 4.03436482e-01, 4.03436482e-01, 4.03436482e-01,
          8.02429169e-02, 5.25416434e-02, 2.75251925e-01, 4.54430103e-01,
          1.90746590e-01, 2.19177648e-01, 2.85493731e-01, 4.54430103e-01,
          4.54430103e-01, 1.29939876e-02, 5.77521808e-02, 4.54430103e-01,
          2.69395143e-01, 1.76238626e-01, 2.98361242e-01, 1.10226966e-01,
          3.27878654e-01, 4.13389266e-01, 4.13389266e-01, 4.13389266e-01,
          4.13389266e-01, 6.56935349e-02, 9.92456675e-02, 3.53683323e-01,
          6.13688409e-01, 6.13688409e-01, 2.83325493e-01, 1.59135032e-02,
          3.08976825e-02, 1.41092598e-01, 3.88322979e-01, 3.70707922e-02,
          3.54548097e-02, 5.63484907e-01, 5.63484907e-01, 4.06530082e-01,
          1.41452381e-03, 1.08954813e-02, 2.01318845e-01, 1.09499656e-01,
          4.97563444e-02, 4.25826162e-02, 3.74766998e-02, 6.49347961e-01,
          6.49347961e-01, 3.59766364e-01, 5.30358031e-02, 1.68316886e-02 ]
      - [ 7.31779695e-01, 2.71272570e-01, 1.13928290e-02, 5.00915572e-03,
          1.32453982e-02, 2.78392341e-03, 0., 0., 6.19085968e-01,
          7.03256547e-01, 5.15853725e-02, 0., 6.19649747e-03,
          2.15403400e-02, 2.92545115e-03, 0., 2.58514211e-02,
          7.03256547e-01, 5.64059556e-01, 7.66077355e-05, 0., 0.,
          6.03421917e-03, 5.72088000e-04, 1.99602246e-01, 5.64059556e-01,
          5.64059556e-01, 4.21805710e-01, 3.52282971e-01, 3.75262737e-01,
          4.21805710e-01, 4.21805710e-01, 4.21805710e-01, 0., 0.,
          1.38495341e-01, 3.99508566e-01, 1.38606921e-01, 3.99508566e-01,
          3.99508566e-01, 3.99508566e-01, 3.99508566e-01, 1.29423276e-01,
          4.90301251e-02, 3.99508566e-01, 2.11894438e-01, 3.27385440e-02,
          4.71423902e-02, 4.06747572e-02, 1.50565371e-01, 4.80282515e-01,
          4.80282515e-01, 4.80282515e-01, 4.80282515e-01, 1.67748649e-02,
          8.88310894e-02, 4.96705860e-01, 4.96705860e-01, 4.96705860e-01,
          4.96705860e-01, 0., 0., 0., 7.71786226e-03, 3.03277727e-02,
          4.62744981e-01, 5.09373903e-01, 5.09373903e-01, 5.09373903e-01,
          2.44344268e-02, 1.04716821e-02, 2.66198739e-02, 2.99145677e-03,
          1.37601541e-02, 1.24133164e-02, 7.19554573e-02, 6.56340241e-01,
          6.56340241e-01, 3.54521751e-01, 2.36700438e-02, 1.03179105e-02 ]
      - [ 6.22529447e-01, 6.22529447e-01, 3.22105616e-01, 4.18734131e-03,
          8.84360820e-02, 1.57915235e-01, 2.15864122e-01, 3.35872322e-02,
          1.85595289e-01, 4.42670822e-01, 1.37872636e-01, 7.77129531e-02,
          4.42670822e-01, 4.42670822e-01, 2.60890841e-01, 2.38173172e-01,
          2.48816565e-01, 4.42670822e-01, 1.05135314e-01, 2.25532358e-03,
          2.02200070e-01, 4.36532408e-01, 1.62147164e-01, 1.12386011e-02,
          2.66484529e-01, 5.71993113e-01, 5.71993113e-01, 8.10693055e-02,
          4.46681947e-01, 4.46681947e-01, 5.93235902e-02, 3.31938654e-01,
          4.46681947e-01, 4.46681947e-01, 2.72324413e-01, 5.48068322e-02,
          3.65213364e-01, 1.57724783e-01, 3.32974613e-01, 3.65213364e-01,
          3.65213364e-01, 3.65213364e-01, 3.65213364e-01, 2.69707561e-01,
          3.47787231e-01, 1.75182730e-01, 4.33388621e-01, 4.33388621e-01,
          4.33388621e-01, 4.59879562e-02, 1.22722022e-01, 4.33388621e-01,
          4.33388621e-01, 9.31543484e-02, 1.57266244e-01, 3.70872587e-01,
          3.72779816e-01, 3.72779816e-01, 3.72779816e-01, 3.72779816e-01,
          3.72779816e-01, 3.72779816e-01, 1.44175738e-02, 4.28929061e-01,
          4.28929061e-01, 2.20439196e-01, 2.79899359e-01, 4.28929061e-01,
          4.04843807e-01, 1.83326706e-01, 9.06909779e-02, 3.33325565e-01,
          4.35297012e-01, 4.35297012e-01, 1.90965548e-01, 2.05604378e-02,
          4.35297012e-01, 4.35297012e-01, 4.35297012e-01, 7.66372904e-02,
          7.39630908e-02 ]
      - [ 4.89881486e-01, 4.89881486e-01, 1.24484338e-01, 0., 0., 0.,
