%YAML:1.0
---
opencv_ml_svm:
   format: 3
   svmType: C_SVC
   kernel:
      type: RBF
      gamma: 5.0624999999999998e-01
   C: 1.2500000000000000e+01
   term_criteria: { epsilon:1.1920928955078125e-07, iterations:1000 }
   var_count: 324
   class_count: 9
   class_labels: !!opencv-matrix
      rows: 9
      cols: 1
      dt: i
      data: [ 0, 1, 2, 3, 4, 5, 6, 7, 8 ]
   sv_total: 356
   support_vectors:
      - [ 4.33580160e-01, 4.33580160e-01, 8.14973414e-02, 1.08185885e-02,
          3.48323695e-02, 4.33580160e-01, 4.33580160e-01, 3.38168383e-01,
          3.48384619e-01, 4.65511620e-01, 4.65511620e-01, 2.98423097e-02,
          1.25942030e-03, 8.74293968e-02, 3.41697752e-01, 7.49384239e-02,
          4.62966412e-01, 4.65511620e-01, 2.40870923e-01, 1.31196469e-01,
          6.24972880e-02, 3.46499458e-02, 4.09758985e-01, 1.70378178e-01,
          1.12560071e-01, 5.93353450e-01, 5.93353450e-01, 2.88401574e-01,
          4.44225758e-01, 4.44225758e-01, 8.70067775e-02, 3.00556004e-01,
          4.44225758e-01, 4.44225758e-01, 1.36733234e-01, 8.02563205e-02,
          3.40008646e-01, 3.69036376e-01, 3.69036376e-01, 3.68801296e-01,
          3.69036376e-01, 3.69036376e-01, 3.69036376e-01, 2.42007762e-01,
          7.20135197e-02, 6.91885361e-03, 1.73458159e-02, 3.87050100e-02,
          4.61038083e-01, 4.53045517e-01, 1.92247123e-01, 4.61038083e-01,
          4.61038083e-01, 3.37150753e-01, 1.42104914e-02, 4.27459806e-01,
          4.27459806e-01, 2.42067143e-01, 4.27459806e-01, 4.27459806e-01,
          4.26593423e-01, 1.47693083e-01, 4.74202111e-02, 6.55889651e-03,
          5.20868361e-01, 5.20868361e-01, 9.98288617e-02, 1.61166251e-01,
          2.10802019e-01, 5.20868361e-01, 3.15885842e-01, 2.61113457e-02,
          1.73060372e-01, 7.72390654e-03, 7.13242665e-02, 4.69399780e-01,
          4.69399780e-01, 1.30360559e-01, 4.69399780e-01, 4.69399780e-01,
          2.48749495e-01, 1.42104914e-02, 4.27459806e-01, 4.27459806e-01,
          2.42067143e-01, 4.27459806e-01, 4.27459806e-01, 4.26593423e-01,
          1.47693083e-01, 4.74202111e-02, 6.55889651e-03, 5.20868361e-01,
          5.20868361e-01, 9.98288617e-02, 1.61166251e-01, 2.10802019e-01,
          5.20868361e-01, 3.15885842e-01, 2.61113457e-02, 1.73060372e-01,
          7.72390654e-03, 7.13242665e-02, 4.69399780e-01, 4.69399780e-01,
          1.30360559e-01, 4.69399780e-01, 4.69399780e-01, 2.48749495e-01,
          2.81059742e-02, 4.85949963e-01, 4.85949963e-01, 2.25903615e-01,
          1.80700287e-01, 8.56881589e-02, 4.28344905e-01, 4.85949963e-01,
          1.06805690e-01, 8.82093534e-02, 4.20060307e-01, 4.20060307e-01,
          4.20060307e-01, 4.20060307e-01, 1.06100868e-02, 4.01205570e-01,
          2.85012186e-01, 1.99775055e-01, 4.99575675e-01, 2.82051018e-03,
          6.85206428e-03, 6.25893399e-02, 4.99575675e-01, 2.17217784e-02,
          3.88365895e-01, 3.01679790e-01, 4.99575675e-01, 8.05700421e-02,
          1.08760864e-01, 3.98884386e-01, 3.98884386e-01, 3.98884386e-01,
          1.51797026e-01, 3.98884386e-01, 3.98884386e-01, 3.98884386e-01,
          9.78559777e-02, 7.41957501e-02, 4.90492672e-01, 5.46089768e-01,
          5.46089768e-01, 1.43996045e-01, 2.64694989e-02, 1.83867633e-01,
          2.95316726e-01, 1.35628939e-01, 1.46899116e-03, 4.00379067e-03,
          1.83556929e-01, 9.31410909e-01, 1.95842624e-01, 1.77660137e-02,
          2.28253007e-02, 1.78560242e-01, 2.40870923e-01, 1.31196469e-01,
          6.24972880e-02, 3.46499458e-02, 4.09758985e-01, 1.70378178e-01,
          1.12560071e-01, 5.93353450e-01, 5.93353450e-01, 7.57736117e-02,
          8.68429691e-02, 2.95869648e-01, 4.54009622e-01, 4.54009622e-01,
          1.97612196e-01, 3.26028377e-01, 4.54009622e-01, 3.61833602e-01,
          1.54816180e-01, 1.42072752e-01, 3.08957756e-01, 4.70426381e-01,
          4.42299545e-01, 1.21662654e-01, 1.01776153e-01, 4.38523233e-01,
          4.70426381e-01, 6.91885361e-03, 1.73458159e-02, 3.87050100e-02,
          4.61038083e-01, 4.53045517e-01, 1.92247123e-01, 4.61038083e-01,
          4.61038083e-01, 3.37150753e-01, 1.33131268e-02, 4.87408750e-02,
          7.00390711e-02, 1.55196846e-01, 2.06551120e-01, 2.27017149e-01,
          6.31727934e-01, 6.31727934e-01, 2.64173478e-01, 3.59689258e-02,
          1.09929450e-01, 4.36466694e-01, 4.36466694e-01, 4.31538343e-01,
          2.72364199e-01, 4.36466694e-01, 3.65378559e-01, 1.29782021e-01,
          1.73060372e-01, 7.72390654e-03, 7.13242665e-02, 4.69399780e-01,
          4.69399780e-01, 1.30360559e-01, 4.69399780e-01, 4.69399780e-01,
          2.48749495e-01, 4.49338496e-01, 4.50689457e-02, 2.74303127e-02,
          2.29790181e-01, 4.49338496e-01, 1.85090929e-01, 4.49338496e-01,
          3.13122183e-01, 4.49338496e-01, 5.79930365e-01, 1.95592448e-01,
          2.94532627e-01, 4.97182906e-02, 1.93650261e-01, 1.39545739e-01,
          1.98722348e-01, 3.12456012e-01, 5.79930365e-01, 1.73060372e-01,
          7.72390654e-03, 7.13242665e-02, 4.69399780e-01, 4.69399780e-01,
          1.30360559e-01, 4.69399780e-01, 4.69399780e-01, 2.48749495e-01,
          4.49338496e-01, 4.50689457e-02, 2.74303127e-02, 2.29790181e-01,
          4.49338496e-01, 1.85090929e-01, 4.49338496e-01, 3.13122183e-01,
          4.49338496e-01, 5.79930365e-01, 1.95592448e-01, 2.94532627e-01,
          4.97182906e-02, 1.93650261e-01, 1.39545739e-01, 1.98722348e-01,
          3.12456012e-01, 5.79930365e-01, 4.99575675e-01, 2.82051018e-03,
          6.85206428e-03, 6.25893399e-02, 4.99575675e-01, 2.17217784e-02,
          3.88365895e-01, 3.01679790e-01, 4.99575675e-01, 5.74222505e-01,
          5.45331044e-04, 6.75051822e-04, 3.28830220e-02, 5.74222505e-01,
          6.17344007e-02, 1.28380470e-02, 3.67220631e-03, 5.74222505e-01,
          5.19953191e-01, 1.45471431e-02, 1.23033831e-02, 1.96234081e-02,
          5.19953191e-01, 1.85742810e-01, 2.88224280e-01, 2.55796462e-01,
          5.19953191e-01, 1.35628939e-01, 1.46899116e-03, 4.00379067e-03,
          1.83556929e-01, 9.31410909e-01, 1.95842624e-01, 1.77660137e-02,
          2.28253007e-02, 1.78560242e-01, 2.53954381e-01, 7.12323412e-02,
          1.46591365e-02, 1.56267107e-01, 8.91115308e-01, 2.50724405e-01,
          1.23889362e-02, 1.80264525e-02, 1.98695645e-01, 4.92305726e-01,
          4.92305726e-01, 2.57477779e-02, 8.80355984e-02, 4.92305726e-01,
          4.44091350e-01, 2.05145597e-01, 6.79553226e-02, 1.25121504e-01 ]
      - [ 2.53838450e-01, 6.12803027e-02, 4.75138314e-02, 1.83353692e-01,
          3.99845928e-01, 4.87096459e-01, 4.87096459e-01, 1.39297947e-01,
          4.87096459e-01, 1.65079027e-01, 1.63915887e-01, 2.85368383e-01,
          8.28921795e-02, 6.41946316e-01, 6.41946316e-01, 1.56591907e-01,
          9.91557632e-03, 4.85334285e-02, 4.00361389e-01, 4.00361389e-01,
          4.00361389e-01, 1.24574184e-01, 4.00361389e-01, 4.00361389e-01,
          1.05491593e-01, 1.82814851e-01, 3.66722971e-01, 6.57979324e-02,
          1.95512027e-01, 3.31891514e-02, 3.09285037e-02, 6.12949207e-02,
          6.86561704e-01, 6.86561704e-01, 4.38046679e-02, 1.11348061e-02,
          3.41807634e-01, 4.56113160e-01, 4.56113160e-01, 3.39726582e-02,
          2.77808875e-01, 4.56113160e-01, 3.42121303e-01, 1.67662084e-01,
          1.76081449e-01, 3.27957869e-02, 6.33410156e-01, 6.33410156e-01,
          2.32026111e-02, 1.44806486e-02, 3.46449949e-02, 3.94871473e-01,
          1.73425004e-01, 4.72814590e-02, 3.62527147e-02, 4.77090299e-01,
          1.81996047e-01, 3.07741505e-03, 1.95245203e-02, 4.29946601e-01,
          5.52869081e-01, 4.91332620e-01, 1.05000902e-02, 4.51541156e-01,
          4.51541156e-01, 4.51541156e-01, 3.51264141e-02, 4.63400856e-02,
          1.49877280e-01, 1.65915579e-01, 3.55752170e-01, 4.51541156e-01,
          1.76177993e-01, 5.60147226e-01, 5.60147226e-01, 1.52043365e-02,
          3.00124404e-03, 1.98562592e-02, 3.56052995e-01, 2.35256389e-01,
          3.91259789e-01, 3.62527147e-02, 4.77090299e-01, 1.81996047e-01,
          3.07741505e-03, 1.95245203e-02, 4.29946601e-01, 5.52869081e-01,
          4.91332620e-01, 1.05000902e-02, 4.51541156e-01, 4.51541156e-01,
          4.51541156e-01, 3.51264141e-02, 4.63400856e-02, 1.49877280e-01,
          1.65915579e-01, 3.55752170e-01, 4.51541156e-01, 1.76177993e-01,
          5.60147226e-01, 5.60147226e-01, 1.52043365e-02, 3.00124404e-03,
          1.98562592e-02, 3.56052995e-01, 2.35256389e-01, 3.91259789e-01,
          4.88757230e-02, 1.26078784e-01, 1.70156509e-01, 3.65226436e-03,
          4.77413088e-02, 4.78908420e-02, 5.60529053e-01, 5.60529053e-01,
          5.60529053e-01, 1.77748740e-01, 5.00910044e-01, 5.00910044e-01,
          5.00910044e-01, 8.64709318e-02, 2.40359362e-02, 6.22837804e-02,
          2.17798099e-01, 3.88972849e-01, 4.13638264e-01, 4.13638264e-01,
          4.13638264e-01, 4.13638264e-01, 1.62001640e-01, 2.54759844e-02,
          1.14245921e-01, 3.16921383e-01, 4.13638264e-01, 2.03857809e-01,
          1.39264032e-01, 1.65312424e-01, 6.74470142e-03, 6.94851875e-02,
          4.62108999e-02, 1.60611719e-01, 6.60424411e-01, 6.60424411e-01,
          1.28505394e-01, 4.98783886e-02, 3.04899037e-01, 5.30195236e-01,
          1.98180318e-01, 9.18380171e-03, 7.70735275e-03, 5.30195236e-01,
          5.30195236e-01, 3.10173422e-01, 6.27838075e-02, 1.78111032e-01,
          5.64359009e-01, 4.38495159e-01, 1.75008759e-01, 1.29471077e-02,
          4.91494015e-02, 5.64359009e-01, 4.00361389e-01, 4.00361389e-01,
          4.00361389e-01, 1.24574184e-01, 4.00361389e-01, 4.00361389e-01,
          1.05491593e-01, 1.82814851e-01, 3.66722971e-01, 1.55898616e-01,
          9.26988944e-02, 6.70608059e-02, 3.77813965e-01, 4.29025620e-01,
          2.81646073e-01, 4.29025620e-01, 4.29025620e-01, 4.29025620e-01,
          1.71026349e-01, 9.56577286e-02, 4.22330379e-01, 4.22330379e-01,
          4.22330379e-01, 1.91430405e-01, 4.06142831e-01, 4.22330379e-01,
          2.05745861e-01, 3.27957869e-02, 6.33410156e-01, 6.33410156e-01,
          2.32026111e-02, 1.44806486e-02, 3.46449949e-02, 3.94871473e-01,
          1.73425004e-01, 4.72814590e-02, 7.21135587e-02, 1.46365106e-01,
          2.27116570e-01, 2.20565517e-02, 1.62390266e-02, 5.11718430e-02,
          6.74085140e-01, 6.74085140e-01, 5.39912172e-02, 3.60972404e-01,
          3.03650081e-01, 3.60972404e-01, 3.60972404e-01, 3.60972404e-01,
          1.54627070e-01, 3.60972404e-01, 3.60972404e-01, 3.13805968e-01,
          1.76177993e-01, 5.60147226e-01, 5.60147226e-01, 1.52043365e-02,
          3.00124404e-03, 1.98562592e-02, 3.56052995e-01, 2.35256389e-01,
          3.91259789e-01, 5.05807579e-01, 3.61449301e-01, 1.85604796e-01,
          3.03222728e-03, 1.20544771e-03, 1.64800920e-02, 5.13266981e-01,
          5.13266981e-01, 2.16263056e-01, 4.40151423e-01, 4.08363968e-01,
          4.31062207e-02, 1.89513341e-01, 6.22299165e-02, 1.10738926e-01,
          4.40151423e-01, 4.40151423e-01, 4.40151423e-01, 1.76177993e-01,
          5.60147226e-01, 5.60147226e-01, 1.52043365e-02, 3.00124404e-03,
          1.98562592e-02, 3.56052995e-01, 2.35256389e-01, 3.91259789e-01,
          5.05807579e-01, 3.61449301e-01, 1.85604796e-01, 3.03222728e-03,
          1.20544771e-03, 1.64800920e-02, 5.13266981e-01, 5.13266981e-01,
          2.16263056e-01, 4.40151423e-01, 4.08363968e-01, 4.31062207e-02,
          1.89513341e-01, 6.22299165e-02, 1.10738926e-01, 4.40151423e-01,
          4.40151423e-01, 4.40151423e-01, 4.13638264e-01, 4.13638264e-01,
          4.13638264e-01, 4.13638264e-01, 1.62001640e-01, 2.54759844e-02,
          1.14245921e-01, 3.16921383e-01, 4.13638264e-01, 4.22651023e-01,
          2.89824426e-01, 1.04233578e-01, 6.29957095e-02, 6.14599101e-02,
          4.22651023e-01, 4.22651023e-01, 4.22651023e-01, 4.22651023e-01,
          3.86478901e-01, 1.77058086e-01, 3.37454677e-02, 1.26495585e-01,
          9.93439332e-02, 4.97357100e-01, 4.97357100e-01, 4.97357100e-01,
          2.12640017e-01, 3.10173422e-01, 6.27838075e-02, 1.78111032e-01,
          5.64359009e-01, 4.38495159e-01, 1.75008759e-01, 1.29471077e-02,
          4.91494015e-02, 5.64359009e-01, 5.74457824e-01, 1.25927910e-01,
          4.00350057e-02, 2.58858085e-01, 3.30377102e-01, 5.74457824e-01,
          2.74912953e-01, 5.96744567e-02, 2.48001412e-01, 4.88850564e-01,
          4.88850564e-01, 1.13061629e-01, 6.60460144e-02, 2.41138846e-01,
          4.88850564e-01, 3.79983664e-01, 1.41175017e-01, 1.96422964e-01 ]
      - [ 2.43686557e-01, 5.96877113e-02, 1.99868575e-01, 3.00493032e-01,
          4.00701284e-01, 4.00701284e-01, 4.00701284e-01, 4.00701284e-01,
          4.00701284e-01, 3.98440033e-01, 8.02104026e-02, 1.48224220e-01,
          3.98440033e-01, 3.98440033e-01, 3.98440033e-01, 1.52879447e-01,
          3.87906045e-01, 3.98440033e-01, 4.00897801e-01, 2.41955042e-01,
          1.84390008e-01, 4.00897801e-01, 4.00897801e-01, 3.89874876e-01,
          2.26934195e-01, 2.38904834e-01, 4.00897801e-01, 3.49891037e-01,
          8.05454925e-02, 3.58053565e-01, 3.58053565e-01, 3.58053565e-01,
          3.13523740e-01, 3.58053565e-01, 3.58053565e-01, 3.58053565e-01,
          4.37686265e-01, 1.18393637e-01, 3.55903298e-01, 1.37885228e-01,
          4.37686265e-01, 4.37686265e-01, 1.64201349e-01, 2.06621006e-01,
          4.37686265e-01, 4.91900355e-01, 4.69600298e-02, 2.82211136e-03,
          3.63663226e-01, 4.91900355e-01, 3.64293635e-01, 2.18685418e-02,
          3.92032228e-02, 4.91900355e-01, 3.70626211e-01, 1.33505255e-01,
          1.30103812e-01, 3.70626211e-01, 3.70626211e-01, 3.70626211e-01,
          3.70626211e-01, 3.70626211e-01, 3.70626211e-01, 4.71554846e-01,
          8.09443668e-02, 5.37396818e-02, 3.92447650e-01, 4.71554846e-01,
          3.79734993e-01, 3.01009472e-02, 1.40136302e-01, 4.71554846e-01,
          5.25524199e-01, 5.77125922e-02, 1.88057672e-03, 2.06352413e-01,
          5.25524199e-01, 3.28718334e-01, 3.04873865e-02, 1.06413744e-01,
          5.25524199e-01, 3.70626211e-01, 1.33505255e-01, 1.30103812e-01,
          3.70626211e-01, 3.70626211e-01, 3.70626211e-01, 3.70626211e-01,
          3.70626211e-01, 3.70626211e-01, 4.71554846e-01, 8.09443668e-02,
          5.37396818e-02, 3.92447650e-01, 4.71554846e-01, 3.79734993e-01,
          3.01009472e-02, 1.40136302e-01, 4.71554846e-01, 5.25524199e-01,
          5.77125922e-02, 1.88057672e-03, 2.06352413e-01, 5.25524199e-01,
          3.28718334e-01, 3.04873865e-02, 1.06413744e-01, 5.25524199e-01,
          3.56440425e-01, 2.56450802e-01, 2.03281343e-01, 3.56440425e-01,
          3.56440425e-01, 3.56440425e-01, 3.56440425e-01, 3.56440425e-01,
          3.56440425e-01, 3.40669453e-01, 1.01521224e-01, 3.52565140e-01,
          3.52565140e-01, 3.52565140e-01, 3.52565140e-01, 3.52565140e-01,
          3.52565140e-01, 3.52565140e-01, 3.97431761e-01, 1.46129772e-01,
          1.30799264e-01, 3.97431761e-01, 3.97431761e-01, 3.97431761e-01,
          9.92744341e-02, 3.97431761e-01, 3.97431761e-01, 2.77677119e-01,
          1.04023129e-01, 2.91060418e-01, 3.82284999e-01, 3.72836143e-01,
          3.16172719e-01, 3.82284999e-01, 3.82284999e-01, 3.82284999e-01,
          3.65480274e-01, 3.35213244e-01, 1.67110845e-01, 2.88118541e-01,
          3.65480274e-01, 3.65480274e-01, 3.24288905e-01, 3.65480274e-01,
          3.65480274e-01, 3.70985538e-01, 3.70985538e-01, 1.39520496e-01,
          3.60032320e-01, 3.70985538e-01, 3.70985538e-01, 1.46364942e-01,
          3.70985538e-01, 3.70985538e-01, 4.00897801e-01, 2.41955042e-01,
          1.84390008e-01, 4.00897801e-01, 4.00897801e-01, 3.89874876e-01,
          2.26934195e-01, 2.38904834e-01, 4.00897801e-01, 3.34238857e-01,
          3.20835590e-01, 3.34238857e-01, 3.34238857e-01, 3.34238857e-01,
          3.34238857e-01, 3.34238857e-01, 3.34238857e-01, 3.34238857e-01,
          4.26255316e-01, 4.26255316e-01, 4.26255316e-01, 4.26255316e-01,
          1.18578181e-01, 1.06446616e-01, 2.12687775e-01, 3.31469089e-01,
          2.97435850e-01, 4.91900355e-01, 4.69600298e-02, 2.82211136e-03,
          3.63663226e-01, 4.91900355e-01, 3.64293635e-01, 2.18685418e-02,
          3.92032228e-02, 4.91900355e-01, 4.13532943e-01, 4.13532943e-01,
          3.20419222e-01, 4.13532943e-01, 4.13532943e-01, 1.89678729e-01,
          2.02638563e-02, 4.20060940e-02, 4.13532943e-01, 3.58215839e-01,
          4.00550753e-01, 4.00550753e-01, 3.88889641e-01, 2.01443329e-01,
          8.87120962e-02, 4.00550753e-01, 3.97639960e-01, 1.68982983e-01,
          5.25524199e-01, 5.77125922e-02, 1.88057672e-03, 2.06352413e-01,
          5.25524199e-01, 3.28718334e-01, 3.04873865e-02, 1.06413744e-01,
          5.25524199e-01, 4.18068260e-01, 3.83905411e-01, 3.02019536e-01,
          4.18068260e-01, 4.18068260e-01, 2.27170825e-01, 3.11327539e-02,
          7.43260086e-02, 4.18068260e-01, 3.08304012e-01, 3.97426933e-01,
          3.97426933e-01, 3.97426933e-01, 3.97426933e-01, 8.80251378e-02,
          3.97426933e-01, 2.64387429e-01, 1.83271661e-01, 5.25524199e-01,
          5.77125922e-02, 1.88057672e-03, 2.06352413e-01, 5.25524199e-01,
          3.28718334e-01, 3.04873865e-02, 1.06413744e-01, 5.25524199e-01,
          4.18068260e-01, 3.83905411e-01, 3.02019536e-01, 4.18068260e-01,
          4.18068260e-01, 2.27170825e-01, 3.11327539e-02, 7.43260086e-02,
          4.18068260e-01, 3.08304012e-01, 3.97426933e-01, 3.97426933e-01,
          3.97426933e-01, 3.97426933e-01, 8.80251378e-02, 3.97426933e-01,
          2.64387429e-01, 1.83271661e-01, 3.97431761e-01, 1.46129772e-01,
          1.30799264e-01, 3.97431761e-01, 3.97431761e-01, 3.97431761e-01,
          9.92744341e-02, 3.97431761e-01, 3.97431761e-01, 3.53998959e-01,
          3.53998959e-01, 3.53998959e-01, 3.53998959e-01, 3.53998959e-01,
          3.53998959e-01, 1.68349087e-01, 3.01520824e-01, 3.53998959e-01,
          2.24574476e-01, 4.77142334e-01, 4.77142334e-01, 4.46658969e-01,
          8.93445536e-02, 1.92504987e-01, 3.72656822e-01, 2.73905635e-01,
          1.76149651e-01, 3.70985538e-01, 3.70985538e-01, 1.39520496e-01,
          3.60032320e-01, 3.70985538e-01, 3.70985538e-01, 1.46364942e-01,
          3.70985538e-01, 3.70985538e-01, 4.12501067e-01, 4.12501067e-01,
          2.31375098e-01, 1.62657335e-01, 4.12501067e-01, 4.12501067e-01,
          1.04376793e-01, 2.32824832e-01, 4.12501067e-01, 4.22525883e-01,
          4.22525883e-01, 4.22525883e-01, 1.03845038e-01, 4.22525883e-01,
          4.22525883e-01, 2.35912427e-01, 6.52342588e-02, 1.80123881e-01 ]
      - [ 4.94181246e-01, 4.94181246e-01, 2.20098108e-01, 1.40510902e-01,
          2.34132975e-01, 4.94181246e-01, 2.98768282e-01, 1.17908180e-01,
          1.90392777e-01, 4.69480842e-01, 4.69480842e-01, 2.20406726e-01,
          1.14667207e-01, 4.69480842e-01, 4.69480842e-01, 2.16950521e-01,
          4.93520796e-02, 4.93041836e-02, 2.63043493e-01, 4.75424618e-01,
          4.75424618e-01, 1.39322057e-01, 4.75424618e-01, 4.75424618e-01,
          2.47497056e-02, 5.41920774e-03, 4.35061976e-02, 4.92190599e-01,
          4.92190599e-01, 3.26402485e-02, 1.94251928e-02, 1.16524987e-01,
          4.92190599e-01, 4.92190599e-01, 7.00989440e-02, 7.83788115e-02,
          1.67564780e-01, 1.55657738e-01, 2.26776391e-01, 1.48413002e-01,
          5.77373028e-01, 5.77373028e-01, 3.91040236e-01, 1.58709601e-01,
          1.53795138e-01, 6.07726276e-02, 5.80226600e-01, 7.74482191e-01,
          1.12647191e-01, 1.80327058e-01, 7.90847987e-02, 2.18665786e-02,
          5.10036061e-03, 1.12070637e-02, 1.77280247e-01, 1.26241282e-01,
          4.06939052e-02, 5.40758409e-02, 3.53173822e-01, 5.76262236e-01,
          5.76262236e-01, 2.95973569e-01, 2.56538451e-01, 4.61984158e-01,
          4.61984158e-01, 4.61984158e-01, 6.01573177e-02, 1.11172669e-01,
          2.01083213e-01, 2.16519803e-01, 1.95894465e-01, 4.61984158e-01,
          3.99546742e-01, 4.85074371e-01, 4.85074371e-01, 4.73646745e-02,
          8.08096007e-02, 2.31313203e-02, 9.48876739e-02, 3.33637059e-01,
          4.85074371e-01, 1.77280247e-01, 1.26241282e-01, 4.06939052e-02,
          5.40758409e-02, 3.53173822e-01, 5.76262236e-01, 5.76262236e-01,
          2.95973569e-01, 2.56538451e-01, 4.61984158e-01, 4.61984158e-01,
          4.61984158e-01, 6.01573177e-02, 1.11172669e-01, 2.01083213e-01,
          2.16519803e-01, 1.95894465e-01, 4.61984158e-01, 3.99546742e-01,
          4.85074371e-01, 4.85074371e-01, 4.73646745e-02, 8.08096007e-02,
          2.31313203e-02, 9.48876739e-02, 3.33637059e-01, 4.85074371e-01,
          6.70697913e-02, 5.65599874e-02, 2.16700390e-01, 1.62899882e-01,
          2.56463885e-01, 3.48404795e-01, 5.50626516e-01, 5.50626516e-01,
          3.46077591e-01, 2.45613664e-01, 6.45165741e-01, 6.45165741e-01,
          1.73556045e-01, 8.02541524e-02, 8.50168541e-02, 9.15731117e-02,
          6.48931563e-02, 2.10636958e-01, 3.54762763e-01, 4.30473685e-01,
          4.70492989e-01, 1.35755986e-01, 2.93310191e-02, 1.32371625e-02,
          2.40855273e-02, 4.70492989e-01, 4.70492989e-01, 6.26668334e-02,
          1.08011939e-01, 2.92788982e-01, 5.02584755e-01, 3.13223034e-01,
          5.54021671e-02, 1.86303511e-01, 5.02584755e-01, 5.02584755e-01,
          2.02280059e-01, 3.02536726e-01, 4.37226295e-01, 4.37226295e-01,
          1.80025712e-01, 1.19402714e-01, 2.27712750e-01, 4.37226295e-01,
          4.37226295e-01, 4.31418791e-02, 1.11726783e-01, 5.61575949e-01,
          5.61575949e-01, 5.61575949e-01, 4.19466831e-02, 9.35003236e-02,
          4.16809209e-02, 1.47330672e-01, 2.63043493e-01, 4.75424618e-01,
          4.75424618e-01, 1.39322057e-01, 4.75424618e-01, 4.75424618e-01,
          2.47497056e-02, 5.41920774e-03, 4.35061976e-02, 4.36139643e-01,
          4.36139643e-01, 4.36139643e-01, 2.18327269e-02, 2.71467894e-01,
          1.61422938e-01, 3.12894434e-01, 1.91416889e-01, 4.36139643e-01,
          3.51549149e-01, 4.66648713e-02, 3.93947922e-02, 4.83292788e-02,
          2.35903069e-01, 3.80533300e-02, 5.90955377e-01, 5.90955377e-01,
          3.29988688e-01, 6.07726276e-02, 5.80226600e-01, 7.74482191e-01,
          1.12647191e-01, 1.80327058e-01, 7.90847987e-02, 2.18665786e-02,
          5.10036061e-03, 1.12070637e-02, 9.31692682e-03, 5.70609450e-01,
          7.02812910e-01, 2.59454753e-02, 8.20411090e-03, 5.02316467e-03,
          3.75935763e-01, 1.76053822e-01, 1.63696483e-02, 5.53331338e-03,
          1.27143497e-02, 2.15366744e-02, 2.37375442e-02, 2.71011405e-02,
          3.68968062e-02, 7.03416646e-01, 7.03416646e-01, 8.53924360e-03,
          3.99546742e-01, 4.85074371e-01, 4.85074371e-01, 4.73646745e-02,
          8.08096007e-02, 2.31313203e-02, 9.48876739e-02, 3.33637059e-01,
          4.85074371e-01, 1.29387975e-02, 6.69806719e-01, 6.69806719e-01,
          3.11428681e-02, 1.28208697e-02, 1.64306127e-02, 2.65346527e-01,
          1.47045776e-01, 4.92771417e-02, 3.63798112e-01, 3.07831824e-01,
          5.34927435e-02, 1.36888437e-02, 4.65025147e-03, 4.12842184e-02,
          6.15432441e-01, 6.15432441e-01, 6.67594969e-02, 3.99546742e-01,
          4.85074371e-01, 4.85074371e-01, 4.73646745e-02, 8.08096007e-02,
          2.31313203e-02, 9.48876739e-02, 3.33637059e-01, 4.85074371e-01,
          1.29387975e-02, 6.69806719e-01, 6.69806719e-01, 3.11428681e-02,
          1.28208697e-02, 1.64306127e-02, 2.65346527e-01, 1.47045776e-01,
          4.92771417e-02, 3.63798112e-01, 3.07831824e-01, 5.34927435e-02,
          1.36888437e-02, 4.65025147e-03, 4.12842184e-02, 6.15432441e-01,
          6.15432441e-01, 6.67594969e-02, 3.54762763e-01, 4.30473685e-01,
          4.70492989e-01, 1.35755986e-01, 2.93310191e-02, 1.32371625e-02,
          2.40855273e-02, 4.70492989e-01, 4.70492989e-01, 3.64413530e-01,
          4.91652340e-01, 4.91652340e-01, 9.66091752e-02, 3.77374850e-02,
          4.06814814e-02, 1.56141445e-01, 3.16754758e-01, 4.91652340e-01,
          4.24957037e-01, 4.24957037e-01, 1.00398727e-01, 5.51232360e-02,
          8.54830742e-02, 2.69047678e-01, 4.24957037e-01, 4.24957037e-01,
          4.24957037e-01, 4.31418791e-02, 1.11726783e-01, 5.61575949e-01,
          5.61575949e-01, 5.61575949e-01, 4.19466831e-02, 9.35003236e-02,
          4.16809209e-02, 1.47330672e-01, 1.25306070e-01, 4.57228310e-02,
          1.16297208e-01, 6.17307067e-01, 6.17307067e-01, 3.91982526e-01,
          1.08978473e-01, 3.83781083e-02, 1.82712153e-01, 1.76278263e-01,
          6.67575523e-02, 4.49793153e-02, 1.11072503e-01, 3.57361495e-01,
          7.98254609e-01, 4.06115025e-01, 1.48447873e-02, 1.09887071e-01 ]
      - [ 4.46296275e-01, 1.99568748e-01, 2.64327854e-01, 4.15503502e-01,
          4.46296275e-01, 1.22801349e-01, 7.57857412e-02, 3.07956487e-01,
          4.46296275e-01, 3.48328233e-01, 2.91221589e-01, 4.89787102e-01,
          4.89787102e-01, 4.89787102e-01, 1.32727787e-01, 3.95411663e-02,
          9.32482406e-02, 2.03509361e-01, 3.64699997e-02, 5.60758412e-02,
          1.37362644e-01, 6.77071661e-02, 5.04490614e-01, 4.35668796e-01,
          5.04490614e-01, 5.04490614e-01, 1.17023706e-01, 4.75824028e-01,
          3.14283460e-01, 4.15381372e-01, 1.64517492e-01, 2.49537043e-02,
          3.06500848e-02, 1.26799211e-01, 4.75824028e-01, 4.75824028e-01,
          5.61774909e-01, 2.00556666e-01, 4.22231317e-01, 2.01430231e-01,
          2.20493272e-01, 8.71135741e-02, 5.30099832e-02, 2.12404430e-01,
          5.61774909e-01, 4.37841982e-01, 4.61530276e-02, 1.90141842e-01,
          1.74653277e-01, 3.21221501e-01, 2.84959227e-01, 4.09068227e-01,
          4.37841982e-01, 4.37841982e-01, 1.60350844e-01, 9.69607681e-02,
          4.77372557e-01, 4.77372557e-01, 6.68841302e-02, 1.37159467e-01,
          4.77372557e-01, 4.77372557e-01, 1.59040362e-01, 3.57881248e-01,
          1.68908432e-01, 3.84379864e-01, 3.84379864e-01, 3.84379864e-01,
          2.30287373e-01, 2.18584895e-01, 3.84379864e-01, 3.84379864e-01,
          1.12773769e-01, 7.46568218e-02, 4.85897452e-01, 4.85897452e-01,
          7.40553588e-02, 3.30568552e-02, 3.60390604e-01, 4.85897452e-01,
          3.63466501e-01, 1.60350844e-01, 9.69607681e-02, 4.77372557e-01,
          4.77372557e-01, 6.68841302e-02, 1.37159467e-01, 4.77372557e-01,
          4.77372557e-01, 1.59040362e-01, 3.57881248e-01, 1.68908432e-01,
          3.84379864e-01, 3.84379864e-01, 3.84379864e-01, 2.30287373e-01,
          2.18584895e-01, 3.84379864e-01, 3.84379864e-01, 1.12773769e-01,
          7.46568218e-02, 4.85897452e-01, 4.85897452e-01, 7.40553588e-02,
          3.30568552e-02, 3.60390604e-01, 4.85897452e-01, 3.63466501e-01,
          1.62799098e-02, 2.56507155e-02, 4.81902421e-01, 4.81902421e-01,
          1.25653192e-01, 1.51918279e-02, 4.81902421e-01, 4.81902421e-01,
          2.22091004e-01, 1.76623821e-01, 1.08729862e-01, 4.55259711e-01,
          4.55259711e-01, 4.55259711e-01, 1.03174418e-01, 1.34334415e-01,
          4.55259711e-01, 3.07730675e-01, 4.09313701e-02, 9.90088433e-02,
          4.83799189e-01, 3.23229015e-01, 4.83799189e-01, 2.81083196e-01,
          2.57671535e-01, 4.83799189e-01, 1.77835792e-01, 2.73320317e-01,
          2.07128018e-01, 4.61211205e-01, 4.08172846e-01, 6.46968186e-02,
          1.28991706e-02, 4.61211205e-01, 4.61211205e-01, 2.62073964e-01,
          2.74773329e-01, 5.66691048e-02, 1.31360546e-01, 1.66577622e-01,
          4.67034340e-01, 1.01411298e-01, 4.92406338e-01, 4.92406338e-01,
          3.97533953e-01, 4.14853722e-01, 3.26683283e-01, 4.14853722e-01,
          4.14853722e-01, 4.14853722e-01, 1.32867858e-01, 6.80920631e-02,
          7.95310959e-02, 4.14853722e-01, 3.64699997e-02, 5.60758412e-02,
          1.37362644e-01, 6.77071661e-02, 5.04490614e-01, 4.35668796e-01,
          5.04490614e-01, 5.04490614e-01, 1.17023706e-01, 1.49639636e-01,
          1.12354726e-01, 4.64161873e-01, 4.64161873e-01, 4.64161873e-01,
          8.51880312e-02, 2.25092307e-01, 4.64161873e-01, 2.01593369e-01,
          2.66709685e-01, 4.33009788e-02, 4.81766850e-01, 4.81766850e-01,
          1.00682653e-01, 1.08051054e-01, 3.49199444e-01, 4.81766850e-01,
          2.86581278e-01, 4.37841982e-01, 4.61530276e-02, 1.90141842e-01,
          1.74653277e-01, 3.21221501e-01, 2.84959227e-01, 4.09068227e-01,
          4.37841982e-01, 4.37841982e-01, 4.10997778e-01, 1.57723531e-01,
          4.10997778e-01, 3.68456393e-01, 1.68059275e-01, 1.83126032e-01,
          3.12732458e-01, 4.10997778e-01, 4.10997778e-01, 6.56767860e-02,
          1.04951270e-01, 5.53654373e-01, 5.53654373e-01, 9.82481148e-03,
          6.77242950e-02, 1.19938888e-01, 5.53654373e-01, 2.01183826e-01,
          1.12773769e-01, 7.46568218e-02, 4.85897452e-01, 4.85897452e-01,
          7.40553588e-02, 3.30568552e-02, 3.60390604e-01, 4.85897452e-01,
          3.63466501e-01, 5.13039455e-02, 4.94539440e-02, 4.17712599e-01,
          2.26530775e-01, 6.41689971e-02, 5.28334454e-02, 5.84534228e-01,
          6.06166184e-01, 2.16894194e-01, 1.44764781e-01, 1.23267226e-01,
          5.92145979e-01, 5.92145979e-01, 4.01361054e-03, 3.52878124e-02,
          6.94194213e-02, 3.56728315e-01, 3.51178735e-01, 1.12773769e-01,
          7.46568218e-02, 4.85897452e-01, 4.85897452e-01, 7.40553588e-02,
          3.30568552e-02, 3.60390604e-01, 4.85897452e-01, 3.63466501e-01,
          5.13039455e-02, 4.94539440e-02, 4.17712599e-01, 2.26530775e-01,
          6.41689971e-02, 5.28334454e-02, 5.84534228e-01, 6.06166184e-01,
          2.16894194e-01, 1.44764781e-01, 1.23267226e-01, 5.92145979e-01,
          5.92145979e-01, 4.01361054e-03, 3.52878124e-02, 6.94194213e-02,
          3.56728315e-01, 3.51178735e-01, 4.09313701e-02, 9.90088433e-02,
          4.83799189e-01, 3.23229015e-01, 4.83799189e-01, 2.81083196e-01,
          2.57671535e-01, 4.83799189e-01, 1.77835792e-01, 4.87248003e-02,
          4.41372767e-02, 1.83679968e-01, 7.15450197e-02, 4.78369147e-01,
          3.02618682e-01, 4.78369147e-01, 4.78369147e-01, 4.17077422e-01,
          1.08905748e-01, 8.85249972e-02, 4.76788849e-01, 4.76788849e-01,
          1.86810736e-03, 8.86964425e-02, 4.16097850e-01, 4.76788849e-01,
          3.35484624e-01, 4.14853722e-01, 3.26683283e-01, 4.14853722e-01,
          4.14853722e-01, 4.14853722e-01, 1.32867858e-01, 6.80920631e-02,
          7.95310959e-02, 4.14853722e-01, 2.93078840e-01, 1.49756940e-02,
          1.04344942e-01, 2.53418803e-01, 4.11762625e-01, 4.11762625e-01,
          4.11762625e-01, 3.95555645e-01, 4.11762625e-01, 1.06385812e-01,
          3.75773981e-02, 4.61871535e-01, 2.61181921e-01, 6.95920140e-02,
          2.37268582e-01, 4.61871535e-01, 4.61871535e-01, 4.61871535e-01 ]
      - [ 5.17152667e-01, 5.17152667e-01, 2.00756580e-01, 9.27921236e-02,
          1.45094275e-01, 5.17152667e-01, 3.37483466e-01, 8.99714306e-02,
          2.32061576e-02, 2.73439974e-01, 4.84475911e-01, 4.84475911e-01,
          7.38119557e-02, 4.33531195e-01, 4.84475911e-01, 1.50440827e-01,
          8.11795981e-05, 1.45280920e-02, 4.33476031e-01, 4.33476031e-01,
          4.33476031e-01, 1.34110004e-02, 1.82446286e-01, 2.49963209e-01,
          4.33476031e-01, 3.19280595e-01, 2.14886054e-01, 4.83828038e-01,
          4.83828038e-01, 3.64144295e-02, 5.59015060e-03, 2.27562025e-01,
          4.83828038e-01, 4.83828038e-01, 7.04461485e-02, 2.65512373e-02,
          2.29100101e-02, 6.42989337e-01, 6.42989337e-01, 1.34069890e-01,
          1.53406158e-01, 3.43465924e-01, 8.11936855e-02, 3.52657051e-03,
          1.01555372e-02, 1.03240098e-04, 5.59954643e-01, 5.59954643e-01,
          9.28292889e-03, 3.92422779e-03, 7.63976388e-03, 5.59954643e-01,
          2.31498778e-01, 3.00223078e-03, 2.36680910e-01, 1.49522543e-01,
          2.16776103e-01, 1.27337173e-01, 3.73279482e-01, 4.71860796e-01,
          4.71860796e-01, 4.71860796e-01, 2.15429783e-01, 3.33735943e-01,
          5.14842749e-01, 5.14842749e-01, 1.76993728e-01, 9.78689343e-02,
          2.72570886e-02, 5.48458435e-02, 2.08885625e-01, 5.14842749e-01,
          1.03498232e-02, 5.55047452e-01, 5.55047452e-01, 1.75466035e-02,
          4.10672417e-03, 1.48537764e-02, 5.55047452e-01, 2.60142237e-01,
          4.35608290e-02, 2.36680910e-01, 1.49522543e-01, 2.16776103e-01,
          1.27337173e-01, 3.73279482e-01, 4.71860796e-01, 4.71860796e-01,
          4.71860796e-01, 2.15429783e-01, 3.33735943e-01, 5.14842749e-01,
          5.14842749e-01, 1.76993728e-01, 9.78689343e-02, 2.72570886e-02,
          5.48458435e-02, 2.08885625e-01, 5.14842749e-01, 1.03498232e-02,
          5.55047452e-01, 5.55047452e-01, 1.75466035e-02, 4.10672417e-03,
          1.48537764e-02, 5.55047452e-01, 2.60142237e-01, 4.35608290e-02,
          1.07920870e-01, 3.67418349e-01, 4.74175066e-01, 1.79910496e-01,
          3.15455586e-01, 1.69863269e-01, 4.74175066e-01, 4.74175066e-01,
          1.15590379e-01, 3.11529994e-01, 4.96346533e-01, 4.96346533e-01,
          9.35390145e-02, 1.12369778e-02, 2.31696069e-02, 4.60414626e-02,
          3.83900702e-01, 4.96346533e-01, 3.23932827e-01, 4.58474874e-01,
          4.58474874e-01, 3.81621681e-02, 1.12990281e-02, 1.81387868e-02,
          3.88489127e-01, 3.27190191e-01, 4.58474874e-01, 1.52522817e-01,
          1.91513121e-01, 4.46842253e-01, 4.46842253e-01, 2.87413359e-01,
          4.09157462e-02, 2.29441881e-01, 4.46842253e-01, 4.46842253e-01,
          2.67420094e-02, 5.06573141e-01, 5.76376617e-01, 5.76376617e-01,
          2.29829952e-01, 2.35528369e-02, 3.73906903e-02, 4.87885810e-02,
          1.23846836e-01, 1.42288327e-01, 7.86888748e-02, 3.41780454e-01,
          5.33654392e-01, 4.10545975e-01, 5.33654392e-01, 2.24025920e-01,
          4.20204438e-02, 2.47676298e-01, 4.33476031e-01, 4.33476031e-01,
          4.33476031e-01, 1.34110004e-02, 1.82446286e-01, 2.49963209e-01,
          4.33476031e-01, 3.19280595e-01, 2.14886054e-01, 2.77230024e-01,
          2.72738300e-02, 5.44674397e-02, 1.13724418e-01, 2.79851824e-01,
          7.36153945e-02, 6.21561289e-01, 6.21561289e-01, 2.09477127e-01,
          4.04625088e-02, 1.77639127e-02, 3.18430275e-01, 5.06426036e-01,
          5.06426036e-01, 2.96966076e-01, 2.48918757e-01, 4.20242935e-01,
          2.27823153e-01, 1.03240098e-04, 5.59954643e-01, 5.59954643e-01,
          9.28292889e-03, 3.92422779e-03, 7.63976388e-03, 5.59954643e-01,
          2.31498778e-01, 3.00223078e-03, 6.16191654e-03, 3.44656259e-02,
          1.19180389e-01, 3.07449903e-02, 4.20727255e-03, 2.16650702e-02,
          6.98483825e-01, 6.98483825e-01, 2.01468728e-02, 1.15670778e-01,
          1.26041353e-01, 4.24033463e-01, 2.83045501e-01, 2.83843756e-01,
          2.29065374e-01, 4.75587338e-01, 4.75587338e-01, 3.47360969e-01,
          1.03498232e-02, 5.55047452e-01, 5.55047452e-01, 1.75466035e-02,
          4.10672417e-03, 1.48537764e-02, 5.55047452e-01, 2.60142237e-01,
          4.35608290e-02, 4.11183298e-01, 5.12782216e-01, 1.41558558e-01,
          1.65323690e-02, 6.41282822e-05, 4.05822787e-03, 5.12782216e-01,
          5.12782216e-01, 1.29002735e-01, 4.81031716e-01, 3.80750984e-01,
          9.60540920e-02, 2.76907142e-02, 2.49616113e-02, 1.62597209e-01,
          4.81031716e-01, 4.81031716e-01, 3.44957441e-01, 1.03498232e-02,
          5.55047452e-01, 5.55047452e-01, 1.75466035e-02, 4.10672417e-03,
          1.48537764e-02, 5.55047452e-01, 2.60142237e-01, 4.35608290e-02,
          4.11183298e-01, 5.12782216e-01, 1.41558558e-01, 1.65323690e-02,
          6.41282822e-05, 4.05822787e-03, 5.12782216e-01, 5.12782216e-01,
          1.29002735e-01, 4.81031716e-01, 3.80750984e-01, 9.60540920e-02,
          2.76907142e-02, 2.49616113e-02, 1.62597209e-01, 4.81031716e-01,
          4.81031716e-01, 3.44957441e-01, 3.23932827e-01, 4.58474874e-01,
          4.58474874e-01, 3.81621681e-02, 1.12990281e-02, 1.81387868e-02,
          3.88489127e-01, 3.27190191e-01, 4.58474874e-01, 4.26137269e-01,
          4.26137269e-01, 7.29215294e-02, 4.11889143e-03, 2.93624327e-02,
          2.85625070e-01, 4.26137269e-01, 4.26137269e-01, 4.26137269e-01,
          2.17730075e-01, 4.37520802e-01, 8.55619237e-02, 2.25732829e-02,
          2.26030033e-02, 3.51688772e-01, 5.56500137e-01, 5.56500137e-01,
          6.48141652e-02, 1.42288327e-01, 7.86888748e-02, 3.41780454e-01,
          5.33654392e-01, 4.10545975e-01, 5.33654392e-01, 2.24025920e-01,
          4.20204438e-02, 2.47676298e-01, 1.30358726e-01, 1.44502833e-01,
          3.18590701e-02, 3.77203338e-02, 7.73702487e-02, 6.84908688e-01,
          6.84908688e-01, 7.00787529e-02, 6.12656586e-02, 4.69923794e-01,
          4.69923794e-01, 1.36944398e-01, 1.63708031e-01, 1.47835225e-01,
          4.69923794e-01, 4.69923794e-01, 1.93432003e-01, 8.46615732e-02 ]
      - [ 4.03902918e-01, 2.74647295e-01, 4.03902918e-01, 6.62548020e-02,
          6.39323220e-02, 3.10433745e-01, 4.03902918e-01, 4.03902918e-01,
          4.03902918e-01, 1.96646780e-01, 8.08785334e-02, 3.00029010e-01,
          8.95287693e-02, 4.51838166e-01, 4.51838166e-01, 4.28830624e-01,
          3.86118561e-01, 3.33082557e-01, 2.91789293e-01, 3.67212683e-01,
          4.71019626e-01, 6.00091740e-02, 4.97069985e-01, 4.97069985e-01,
          6.69463649e-02, 1.88475966e-01, 1.24204464e-01, 3.04982606e-02,
          1.16329759e-01, 2.71883070e-01, 6.00183979e-02, 2.50861049e-01,
          6.35410786e-01, 6.35410786e-01, 1.69338390e-01, 5.06975986e-02,
          2.22039409e-02, 6.66814148e-02, 5.44792376e-02, 2.66961157e-02,
          6.61949158e-01, 6.68074071e-01, 3.05996865e-01, 7.24081099e-02,
          3.65215391e-02, 1.32874459e-01, 5.61740935e-01, 5.61740935e-01,
          1.10406242e-02, 3.01848739e-01, 4.76371735e-01, 7.51392469e-02,
          1.25647262e-01, 7.76620209e-02, 2.20861174e-02, 1.72805376e-02,
          3.38163152e-02, 3.09891701e-02, 1.71328232e-01, 6.79491460e-01,
          6.79491460e-01, 1.90329686e-01, 3.64737324e-02, 1.67751536e-01,
          3.78802985e-01, 4.45811987e-01, 2.42425993e-01, 3.88665527e-01,
          4.45811987e-01, 2.27510512e-01, 1.77300632e-01, 3.65226209e-01,
          8.19738805e-02, 6.73706114e-01, 6.73706114e-01, 7.98970163e-02,
          2.77673565e-02, 5.80903403e-02, 1.03231587e-01, 7.75056034e-02,
          2.27160349e-01, 2.20861174e-02, 1.72805376e-02, 3.38163152e-02,
          3.09891701e-02, 1.71328232e-01, 6.79491460e-01, 6.79491460e-01,
          1.90329686e-01, 3.64737324e-02, 1.67751536e-01, 3.78802985e-01,
          4.45811987e-01, 2.42425993e-01, 3.88665527e-01, 4.45811987e-01,
          2.27510512e-01, 1.77300632e-01, 3.65226209e-01, 8.19738805e-02,
          6.73706114e-01, 6.73706114e-01, 7.98970163e-02, 2.77673565e-02,
          5.80903403e-02, 1.03231587e-01, 7.75056034e-02, 2.27160349e-01,
          9.90299806e-02, 9.62147415e-02, 1.62523285e-01, 1.82312310e-01,
          2.87803173e-01, 3.27345043e-01, 5.96450567e-01, 5.96450567e-01,
          1.17629237e-01, 2.96802074e-01, 5.07740676e-01, 5.07740676e-01,
          1.93847016e-01, 4.54242714e-02, 1.90369170e-02, 1.48954853e-01,
          3.14352334e-01, 4.79821891e-01, 3.55865687e-01, 4.72779840e-01,
          4.72779840e-01, 8.99579450e-02, 3.00986581e-02, 1.74689889e-02,
          9.40481853e-03, 4.34376508e-01, 4.72779840e-01, 6.37465119e-02,
          4.97259572e-02, 2.12227121e-01, 5.46380818e-01, 9.42888334e-02,
          4.54664156e-02, 1.90823004e-01, 5.46380818e-01, 5.46380818e-01,
          1.22108035e-01, 3.58314484e-01, 4.57722574e-01, 4.57722574e-01,
          2.34834388e-01, 1.19948454e-01, 9.36421007e-02, 3.81175607e-01,
          4.57722574e-01, 1.79191008e-01, 1.31389529e-01, 5.25259912e-01,
          5.25259912e-01, 5.25259912e-01, 1.19059585e-01, 2.85043847e-02,
          7.93694779e-02, 3.10484231e-01, 2.91789293e-01, 3.67212683e-01,
          4.71019626e-01, 6.00091740e-02, 4.97069985e-01, 4.97069985e-01,
          6.69463649e-02, 1.88475966e-01, 1.24204464e-01, 3.88917536e-01,
          2.49789745e-01, 2.59069890e-01, 9.25248042e-02, 3.88917536e-01,
          3.88917536e-01, 3.18994522e-01, 3.88917536e-01, 3.88917536e-01,
          1.84850827e-01, 1.05210952e-01, 4.79835607e-02, 4.49245423e-01,
          4.49245423e-01, 3.37397277e-01, 4.49245423e-01, 4.49245423e-01,
          1.63854301e-01, 1.32874459e-01, 5.61740935e-01, 5.61740935e-01,
          1.10406242e-02, 3.01848739e-01, 4.76371735e-01, 7.51392469e-02,
          1.25647262e-01, 7.76620209e-02, 4.14487690e-01, 4.35431182e-01,
          4.49185848e-01, 3.38159837e-02, 2.28242781e-02, 3.00033428e-02,
          4.49185848e-01, 4.49185848e-01, 1.62001431e-01, 5.33190817e-02,
          6.07882999e-02, 9.54269618e-02, 7.44419619e-02, 1.94069669e-01,
          1.29336819e-01, 6.74798906e-01, 6.74798906e-01, 8.35426450e-02,
          8.19738805e-02, 6.73706114e-01, 6.73706114e-01, 7.98970163e-02,
          2.77673565e-02, 5.80903403e-02, 1.03231587e-01, 7.75056034e-02,
          2.27160349e-01, 8.09340551e-03, 4.26296085e-01, 5.20259321e-01,
          2.40974389e-02, 1.29189612e-02, 1.49985859e-02, 5.20259321e-01,
          5.20259321e-01, 5.34633826e-03, 4.94780630e-01, 4.85315263e-01,
          1.17451750e-01, 4.73884959e-03, 2.59875003e-02, 3.84085625e-02,
          4.94780630e-01, 4.94780630e-01, 9.55814570e-02, 8.19738805e-02,
          6.73706114e-01, 6.73706114e-01, 7.98970163e-02, 2.77673565e-02,
          5.80903403e-02, 1.03231587e-01, 7.75056034e-02, 2.27160349e-01,
          8.09340551e-03, 4.26296085e-01, 5.20259321e-01, 2.40974389e-02,
          1.29189612e-02, 1.49985859e-02, 5.20259321e-01, 5.20259321e-01,
          5.34633826e-03, 4.94780630e-01, 4.85315263e-01, 1.17451750e-01,
          4.73884959e-03, 2.59875003e-02, 3.84085625e-02, 4.94780630e-01,
          4.94780630e-01, 9.55814570e-02, 3.55865687e-01, 4.72779840e-01,
          4.72779840e-01, 8.99579450e-02, 3.00986581e-02, 1.74689889e-02,
          9.40481853e-03, 4.34376508e-01, 4.72779840e-01, 3.54773253e-01,
          4.16635364e-01, 4.16635364e-01, 3.25183496e-02, 2.81445663e-02,
          1.41178593e-02, 4.16635364e-01, 4.16635364e-01, 4.16635364e-01,
          4.50725049e-01, 4.50725049e-01, 1.87984966e-02, 1.31286690e-02,
          1.68535151e-02, 3.94524366e-01, 4.50725049e-01, 4.50725049e-01,
          1.62561595e-01, 1.79191008e-01, 1.31389529e-01, 5.25259912e-01,
          5.25259912e-01, 5.25259912e-01, 1.19059585e-01, 2.85043847e-02,
          7.93694779e-02, 3.10484231e-01, 2.33999267e-01, 8.83699656e-02,
          1.50142521e-01, 5.24178207e-01, 5.24178207e-01, 5.24178207e-01,
          1.67438462e-01, 8.04319233e-02, 2.25530475e-01, 4.85194951e-01,
          1.10560030e-01, 2.49431632e-03, 3.71710844e-02, 1.85365006e-01,
          7.44464099e-01, 3.72862458e-01, 4.54541445e-02, 1.17746912e-01 ]
      - [ 1.88238114e-01, 3.71933848e-01, 4.25835669e-01, 2.84504026e-01,
          2.62504876e-01, 2.23073587e-01, 4.25835669e-01, 4.25835669e-01,
          2.79922396e-01, 3.77826810e-01, 1.64375186e-01, 2.35650301e-01,
          3.77826810e-01, 3.77826810e-01, 2.39074335e-01, 3.77826810e-01,
          3.77826810e-01, 3.77826810e-01, 3.69217187e-01, 1.78486213e-01,
          3.69217187e-01, 3.69217187e-01, 3.41759980e-01, 3.69217187e-01,
          1.72412515e-01, 3.69217187e-01, 3.69217187e-01, 1.68491542e-01,
          4.21817124e-01, 4.21817124e-01, 4.21817124e-01, 4.21817124e-01,
          1.71337545e-01, 3.19980621e-01, 3.18214804e-01, 1.50577188e-01,
          4.05008703e-01, 4.05008703e-01, 2.83082217e-01, 9.04238895e-02,
          2.70448685e-01, 2.56116241e-01, 4.05008703e-01, 4.05008703e-01,
          3.35820973e-01, 2.42611304e-01, 1.91415429e-01, 4.50805098e-01,
          2.25180626e-01, 1.82444960e-01, 5.57088815e-02, 4.50805098e-01,
          4.50805098e-01, 4.50805098e-01, 1.89882785e-01, 1.58066481e-01,
          3.72193187e-01, 4.37958777e-01, 4.37958777e-01, 6.06155545e-02,
          1.58591017e-01, 4.37958777e-01, 4.37958777e-01, 1.34835467e-01,
          2.78868735e-01, 4.42562580e-01, 4.42562580e-01, 4.42562580e-01,
          8.29417855e-02, 9.26976129e-02, 3.17351699e-01, 4.42562580e-01,
          3.59662980e-01, 4.29489136e-01, 4.29489136e-01, 2.12482840e-01,
          1.90725818e-01, 6.71586916e-02, 4.29489136e-01, 4.29489136e-01,
          2.06089854e-01, 1.89882785e-01, 1.58066481e-01, 3.72193187e-01,
          4.37958777e-01, 4.37958777e-01, 6.06155545e-02, 1.58591017e-01,
          4.37958777e-01, 4.37958777e-01, 1.34835467e-01, 2.78868735e-01,
          4.42562580e-01, 4.42562580e-01, 4.42562580e-01, 8.29417855e-02,
          9.26976129e-02, 3.17351699e-01, 4.42562580e-01, 3.59662980e-01,
          4.29489136e-01, 4.29489136e-01, 2.12482840e-01, 1.90725818e-01,
          6.71586916e-02, 4.29489136e-01, 4.29489136e-01, 2.06089854e-01,
          4.86681461e-01, 2.97178388e-01, 1.27913937e-01, 1.63171038e-01,
          3.09575409e-01, 1.12046070e-01, 2.11824089e-01, 4.86681461e-01,
          4.86681461e-01, 1.18099347e-01, 1.15128681e-01, 4.68265623e-01,
          4.68265623e-01, 1.11076586e-01, 8.08434188e-02, 2.68619269e-01,
          4.68265623e-01, 4.68265623e-01, 1.60316288e-01, 1.13182724e-01,
          4.09537524e-01, 4.09537524e-01, 4.09537524e-01, 2.88114667e-01,
          4.09537524e-01, 4.09537524e-01, 1.89162582e-01, 2.63053983e-01,
          3.18326533e-01, 4.79985684e-01, 4.79985684e-01, 4.79985684e-01,
          1.73886687e-01, 6.53015524e-02, 1.46293476e-01, 2.78595418e-01,
          1.86466351e-01, 2.89430320e-01, 2.47667521e-01, 3.56444687e-01,
          3.22937042e-01, 2.94348031e-01, 4.72914428e-01, 4.72914428e-01,
          2.23873988e-01, 3.81738931e-01, 2.30850518e-01, 1.49147555e-01,
          3.81738931e-01, 3.81738931e-01, 3.81738931e-01, 3.09403777e-01,
          3.10315162e-01, 3.81738931e-01, 3.69217187e-01, 1.78486213e-01,
          3.69217187e-01, 3.69217187e-01, 3.41759980e-01, 3.69217187e-01,
          1.72412515e-01, 3.69217187e-01, 3.69217187e-01, 1.09790333e-01,
          3.47310811e-01, 4.99494374e-01, 4.99494374e-01, 6.32333159e-02,
          1.92406088e-01, 9.51612964e-02, 4.99494374e-01, 2.52536118e-01,
          1.81077972e-01, 1.77094117e-01, 9.68459100e-02, 5.31693436e-02,
          2.80985177e-01, 4.70185190e-01, 4.70185190e-01, 4.70185190e-01,
          4.20441419e-01, 2.42611304e-01, 1.91415429e-01, 4.50805098e-01,
          2.25180626e-01, 1.82444960e-01, 5.57088815e-02, 4.50805098e-01,
          4.50805098e-01, 4.50805098e-01, 1.66567639e-02, 7.78056085e-02,
          4.94114697e-01, 4.94114697e-01, 2.49060974e-01, 1.09688684e-01,
          3.28380674e-01, 4.94114697e-01, 2.72743464e-01, 1.45211630e-02,
          1.47319034e-01, 4.35462415e-01, 4.42578524e-01, 4.42578524e-01,
          4.42578524e-01, 4.42578524e-01, 2.28470117e-02, 3.59209627e-03,
          3.59662980e-01, 4.29489136e-01, 4.29489136e-01, 2.12482840e-01,
          1.90725818e-01, 6.71586916e-02, 4.29489136e-01, 4.29489136e-01,
          2.06089854e-01, 3.95162165e-01, 4.01714712e-01, 2.50055492e-01,
          2.75907516e-01, 4.01714712e-01, 2.05852076e-01, 4.01714712e-01,
          4.01714712e-01, 1.15356170e-01, 3.68942559e-01, 2.94754446e-01,
          3.68942559e-01, 3.63867521e-01, 3.68942559e-01, 2.78330505e-01,
          1.37744084e-01, 3.68942559e-01, 3.68942559e-01, 3.59662980e-01,
          4.29489136e-01, 4.29489136e-01, 2.12482840e-01, 1.90725818e-01,
          6.71586916e-02, 4.29489136e-01, 4.29489136e-01, 2.06089854e-01,
          3.95162165e-01, 4.01714712e-01, 2.50055492e-01, 2.75907516e-01,
          4.01714712e-01, 2.05852076e-01, 4.01714712e-01, 4.01714712e-01,
          1.15356170e-01, 3.68942559e-01, 2.94754446e-01, 3.68942559e-01,
          3.63867521e-01, 3.68942559e-01, 2.78330505e-01, 1.37744084e-01,
          3.68942559e-01, 3.68942559e-01, 1.60316288e-01, 1.13182724e-01,
          4.09537524e-01, 4.09537524e-01, 4.09537524e-01, 2.88114667e-01,
          4.09537524e-01, 4.09537524e-01, 1.89162582e-01, 1.87882245e-01,
          4.71223116e-01, 4.71223116e-01, 1.16898445e-02, 8.80992040e-02,
          3.23947221e-01, 4.71223116e-01, 4.13483053e-01, 1.00158446e-01,
          3.48131955e-01, 3.48131955e-01, 3.48131955e-01, 1.89820454e-01,
          3.48131955e-01, 3.34842056e-01, 3.48131955e-01, 3.48131955e-01,
          3.48131955e-01, 3.81738931e-01, 2.30850518e-01, 1.49147555e-01,
          3.81738931e-01, 3.81738931e-01, 3.81738931e-01, 3.09403777e-01,
          3.10315162e-01, 3.81738931e-01, 2.08989859e-01, 3.74543101e-01,
          3.74543101e-01, 2.40993872e-01, 3.74543101e-01, 3.74543101e-01,
          3.74543101e-01, 2.29800358e-01, 3.74543101e-01, 3.54598969e-01,
          3.54598969e-01, 3.54598969e-01, 2.39326194e-01, 3.20029527e-01,
          3.54598969e-01, 3.54598969e-01, 3.11111152e-01, 3.33570093e-01 ]
      - [ 4.89945382e-01, 4.89945382e-01, 3.33058000e-01, 5.57189509e-02,
          1.91161796e-01, 9.87473726e-02, 1.17935836e-01, 3.17383409e-01,
          4.89945382e-01, 2.07811117e-01, 1.56428441e-01, 5.23311317e-01,
          2.44700626e-01, 2.84591969e-02, 1.66101940e-02, 2.11163774e-01,
          5.23311317e-01, 5.23311317e-01, 9.12557766e-02, 3.56788784e-01,
          4.25032705e-01, 4.25032705e-01, 4.25032705e-01, 3.74581188e-01,
          1.10995188e-01, 3.76662105e-01, 1.53832987e-01, 2.18712077e-01,
          4.12643105e-01, 4.12643105e-01, 4.12643105e-01, 4.12643105e-01,
          4.12643105e-01, 2.11632773e-01, 1.89902961e-01, 1.25776350e-01,
          5.14610410e-02, 2.41349950e-01, 3.06616902e-01, 3.32702041e-01,
          2.14052841e-01, 4.25912201e-01, 4.71522629e-01, 4.71522629e-01,
          2.40418106e-01, 3.68620664e-01, 2.70733207e-01, 1.99638411e-01,
          3.68620664e-01, 3.68620664e-01, 3.68620664e-01, 3.68620664e-01,
          3.42115253e-01, 2.94476599e-01, 3.81770819e-01, 3.05006087e-01,
          3.81770819e-01, 3.81770819e-01, 2.25539237e-01, 3.47885758e-01,
          2.10583404e-01, 3.22371930e-01, 3.81770819e-01, 6.18198514e-02,
          5.38686872e-01, 3.16266358e-01, 5.53226583e-02, 1.02765694e-01,
          5.38686872e-01, 5.38686872e-01, 8.04325193e-02, 1.15343975e-02,
          4.81974334e-01, 4.81974334e-01, 4.81974334e-01, 1.56847872e-02,
          9.80197936e-02, 2.25414485e-01, 4.66551781e-01, 3.29678208e-02,
          1.37351230e-01, 3.81770819e-01, 3.05006087e-01, 3.81770819e-01,
          3.81770819e-01, 2.25539237e-01, 3.47885758e-01, 2.10583404e-01,
          3.22371930e-01, 3.81770819e-01, 6.18198514e-02, 5.38686872e-01,
          3.16266358e-01, 5.53226583e-02, 1.02765694e-01, 5.38686872e-01,
          5.38686872e-01, 8.04325193e-02, 1.15343975e-02, 4.81974334e-01,
          4.81974334e-01, 4.81974334e-01, 1.56847872e-02, 9.80197936e-02,
          2.25414485e-01, 4.66551781e-01, 3.29678208e-02, 1.37351230e-01,
          3.81233394e-01, 1.02471806e-01, 3.07635993e-01, 3.81233394e-01,
          3.81233394e-01, 3.50137621e-01, 3.46152455e-01, 3.81233394e-01,
          2.59379297e-01, 3.14671338e-01, 3.91234070e-01, 3.91234070e-01,
          1.32553905e-01, 3.91234070e-01, 3.91234070e-01, 3.91234070e-01,
          1.77495912e-01, 2.87537158e-01, 1.79551765e-01, 6.46924555e-01,
          6.46924555e-01, 2.02195883e-01, 6.64289147e-02, 1.62513033e-01,
          1.76233619e-01, 1.26765922e-01, 7.37934932e-02, 4.56617266e-01,
          4.56617266e-01, 2.11374030e-01, 1.26323208e-01, 1.63733423e-01,
          1.89574331e-01, 4.56617266e-01, 1.95084691e-01, 4.56617266e-01,
          4.11989987e-01, 6.60809204e-02, 4.40678209e-01, 3.58126938e-01,
          7.83594400e-02, 7.87465572e-02, 3.13540697e-01, 4.40678209e-01,
          4.40678209e-01, 2.82181744e-02, 1.16087653e-01, 5.59752941e-01,
          5.59752941e-01, 5.87577783e-02, 4.24406230e-02, 1.82160959e-01,
          5.59752941e-01, 4.16077003e-02, 9.12557766e-02, 3.56788784e-01,
          4.25032705e-01, 4.25032705e-01, 4.25032705e-01, 3.74581188e-01,
          1.10995188e-01, 3.76662105e-01, 1.53832987e-01, 7.84025490e-02,
          4.76269454e-01, 1.68430150e-01, 7.04303980e-02, 3.36593568e-01,
          5.49412906e-01, 5.49412906e-01, 1.00775406e-01, 3.23220342e-02,
          5.00080824e-01, 5.00080824e-01, 2.93989301e-01, 8.22206214e-03,
          4.42375392e-02, 2.21334875e-01, 5.00080824e-01, 8.95580202e-02,
          3.15117031e-01, 3.68620664e-01, 2.70733207e-01, 1.99638411e-01,
          3.68620664e-01, 3.68620664e-01, 3.68620664e-01, 3.68620664e-01,
          3.42115253e-01, 2.94476599e-01, 3.75118941e-01, 2.64541447e-01,
          3.75118941e-01, 2.32949153e-01, 3.75118941e-01, 3.75118941e-01,
          1.66492507e-01, 3.75118941e-01, 3.75118941e-01, 1.31067485e-01,
          5.08260667e-01, 5.08260667e-01, 4.58841354e-01, 6.23008795e-02,
          9.65981111e-02, 7.29050264e-02, 3.97171289e-01, 2.72542059e-01,
          4.81974334e-01, 4.81974334e-01, 4.81974334e-01, 1.56847872e-02,
          9.80197936e-02, 2.25414485e-01, 4.66551781e-01, 3.29678208e-02,
          1.37351230e-01, 4.32115376e-01, 7.56650418e-02, 3.67313653e-01,
          2.02290818e-01, 1.30913168e-01, 7.56663010e-02, 3.40577304e-01,
          5.48726559e-01, 4.31593627e-01, 2.14597173e-02, 2.60943174e-02,
          5.39277971e-01, 5.39277971e-01, 2.60922074e-01, 6.37904406e-02,
          1.71661273e-01, 5.39277971e-01, 1.39260724e-01, 4.81974334e-01,
          4.81974334e-01, 4.81974334e-01, 1.56847872e-02, 9.80197936e-02,
          2.25414485e-01, 4.66551781e-01, 3.29678208e-02, 1.37351230e-01,
          4.32115376e-01, 7.56650418e-02, 3.67313653e-01, 2.02290818e-01,
          1.30913168e-01, 7.56663010e-02, 3.40577304e-01, 5.48726559e-01,
          4.31593627e-01, 2.14597173e-02, 2.60943174e-02, 5.39277971e-01,
          5.39277971e-01, 2.60922074e-01, 6.37904406e-02, 1.71661273e-01,
          5.39277971e-01, 1.39260724e-01, 1.79551765e-01, 6.46924555e-01,
          6.46924555e-01, 2.02195883e-01, 6.64289147e-02, 1.62513033e-01,
          1.76233619e-01, 1.26765922e-01, 7.37934932e-02, 1.38076767e-01,
          2.42388532e-01, 8.99681821e-02, 7.08529800e-02, 1.02427289e-01,
          4.30999756e-01, 5.42540312e-01, 5.42540312e-01, 3.44525725e-01,
          4.07049954e-01, 2.25554764e-01, 1.15794294e-01, 4.07049954e-01,
          4.07049954e-01, 2.71436274e-01, 4.07049954e-01, 4.07049954e-01,
          1.71827108e-01, 2.82181744e-02, 1.16087653e-01, 5.59752941e-01,
          5.59752941e-01, 5.87577783e-02, 4.24406230e-02, 1.82160959e-01,
          5.59752941e-01, 4.16077003e-02, 5.95300868e-02, 1.85059056e-01,
          2.00829282e-01, 9.00651738e-02, 4.42553610e-01, 5.87934196e-01,
          5.87934196e-01, 1.30951032e-01, 5.96602410e-02, 3.46606940e-01,
          4.83011097e-01, 3.45628500e-01, 2.12070928e-03, 5.34668900e-02,
          4.83011097e-01, 4.83011097e-01, 2.08402276e-01, 9.68842134e-02 ]
      - [ 2.77797222e-01, 7.46333897e-02, 4.83588755e-01, 3.60695064e-01,
          4.83588755e-01, 4.83588755e-01, 8.56249407e-02, 5.58011979e-02,
          2.65156657e-01, 1.23591863e-01, 1.28811419e-01, 2.79243588e-01,
          8.96352753e-02, 6.58871293e-01, 6.58871293e-01, 5.13838716e-02,
          2.86475606e-02, 6.21266477e-02, 3.75471473e-01, 3.75471473e-01,
          3.75471473e-01, 1.42771706e-01, 3.75471473e-01, 3.75471473e-01,
          1.89022616e-01, 3.07022333e-01, 3.75471473e-01, 8.74287114e-02,
          1.32352158e-01, 9.54554230e-02, 2.66976971e-02, 1.93587884e-01,
          6.75744236e-01, 6.75744236e-01, 5.90432063e-02, 6.36072010e-02,
          1.05859965e-01, 4.79613125e-01, 4.79613125e-01, 7.21687451e-02,
          3.11784446e-01, 4.79613125e-01, 3.97806466e-01, 1.77526817e-01,
          4.16330993e-02, 6.85358271e-02, 5.14920652e-01, 6.08629882e-01,
          3.19184288e-02, 1.55636072e-02, 2.83527281e-02, 4.87884939e-01,
          3.33396286e-01, 4.90163565e-02, 1.66872025e-01, 4.87483412e-01,
          1.85009941e-01, 7.96705559e-02, 3.31648402e-02, 4.87483412e-01,
          4.87483412e-01, 4.58426565e-01, 5.03355004e-02, 4.13225234e-01,
          4.13225234e-01, 4.13225234e-01, 4.38400172e-02, 2.04687053e-03,
          5.51007986e-02, 3.70316684e-01, 4.13225234e-01, 4.13225234e-01,
          1.12699382e-01, 5.53186178e-01, 6.19663060e-01, 1.91130992e-02,
          0., 9.76360403e-04, 4.03134614e-01, 2.56783247e-01,
          2.49586195e-01, 1.66872025e-01, 4.87483412e-01, 1.85009941e-01,
          7.96705559e-02, 3.31648402e-02, 4.87483412e-01, 4.87483412e-01,
          4.58426565e-01, 5.03355004e-02, 4.13225234e-01, 4.13225234e-01,
          4.13225234e-01, 4.38400172e-02, 2.04687053e-03, 5.51007986e-02,
          3.70316684e-01, 4.13225234e-01, 4.13225234e-01, 1.12699382e-01,
          5.53186178e-01, 6.19663060e-01, 1.91130992e-02, 0.,
          9.76360403e-04, 4.03134614e-01, 2.56783247e-01, 2.49586195e-01,
          1.64785534e-02, 4.32930179e-02, 4.30742562e-01, 2.98000216e-01,
          5.38262650e-02, 5.50382137e-02, 5.25301397e-01, 5.25301397e-01,
          4.00568664e-01, 2.80650526e-01, 4.69274342e-01, 4.69274342e-01,
          4.55683172e-01, 3.42775807e-02, 1.94527209e-02, 1.14658810e-01,
          1.83154598e-01, 4.69274342e-01, 4.00704294e-01, 4.00704294e-01,
          4.00704294e-01, 4.00704294e-01, 7.72736073e-02, 1.13408137e-02,
          1.62829801e-01, 4.00704294e-01, 4.00704294e-01, 5.09615056e-02,
          9.20155942e-02, 2.90128946e-01, 9.46564376e-02, 3.75540368e-02,
          2.54470892e-02, 1.02208331e-01, 6.62075222e-01, 6.62075222e-01,
          1.80712640e-01, 5.32087535e-02, 4.94826049e-01, 4.94826049e-01,
          2.62017995e-01, 1.65587999e-02, 3.78087945e-02, 3.93260926e-01,
          4.94826049e-01, 2.32208461e-01, 1.08712809e-02, 1.74985439e-01,
          5.38737535e-01, 5.33861876e-01, 2.00055227e-01, 2.12924723e-02,
          6.32511899e-02, 5.38737535e-01, 3.75471473e-01, 3.75471473e-01,
          3.75471473e-01, 1.42771706e-01, 3.75471473e-01, 3.75471473e-01,
          1.89022616e-01, 3.07022333e-01, 3.75471473e-01, 1.25820220e-01,
          4.17798311e-02, 6.44545406e-02, 4.46291268e-01, 4.46291268e-01,
          3.06064397e-01, 4.46291268e-01, 4.46291268e-01, 2.88846880e-01,
          1.53522402e-01, 4.15665209e-02, 4.04571779e-02, 4.88645613e-01,
          4.88645613e-01, 1.12020433e-01, 4.34200853e-01, 4.88645613e-01,
          2.25351423e-01, 6.85358271e-02, 5.14920652e-01, 6.08629882e-01,
          3.19184288e-02, 1.55636072e-02, 2.83527281e-02, 4.87884939e-01,
          3.33396286e-01, 4.90163565e-02, 6.00555837e-02, 5.71348406e-02,
          2.80093551e-01, 3.33497450e-02, 3.30181755e-02, 2.25967970e-02,
          6.71702862e-01, 6.71702862e-01, 5.37433438e-02, 1.82006344e-01,
          9.50553790e-02, 3.11922133e-01, 4.47405100e-01, 4.47405100e-01,
          1.84636325e-01, 4.47405100e-01, 4.47405100e-01, 1.45937547e-01,
          1.12699382e-01, 5.53186178e-01, 6.19663060e-01, 1.91130992e-02,
          0., 9.76360403e-04, 4.03134614e-01, 2.56783247e-01,
          2.49586195e-01, 4.12027836e-01, 2.71117896e-01, 2.93938607e-01,
          1.94588751e-02, 5.34177432e-03, 5.12868427e-02, 5.58581293e-01,
          5.58581293e-01, 1.94130450e-01, 4.63598937e-01, 3.47407460e-01,
          6.91313893e-02, 8.64669606e-02, 1.43085383e-02, 5.02111688e-02,
          4.63598937e-01, 4.63598937e-01, 4.63598937e-01, 1.12699382e-01,
          5.53186178e-01, 6.19663060e-01, 1.91130992e-02, 0.,
          9.76360403e-04, 4.03134614e-01, 2.56783247e-01, 2.49586195e-01,
          4.12027836e-01, 2.71117896e-01, 2.93938607e-01, 1.94588751e-02,
          5.34177432e-03, 5.12868427e-02, 5.58581293e-01, 5.58581293e-01,
          1.94130450e-01, 4.63598937e-01, 3.47407460e-01, 6.91313893e-02,
          8.64669606e-02, 1.43085383e-02, 5.02111688e-02, 4.63598937e-01,
          4.63598937e-01, 4.63598937e-01, 4.00704294e-01, 4.00704294e-01,
          4.00704294e-01, 4.00704294e-01, 7.72736073e-02, 1.13408137e-02,
          1.62829801e-01, 4.00704294e-01, 4.00704294e-01, 4.02108580e-01,
          4.02108580e-01, 1.37715086e-01, 2.62514651e-02, 7.86165819e-02,
          4.02108580e-01, 4.02108580e-01, 4.02108580e-01, 4.02108580e-01,
          3.71321529e-01, 2.23756373e-01, 6.20375499e-02, 1.71767384e-01,
          1.25530422e-01, 4.82258946e-01, 4.82258946e-01, 4.82258946e-01,
          2.45774120e-01, 2.32208461e-01, 1.08712809e-02, 1.74985439e-01,
          5.38737535e-01, 5.33861876e-01, 2.00055227e-01, 2.12924723e-02,
          6.32511899e-02, 5.38737535e-01, 4.96186823e-01, 1.07492872e-01,
          3.88554372e-02, 2.43392512e-01, 3.03867012e-01, 5.58990061e-01,
          4.70403343e-01, 7.02718720e-02, 2.11871848e-01, 4.36994642e-01,
          4.36994642e-01, 8.92220959e-02, 1.42973773e-02, 2.11326167e-01,
          4.36994642e-01, 4.36994642e-01, 1.68941602e-01, 3.87830645e-01 ]
      - [ 2.42147192e-01, 4.66869175e-01, 4.66869175e-01, 2.51146048e-01,
          3.24945636e-02, 1.65536329e-02, 2.07313970e-02, 4.66869175e-01,
          4.66869175e-01, 7.45267933e-03, 8.40724483e-02, 1.76800653e-01,
          4.54397827e-01, 3.47429574e-01, 1.02284580e-01, 4.54397827e-01,
          4.54397827e-01, 4.54397827e-01, 2.12702174e-02, 5.23773611e-01,
          5.23773611e-01, 5.23773611e-01, 5.51465005e-02, 3.68039608e-02,
          1.41988128e-01, 3.72155875e-01, 9.07960013e-02, 2.89377552e-02,
          6.68702483e-01, 6.68702483e-01, 2.26379171e-01, 4.27765958e-02,
          1.40405819e-02, 2.62630749e-02, 1.44689038e-01, 1.52518257e-01,
          1.16331028e-02, 3.97935137e-02, 8.83359462e-02, 9.28403512e-02,
          3.88208292e-02, 1.48479670e-01, 6.58827245e-01, 6.58827245e-01,
          2.89173603e-01, 2.12907448e-01, 2.65460849e-01, 4.36808497e-01,
          4.36808497e-01, 1.69669807e-01, 7.83429444e-02, 4.36808497e-01,
          4.36808497e-01, 2.85841703e-01, 4.66136113e-02, 1.81686446e-01,
          6.85426891e-01, 6.85426891e-01, 5.14126197e-02, 3.55846174e-02,
          6.71747103e-02, 8.82957429e-02, 4.62225787e-02, 4.65911925e-02,
          2.03284901e-02, 7.87075534e-02, 5.50905615e-02, 3.29793058e-02,
          4.56472412e-02, 6.41124129e-01, 6.41124129e-01, 3.95643592e-01,
          3.83340359e-01, 1.19661480e-01, 3.04668754e-01, 4.02171820e-01,
          3.55981857e-01, 1.13310397e-01, 3.42201084e-01, 4.02171820e-01,
          4.02171820e-01, 4.66136113e-02, 1.81686446e-01, 6.85426891e-01,
          6.85426891e-01, 5.14126197e-02, 3.55846174e-02, 6.71747103e-02,
          8.82957429e-02, 4.62225787e-02, 4.65911925e-02, 2.03284901e-02,
          7.87075534e-02, 5.50905615e-02, 3.29793058e-02, 4.56472412e-02,
          6.41124129e-01, 6.41124129e-01, 3.95643592e-01, 3.83340359e-01,
          1.19661480e-01, 3.04668754e-01, 4.02171820e-01, 3.55981857e-01,
          1.13310397e-01, 3.42201084e-01, 4.02171820e-01, 4.02171820e-01,
          1.44322114e-02, 7.66959637e-02, 5.02376437e-01, 5.02376437e-01,
          4.72920761e-02, 1.48739852e-02, 4.37388718e-02, 5.02376437e-01,
          4.76838470e-01, 3.75554413e-02, 5.12811169e-02, 5.38646460e-01,
          6.33914351e-01, 1.54607877e-01, 6.57097921e-02, 1.23324722e-01,
          4.02329266e-01, 3.03882062e-01, 5.75706661e-01, 1.52799748e-02,
          6.22018054e-03, 1.20983332e-01, 1.11417867e-01, 1.95219349e-02,
          3.29685733e-02, 5.50076127e-01, 5.75706661e-01, 3.07424162e-02,
          1.92654163e-01, 4.58056837e-01, 4.58056837e-01, 2.84367204e-01,
          8.72300565e-02, 1.72121704e-01, 4.58056837e-01, 4.58056837e-01,
          4.21059597e-03, 1.13413585e-02, 6.28531054e-02, 5.22299290e-01,
          4.17224884e-01, 1.38220266e-02, 4.14370671e-02, 5.22299290e-01,
          5.18757343e-01, 2.79403944e-02, 4.18645376e-03, 2.14002491e-03,
          6.57285154e-01, 6.57285154e-01, 2.77557112e-02, 1.16240475e-02,
          7.79242367e-02, 3.48726302e-01, 2.12702174e-02, 5.23773611e-01,
          5.23773611e-01, 5.23773611e-01, 5.51465005e-02, 3.68039608e-02,
          1.41988128e-01, 3.72155875e-01, 9.07960013e-02, 4.41251993e-01,
          2.44321376e-01, 4.66173500e-01, 4.66173500e-01, 1.65851250e-01,
          1.86891798e-02, 1.88156277e-01, 1.60422996e-01, 4.66173500e-01,
          5.59937716e-01, 1.84053853e-02, 7.34901056e-02, 1.39641404e-01,
          9.94869992e-02, 5.61158583e-02, 3.92221510e-01, 4.18598026e-01,
          5.59937716e-01, 2.12907448e-01, 2.65460849e-01, 4.36808497e-01,
          4.36808497e-01, 1.69669807e-01, 7.83429444e-02, 4.36808497e-01,
          4.36808497e-01, 2.85841703e-01, 6.96134269e-02, 4.16813716e-02,
          2.32384741e-01, 8.45676720e-01, 2.80279666e-01, 6.61189854e-02,
          9.55197439e-02, 2.33456552e-01, 2.63156831e-01, 7.67730698e-02,
          1.69164152e-03, 8.43667910e-02, 6.87426269e-01, 6.87426269e-01,
          7.81845748e-02, 6.97974935e-02, 9.37256292e-02, 1.23466507e-01,
          3.83340359e-01, 1.19661480e-01, 3.04668754e-01, 4.02171820e-01,
          3.55981857e-01, 1.13310397e-01, 3.42201084e-01, 4.02171820e-01,
          4.02171820e-01, 4.63037491e-01, 3.81041765e-02, 1.48582280e-01,
          4.63037491e-01, 4.63037491e-01, 2.22609341e-01, 1.37978509e-01,
          2.13631779e-01, 4.63037491e-01, 3.62610400e-01, 4.41822456e-03,
          4.65277694e-02, 5.16232967e-01, 5.16232967e-01, 1.82572424e-01,
          7.63665289e-02, 1.50065750e-01, 5.16232967e-01, 3.83340359e-01,
          1.19661480e-01, 3.04668754e-01, 4.02171820e-01, 3.55981857e-01,
          1.13310397e-01, 3.42201084e-01, 4.02171820e-01, 4.02171820e-01,
          4.63037491e-01, 3.81041765e-02, 1.48582280e-01, 4.63037491e-01,
          4.63037491e-01, 2.22609341e-01, 1.37978509e-01, 2.13631779e-01,
          4.63037491e-01, 3.62610400e-01, 4.41822456e-03, 4.65277694e-02,
          5.16232967e-01, 5.16232967e-01, 1.82572424e-01, 7.63665289e-02,
          1.50065750e-01, 5.16232967e-01, 5.75706661e-01, 1.52799748e-02,
          6.22018054e-03, 1.20983332e-01, 1.11417867e-01, 1.95219349e-02,
          3.29685733e-02, 5.50076127e-01, 5.75706661e-01, 6.96235418e-01,
          1.17897531e-02, 3.73614170e-02, 1.17471159e-01, 8.70178640e-02,
          1.80001035e-02, 1.26698744e-02, 1.30887236e-02, 6.96235418e-01,
          5.67060232e-01, 3.01302038e-02, 3.81524637e-02, 6.99142665e-02,
          1.39103264e-01, 4.68763560e-02, 2.94438936e-02, 5.67060232e-01,
          5.67060232e-01, 2.79403944e-02, 4.18645376e-03, 2.14002491e-03,
          6.57285154e-01, 6.57285154e-01, 2.77557112e-02, 1.16240475e-02,
          7.79242367e-02, 3.48726302e-01, 6.85426444e-02, 1.29544055e-02,
          3.34578729e-03, 6.05655730e-01, 7.49231398e-01, 2.06003293e-01,
          1.73905566e-02, 1.38822943e-02, 1.28629297e-01, 5.38167059e-02,
          4.18792665e-02, 3.62923704e-02, 6.17005080e-02, 6.60947382e-01,
          6.60947382e-01, 1.65219307e-02, 2.05758289e-01, 2.59450942e-01 ]
      - [ 8.48338977e-02, 1.58080049e-02, 5.36158904e-02, 4.23190832e-01,
          4.88113314e-01, 5.26801407e-01, 5.26801407e-01, 5.47056682e-02,
          9.50805992e-02, 5.84484376e-02, 4.58316170e-02, 7.19798282e-02,
          5.47567680e-02, 6.84881151e-01, 6.84881151e-01, 1.75776511e-01,
          7.36529082e-02, 7.08542541e-02, 3.53208810e-01, 4.35878754e-01,
          4.35878754e-01, 2.28783354e-01, 4.35878754e-01, 4.35878754e-01,
          4.59583700e-02, 1.48076430e-01, 1.85869977e-01, 6.95732832e-02,
          2.95459218e-02, 8.43927041e-02, 1.51245385e-01, 1.80559129e-01,
          6.73950374e-01, 6.73950374e-01, 9.68895629e-02, 8.45798478e-02,
          2.08967954e-01, 3.48236680e-01, 4.48743969e-01, 1.29391372e-01,
          3.07517499e-01, 4.48743969e-01, 4.48743969e-01, 2.53549367e-01,
          2.25547031e-01, 3.18343565e-02, 6.84941292e-01, 6.84941292e-01,
          1.96473729e-02, 1.35952923e-02, 4.91491035e-02, 1.78153962e-01,
          1.33447200e-01, 3.64171565e-02, 6.96288794e-02, 1.96524590e-01,
          1.25658944e-01, 8.03443268e-02, 4.89296205e-02, 5.25016606e-01,
          5.66268325e-01, 5.66268325e-01, 9.63000357e-02, 3.55013162e-01,
          4.42844450e-01, 4.42844450e-01, 1.12018727e-01, 1.24352500e-01,
          8.20926875e-02, 2.24379912e-01, 4.42844450e-01, 4.42844450e-01,
          2.52042472e-01, 5.41739285e-01, 5.41739285e-01, 2.66104061e-02,
          1.42695964e-03, 1.91738904e-02, 1.31033063e-01, 1.79923937e-01,
          5.41739285e-01, 6.96288794e-02, 1.96524590e-01, 1.25658944e-01,
          8.03443268e-02, 4.89296205e-02, 5.25016606e-01, 5.66268325e-01,
          5.66268325e-01, 9.63000357e-02, 3.55013162e-01, 4.42844450e-01,
          4.42844450e-01, 1.12018727e-01, 1.24352500e-01, 8.20926875e-02,
          2.24379912e-01, 4.42844450e-01, 4.42844450e-01, 2.52042472e-01,
          5.41739285e-01, 5.41739285e-01, 2.66104061e-02, 1.42695964e-03,
          1.91738904e-02, 1.31033063e-01, 1.79923937e-01, 5.41739285e-01,
          8.62133224e-03, 2.00196728e-02, 9.59924832e-02, 1.35746270e-01,
          1.69351567e-02, 6.46941066e-02, 4.68624234e-01, 7.78233945e-01,
          3.66588622e-01, 7.24353641e-02, 4.59016562e-01, 4.62261051e-01,
          4.62261051e-01, 2.12593470e-02, 2.49508806e-02, 9.31671262e-02,
          4.62261051e-01, 3.58649194e-01, 3.99159998e-01, 4.47048664e-01,
          4.47048664e-01, 4.47048664e-01, 6.07727133e-02, 1.60113517e-02,
          3.57138664e-02, 1.77681223e-01, 4.47048664e-01, 1.20827341e-02,
          2.39623198e-03, 8.79532006e-03, 8.75505526e-03, 9.35058482e-03,
          1.65424287e-01, 5.67618906e-01, 5.67618906e-01, 5.67618906e-01,
          7.81207010e-02, 1.29896300e-02, 2.06384525e-01, 5.60446680e-01,
          3.09948139e-02, 2.97804829e-02, 3.72583531e-02, 5.60446680e-01,
          5.60446680e-01, 4.09029722e-01, 1.72340684e-02, 2.26979136e-01,
          5.75996578e-01, 3.02365154e-01, 6.99997619e-02, 3.29075987e-03,
          1.23478197e-01, 5.75996578e-01, 3.53208810e-01, 4.35878754e-01,
          4.35878754e-01, 2.28783354e-01, 4.35878754e-01, 4.35878754e-01,
          4.59583700e-02, 1.48076430e-01, 1.85869977e-01, 2.47200191e-01,
          1.89283311e-01, 1.60650104e-01, 3.52363616e-01, 4.43948179e-01,
          1.05022244e-01, 4.43948179e-01, 4.43948179e-01, 3.82571697e-01,
          3.41065526e-02, 2.26552542e-02, 7.18845576e-02, 6.15305722e-01,
          6.15305722e-01, 9.22946706e-02, 3.53156328e-01, 2.99031019e-01,
          8.45759660e-02, 3.18343565e-02, 6.84941292e-01, 6.84941292e-01,
          1.96473729e-02, 1.35952923e-02, 4.91491035e-02, 1.78153962e-01,
          1.33447200e-01, 3.64171565e-02, 1.98410526e-02, 1.95478469e-01,
          5.51411808e-01, 3.91305937e-03, 1.69287901e-02, 2.78253127e-02,
          5.69339156e-01, 5.69339156e-01, 4.77915742e-02, 1.66390315e-01,
          4.12100464e-01, 2.48104200e-01, 4.12100464e-01, 2.30834529e-01,
          6.49866387e-02, 4.12100464e-01, 4.12100464e-01, 4.12100464e-01,
          2.52042472e-01, 5.41739285e-01, 5.41739285e-01, 2.66104061e-02,
          1.42695964e-03, 1.91738904e-02, 1.31033063e-01, 1.79923937e-01,
          5.41739285e-01, 3.34845930e-01, 2.23718315e-01, 5.15854537e-01,
          1.62382610e-02, 2.93292128e-03, 7.73937535e-03, 5.15854537e-01,
          5.15854537e-01, 1.84463397e-01, 4.28691864e-01, 3.56442481e-01,
          2.39103347e-01, 2.16501191e-01, 1.54096842e-01, 7.59641007e-02,
          4.28691864e-01, 4.28691864e-01, 4.28691864e-01, 2.52042472e-01,
          5.41739285e-01, 5.41739285e-01, 2.66104061e-02, 1.42695964e-03,
          1.91738904e-02, 1.31033063e-01, 1.79923937e-01, 5.41739285e-01,
          3.34845930e-01, 2.23718315e-01, 5.15854537e-01, 1.62382610e-02,
          2.93292128e-03, 7.73937535e-03, 5.15854537e-01, 5.15854537e-01,
          1.84463397e-01, 4.28691864e-01, 3.56442481e-01, 2.39103347e-01,
          2.16501191e-01, 1.54096842e-01, 7.59641007e-02, 4.28691864e-01,
          4.28691864e-01, 4.28691864e-01, 3.99159998e-01, 4.47048664e-01,
          4.47048664e-01, 4.47048664e-01, 6.07727133e-02, 1.60113517e-02,
          3.57138664e-02, 1.77681223e-01, 4.47048664e-01, 4.03096974e-01,
          3.35968465e-01, 2.22501799e-01, 1.15717016e-01, 8.81192535e-02,
          4.03096974e-01, 4.03096974e-01, 4.03096974e-01, 4.03096974e-01,
          4.79747295e-01, 1.49730965e-01, 3.40957120e-02, 7.68466145e-02,
          3.58249173e-02, 4.79747295e-01, 4.79747295e-01, 4.79747295e-01,
          2.09303021e-01, 4.09029722e-01, 1.72340684e-02, 2.26979136e-01,
          5.75996578e-01, 3.02365154e-01, 6.99997619e-02, 3.29075987e-03,
          1.23478197e-01, 5.75996578e-01, 4.85743135e-01, 1.21736802e-01,
          4.97408509e-02, 3.82110804e-01, 3.93298060e-01, 4.85743135e-01,
          1.75406590e-01, 2.81061195e-02, 4.16787952e-01, 5.49900532e-01,
          5.34529030e-01, 6.13163486e-02, 2.95939650e-02, 1.44685358e-02,
          5.49900532e-01, 2.84770012e-01, 6.75803721e-02, 1.16190381e-01 ]
      - [ 1.62477061e-01, 4.83634144e-01, 4.83634144e-01, 3.63842584e-02,
          2.77522597e-02, 1.34811725e-03, 4.83634144e-01, 4.83634144e-01,
          1.76258475e-01, 4.24156338e-01, 4.24156338e-01, 4.24156338e-01,
          4.24156338e-01, 3.09291601e-01, 1.65738594e-02, 6.07118290e-03,
          1.57205965e-02, 4.24156338e-01, 3.14317614e-01, 2.95447409e-01,
          4.18936670e-01, 4.85149533e-01, 4.85149533e-01, 2.49893934e-01,
          8.26020688e-02, 1.68335333e-01, 2.55371869e-01, 1.83765501e-01,
          5.32649696e-01, 5.32649696e-01, 2.63725668e-02, 1.25473309e-02,
          8.65597799e-02, 5.32649696e-01, 2.25723103e-01, 2.24648640e-01,
          5.41800380e-01, 5.41800380e-01, 3.35061222e-01, 3.03290058e-02,
          1.36192646e-02, 2.91993096e-03, 3.11288750e-03, 2.36001499e-02,
          5.41800380e-01, 6.52560472e-01, 4.78672571e-02, 9.26469117e-02,
          1.38956651e-01, 1.24991052e-01, 5.11165895e-02, 4.76335958e-02,
          3.01871449e-01, 6.52560472e-01, 2.84695420e-02, 5.96936166e-01,
          5.96936166e-01, 1.57218814e-01, 5.49451709e-02, 1.34646401e-01,
          4.77651358e-01, 7.75561705e-02, 2.30509024e-02, 4.11393225e-01,
          4.11393225e-01, 4.11393225e-01, 3.86352181e-01, 4.11393225e-01,
          2.00099368e-02, 0., 0., 4.11393225e-01, 5.36038280e-01,
          3.31086963e-02, 3.95627739e-03, 3.62655163e-01, 5.36038280e-01,
          2.27216026e-03, 0., 0., 5.36038280e-01, 2.84695420e-02,
          5.96936166e-01, 5.96936166e-01, 1.57218814e-01, 5.49451709e-02,
          1.34646401e-01, 4.77651358e-01, 7.75561705e-02, 2.30509024e-02,
          4.11393225e-01, 4.11393225e-01, 4.11393225e-01, 3.86352181e-01,
          4.11393225e-01, 2.00099368e-02, 0., 0., 4.11393225e-01,
          5.36038280e-01, 3.31086963e-02, 3.95627739e-03, 3.62655163e-01,
          5.36038280e-01, 2.27216026e-03, 0., 0., 5.36038280e-01,
          4.45098132e-01, 4.45098132e-01, 4.45098132e-01, 3.41459632e-01,
          1.45228073e-01, 1.49004743e-01, 9.30062309e-02, 1.85919598e-01,
          4.45098132e-01, 2.99304783e-01, 8.23464692e-02, 4.71509069e-01,
          4.72644180e-01, 5.35618246e-01, 2.23738164e-01, 0.,
          1.49606578e-02, 3.39711428e-01, 3.28435838e-01, 4.12177108e-02,
          5.15701249e-02, 6.42453909e-01, 6.42453909e-01, 9.71616153e-03,
          0., 1.45694369e-03, 2.36149937e-01, 5.74711144e-01,
          2.30102077e-01, 1.01159886e-01, 9.45999548e-02, 4.30332452e-01,
          1.00046188e-01, 4.61247675e-02, 2.53423005e-01, 5.74711144e-01,
          5.64526618e-01, 7.05607384e-02, 2.89883576e-02, 1.19283803e-01,
          5.64526618e-01, 1.33034781e-01, 0., 2.33620089e-02,
          5.64526618e-01, 5.74501991e-01, 5.48041388e-02, 1.45696014e-01,
          3.58691543e-01, 4.13439840e-01, 7.36142918e-02, 2.37854030e-02,
          6.59578145e-02, 5.74501991e-01, 3.14317614e-01, 2.95447409e-01,
          4.18936670e-01, 4.85149533e-01, 4.85149533e-01, 2.49893934e-01,
          8.26020688e-02, 1.68335333e-01, 2.55371869e-01, 3.82057071e-01,
          4.18548360e-02, 2.16469258e-01, 5.13362348e-01, 5.13362348e-01,
          4.69490103e-02, 6.39557764e-02, 5.81144094e-02, 5.13362348e-01,
          4.78806734e-01, 5.83612472e-02, 8.06177482e-02, 4.78806734e-01,
          4.78806734e-01, 9.49380100e-02, 1.23522557e-01, 2.09804356e-01,
          4.78806734e-01, 6.52560472e-01, 4.78672571e-02, 9.26469117e-02,
          1.38956651e-01, 1.24991052e-01, 5.11165895e-02, 4.76335958e-02,
          3.01871449e-01, 6.52560472e-01, 5.29858053e-01, 9.15248990e-02,
          2.03700379e-01, 5.29858053e-01, 2.99325943e-01, 2.71829311e-03,
          2.94912583e-03, 1.13917299e-01, 5.29858053e-01, 1.29024073e-01,
          8.48143175e-03, 3.27349938e-02, 4.89720106e-01, 4.89720106e-01,
          1.13114081e-01, 7.22498372e-02, 4.89720106e-01, 4.89720106e-01,
          5.36038280e-01, 3.31086963e-02, 3.95627739e-03, 3.62655163e-01,
          5.36038280e-01, 2.27216026e-03, 0., 0., 5.36038280e-01,
          5.47323942e-01, 6.26009132e-04, 0., 1.50762931e-01,
          5.47323942e-01, 4.07402478e-02, 5.72159095e-03, 2.67247856e-01,
          5.47323942e-01, 4.40180004e-01, 1.28656793e-02, 7.41488580e-03,
          8.50294679e-02, 1.92323118e-01, 3.50218490e-02, 4.70726937e-02,
          6.13285005e-01, 6.13285005e-01, 5.36038280e-01, 3.31086963e-02,
          3.95627739e-03, 3.62655163e-01, 5.36038280e-01, 2.27216026e-03,
          0., 0., 5.36038280e-01, 5.47323942e-01, 6.26009132e-04, 0.,
          1.50762931e-01, 5.47323942e-01, 4.07402478e-02, 5.72159095e-03,
          2.67247856e-01, 5.47323942e-01, 4.40180004e-01, 1.28656793e-02,
          7.41488580e-03, 8.50294679e-02, 1.92323118e-01, 3.50218490e-02,
          4.70726937e-02, 6.13285005e-01, 6.13285005e-01, 3.28435838e-01,
          4.12177108e-02, 5.15701249e-02, 6.42453909e-01, 6.42453909e-01,
          9.71616153e-03, 0., 1.45694369e-03, 2.36149937e-01,
          1.15345940e-01, 1.11753093e-02, 2.82307807e-02, 6.87168241e-01,
          6.87168241e-01, 2.32526790e-02, 5.01128845e-03, 7.88458213e-02,
          1.66525647e-01, 1.01422131e-01, 2.94849016e-02, 9.20892283e-02,
          6.58405960e-01, 6.58405960e-01, 1.00290224e-01, 1.02198690e-01,
          1.49225414e-01, 2.53027171e-01, 5.74501991e-01, 5.48041388e-02,
          1.45696014e-01, 3.58691543e-01, 4.13439840e-01, 7.36142918e-02,
          2.37854030e-02, 6.59578145e-02, 5.74501991e-01, 4.54836667e-01,
          1.40875410e-02, 4.55876030e-02, 4.50589448e-01, 3.25550109e-01,
          4.01852168e-02, 2.48841792e-01, 4.54836667e-01, 4.54836667e-01,
          1.00938104e-01, 0., 3.71188787e-03, 4.92414862e-01,
          4.92414862e-01, 2.21602768e-01, 7.21435845e-02, 4.50721830e-01,
          4.92414862e-01 ]
      - [ 2.14781463e-01, 2.70685911e-01, 3.88102174e-01, 1.71754509e-01,
          3.06764901e-01, 3.88102174e-01, 3.88102174e-01, 3.88102174e-01,
          3.88102174e-01, 2.38003209e-01, 3.27039808e-01, 3.90426010e-01,
          2.88281947e-01, 3.44299197e-01, 1.84089810e-01, 3.90426010e-01,
          3.90426010e-01, 3.73716682e-01, 3.69803786e-01, 1.64696932e-01,
          1.13795407e-01, 3.69803786e-01, 3.69803786e-01, 3.68377239e-01,
          3.69803786e-01, 3.69803786e-01, 3.69803786e-01, 9.53616351e-02,
          3.69195133e-01, 3.84578854e-01, 3.84578854e-01, 3.84578854e-01,
          3.31666917e-01, 3.84578854e-01, 3.43984544e-01, 1.75576657e-01,
          2.56121397e-01, 4.52743500e-01, 2.61651158e-01, 2.25389153e-01,
          4.52743500e-01, 3.27804804e-01, 3.32138687e-01, 3.92609388e-01,
          1.69559360e-01, 4.45989996e-01, 4.45989996e-01, 2.60613680e-01,
          6.07556701e-02, 1.80409521e-01, 1.64327428e-01, 2.64898717e-01,
          4.44399297e-01, 4.45989996e-01, 2.25968033e-01, 1.68781862e-01,
          4.05688018e-01, 4.05688018e-01, 4.05688018e-01, 7.66062960e-02,
          2.95999944e-01, 4.05688018e-01, 4.05688018e-01, 2.66820461e-01,
          1.67550087e-01, 3.97057861e-01, 3.97057861e-01, 3.97057861e-01,
          3.97057861e-01, 6.79285079e-02, 3.22301418e-01, 3.97057861e-01,
          1.66636944e-01, 3.78572941e-01, 4.59122956e-01, 4.59122956e-01,
          2.51348108e-01, 8.27024579e-02, 1.07257172e-01, 4.59122956e-01,
          3.32306087e-01, 2.25968033e-01, 1.68781862e-01, 4.05688018e-01,
          4.05688018e-01, 4.05688018e-01, 7.66062960e-02, 2.95999944e-01,
          4.05688018e-01, 4.05688018e-01, 2.66820461e-01, 1.67550087e-01,
          3.97057861e-01, 3.97057861e-01, 3.97057861e-01, 3.97057861e-01,
          6.79285079e-02, 3.22301418e-01, 3.97057861e-01, 1.66636944e-01,
          3.78572941e-01, 4.59122956e-01, 4.59122956e-01, 2.51348108e-01,
          8.27024579e-02, 1.07257172e-01, 4.59122956e-01, 3.32306087e-01,
          5.14148772e-01, 2.36789063e-01, 9.03857648e-02, 6.43919334e-02,
          2.78061330e-01, 1.55069023e-01, 1.79077819e-01, 5.14148772e-01,
          5.14148772e-01, 4.27950203e-01, 2.98778534e-01, 4.21359718e-01,
          2.70589501e-01, 1.37320817e-01, 1.54697359e-01, 1.81328878e-01,
          4.45370734e-01, 4.45370734e-01, 5.40516824e-02, 1.36515006e-01,
          4.96739924e-01, 4.96739924e-01, 1.90816581e-01, 7.97249153e-02,
          1.76856786e-01, 4.96739924e-01, 3.98978323e-01, 9.34051946e-02,
          3.10195386e-01, 4.35070992e-01, 4.35070992e-01, 4.35070992e-01,
          2.21576586e-01, 1.01996846e-01, 2.72142619e-01, 4.35070992e-01,
          4.03703183e-01, 4.14124191e-01, 3.62192035e-01, 2.40413249e-01,
          1.98534429e-01, 2.61499286e-01, 1.80200532e-01, 4.20700550e-01,
          3.93804073e-01, 2.88330734e-01, 2.18045354e-01, 2.43078157e-01,
          4.19643849e-01, 4.19643849e-01, 7.18094260e-02, 4.19643849e-01,
          4.19643849e-01, 3.10615867e-01, 3.69803786e-01, 1.64696932e-01,
          1.13795407e-01, 3.69803786e-01, 3.69803786e-01, 3.68377239e-01,
          3.69803786e-01, 3.69803786e-01, 3.69803786e-01, 3.67293954e-01,
          1.36076659e-01, 3.67293954e-01, 3.67293954e-01, 3.67293954e-01,
          3.67293954e-01, 1.82974651e-01, 3.67293954e-01, 3.67293954e-01,
          7.21012205e-02, 3.08468163e-01, 4.85577911e-01, 4.85577911e-01,
          1.10995643e-01, 1.16446726e-01, 7.37450793e-02, 4.85577911e-01,
          3.95123988e-01, 4.45989996e-01, 4.45989996e-01, 2.60613680e-01,
          6.07556701e-02, 1.80409521e-01, 1.64327428e-01, 2.64898717e-01,
          4.44399297e-01, 4.45989996e-01, 2.26899639e-01, 1.40369788e-01,
          4.12733048e-01, 3.69815439e-01, 1.48568273e-01, 1.25001907e-01,
          3.85882646e-01, 4.73591149e-01, 4.53958720e-01, 1.71400048e-02,
          1.06686488e-01, 5.37323177e-01, 5.37323177e-01, 1.09463885e-01,
          1.03774562e-01, 2.05688208e-01, 5.37323177e-01, 2.27487445e-01,
          1.66636944e-01, 3.78572941e-01, 4.59122956e-01, 4.59122956e-01,
          2.51348108e-01, 8.27024579e-02, 1.07257172e-01, 4.59122956e-01,
          3.32306087e-01, 4.39209312e-01, 2.31121704e-01, 1.91595167e-01,
          1.07563786e-01, 2.71746695e-01, 2.29237318e-01, 4.39209312e-01,
          4.39209312e-01, 4.34518397e-01, 1.76071286e-01, 4.22983885e-01,
          3.54107916e-01, 3.73731256e-01, 2.53244400e-01, 3.02991152e-01,
          4.22983885e-01, 4.22983885e-01, 8.38070065e-02, 1.66636944e-01,
          3.78572941e-01, 4.59122956e-01, 4.59122956e-01, 2.51348108e-01,
          8.27024579e-02, 1.07257172e-01, 4.59122956e-01, 3.32306087e-01,
          4.39209312e-01, 2.31121704e-01, 1.91595167e-01, 1.07563786e-01,
          2.71746695e-01, 2.29237318e-01, 4.39209312e-01, 4.39209312e-01,
          4.34518397e-01, 1.76071286e-01, 4.22983885e-01, 3.54107916e-01,
          3.73731256e-01, 2.53244400e-01, 3.02991152e-01, 4.22983885e-01,
          4.22983885e-01, 8.38070065e-02, 5.40516824e-02, 1.36515006e-01,
          4.96739924e-01, 4.96739924e-01, 1.90816581e-01, 7.97249153e-02,
          1.76856786e-01, 4.96739924e-01, 3.98978323e-01, 1.72846287e-01,
          1.75221905e-01, 2.97997564e-01, 3.69561166e-01, 3.95526946e-01,
          3.95526946e-01, 3.95526946e-01, 3.95526946e-01, 2.90389001e-01,
          2.30727121e-01, 5.51192343e-01, 3.98587763e-01, 1.25400536e-02,
          5.74324802e-02, 3.24291140e-01, 5.51192343e-01, 2.53017753e-01,
          4.60854471e-02, 2.88330734e-01, 2.18045354e-01, 2.43078157e-01,
          4.19643849e-01, 4.19643849e-01, 7.18094260e-02, 4.19643849e-01,
          4.19643849e-01, 3.10615867e-01, 4.71749514e-01, 1.93921164e-01,
          1.00644998e-01, 3.02842200e-01, 4.71749514e-01, 3.56854796e-01,
          2.06178918e-01, 1.35432661e-01, 4.71749514e-01, 2.53427297e-01,
          3.78689259e-01, 3.78689259e-01, 1.61990806e-01, 3.78689259e-01,
          3.78689259e-01, 3.78689259e-01, 2.12877661e-01, 3.78689259e-01 ]
      - [ 5.26914954e-01, 5.26914954e-01, 1.42138794e-01, 1.24094434e-01,
          3.53567362e-01, 5.26914954e-01, 2.22837105e-02, 2.14734860e-03,
          2.65689101e-02, 4.20256466e-01, 3.97547930e-01, 4.54422273e-02,
          2.48783547e-02, 5.49082637e-01, 5.95645487e-01, 1.79877952e-02,
          9.26459115e-03, 3.73290782e-03, 1.21948004e-01, 4.68819201e-01,
          4.68819201e-01, 2.72967249e-01, 4.68819201e-01, 4.68819201e-01,
          1.43572688e-01, 7.64654353e-02, 1.75788719e-02, 2.65203565e-01,
          4.13600504e-01, 1.28693968e-01, 2.60562859e-02, 4.32038009e-01,
          4.98162806e-01, 4.98162806e-01, 2.17758149e-01, 7.73133636e-02,
          3.56971979e-01, 5.02396643e-01, 2.31221259e-01, 1.13617659e-01,
          4.39253747e-01, 5.02396643e-01, 1.83669403e-01, 2.24781960e-01,
          1.38460070e-01, 6.44277260e-02, 5.12727261e-01, 5.12727261e-01,
          2.46961147e-01, 4.67043258e-02, 1.38068601e-01, 4.80551183e-01,
          3.67566645e-01, 1.29155949e-01, 1.12625666e-01, 3.30547988e-01,
          3.10442448e-01, 5.07113822e-02, 8.01935196e-02, 1.43108487e-01,
          6.08854413e-01, 6.08854413e-01, 6.86268955e-02, 4.05653059e-01,
          4.05653059e-01, 1.72313794e-01, 3.94632697e-01, 4.05653059e-01,
          3.13037902e-01, 1.59068078e-01, 3.13250691e-01, 3.08927357e-01,
          1.77255198e-01, 4.28548396e-01, 4.28548396e-01, 4.28548396e-01,
          4.28548396e-01, 1.97075307e-01, 1.43974498e-01, 3.38508189e-01,
          2.35647336e-01, 1.12625666e-01, 3.30547988e-01, 3.10442448e-01,
          5.07113822e-02, 8.01935196e-02, 1.43108487e-01, 6.08854413e-01,
          6.08854413e-01, 6.86268955e-02, 4.05653059e-01, 4.05653059e-01,
          1.72313794e-01, 3.94632697e-01, 4.05653059e-01, 3.13037902e-01,
          1.59068078e-01, 3.13250691e-01, 3.08927357e-01, 1.77255198e-01,
          4.28548396e-01, 4.28548396e-01, 4.28548396e-01, 4.28548396e-01,
          1.97075307e-01, 1.43974498e-01, 3.38508189e-01, 2.35647336e-01,
          9.64775681e-02, 3.43698859e-02, 1.42304823e-01, 2.48752639e-01,
          1.11189105e-01, 5.75757101e-02, 5.43530583e-01, 5.43530583e-01,
          5.43530583e-01, 4.31675524e-01, 2.28441775e-01, 1.22867391e-01,
          2.75530428e-01, 4.15435076e-01, 2.82493889e-01, 2.02653408e-01,
          4.31675524e-01, 4.31675524e-01, 1.79670736e-01, 4.72262919e-01,
          4.72262919e-01, 4.72262919e-01, 1.88613072e-01, 9.76764485e-02,
          2.63553292e-01, 4.04290795e-01, 1.26006082e-01, 2.70635244e-02,
          6.96694059e-03, 7.93652236e-02, 5.65463603e-01, 1.67236090e-01,
          0., 7.64324795e-03, 5.65463603e-01, 5.65463603e-01,
          4.59313206e-02, 5.99340387e-02, 3.70472223e-02, 5.64911008e-01,
          6.37539625e-02, 2.39135288e-02, 1.76745746e-02, 5.75804949e-01,
          5.75804949e-01, 2.70631552e-01, 4.12720740e-01, 4.12720740e-01,
          4.12720740e-01, 6.50242269e-02, 3.56071107e-02, 2.55827188e-01,
          4.12720740e-01, 4.12720740e-01, 1.21948004e-01, 4.68819201e-01,
          4.68819201e-01, 2.72967249e-01, 4.68819201e-01, 4.68819201e-01,
          1.43572688e-01, 7.64654353e-02, 1.75788719e-02, 2.31318906e-01,
          3.60834301e-01, 3.60834301e-01, 3.60834301e-01, 3.60834301e-01,
          3.40929538e-01, 3.60834301e-01, 3.60834301e-01, 2.13179097e-01,
          2.24141642e-01, 2.18318239e-01, 3.90194178e-01, 3.90194178e-01,
          3.90194178e-01, 2.91956663e-01, 2.27384046e-01, 3.90194178e-01,
          3.90194178e-01, 6.44277260e-02, 5.12727261e-01, 5.12727261e-01,
          2.46961147e-01, 4.67043258e-02, 1.38068601e-01, 4.80551183e-01,
          3.67566645e-01, 1.29155949e-01, 2.18221068e-01, 3.46770883e-01,
          3.46770883e-01, 3.46770883e-01, 3.46770883e-01, 3.27359945e-01,
          3.46770883e-01, 3.46770883e-01, 3.46770883e-01, 3.68291497e-01,
          8.31019804e-02, 1.49691015e-01, 3.90680939e-01, 3.90680939e-01,
          3.90680939e-01, 2.60743588e-01, 3.90680939e-01, 3.90680939e-01,
          1.77255198e-01, 4.28548396e-01, 4.28548396e-01, 4.28548396e-01,
          4.28548396e-01, 1.97075307e-01, 1.43974498e-01, 3.38508189e-01,
          2.35647336e-01, 3.74269456e-01, 3.74269456e-01, 3.74269456e-01,
          2.97495723e-01, 3.74269456e-01, 3.74269456e-01, 1.99199855e-01,
          1.66164890e-01, 3.74269456e-01, 4.23971236e-01, 3.71223353e-02,
          1.12442091e-01, 3.48609716e-01, 4.23971236e-01, 4.17574942e-01,
          1.32422984e-01, 3.59242767e-01, 4.23971236e-01, 1.77255198e-01,
          4.28548396e-01, 4.28548396e-01, 4.28548396e-01, 4.28548396e-01,
          1.97075307e-01, 1.43974498e-01, 3.38508189e-01, 2.35647336e-01,
          3.74269456e-01, 3.74269456e-01, 3.74269456e-01, 2.97495723e-01,
          3.74269456e-01, 3.74269456e-01, 1.99199855e-01, 1.66164890e-01,
          3.74269456e-01, 4.23971236e-01, 3.71223353e-02, 1.12442091e-01,
          3.48609716e-01, 4.23971236e-01, 4.17574942e-01, 1.32422984e-01,
          3.59242767e-01, 4.23971236e-01, 1.79670736e-01, 4.72262919e-01,
          4.72262919e-01, 4.72262919e-01, 1.88613072e-01, 9.76764485e-02,
          2.63553292e-01, 4.04290795e-01, 1.26006082e-01, 3.36977959e-01,
          3.36977959e-01, 3.36977959e-01, 3.36977959e-01, 3.36977959e-01,
          3.33627135e-01, 3.00743818e-01, 3.36977959e-01, 3.36977959e-01,
          3.54059547e-01, 3.54059547e-01, 3.54059547e-01, 3.54059547e-01,
          3.54059547e-01, 3.54059547e-01, 9.31837633e-02, 3.32072496e-01,
          3.54059547e-01, 2.70631552e-01, 4.12720740e-01, 4.12720740e-01,
          4.12720740e-01, 6.50242269e-02, 3.56071107e-02, 2.55827188e-01,
          4.12720740e-01, 4.12720740e-01, 3.87677282e-01, 3.87677282e-01,
          3.87677282e-01, 3.87677282e-01, 1.77696228e-01, 2.17440143e-01,
          3.75414461e-01, 1.57691434e-01, 3.87677282e-01, 4.04808044e-01,
          9.37808380e-02, 2.75811762e-01, 2.11768493e-01, 3.87439519e-01,
          4.04808044e-01, 4.04808044e-01, 2.46283218e-01, 4.04808044e-01 ]
      - [ 4.79289591e-01, 4.79289591e-01, 4.27017808e-02, 0.,
          3.12452335e-02, 4.79289591e-01, 4.79289591e-01, 2.52736807e-01,
          9.83018577e-02, 5.35684109e-01, 5.35684109e-01, 1.62060410e-01,
          3.99599299e-02, 2.98826426e-01, 5.35684109e-01, 1.15897253e-01,
          7.84401037e-03, 5.59180900e-02, 5.02262294e-01, 5.02262294e-01,
          5.86269014e-02, 3.70583758e-02, 2.07451239e-01, 1.79640919e-01,
          3.59304324e-02, 5.02262294e-01, 3.95945966e-01, 3.53002042e-01,
          3.40407550e-01, 4.38637495e-01, 2.77695656e-02, 2.44673491e-02,
          5.12839556e-01, 5.12839556e-01, 1.15520477e-01, 1.45821601e-01,
          3.16062480e-01, 5.52083969e-01, 5.52083969e-01, 8.83714482e-02,
          1.69564590e-01, 4.92556572e-01, 7.21020997e-02, 3.34989838e-03,
          2.47840136e-02, 3.34704995e-01, 3.80605370e-01, 3.80605370e-01,
          3.56504321e-01, 3.80605370e-01, 3.80605370e-01, 3.80605370e-01,
          1.71123937e-01, 5.90702146e-02, 8.13601092e-02, 3.85982066e-01,
          4.41057533e-01, 2.36530691e-01, 1.14447452e-01, 4.41057533e-01,
          4.41057533e-01, 4.18755054e-01, 1.09528579e-01, 1.76974144e-02,
          4.75350678e-01, 4.75350678e-01, 2.45317325e-01, 4.75350678e-01,
          4.75350678e-01, 1.73310116e-01, 1.07871192e-02, 2.77954675e-02,
          6.53883116e-03, 5.00952899e-01, 5.00952899e-01, 1.27212435e-01,
          1.50960028e-01, 3.55233282e-01, 5.00952899e-01, 2.76983857e-01,
          1.44937979e-02, 8.13601092e-02, 3.85982066e-01, 4.41057533e-01,
          2.36530691e-01, 1.14447452e-01, 4.41057533e-01, 4.41057533e-01,
          4.18755054e-01, 1.09528579e-01, 1.76974144e-02, 4.75350678e-01,
          4.75350678e-01, 2.45317325e-01, 4.75350678e-01, 4.75350678e-01,
          1.73310116e-01, 1.07871192e-02, 2.77954675e-02, 6.53883116e-03,
          5.00952899e-01, 5.00952899e-01, 1.27212435e-01, 1.50960028e-01,
          3.55233282e-01, 5.00952899e-01, 2.76983857e-01, 1.44937979e-02,
          1.09923787e-01, 3.23367000e-01, 4.61285710e-01, 1.63015977e-01,
          1.28133163e-01, 8.33057687e-02, 5.27193487e-01, 5.27193487e-01,
          2.43932456e-01, 7.32805282e-02, 6.78167045e-01, 6.78167045e-01,
          5.89360632e-02, 2.02168316e-01, 1.10934831e-01, 7.69155473e-02,
          4.27643135e-02, 6.03475831e-02, 3.92128481e-03, 5.44909120e-01,
          5.44909120e-01, 6.80962391e-03, 1.41085209e-02, 9.90125537e-03,
          5.44909120e-01, 3.21227551e-01, 1.53148510e-02, 1.36511520e-01,
          7.63193145e-02, 1.19570807e-01, 1.67052105e-01, 1.60559043e-01,
          1.49214774e-01, 2.85259336e-01, 6.31511748e-01, 6.31511748e-01,
          8.48612338e-02, 5.83230793e-01, 5.83230793e-01, 2.45782226e-01,
          1.31197736e-01, 7.20319673e-02, 6.68971017e-02, 2.34567791e-01,
          4.05402064e-01, 8.00596457e-03, 5.20736337e-01, 5.20736337e-01,
          1.26570791e-01, 2.69113243e-01, 1.53065175e-01, 5.20736337e-01,
          2.63173372e-01, 1.02617806e-02, 5.02262294e-01, 5.02262294e-01,
          5.86269014e-02, 3.70583758e-02, 2.07451239e-01, 1.79640919e-01,
          3.59304324e-02, 5.02262294e-01, 3.95945966e-01, 1.44965380e-01,
          7.50364065e-02, 2.03111563e-02, 3.54231179e-01, 2.44985536e-01,
          7.01914504e-02, 1.13955207e-01, 6.17803931e-01, 6.17803931e-01,
          2.48275727e-01, 4.93893698e-02, 3.23710114e-01, 4.98787969e-01,
          2.36193061e-01, 5.84408380e-02, 1.43454552e-01, 4.98787969e-01,
          4.98787969e-01, 3.34704995e-01, 3.80605370e-01, 3.80605370e-01,
          3.56504321e-01, 3.80605370e-01, 3.80605370e-01, 3.80605370e-01,
          1.71123937e-01, 5.90702146e-02, 1.56730823e-02, 9.33969300e-03,
          1.53621390e-01, 4.76164550e-01, 4.38807458e-01, 2.00320184e-01,
          4.76164550e-01, 4.76164550e-01, 2.41730347e-01, 4.93223742e-02,
          1.41384527e-01, 3.79972488e-01, 5.07149756e-01, 1.20759219e-01,
          1.51508003e-01, 5.07149756e-01, 5.07149756e-01, 1.37817040e-01,
          6.53883116e-03, 5.00952899e-01, 5.00952899e-01, 1.27212435e-01,
          1.50960028e-01, 3.55233282e-01, 5.00952899e-01, 2.76983857e-01,
          1.44937979e-02, 6.15443382e-03, 5.09190792e-03, 2.14840204e-01,
          5.02915323e-01, 5.02915323e-01, 2.05905586e-01, 5.02915323e-01,
          3.84129018e-01, 5.78575116e-03, 9.34433863e-02, 1.76429614e-01,
          2.51789242e-01, 3.19328576e-01, 5.22001386e-01, 4.23982918e-01,
          5.22001386e-01, 2.49682605e-01, 4.98549156e-02, 6.53883116e-03,
          5.00952899e-01, 5.00952899e-01, 1.27212435e-01, 1.50960028e-01,
          3.55233282e-01, 5.00952899e-01, 2.76983857e-01, 1.44937979e-02,
          6.15443382e-03, 5.09190792e-03, 2.14840204e-01, 5.02915323e-01,
          5.02915323e-01, 2.05905586e-01, 5.02915323e-01, 3.84129018e-01,
          5.78575116e-03, 9.34433863e-02, 1.76429614e-01, 2.51789242e-01,
          3.19328576e-01, 5.22001386e-01, 4.23982918e-01, 5.22001386e-01,
          2.49682605e-01, 4.98549156e-02, 3.92128481e-03, 5.44909120e-01,
          5.44909120e-01, 6.80962391e-03, 1.41085209e-02, 9.90125537e-03,
          5.44909120e-01, 3.21227551e-01, 1.53148510e-02, 2.03873422e-02,
          2.29098648e-02, 1.66665856e-02, 3.38865332e-02, 8.79078507e-02,
          3.93395349e-02, 7.18191564e-01, 6.81898117e-01, 2.01253388e-02,
          4.83461380e-01, 4.83461380e-01, 4.76896375e-01, 1.31086931e-01,
          2.06463218e-01, 3.73637319e-01, 2.55288780e-01, 6.54077530e-02,
          1.77214950e-01, 8.00596457e-03, 5.20736337e-01, 5.20736337e-01,
          1.26570791e-01, 2.69113243e-01, 1.53065175e-01, 5.20736337e-01,
          2.63173372e-01, 1.02617806e-02, 4.31326807e-01, 3.07547212e-01,
          2.43154131e-02, 9.76791419e-03, 8.76969993e-02, 1.80137381e-01,
          6.17417812e-01, 5.33338368e-01, 8.20114985e-02, 4.41629171e-01,
          4.41629171e-01, 2.89461702e-01, 1.99225157e-01, 2.87528038e-01,
          4.41629171e-01, 4.41629171e-01, 2.04195809e-02, 9.42074135e-02 ]
      - [ 5.23156404e-01, 5.23156404e-01, 9.92063060e-02, 5.41445687e-02,
          1.07759364e-01, 5.23156404e-01, 3.53741109e-01, 7.05593973e-02,
          1.38565868e-01, 4.86075878e-01, 3.95593196e-01, 6.77533895e-02,
          4.86183874e-02, 4.86075878e-01, 4.86075878e-01, 9.64405462e-02,
          4.81112711e-02, 3.33574951e-01, 5.11764824e-01, 6.22501746e-02,
          4.18353640e-02, 6.73578307e-02, 5.11764824e-01, 4.31152731e-01,
          5.77971973e-02, 9.89127234e-02, 5.11764824e-01, 2.62025863e-01,
          4.75098610e-01, 4.75098610e-01, 3.07869483e-02, 1.08506292e-01,
          4.75098610e-01, 4.75098610e-01, 5.12508973e-02, 9.15108249e-02,
          4.80382293e-01, 4.80382293e-01, 4.80382293e-01, 3.45009007e-02,
          1.43108919e-01, 1.57556459e-01, 1.52766615e-01, 4.79714796e-02,
          4.80382293e-01, 5.18100917e-01, 5.57264220e-03, 8.24195519e-03,
          7.91663378e-02, 5.18100917e-01, 4.11324561e-01, 1.13417953e-01,
          3.34988348e-02, 5.18100917e-01, 1.51286349e-01, 5.46625078e-01,
          5.46625078e-01, 4.56278324e-02, 9.24951285e-02, 1.07700549e-01,
          5.32378852e-01, 1.05363667e-01, 2.39354104e-01, 3.92035171e-02,
          5.03929079e-01, 5.03929079e-01, 2.20706761e-02, 8.74753520e-02,
          1.43575251e-01, 5.03929079e-01, 4.49411929e-01, 2.95431409e-02,
          3.70043933e-01, 1.05625130e-01, 2.12876238e-02, 1.04445718e-01,
          4.47273701e-01, 4.47273701e-01, 4.47273701e-01, 4.47273701e-01,
          1.89383790e-01, 1.51286349e-01, 5.46625078e-01, 5.46625078e-01,
          4.56278324e-02, 9.24951285e-02, 1.07700549e-01, 5.32378852e-01,
          1.05363667e-01, 2.39354104e-01, 3.92035171e-02, 5.03929079e-01,
          5.03929079e-01, 2.20706761e-02, 8.74753520e-02, 1.43575251e-01,
          5.03929079e-01, 4.49411929e-01, 2.95431409e-02, 3.70043933e-01,
          1.05625130e-01, 2.12876238e-02, 1.04445718e-01, 4.47273701e-01,
          4.47273701e-01, 4.47273701e-01, 4.47273701e-01, 1.89383790e-01,
          3.99251491e-01, 4.81595725e-01, 4.81595725e-01, 1.02954440e-01,
          3.55866477e-02, 1.01549514e-02, 1.53699130e-01, 3.23098034e-01,
          4.81595725e-01, 3.32843393e-01, 4.20209855e-01, 4.20209855e-01,
          3.25937979e-02, 1.82336736e-02, 2.72231754e-02, 4.20209855e-01,
          4.20209855e-01, 4.20209855e-01, 4.46746081e-01, 4.46746081e-01,
          1.45833129e-02, 6.78772619e-03, 1.17292441e-02, 2.02123746e-01,
          4.46746081e-01, 4.46746081e-01, 3.94916594e-01, 5.60607240e-02,
          1.09830476e-01, 4.90674347e-01, 4.90674347e-01, 1.21951185e-01,
