%YAML:1.0
---
opencv_ml_svm:
   format: 3
   svmType: C_SVC
   kernel:
      type: RBF
      gamma: 5.0624999999999998e-01
   C: 1.2500000000000000e+01
   term_criteria: { epsilon:1.1920928955078125e-07, iterations:1000 }
   var_count: 324
   class_count: 13
   class_labels: !!opencv-matrix
      rows: 13
      cols: 1
      dt: i
      data: [ 0, 1, 2, 3, 4, 5, 6, 7, 8, 9, 10, 11, 12 ]
   sv_total: 439
   support_vectors:
      - [ 7.70494565e-02, 7.46328235e-02, 2.85524875e-01, 4.19698715e-01,
          4.19698715e-01, 4.19698715e-01, 4.19698715e-01, 4.19698715e-01,
          1.48463115e-01, 4.00506079e-01, 4.00506079e-01, 2.26489455e-01,
          2.60197163e-01, 4.00506079e-01, 4.00506079e-01, 4.00506079e-01,
          1.70795128e-01, 2.14015037e-01, 3.84088129e-01, 3.84088129e-01,
          3.14316452e-01, 3.09915364e-01, 3.84088129e-01, 3.84088129e-01,
          2.50781119e-01, 2.84754019e-02, 3.84088129e-01, 1.12235248e-01,
          3.88789147e-01, 3.88789147e-01, 3.82626325e-01, 1.84581175e-01,
          3.88789147e-01, 3.88789147e-01, 3.88789147e-01, 2.17395544e-01,
          2.43264735e-01, 3.75090033e-01, 3.75090033e-01, 3.27983171e-01,
          1.51624233e-01, 3.23361039e-01, 3.73067766e-01, 3.75090033e-01,
          3.75090033e-01, 1.31303564e-01, 3.62596720e-01, 3.62596720e-01,
          3.62596720e-01, 3.62596720e-01, 2.42491409e-01, 3.62596720e-01,
          3.62596720e-01, 3.62596720e-01, 4.97113131e-02, 4.64552164e-01,
          4.64552164e-01, 1.08297855e-01, 2.02339459e-02, 2.41605863e-01,
          4.64552164e-01, 4.64552164e-01, 2.43192613e-01, 7.21841026e-03,
          4.82707590e-01, 4.82707590e-01, 1.41996473e-01, 1.80526078e-02,
          6.78543746e-02, 4.82707590e-01, 4.82707590e-01, 1.94953799e-01,
          2.43595347e-01, 9.09570828e-02, 4.56140488e-01, 4.56140488e-01,
          8.52328017e-02, 1.59200147e-01, 4.56140488e-01, 4.56140488e-01,
          2.50930339e-01, 4.97113131e-02, 4.64552164e-01, 4.64552164e-01,
          1.08297855e-01, 2.02339459e-02, 2.41605863e-01, 4.64552164e-01,
          4.64552164e-01, 2.43192613e-01, 7.21841026e-03, 4.82707590e-01,
          4.82707590e-01, 1.41996473e-01, 1.80526078e-02, 6.78543746e-02,
          4.82707590e-01, 4.82707590e-01, 1.94953799e-01, 2.43595347e-01,
          9.09570828e-02, 4.56140488e-01, 4.56140488e-01, 8.52328017e-02,
          1.59200147e-01, 4.56140488e-01, 4.56140488e-01, 2.50930339e-01,
          2.57294741e-03, 7.06234574e-02, 4.80631322e-01, 4.80631322e-01,
          1.84820548e-01, 6.31128922e-02, 4.80631322e-01, 4.80631322e-01,
          1.67443976e-01, 2.65798401e-02, 1.11850120e-01, 5.33686817e-01,
          5.33686817e-01, 2.21937429e-02, 4.16748039e-02, 3.24480563e-01,
          5.33686817e-01, 1.39540300e-01, 4.52920824e-01, 3.47412340e-02,
          2.00626597e-01, 3.30109507e-01, 1.54954135e-01, 2.20400617e-02,
          4.52920824e-01, 4.52920824e-01, 4.52920824e-01, 4.61560227e-02,
          4.41935584e-02, 3.94732386e-01, 3.94732386e-01, 3.94732386e-01,
          3.14036071e-01, 3.38062525e-01, 3.94732386e-01, 3.94732386e-01,
          5.30869607e-03, 6.28659353e-02, 4.95116293e-01, 4.95116293e-01,
          7.92586207e-02, 3.09118144e-02, 5.72407804e-02, 4.95116293e-01,
          4.95116293e-01, 9.75041538e-02, 1.68915931e-02, 5.86423874e-02,
          5.54921865e-01, 5.54921865e-01, 3.45142633e-02, 7.87947606e-03,
          2.36978859e-01, 5.54921865e-01, 3.84088129e-01, 3.84088129e-01,
          3.14316452e-01, 3.09915364e-01, 3.84088129e-01, 3.84088129e-01,
          2.50781119e-01, 2.84754019e-02, 3.84088129e-01, 4.70915079e-01,
          3.89312208e-02, 1.13461740e-01, 4.57828254e-01, 4.70915079e-01,
          1.54340984e-02, 5.78509690e-03, 3.25185835e-01, 4.70915079e-01,
          3.12438067e-02, 1.67551078e-02, 2.10724145e-01, 5.34152567e-01,
          3.01170677e-01, 1.77443749e-03, 4.83760796e-02, 5.34152567e-01,
          5.34152567e-01, 1.31303564e-01, 3.62596720e-01, 3.62596720e-01,
          3.62596720e-01, 3.62596720e-01, 2.42491409e-01, 3.62596720e-01,
          3.62596720e-01, 3.62596720e-01, 1.50079340e-01, 4.65704352e-01,
          4.74182993e-01, 4.74182993e-01, 9.11583677e-02, 5.01770228e-02,
          7.86851048e-02, 2.53558517e-01, 4.74182993e-01, 9.08893347e-03,
          9.98621061e-03, 2.54022807e-01, 4.43859875e-01, 6.55557737e-02,
          1.68904141e-02, 2.83020437e-01, 5.69171131e-01, 5.69171131e-01,
          2.43595347e-01, 9.09570828e-02, 4.56140488e-01, 4.56140488e-01,
          8.52328017e-02, 1.59200147e-01, 4.56140488e-01, 4.56140488e-01,
          2.50930339e-01, 2.97000498e-01, 5.33835962e-02, 5.54790020e-01,
          6.22390807e-01, 3.32675338e-01, 7.17463642e-02, 2.12078154e-01,
          2.01719865e-01, 7.79484063e-02, 4.24300507e-02, 4.78641279e-02,
          2.45993331e-01, 4.74720716e-01, 4.74720716e-01, 1.61973178e-01,
          4.74720716e-01, 4.74720716e-01, 5.45890257e-02, 2.43595347e-01,
          9.09570828e-02, 4.56140488e-01, 4.56140488e-01, 8.52328017e-02,
          1.59200147e-01, 4.56140488e-01, 4.56140488e-01, 2.50930339e-01,
          2.97000498e-01, 5.33835962e-02, 5.54790020e-01, 6.22390807e-01,
          3.32675338e-01, 7.17463642e-02, 2.12078154e-01, 2.01719865e-01,
          7.79484063e-02, 4.24300507e-02, 4.78641279e-02, 2.45993331e-01,
          4.74720716e-01, 4.74720716e-01, 1.61973178e-01, 4.74720716e-01,
          4.74720716e-01, 5.45890257e-02, 4.52920824e-01, 3.47412340e-02,
          2.00626597e-01, 3.30109507e-01, 1.54954135e-01, 2.20400617e-02,
          4.52920824e-01, 4.52920824e-01, 4.52920824e-01, 4.79731560e-01,
          6.19316772e-02, 9.61391926e-02, 4.79731560e-01, 4.10334557e-01,
          7.50132799e-02, 1.08867057e-01, 3.25345308e-01, 4.79731560e-01,
          3.40077847e-01, 2.67167538e-01, 3.40077847e-01, 3.40077847e-01,
          3.40077847e-01, 3.40077847e-01, 3.40077847e-01, 3.40077847e-01,
          3.40077847e-01, 9.75041538e-02, 1.68915931e-02, 5.86423874e-02,
          5.54921865e-01, 5.54921865e-01, 3.45142633e-02, 7.87947606e-03,
          2.36978859e-01, 5.54921865e-01, 3.61300111e-01, 4.59904857e-02,
          1.37980198e-02, 2.59722888e-01, 4.99392480e-01, 4.99392480e-01,
          2.18812767e-02, 2.14606076e-01, 4.99392480e-01, 3.81114155e-01,
          3.81114155e-01, 7.73458630e-02, 9.75506678e-02, 3.81114155e-01,
          3.81114155e-01, 3.81114155e-01, 3.81114155e-01, 3.30463499e-01 ]
      - [ 1.86241642e-01, 4.17868607e-02, 8.73004422e-02, 2.04901427e-01,
          4.17089701e-01, 5.22767127e-01, 5.22767127e-01, 2.92365879e-01,
          3.20512950e-01, 1.27946839e-01, 2.20794380e-01, 3.88176858e-01,
          4.77036312e-02, 6.17218494e-01, 6.17218494e-01, 1.08621947e-01,
          2.81688012e-02, 3.53613235e-02, 3.80556643e-01, 3.80556643e-01,
          3.80556643e-01, 6.57832399e-02, 3.80556643e-01, 3.80556643e-01,
          2.51930982e-01, 2.80101210e-01, 3.54722440e-01, 6.56716004e-02,
          1.96739018e-01, 6.21752813e-02, 9.72876139e-03, 5.46915010e-02,
          6.85726166e-01, 6.85726166e-01, 5.06608561e-02, 1.32907256e-02,
          3.08696359e-01, 4.72528756e-01, 4.72528756e-01, 2.09489968e-02,
          2.46157527e-01, 4.72528756e-01, 2.81663358e-01, 2.63976097e-01,
          1.41727209e-01, 2.50369050e-02, 5.60820222e-01, 5.60820222e-01,
          1.60078518e-02, 6.11450523e-03, 2.45809034e-02, 5.35596013e-01,
          2.76807755e-01, 1.87285859e-02, 3.63159999e-02, 4.88325298e-01,
          1.88622370e-01, 1.39325671e-02, 9.52114072e-03, 3.22847903e-01,
          5.54197252e-01, 5.54197252e-01, 1.79486293e-02, 4.40556020e-01,
          4.40556020e-01, 4.40556020e-01, 2.58188378e-02, 1.82787962e-02,
          1.95627049e-01, 1.86383247e-01, 3.81092280e-01, 4.40556020e-01,
          1.73823610e-01, 5.28687418e-01, 5.28687418e-01, 1.18421717e-02,
          1.09106896e-03, 1.89099554e-02, 4.92928267e-01, 2.94805735e-01,
          2.74038225e-01, 3.63159999e-02, 4.88325298e-01, 1.88622370e-01,
          1.39325671e-02, 9.52114072e-03, 3.22847903e-01, 5.54197252e-01,
          5.54197252e-01, 1.79486293e-02, 4.40556020e-01, 4.40556020e-01,
          4.40556020e-01, 2.58188378e-02, 1.82787962e-02, 1.95627049e-01,
          1.86383247e-01, 3.81092280e-01, 4.40556020e-01, 1.73823610e-01,
          5.28687418e-01, 5.28687418e-01, 1.18421717e-02, 1.09106896e-03,
          1.89099554e-02, 4.92928267e-01, 2.94805735e-01, 2.74038225e-01,
          8.43683351e-03, 8.23339373e-02, 1.69729829e-01, 1.04235068e-01,
          7.94047564e-02, 6.82102889e-02, 5.76358676e-01, 5.76358676e-01,
          5.21905184e-01, 1.98320344e-01, 4.99401420e-01, 4.99401420e-01,
          4.99401420e-01, 5.72357178e-02, 2.53709573e-02, 8.32966641e-02,
          1.86093509e-01, 4.02476490e-01, 4.12318051e-01, 4.12318051e-01,
          4.12318051e-01, 4.12318051e-01, 1.21661164e-01, 7.13797435e-02,
          1.69877723e-01, 3.11601162e-01, 4.12318051e-01, 1.65568307e-01,
          2.01535732e-01, 1.96736574e-01, 4.75219823e-02, 3.75449881e-02,
          4.65498678e-02, 1.05242297e-01, 6.59458339e-01, 6.59458339e-01,
          1.16840944e-01, 7.33264014e-02, 3.13373446e-01, 5.29918134e-01,
          1.86879918e-01, 5.59810363e-03, 9.01683979e-03, 5.29918134e-01,
          5.29918134e-01, 3.50832701e-01, 4.14271466e-02, 2.13987812e-01,
          5.11549234e-01, 3.66246372e-01, 4.01970774e-01, 5.99485114e-02,
          4.03057076e-02, 5.11549234e-01, 3.80556643e-01, 3.80556643e-01,
          3.80556643e-01, 6.57832399e-02, 3.80556643e-01, 3.80556643e-01,
          2.51930982e-01, 2.80101210e-01, 3.54722440e-01, 1.70480177e-01,
          6.29745647e-02, 8.56126398e-02, 4.33129877e-01, 4.33129877e-01,
          2.42493242e-01, 4.33129877e-01, 4.33129877e-01, 3.82237583e-01,
          1.28417850e-01, 5.18392138e-02, 1.65788561e-01, 4.66850370e-01,
          4.66850370e-01, 2.14027077e-01, 3.99419427e-01, 4.66850370e-01,
          2.99134374e-01, 2.50369050e-02, 5.60820222e-01, 5.60820222e-01,
          1.60078518e-02, 6.11450523e-03, 2.45809034e-02, 5.35596013e-01,
          2.76807755e-01, 1.87285859e-02, 3.28568257e-02, 1.17899999e-01,
          2.54138768e-01, 5.36443591e-02, 3.93000990e-02, 2.75462698e-02,
          6.70989454e-01, 6.70989454e-01, 9.00008082e-02, 2.82229990e-01,
          1.46499172e-01, 3.83000076e-01, 3.83000076e-01, 3.83000076e-01,
          1.22161940e-01, 3.83000076e-01, 3.83000076e-01, 3.83000076e-01,
          1.73823610e-01, 5.28687418e-01, 5.28687418e-01, 1.18421717e-02,
          1.09106896e-03, 1.89099554e-02, 4.92928267e-01, 2.94805735e-01,
          2.74038225e-01, 5.05227208e-01, 3.54875058e-01, 1.55319586e-01,
          4.83982498e-03, 6.15409226e-04, 4.18574875e-03, 5.05227208e-01,
          5.05227208e-01, 2.81227529e-01, 4.41709608e-01, 3.11690688e-01,
          2.00986519e-01, 1.49763390e-01, 1.88757628e-01, 1.39831841e-01,
          4.41709608e-01, 4.41709608e-01, 4.41709608e-01, 1.73823610e-01,
          5.28687418e-01, 5.28687418e-01, 1.18421717e-02, 1.09106896e-03,
          1.89099554e-02, 4.92928267e-01, 2.94805735e-01, 2.74038225e-01,
          5.05227208e-01, 3.54875058e-01, 1.55319586e-01, 4.83982498e-03,
          6.15409226e-04, 4.18574875e-03, 5.05227208e-01, 5.05227208e-01,
          2.81227529e-01, 4.41709608e-01, 3.11690688e-01, 2.00986519e-01,
          1.49763390e-01, 1.88757628e-01, 1.39831841e-01, 4.41709608e-01,
          4.41709608e-01, 4.41709608e-01, 4.12318051e-01, 4.12318051e-01,
          4.12318051e-01, 4.12318051e-01, 1.21661164e-01, 7.13797435e-02,
          1.69877723e-01, 3.11601162e-01, 4.12318051e-01, 4.27684367e-01,
          2.30737701e-01, 5.99123091e-02, 8.27452168e-02, 1.32219657e-01,
          4.27684367e-01, 4.27684367e-01, 4.27684367e-01, 4.27684367e-01,
          4.51458901e-01, 2.23893702e-01, 1.24691978e-01, 1.24242216e-01,
          2.25801528e-01, 4.52934086e-01, 4.52934086e-01, 4.52934086e-01,
          2.10032761e-01, 3.50832701e-01, 4.14271466e-02, 2.13987812e-01,
          5.11549234e-01, 3.66246372e-01, 4.01970774e-01, 5.99485114e-02,
          4.03057076e-02, 5.11549234e-01, 5.66009045e-01, 2.16325730e-01,
          4.98109348e-02, 1.78041771e-01, 1.98312715e-01, 5.66009045e-01,
          4.00000155e-01, 7.25535825e-02, 2.60857433e-01, 4.81171608e-01,
          4.81171608e-01, 1.06878564e-01, 1.12279996e-01, 2.13436365e-01,
          4.81171608e-01, 3.46844018e-01, 1.59341514e-01, 2.92130768e-01 ]
      - [ 6.04709804e-01, 6.04709804e-01, 2.82165557e-01, 6.89589903e-02,
          1.39575405e-02, 3.83203849e-02, 1.51368305e-01, 4.73350473e-02,
          3.89133930e-01, 5.88775933e-01, 3.27972382e-01, 7.00624734e-02,
          1.09864958e-02, 3.23356465e-02, 2.49831259e-01, 5.88775933e-01,
          2.94369489e-01, 1.95183530e-01, 9.89774764e-02, 1.54932737e-01,
          1.04058206e-01, 4.60137129e-02, 5.28398119e-02, 4.20574635e-01,
          7.54805505e-01, 4.41784889e-01, 3.37609313e-02, 3.63682687e-01,
          7.14216173e-01, 4.70719934e-01, 4.54605520e-02, 5.40343113e-02,
          2.15837419e-01, 2.76344508e-01, 3.04078162e-02, 7.78123597e-03,
          2.11477522e-02, 3.82429138e-02, 2.52990481e-02, 1.53546303e-03,
          5.19362930e-03, 3.45865011e-01, 8.56242955e-01, 3.68856460e-01,
          6.84771268e-03, 2.03548931e-02, 1.61051825e-01, 2.20839664e-01,
          1.10806013e-02, 1.50044775e-02, 3.44415307e-01, 7.67251790e-01,
          4.57789391e-01, 1.96035812e-03, 8.53404030e-02, 5.31205297e-01,
          5.31205297e-01, 1.80269212e-01, 2.01245129e-01, 4.32850748e-01,
          3.73059720e-01, 1.38789684e-01, 6.52787089e-02, 4.05927334e-04,
          2.75721997e-02, 4.18341234e-02, 7.10441405e-03, 1.72526538e-02,
          2.85580218e-01, 8.58515382e-01, 4.12265807e-01, 2.60817166e-03,
          6.22034520e-02, 5.25113106e-01, 5.25113106e-01, 1.56999640e-02,
          6.87539228e-04, 2.09238112e-01, 5.25113106e-01, 3.42186630e-01,
          5.03586754e-02, 8.53404030e-02, 5.31205297e-01, 5.31205297e-01,
          1.80269212e-01, 2.01245129e-01, 4.32850748e-01, 3.73059720e-01,
          1.38789684e-01, 6.52787089e-02, 4.05927334e-04, 2.75721997e-02,
          4.18341234e-02, 7.10441405e-03, 1.72526538e-02, 2.85580218e-01,
          8.58515382e-01, 4.12265807e-01, 2.60817166e-03, 6.22034520e-02,
          5.25113106e-01, 5.25113106e-01, 1.56999640e-02, 6.87539228e-04,
          2.09238112e-01, 5.25113106e-01, 3.42186630e-01, 5.03586754e-02,
          1.01831414e-01, 4.35981840e-01, 4.35981840e-01, 4.35981840e-01,
          2.40012869e-01, 1.20322354e-01, 3.22610646e-01, 4.35981840e-01,
          2.20892563e-01, 4.81661037e-03, 6.42097816e-02, 9.37395841e-02,
          6.38953084e-03, 1.69607182e-03, 2.35795990e-01, 8.73569429e-01,
          3.99158776e-01, 1.59831084e-02, 1.46393757e-02, 5.46392858e-01,
          5.46392858e-01, 8.57113078e-02, 3.31297256e-02, 1.49098098e-01,
          5.46392858e-01, 2.60602266e-01, 1.03002889e-02, 2.35542096e-02,
          1.47763908e-01, 6.18057966e-01, 6.18057966e-01, 9.24246311e-02,
          6.41597211e-02, 3.96122634e-01, 1.84338018e-01, 6.24202266e-02,
          1.91374924e-02, 3.20681706e-02, 2.66738534e-02, 3.11188158e-02,
          1.27975792e-02, 3.20620149e-01, 8.86919022e-01, 3.13716531e-01,
          8.45791865e-03, 5.30142337e-02, 5.66399276e-01, 5.66399276e-01,
          6.32882640e-02, 1.17090540e-02, 7.08943531e-02, 5.66399276e-01,
          1.39687955e-01, 2.06868481e-02, 9.89774764e-02, 1.54932737e-01,
          1.04058206e-01, 4.60137129e-02, 5.28398119e-02, 4.20574635e-01,
          7.54805505e-01, 4.41784889e-01, 3.37609313e-02, 3.15056778e-02,
          6.74887061e-01, 6.74887061e-01, 1.58370018e-01, 1.05214782e-01,
          4.00795378e-02, 1.63749978e-01, 1.15382209e-01, 5.86539395e-02,
          1.32017629e-02, 4.85634387e-01, 4.85634387e-01, 9.16026607e-02,
          6.77228346e-02, 6.63635284e-02, 1.85015485e-01, 4.85634387e-01,
          4.85634387e-01, 2.03548931e-02, 1.61051825e-01, 2.20839664e-01,
          1.10806013e-02, 1.50044775e-02, 3.44415307e-01, 7.67251790e-01,
          4.57789391e-01, 1.96035812e-03, 7.29264924e-03, 7.01575220e-01,
          7.01575220e-01, 3.37576978e-02, 2.39040907e-02, 2.34325640e-02,
          7.62723684e-02, 2.12167073e-02, 5.39654575e-04, 2.34585721e-03,
          4.97901052e-01, 4.97901052e-01, 1.13066077e-01, 1.01427034e-01,
          1.47245809e-01, 4.52741355e-01, 4.97901052e-01, 3.97222191e-02,
          6.22034520e-02, 5.25113106e-01, 5.25113106e-01, 1.56999640e-02,
          6.87539228e-04, 2.09238112e-01, 5.25113106e-01, 3.42186630e-01,
          5.03586754e-02, 1.90498587e-02, 7.02340484e-01, 7.02340484e-01,
          2.33036205e-02, 5.28691383e-03, 1.32122003e-02, 6.40990287e-02,
          3.18465754e-02, 1.39027024e-02, 9.35216025e-02, 5.28545320e-01,
          5.28545320e-01, 1.55915365e-01, 5.40273301e-02, 5.06660491e-02,
          5.28545320e-01, 3.41131300e-01, 4.15779352e-02, 6.22034520e-02,
          5.25113106e-01, 5.25113106e-01, 1.56999640e-02, 6.87539228e-04,
          2.09238112e-01, 5.25113106e-01, 3.42186630e-01, 5.03586754e-02,
          1.90498587e-02, 7.02340484e-01, 7.02340484e-01, 2.33036205e-02,
          5.28691383e-03, 1.32122003e-02, 6.40990287e-02, 3.18465754e-02,
          1.39027024e-02, 9.35216025e-02, 5.28545320e-01, 5.28545320e-01,
          1.55915365e-01, 5.40273301e-02, 5.06660491e-02, 5.28545320e-01,
          3.41131300e-01, 4.15779352e-02, 1.46393757e-02, 5.46392858e-01,
          5.46392858e-01, 8.57113078e-02, 3.31297256e-02, 1.49098098e-01,
          5.46392858e-01, 2.60602266e-01, 1.03002889e-02, 5.05993702e-03,
          6.98706627e-01, 6.98706627e-01, 6.86852038e-02, 2.73040887e-02,
          2.37600636e-02, 9.46049169e-02, 4.02348414e-02, 4.57933359e-03,
          1.56549096e-01, 4.71653789e-01, 4.32383597e-01, 1.37061477e-01,
          9.91654322e-02, 4.71653789e-01, 4.71653789e-01, 2.82214791e-01,
          9.04934034e-02, 5.30142337e-02, 5.66399276e-01, 5.66399276e-01,
          6.32882640e-02, 1.17090540e-02, 7.08943531e-02, 5.66399276e-01,
          1.39687955e-01, 2.06868481e-02, 1.84269287e-02, 6.82941377e-01,
          6.82941377e-01, 5.62402569e-02, 4.43668365e-02, 1.89158157e-01,
          1.30428344e-01, 4.57332507e-02, 3.09832301e-03, 7.17823058e-02,
          1.44067168e-01, 8.33712518e-02, 1.44928554e-02, 5.99054098e-02,
          6.91420138e-01, 6.91420138e-01, 1.56173436e-02, 8.52940045e-03 ]
      - [ 5.45388401e-01, 5.11347115e-01, 4.34803255e-02, 3.29728574e-02,
          3.65753621e-01, 6.33674711e-02, 6.41409680e-03, 1.84829603e-03,
          5.42969584e-01, 6.58876538e-01, 5.47529310e-02, 2.35547125e-02,
          1.25594772e-02, 3.40554923e-01, 7.34999180e-02, 9.36337374e-03,
          2.75224750e-03, 6.58876538e-01, 5.60971379e-01, 6.51309639e-02,
          5.63037805e-02, 6.13007471e-02, 1.76594451e-01, 3.82852443e-02,
          8.06861892e-02, 5.60971379e-01, 5.60971379e-01, 4.70425695e-01,
          4.70425695e-01, 4.70425695e-01, 4.70425695e-01, 3.12250644e-01,
          5.75518347e-02, 0., 0., 9.63704214e-02, 4.11281019e-01,
          4.11281019e-01, 3.94471586e-01, 3.73169541e-01, 4.11281019e-01,
          4.11281019e-01, 4.68172170e-02, 2.59211194e-02, 1.46819428e-01,
          2.39990398e-01, 2.41745010e-01, 3.67376715e-01, 3.98274422e-01,
          3.10062855e-01, 2.86439568e-01, 3.05161417e-01, 3.98274422e-01,
          3.95555943e-01, 5.52929819e-01, 5.52929819e-01, 4.93734896e-01,
          3.28237414e-01, 6.65097311e-02, 6.52827928e-03, 0.,
          4.48345626e-03, 1.64363191e-01, 4.06917572e-01, 5.03501356e-01,
          5.03501356e-01, 5.03501356e-01, 2.12062702e-01, 4.33885306e-02,
          1.91394705e-02, 1.68602429e-02, 1.46098420e-01, 3.14978361e-01,
          1.24013327e-01, 2.34573260e-01, 4.89270151e-01, 4.89892572e-01,
          4.89892572e-01, 2.66085774e-01, 9.16879997e-02, 1.64038762e-01,
          5.52929819e-01, 5.52929819e-01, 4.93734896e-01, 3.28237414e-01,
          6.65097311e-02, 6.52827928e-03, 0., 4.48345626e-03,
          1.64363191e-01, 4.06917572e-01, 5.03501356e-01, 5.03501356e-01,
          5.03501356e-01, 2.12062702e-01, 4.33885306e-02, 1.91394705e-02,
          1.68602429e-02, 1.46098420e-01, 3.14978361e-01, 1.24013327e-01,
          2.34573260e-01, 4.89270151e-01, 4.89892572e-01, 4.89892572e-01,
          2.66085774e-01, 9.16879997e-02, 1.64038762e-01, 2.00710788e-01,
          4.71715957e-01, 5.10883749e-01, 5.10883749e-01, 4.20726597e-01,
          4.28644614e-03, 2.40641925e-02, 1.22714996e-01, 1.32005334e-01,
          3.11937243e-01, 2.40261748e-01, 2.86718488e-01, 5.36490083e-01,
          6.08542860e-01, 2.31413066e-01, 9.42519680e-02, 9.61190090e-02,
          1.63907290e-01, 2.43164539e-01, 3.14677596e-01, 2.20153123e-01,
          3.87804955e-01, 4.88608360e-01, 1.97083563e-01, 2.22048968e-01,
          2.69230157e-01, 4.88608360e-01, 2.18909476e-02, 5.81447259e-02,
          5.59570432e-01, 5.59570432e-01, 5.59570432e-01, 1.81015562e-02,
          4.01481576e-02, 1.93556368e-01, 1.08587787e-01, 7.50395656e-02,
          5.77155352e-02, 1.13525704e-01, 4.96081322e-01, 7.48391747e-01,
          3.34159464e-01, 1.04040526e-01, 1.49689615e-01, 1.39997140e-01,
          1.77360252e-01, 3.71943802e-01, 1.09502934e-01, 2.77820945e-01,
          6.48292780e-01, 5.28118551e-01, 1.52381882e-01, 8.05273578e-02,
          7.52047747e-02, 5.60971379e-01, 6.51309639e-02, 5.63037805e-02,
          6.13007471e-02, 1.76594451e-01, 3.82852443e-02, 8.06861892e-02,
          5.60971379e-01, 5.60971379e-01, 4.61636893e-02, 6.90531656e-02,
          4.87406850e-01, 4.89231795e-01, 6.52398020e-02, 4.33269404e-02,
          1.62702605e-01, 4.89231795e-01, 4.89231795e-01, 7.21536130e-02,
          1.07146442e-01, 6.62747622e-01, 6.62747622e-01, 2.01666757e-01,
          3.86859737e-02, 1.10160761e-01, 1.35240927e-01, 1.60114616e-01,
          2.39990398e-01, 2.41745010e-01, 3.67376715e-01, 3.98274422e-01,
          3.10062855e-01, 2.86439568e-01, 3.05161417e-01, 3.98274422e-01,
          3.95555943e-01, 1.90498069e-01, 1.62943918e-02, 1.12547010e-01,
          2.05946445e-01, 6.09141216e-02, 3.01414222e-01, 5.19171894e-01,
          5.19171894e-01, 5.19171894e-01, 1.55761078e-01, 5.97457513e-02,
          4.60707575e-01, 4.60707575e-01, 2.44176105e-01, 1.07108332e-01,
          2.70026296e-01, 4.32208717e-01, 4.60707575e-01, 3.14978361e-01,
          1.24013327e-01, 2.34573260e-01, 4.89270151e-01, 4.89892572e-01,
          4.89892572e-01, 2.66085774e-01, 9.16879997e-02, 1.64038762e-01,
          4.08520520e-01, 4.51922342e-02, 6.01611212e-02, 7.85266235e-02,
          3.93711209e-01, 4.08520520e-01, 4.08520520e-01, 4.01903331e-01,
          4.08520520e-01, 1.89687699e-01, 2.35147044e-01, 1.50147647e-01,
          1.48973927e-01, 1.54844061e-01, 4.57013518e-01, 4.57013518e-01,
          4.57013518e-01, 4.57013518e-01, 3.14978361e-01, 1.24013327e-01,
          2.34573260e-01, 4.89270151e-01, 4.89892572e-01, 4.89892572e-01,
          2.66085774e-01, 9.16879997e-02, 1.64038762e-01, 4.08520520e-01,
          4.51922342e-02, 6.01611212e-02, 7.85266235e-02, 3.93711209e-01,
          4.08520520e-01, 4.08520520e-01, 4.01903331e-01, 4.08520520e-01,
          1.89687699e-01, 2.35147044e-01, 1.50147647e-01, 1.48973927e-01,
          1.54844061e-01, 4.57013518e-01, 4.57013518e-01, 4.57013518e-01,
          4.57013518e-01, 2.43164539e-01, 3.14677596e-01, 2.20153123e-01,
          3.87804955e-01, 4.88608360e-01, 1.97083563e-01, 2.22048968e-01,
          2.69230157e-01, 4.88608360e-01, 1.75420403e-01, 2.74900436e-01,
          1.52881086e-01, 5.00518419e-02, 4.10552882e-02, 6.44655347e-01,
          6.44655347e-01, 1.02710940e-01, 1.33967951e-01, 3.54819506e-01,
          5.27636409e-01, 1.59166798e-01, 1.95722859e-02, 8.54644552e-02,
          5.27636409e-01, 5.27636409e-01, 2.11007558e-02, 1.29143111e-02,
          1.77360252e-01, 3.71943802e-01, 1.09502934e-01, 2.77820945e-01,
          6.48292780e-01, 5.28118551e-01, 1.52381882e-01, 8.05273578e-02,
          7.52047747e-02, 1.75305307e-01, 4.81488436e-01, 1.74702838e-01,
          7.28941783e-02, 4.81488436e-01, 4.81488436e-01, 4.81488436e-01,
          1.84959564e-02, 3.09499130e-02, 4.94735003e-01, 4.94735003e-01,
          4.03361380e-01, 6.78684711e-02, 5.37794530e-02, 3.57168823e-01,
          4.43326771e-01, 2.62615574e-03, 1.05921976e-01 ]
      - [ 4.69776869e-01, 1.45931199e-01, 6.06308579e-02, 9.66088176e-02,
          4.69776869e-01, 4.69776869e-01, 2.67711729e-01, 8.10654610e-02,
          4.69776869e-01, 4.87083644e-01, 8.46221820e-02, 7.18178526e-02,
          1.15349062e-01, 4.87083644e-01, 4.87083644e-01, 9.95949358e-02,
          1.02908112e-01, 4.87083644e-01, 3.77738684e-01, 3.77738684e-01,
          3.77738684e-01, 3.26881796e-01, 3.77738684e-01, 3.77738684e-01,
          9.10346061e-02, 1.58013046e-01, 3.77738684e-01, 9.17961225e-02,
          1.65445641e-01, 4.79492873e-01, 1.26378298e-01, 2.76690185e-01,
          4.79492873e-01, 4.79492873e-01, 1.36704564e-01, 3.98063630e-01,
          1.77347884e-01, 2.35062987e-01, 3.98029119e-01, 1.44629598e-01,
          5.08580863e-01, 5.08580863e-01, 3.53710264e-01, 2.07337648e-01,
          2.08471030e-01, 6.40498325e-02, 6.55583799e-01, 6.55583799e-01,
          6.45215586e-02, 7.98408538e-02, 8.86721388e-02, 2.92735815e-01,
          1.41797841e-01, 7.46401772e-02, 9.56837535e-02, 2.34583125e-01,
          3.97896707e-01, 9.11450535e-02, 7.91616440e-02, 4.82402653e-01,
          4.82402653e-01, 4.82402653e-01, 2.44876370e-01, 4.23643589e-01,
          4.23643589e-01, 4.23643589e-01, 2.95834213e-01, 8.88354629e-02,
          1.10176310e-01, 2.02590212e-01, 3.59557062e-01, 4.23643589e-01,
          4.11506623e-01, 4.87996787e-01, 4.87996787e-01, 1.07473575e-01,
          4.48138453e-03, 5.36012044e-03, 2.30671212e-01, 2.15771243e-01,
          4.87996787e-01, 9.56837535e-02, 2.34583125e-01, 3.97896707e-01,
          9.11450535e-02, 7.91616440e-02, 4.82402653e-01, 4.82402653e-01,
          4.82402653e-01, 2.44876370e-01, 4.23643589e-01, 4.23643589e-01,
          4.23643589e-01, 2.95834213e-01, 8.88354629e-02, 1.10176310e-01,
          2.02590212e-01, 3.59557062e-01, 4.23643589e-01, 4.11506623e-01,
          4.87996787e-01, 4.87996787e-01, 1.07473575e-01, 4.48138453e-03,
          5.36012044e-03, 2.30671212e-01, 2.15771243e-01, 4.87996787e-01,
          1.21554658e-01, 1.77887201e-01, 1.74183369e-01, 9.21202302e-02,
          3.82205337e-01, 3.06575775e-01, 4.59128052e-01, 4.79114294e-01,
          4.79114294e-01, 1.22587629e-01, 4.36379045e-01, 4.36379045e-01,
          4.36379045e-01, 1.52947471e-01, 1.99889932e-02, 6.84634820e-02,
          4.36379045e-01, 4.36379045e-01, 2.45075941e-01, 2.21391052e-01,
          4.90031153e-01, 4.95487928e-01, 3.51556361e-01, 1.18836738e-01,
          7.23284781e-02, 1.09007381e-01, 4.95487928e-01, 1.99122965e-01,
          2.42144525e-01, 2.28058666e-01, 3.75489444e-01, 3.75489444e-01,
          3.75489444e-01, 3.75489444e-01, 3.75489444e-01, 3.75489444e-01,
          3.82157713e-01, 3.82157713e-01, 3.82157713e-01, 3.82157713e-01,
          3.82157713e-01, 2.66110659e-01, 1.31411865e-01, 1.78412855e-01,
          3.82157713e-01, 4.49609250e-01, 1.88365042e-01, 4.49609250e-01,
          4.49609250e-01, 3.07736129e-01, 2.01728001e-01, 8.79934877e-02,
          9.10770148e-02, 4.49609250e-01, 3.77738684e-01, 3.77738684e-01,
          3.77738684e-01, 3.26881796e-01, 3.77738684e-01, 3.77738684e-01,
          9.10346061e-02, 1.58013046e-01, 3.77738684e-01, 3.66431534e-01,
          2.61742651e-01, 2.06922263e-01, 3.82402301e-01, 3.82402301e-01,
          1.39370412e-01, 3.82402301e-01, 3.82402301e-01, 3.82402301e-01,
          2.01397777e-01, 4.72782373e-01, 3.01793963e-01, 5.37276864e-01,
          5.37276864e-01, 6.09945767e-02, 1.83553785e-01, 1.16218500e-01,
          1.05919108e-01, 6.40498325e-02, 6.55583799e-01, 6.55583799e-01,
          6.45215586e-02, 7.98408538e-02, 8.86721388e-02, 2.92735815e-01,
          1.41797841e-01, 7.46401772e-02, 5.36363460e-02, 2.41265669e-01,
          4.47744250e-01, 4.81621027e-02, 2.62480453e-02, 3.72001044e-02,
          6.01467550e-01, 6.01467550e-01, 6.71906024e-02, 1.89260513e-01,
          2.90874153e-01, 3.37650627e-01, 4.26663399e-01, 4.26663399e-01,
          1.54033676e-01, 4.26663399e-01, 4.26663399e-01, 9.70026180e-02,
          4.11506623e-01, 4.87996787e-01, 4.87996787e-01, 1.07473575e-01,
          4.48138453e-03, 5.36012044e-03, 2.30671212e-01, 2.15771243e-01,
          4.87996787e-01, 4.66621011e-01, 3.90982002e-01, 3.41346771e-01,
          5.94273629e-03, 3.51825613e-03, 7.13207424e-02, 4.66621011e-01,
          4.66621011e-01, 2.60028481e-01, 4.52431202e-01, 3.79502684e-01,
          9.08895954e-02, 1.34746386e-02, 3.79833654e-02, 2.56711334e-01,
          4.52431202e-01, 4.52431202e-01, 4.01983380e-01, 4.11506623e-01,
          4.87996787e-01, 4.87996787e-01, 1.07473575e-01, 4.48138453e-03,
          5.36012044e-03, 2.30671212e-01, 2.15771243e-01, 4.87996787e-01,
          4.66621011e-01, 3.90982002e-01, 3.41346771e-01, 5.94273629e-03,
          3.51825613e-03, 7.13207424e-02, 4.66621011e-01, 4.66621011e-01,
          2.60028481e-01, 4.52431202e-01, 3.79502684e-01, 9.08895954e-02,
          1.34746386e-02, 3.79833654e-02, 2.56711334e-01, 4.52431202e-01,
          4.52431202e-01, 4.01983380e-01, 2.45075941e-01, 2.21391052e-01,
          4.90031153e-01, 4.95487928e-01, 3.51556361e-01, 1.18836738e-01,
          7.23284781e-02, 1.09007381e-01, 4.95487928e-01, 5.39899945e-01,
          1.79247931e-01, 4.25874107e-02, 1.42394334e-01, 3.08759302e-01,
          5.39899945e-01, 4.52999622e-01, 1.52042955e-01, 1.83702976e-01,
          4.76271003e-01, 4.76271003e-01, 5.63170500e-02, 5.22498833e-03,
          1.44127458e-01, 4.76271003e-01, 4.76271003e-01, 2.11121976e-01,
          1.39149830e-01, 4.49609250e-01, 1.88365042e-01, 4.49609250e-01,
          4.49609250e-01, 3.07736129e-01, 2.01728001e-01, 8.79934877e-02,
          9.10770148e-02, 4.49609250e-01, 4.23157901e-01, 1.13773823e-01,
          5.01455441e-02, 1.89682871e-01, 2.21407548e-01, 4.23157901e-01,
          4.23157901e-01, 4.23157901e-01, 4.23157901e-01, 5.18500507e-01,
          5.18500507e-01, 5.18500507e-01, 3.06185111e-02, 4.92351204e-02,
          3.54757130e-01, 1.02090411e-01, 8.23843926e-02, 2.04620481e-01 ]
      - [ 5.39559126e-01, 5.39559126e-01, 1.49833441e-01, 1.19839221e-01,
          2.83577859e-01, 5.39559126e-01, 3.50695923e-02, 1.53130004e-02,
          5.04713990e-02, 3.85032415e-01, 4.05716062e-01, 5.64148091e-02,
          3.08090877e-02, 5.31127095e-01, 6.27612293e-01, 2.18154471e-02,
          8.44948646e-03, 1.43556911e-02, 1.45259380e-01, 4.50859547e-01,
          4.50859547e-01, 3.85690957e-01, 4.50859547e-01, 4.50859547e-01,
          5.87836206e-02, 5.09103164e-02, 8.05848464e-02, 2.69787759e-01,
          2.94009417e-01, 5.49164265e-02, 4.78600152e-02, 2.79083371e-01,
          5.57942688e-01, 5.57942688e-01, 3.49340081e-01, 8.58425647e-02,
          5.02608776e-01, 5.02608776e-01, 2.08684072e-01, 4.68145944e-02,
          2.68563241e-01, 5.02608776e-01, 1.02180682e-01, 1.63165703e-01,
          2.86710113e-01, 2.15670660e-01, 5.81773400e-01, 5.81773400e-01,
          3.02551091e-01, 1.26550809e-01, 6.46165460e-02, 8.35136324e-02,
          1.62798390e-01, 3.54331583e-01, 4.33617905e-02, 5.91961592e-02,
          1.91940397e-01, 4.03083339e-02, 8.22657347e-02, 2.03255698e-01,
          6.69689178e-01, 6.69689178e-01, 6.64553493e-02, 4.47487086e-01,
          2.90253252e-01, 1.80722952e-01, 4.47487086e-01, 4.47487086e-01,
          4.47487086e-01, 1.16850033e-01, 9.94163603e-02, 2.32607245e-01,
          2.72083193e-01, 4.57011133e-01, 4.57011133e-01, 4.57011133e-01,
          4.57011133e-01, 1.45586759e-01, 1.39804438e-01, 1.63541049e-01,
          1.35951549e-01, 4.33617905e-02, 5.91961592e-02, 1.91940397e-01,
          4.03083339e-02, 8.22657347e-02, 2.03255698e-01, 6.69689178e-01,
          6.69689178e-01, 6.64553493e-02, 4.47487086e-01, 2.90253252e-01,
          1.80722952e-01, 4.47487086e-01, 4.47487086e-01, 4.47487086e-01,
          1.16850033e-01, 9.94163603e-02, 2.32607245e-01, 2.72083193e-01,
          4.57011133e-01, 4.57011133e-01, 4.57011133e-01, 4.57011133e-01,
          1.45586759e-01, 1.39804438e-01, 1.63541049e-01, 1.35951549e-01,
          2.41216328e-02, 1.58753395e-02, 7.32519850e-02, 3.21683884e-01,
          6.49997741e-02, 3.76666002e-02, 5.01730919e-01, 5.60066640e-01,
          5.60066640e-01, 5.38052797e-01, 1.51996329e-01, 7.28555471e-02,
          1.31686538e-01, 2.05665499e-01, 1.64765850e-01, 1.04526892e-01,
          5.38052797e-01, 5.38052797e-01, 3.64783764e-01, 4.52388585e-01,
          4.52388585e-01, 4.52388585e-01, 2.11236179e-01, 7.02264309e-02,
          2.45453522e-01, 3.41679633e-01, 1.47996351e-01, 2.62739211e-02,
          7.84664229e-03, 3.56018692e-02, 5.53184271e-01, 2.72700816e-01,
          2.37636198e-03, 6.81855949e-03, 5.53184271e-01, 5.53184271e-01,
          5.59891611e-02, 1.55720944e-02, 3.64379622e-02, 5.72946668e-01,
          6.45743757e-02, 2.31720898e-02, 7.95751251e-03, 5.72946668e-01,
          5.72946668e-01, 2.21048012e-01, 4.40809935e-01, 4.40809935e-01,
          3.36433291e-01, 1.12599909e-01, 5.56009188e-02, 2.01304704e-01,
          4.40809935e-01, 4.40809935e-01, 1.45259380e-01, 4.50859547e-01,
          4.50859547e-01, 3.85690957e-01, 4.50859547e-01, 4.50859547e-01,
          5.87836206e-02, 5.09103164e-02, 8.05848464e-02, 2.90991008e-01,
          3.61928195e-01, 3.61928195e-01, 3.61928195e-01, 3.61928195e-01,
          3.22361231e-01, 3.61928195e-01, 3.61928195e-01, 1.47782072e-01,
          2.19321072e-01, 1.53729737e-01, 4.04666245e-01, 4.04666245e-01,
          4.04666245e-01, 2.71023840e-01, 1.78871587e-01, 4.04666245e-01,
          4.04666245e-01, 2.15670660e-01, 5.81773400e-01, 5.81773400e-01,
          3.02551091e-01, 1.26550809e-01, 6.46165460e-02, 8.35136324e-02,
          1.62798390e-01, 3.54331583e-01, 2.69279063e-01, 3.39870036e-01,
          3.39870036e-01, 3.39870036e-01, 3.39870036e-01, 3.39870036e-01,
          3.39870036e-01, 3.39870036e-01, 3.39870036e-01, 3.74319255e-01,
          4.19850573e-02, 1.47862837e-01, 4.19132560e-01, 4.19132560e-01,
          4.19132560e-01, 1.31954849e-01, 3.34621459e-01, 4.19132560e-01,
          2.72083193e-01, 4.57011133e-01, 4.57011133e-01, 4.57011133e-01,
          4.57011133e-01, 1.45586759e-01, 1.39804438e-01, 1.63541049e-01,
          1.35951549e-01, 3.70958030e-01, 3.70958030e-01, 3.70958030e-01,
          2.81796932e-01, 3.70958030e-01, 3.70958030e-01, 2.75610119e-01,
          1.45214856e-01, 3.63024533e-01, 4.33936179e-01, 6.44835159e-02,
          7.90613890e-02, 3.94190282e-01, 4.33936179e-01, 4.09188449e-01,
          5.88049889e-02, 3.06717247e-01, 4.33936179e-01, 2.72083193e-01,
          4.57011133e-01, 4.57011133e-01, 4.57011133e-01, 4.57011133e-01,
          1.45586759e-01, 1.39804438e-01, 1.63541049e-01, 1.35951549e-01,
          3.70958030e-01, 3.70958030e-01, 3.70958030e-01, 2.81796932e-01,
          3.70958030e-01, 3.70958030e-01, 2.75610119e-01, 1.45214856e-01,
          3.63024533e-01, 4.33936179e-01, 6.44835159e-02, 7.90613890e-02,
          3.94190282e-01, 4.33936179e-01, 4.09188449e-01, 5.88049889e-02,
          3.06717247e-01, 4.33936179e-01, 3.64783764e-01, 4.52388585e-01,
          4.52388585e-01, 4.52388585e-01, 2.11236179e-01, 7.02264309e-02,
          2.45453522e-01, 3.41679633e-01, 1.47996351e-01, 3.63905132e-01,
          3.63905132e-01, 3.63905132e-01, 3.63905132e-01, 2.50703245e-01,
          1.61679626e-01, 3.35872561e-01, 3.63905132e-01, 3.63905132e-01,
          3.94866318e-01, 3.21222514e-01, 1.82803571e-01, 3.94866318e-01,
          3.94866318e-01, 3.94866318e-01, 1.82400957e-01, 2.15840593e-01,
          3.94866318e-01, 2.21048012e-01, 4.40809935e-01, 4.40809935e-01,
          3.36433291e-01, 1.12599909e-01, 5.56009188e-02, 2.01304704e-01,
          4.40809935e-01, 4.40809935e-01, 3.94254744e-01, 3.94254744e-01,
          3.94254744e-01, 3.94254744e-01, 2.32529476e-01, 2.29001597e-01,
          2.81744331e-01, 2.61022180e-01, 3.46828610e-01, 4.01070029e-01,
          1.83676407e-01, 3.15217495e-01, 1.82944432e-01, 3.95508081e-01,
          4.01070029e-01, 4.01070029e-01, 1.71959609e-01, 4.01070029e-01 ]
      - [ 5.17258883e-01, 5.17258883e-01, 2.24491566e-01, 6.57207221e-02,
          3.68586719e-01, 5.17258883e-01, 2.82588117e-02, 5.65128925e-04,
          2.81616859e-02, 4.66629148e-01, 3.68372083e-01, 2.29127761e-02,
          1.02618979e-02, 5.36938667e-01, 5.92530727e-01, 3.66878998e-03,
          5.56465983e-03, 2.39189789e-02, 1.22124679e-01, 4.83857155e-01,
          4.83857155e-01, 2.01886445e-01, 4.83857155e-01, 4.83857155e-01,
          3.89587656e-02, 2.28723884e-02, 3.13474983e-02, 3.15297127e-01,
          3.51544321e-01, 4.00366969e-02, 1.81708839e-02, 4.49110210e-01,
          4.93976414e-01, 4.93976414e-01, 2.71125019e-01, 8.30871016e-02,
          4.58709925e-01, 3.66178155e-01, 2.16151431e-01, 9.48264375e-02,
          4.58709925e-01, 4.58709925e-01, 1.76834345e-01, 1.86427146e-01,
          3.29163313e-01, 3.15519512e-01, 5.67992032e-01, 5.67992032e-01,
          2.92226464e-01, 2.06766948e-02, 1.32074937e-01, 2.02281214e-02,
          2.02891916e-01, 3.23579878e-01, 7.46235922e-02, 1.87697604e-01,
          2.54109770e-01, 6.71579540e-02, 5.05582914e-02, 9.94084775e-02,
          6.59198999e-01, 6.59198999e-01, 4.48676646e-02, 4.12003338e-01,
          4.12003338e-01, 2.54637927e-01, 2.31448680e-01, 4.12003338e-01,
          4.12003338e-01, 2.88608581e-01, 2.37796783e-01, 2.42169201e-01,
          3.37311715e-01, 4.43950474e-01, 4.43950474e-01, 4.43950474e-01,
          4.43950474e-01, 2.64822155e-01, 5.90204522e-02, 9.17242095e-02,
          1.06726699e-01, 7.46235922e-02, 1.87697604e-01, 2.54109770e-01,
          6.71579540e-02, 5.05582914e-02, 9.94084775e-02, 6.59198999e-01,
          6.59198999e-01, 4.48676646e-02, 4.12003338e-01, 4.12003338e-01,
          2.54637927e-01, 2.31448680e-01, 4.12003338e-01, 4.12003338e-01,
          2.88608581e-01, 2.37796783e-01, 2.42169201e-01, 3.37311715e-01,
          4.43950474e-01, 4.43950474e-01, 4.43950474e-01, 4.43950474e-01,
          2.64822155e-01, 5.90204522e-02, 9.17242095e-02, 1.06726699e-01,
          4.01719324e-02, 2.46093217e-02, 9.27278250e-02, 4.58964199e-01,
          6.08847477e-02, 3.54284458e-02, 5.06134689e-01, 5.06134689e-01,
          5.06134689e-01, 4.59140450e-01, 3.25884938e-01, 1.73774183e-01,
          1.84191629e-01, 2.73354650e-01, 2.78086692e-01, 2.01504320e-01,
          4.59140450e-01, 4.59140450e-01, 2.61594266e-01, 4.69585419e-01,
          4.69585419e-01, 4.69585419e-01, 2.20110029e-01, 3.59631032e-01,
          2.35200837e-01, 1.72373667e-01, 5.03166392e-02, 1.05518498e-01,
          1.63798824e-01, 3.11741680e-01, 5.29387236e-01, 1.34407371e-01,
          2.17612889e-02, 1.65747683e-02, 5.29387236e-01, 5.29387236e-01,
          4.14975099e-02, 7.38684321e-03, 3.03233992e-02, 5.71749091e-01,
          9.54607800e-02, 2.35293396e-02, 3.51735130e-02, 5.71749091e-01,
          5.71749091e-01, 4.22328919e-01, 4.22328919e-01, 4.22328919e-01,
          2.35830426e-01, 5.51420301e-02, 1.89732447e-01, 9.65278223e-02,
          4.22328919e-01, 4.22328919e-01, 1.22124679e-01, 4.83857155e-01,
          4.83857155e-01, 2.01886445e-01, 4.83857155e-01, 4.83857155e-01,
          3.89587656e-02, 2.28723884e-02, 3.13474983e-02, 3.46891522e-01,
          3.74231279e-01, 3.74231279e-01, 3.74231279e-01, 3.74231279e-01,
          1.91147432e-01, 3.74231279e-01, 3.60189706e-01, 9.69959721e-02,
          1.27196461e-01, 1.74837828e-01, 4.15083885e-01, 4.15083885e-01,
          4.15083885e-01, 9.43737254e-02, 2.80582726e-01, 4.15083885e-01,
          4.15083885e-01, 3.15519512e-01, 5.67992032e-01, 5.67992032e-01,
          2.92226464e-01, 2.06766948e-02, 1.32074937e-01, 2.02281214e-02,
          2.02891916e-01, 3.23579878e-01, 1.80459321e-01, 3.67973655e-01,
          3.67973655e-01, 3.67973655e-01, 2.08683446e-01, 3.28301132e-01,
          3.67973655e-01, 3.67973655e-01, 3.67973655e-01, 2.71197289e-01,
          7.53903016e-02, 2.22095177e-01, 4.03735608e-01, 4.03735608e-01,
          4.03735608e-01, 2.28902951e-01, 4.03735608e-01, 4.03735608e-01,
          3.37311715e-01, 4.43950474e-01, 4.43950474e-01, 4.43950474e-01,
          4.43950474e-01, 2.64822155e-01, 5.90204522e-02, 9.17242095e-02,
          1.06726699e-01, 3.64215285e-01, 3.64215285e-01, 3.64215285e-01,
          3.64215285e-01, 3.64215285e-01, 3.64215285e-01, 2.70920128e-01,
          1.59697622e-01, 3.18659037e-01, 4.63385493e-01, 6.09925985e-02,
          5.89345992e-02, 4.04599339e-01, 4.63385493e-01, 2.99868524e-01,
          9.92499962e-02, 2.83773869e-01, 4.63385493e-01, 3.37311715e-01,
          4.43950474e-01, 4.43950474e-01, 4.43950474e-01, 4.43950474e-01,
          2.64822155e-01, 5.90204522e-02, 9.17242095e-02, 1.06726699e-01,
          3.64215285e-01, 3.64215285e-01, 3.64215285e-01, 3.64215285e-01,
          3.64215285e-01, 3.64215285e-01, 2.70920128e-01, 1.59697622e-01,
          3.18659037e-01, 4.63385493e-01, 6.09925985e-02, 5.89345992e-02,
          4.04599339e-01, 4.63385493e-01, 2.99868524e-01, 9.92499962e-02,
          2.83773869e-01, 4.63385493e-01, 2.61594266e-01, 4.69585419e-01,
          4.69585419e-01, 4.69585419e-01, 2.20110029e-01, 3.59631032e-01,
          2.35200837e-01, 1.72373667e-01, 5.03166392e-02, 3.54876578e-01,
          3.54876578e-01, 3.54876578e-01, 3.54876578e-01, 2.91391730e-01,
          2.88726777e-01, 2.69365460e-01, 3.54876578e-01, 3.54876578e-01,
          3.90832782e-01, 3.30245852e-01, 1.91761315e-01, 3.90832782e-01,
          3.90832782e-01, 3.90832782e-01, 7.77425393e-02, 2.83664376e-01,
          3.90832782e-01, 4.22328919e-01, 4.22328919e-01, 4.22328919e-01,
          2.35830426e-01, 5.51420301e-02, 1.89732447e-01, 9.65278223e-02,
          4.22328919e-01, 4.22328919e-01, 4.02785689e-01, 4.02785689e-01,
          4.02785689e-01, 4.02785689e-01, 1.86276585e-01, 1.65910542e-01,
          2.91728288e-01, 1.93556294e-01, 4.02785689e-01, 3.96681100e-01,
          1.07919589e-01, 3.00176978e-01, 2.00007781e-01, 3.96681100e-01,
          3.96681100e-01, 3.96681100e-01, 2.59811282e-01, 3.96681100e-01 ]
      - [ 6.11925311e-02, 3.72622490e-01, 3.72622490e-01, 3.72622490e-01,
          3.72622490e-01, 3.72622490e-01, 3.72622490e-01, 3.72622490e-01,
          1.43527076e-01, 4.01526034e-01, 4.01526034e-01, 2.01259896e-01,
          2.96765178e-01, 2.65077055e-01, 4.01526034e-01, 4.01526034e-01,
          3.35258543e-01, 1.99642181e-01, 3.57143492e-01, 3.57143492e-01,
          3.57143492e-01, 3.57143492e-01, 3.57143492e-01, 3.57143492e-01,
          3.57143492e-01, 2.03979269e-01, 2.48925894e-01, 9.61794853e-02,
          3.94305795e-01, 3.94305795e-01, 3.94305795e-01, 1.55682400e-01,
          3.94305795e-01, 3.94305795e-01, 3.94305795e-01, 1.72368556e-01,
          3.24784666e-01, 3.84305805e-01, 3.84305805e-01, 1.56522453e-01,
          5.31235151e-02, 3.53411138e-01, 3.84305805e-01, 3.84305805e-01,
          3.84305805e-01, 1.40973836e-01, 3.68693799e-01, 3.68693799e-01,
          3.68693799e-01, 1.57788157e-01, 3.68693799e-01, 3.68693799e-01,
          3.68693799e-01, 3.68693799e-01, 1.60790443e-01, 2.51774043e-01,
          4.70205218e-01, 2.89219350e-01, 7.50787035e-02, 4.01751772e-02,
          4.70205218e-01, 4.70205218e-01, 3.89720798e-01, 3.91986109e-02,
          3.74313414e-01, 4.68189955e-01, 4.68189955e-01, 1.66590773e-02,
          1.60577744e-02, 4.32139039e-01, 4.68189955e-01, 9.37633961e-02,
          2.12322548e-01, 1.26644954e-01, 3.95833910e-01, 4.35281843e-01,
          1.05121903e-01, 9.44231972e-02, 4.35281843e-01, 4.35281843e-01,
          4.35281843e-01, 1.60790443e-01, 2.51774043e-01, 4.70205218e-01,
          2.89219350e-01, 7.50787035e-02, 4.01751772e-02, 4.70205218e-01,
          4.70205218e-01, 3.89720798e-01, 3.91986109e-02, 3.74313414e-01,
          4.68189955e-01, 4.68189955e-01, 1.66590773e-02, 1.60577744e-02,
          4.32139039e-01, 4.68189955e-01, 9.37633961e-02, 2.12322548e-01,
          1.26644954e-01, 3.95833910e-01, 4.35281843e-01, 1.05121903e-01,
          9.44231972e-02, 4.35281843e-01, 4.35281843e-01, 4.35281843e-01,
          2.17263382e-02, 3.61375213e-02, 2.10782722e-01, 4.99776453e-01,
          4.99776453e-01, 1.37642086e-01, 3.22843879e-01, 4.99776453e-01,
          2.76221365e-01, 2.87203528e-02, 2.95575932e-02, 4.81023520e-01,
          4.81023520e-01, 1.69571891e-01, 6.74216822e-02, 1.86177880e-01,
          4.81023520e-01, 4.81023520e-01, 2.53413051e-01, 2.07495485e-02,
          1.34987786e-01, 4.82351542e-01, 4.82351542e-01, 3.35590355e-02,
          6.91609532e-02, 4.56523180e-01, 4.82351542e-01, 8.16348493e-02,
          1.51406229e-01, 4.01280105e-01, 4.20332521e-01, 4.20332521e-01,
          2.30650917e-01, 2.12766722e-01, 4.20332521e-01, 4.20332521e-01,
          1.88447222e-01, 4.06776041e-01, 4.06776041e-01, 4.06776041e-01,
          2.60790110e-01, 1.97143793e-01, 1.61904439e-01, 4.06776041e-01,
          4.06776041e-01, 2.39153579e-01, 1.56961933e-01, 1.09948538e-01,
          4.74003136e-01, 4.74003136e-01, 4.85420451e-02, 1.65287536e-02,
          4.74003136e-01, 4.74003136e-01, 3.57143492e-01, 3.57143492e-01,
          3.57143492e-01, 3.57143492e-01, 3.57143492e-01, 3.57143492e-01,
          3.57143492e-01, 2.03979269e-01, 2.48925894e-01, 4.67900664e-01,
          6.84992522e-02, 3.56063426e-01, 4.21822608e-01, 4.48415279e-01,
          8.67910534e-02, 2.63287798e-02, 1.96862087e-01, 4.67900664e-01,
          9.67215821e-02, 1.74501650e-02, 1.36024684e-01, 5.33849061e-01,
          3.32103789e-01, 3.32077108e-02, 1.12316720e-02, 5.33849061e-01,
          5.33849061e-01, 1.40973836e-01, 3.68693799e-01, 3.68693799e-01,
          3.68693799e-01, 1.57788157e-01, 3.68693799e-01, 3.68693799e-01,
          3.68693799e-01, 3.68693799e-01, 1.90261349e-01, 3.98252875e-01,
          5.76190948e-01, 5.76190948e-01, 1.66241914e-01, 7.93587118e-02,
          1.63126945e-01, 1.33489534e-01, 2.38926023e-01, 3.26911099e-02,
          1.73680037e-02, 1.06188312e-01, 3.93292010e-01, 1.76843494e-01,
          5.72092533e-02, 4.12413478e-01, 5.57885528e-01, 5.57885528e-01,
          2.12322548e-01, 1.26644954e-01, 3.95833910e-01, 4.35281843e-01,
          1.05121903e-01, 9.44231972e-02, 4.35281843e-01, 4.35281843e-01,
          4.35281843e-01, 4.44265753e-01, 1.64268509e-01, 2.36541227e-01,
          4.44265753e-01, 4.44265753e-01, 1.73817024e-01, 2.11808041e-01,
          2.19233170e-01, 4.44265753e-01, 1.96757838e-01, 1.77308068e-01,
          1.89280540e-01, 4.75494862e-01, 4.75494862e-01, 2.77209073e-01,
          2.71420121e-01, 2.91649997e-01, 4.48895961e-01, 2.12322548e-01,
          1.26644954e-01, 3.95833910e-01, 4.35281843e-01, 1.05121903e-01,
          9.44231972e-02, 4.35281843e-01, 4.35281843e-01, 4.35281843e-01,
          4.44265753e-01, 1.64268509e-01, 2.36541227e-01, 4.44265753e-01,
          4.44265753e-01, 1.73817024e-01, 2.11808041e-01, 2.19233170e-01,
          4.44265753e-01, 1.96757838e-01, 1.77308068e-01, 1.89280540e-01,
          4.75494862e-01, 4.75494862e-01, 2.77209073e-01, 2.71420121e-01,
          2.91649997e-01, 4.48895961e-01, 2.53413051e-01, 2.07495485e-02,
          1.34987786e-01, 4.82351542e-01, 4.82351542e-01, 3.35590355e-02,
          6.91609532e-02, 4.56523180e-01, 4.82351542e-01, 4.90058154e-01,
          9.71422121e-02, 1.83087401e-02, 2.38368198e-01, 4.90058154e-01,
          3.48449916e-01, 4.54921573e-02, 2.90785700e-01, 4.90058154e-01,
          3.75321209e-01, 3.12615961e-01, 1.44784555e-01, 2.15292647e-01,
          3.75321209e-01, 3.75321209e-01, 3.56199622e-01, 3.75321209e-01,
          3.75321209e-01, 2.39153579e-01, 1.56961933e-01, 1.09948538e-01,
          4.74003136e-01, 4.74003136e-01, 4.85420451e-02, 1.65287536e-02,
          4.74003136e-01, 4.74003136e-01, 4.96568292e-01, 3.53379734e-02,
          4.67054322e-02, 3.18871766e-01, 4.96568292e-01, 3.68558317e-01,
          5.80261797e-02, 1.04826383e-01, 4.96568292e-01, 4.69001353e-01,
          4.63835359e-01, 5.86108193e-02, 5.21212630e-02, 4.69001353e-01,
          4.69001353e-01, 1.76258877e-01, 1.91369340e-01, 2.15509504e-01 ]
      - [ 6.72318339e-02, 1.15806103e-01, 1.36244431e-01, 4.08434361e-01,
          3.54024023e-01, 4.08434361e-01, 4.08434361e-01, 4.08434361e-01,
          4.08434361e-01, 3.53068560e-01, 3.53068560e-01, 3.53068560e-01,
          3.53068560e-01, 3.53068560e-01, 3.53068560e-01, 3.53068560e-01,
          2.36617073e-01, 2.60543436e-01, 3.71850193e-01, 2.53849298e-01,
          3.71850193e-01, 3.71850193e-01, 3.71850193e-01, 3.71850193e-01,
          3.41084987e-01, 9.99018624e-02, 3.37880760e-01, 1.41349003e-01,
          4.26511765e-01, 4.26511765e-01, 1.85244992e-01, 1.38367072e-01,
          4.26511765e-01, 4.26511765e-01, 4.26511765e-01, 1.12859078e-01,
          3.66114825e-01, 3.66114825e-01, 3.66114825e-01, 3.35346848e-01,
          1.56259000e-01, 2.43556410e-01, 3.60482454e-01, 3.66114825e-01,
          3.66114825e-01, 6.48264140e-02, 3.87217879e-01, 3.87217879e-01,
          3.87217879e-01, 1.60825446e-01, 2.57755995e-01, 3.87217879e-01,
          3.87217879e-01, 3.87217879e-01, 2.19863746e-02, 3.77295673e-01,
          5.05929947e-01, 2.06295013e-01, 3.00274752e-02, 2.00835079e-01,
          5.05929947e-01, 5.05929947e-01, 2.05497332e-02, 6.43001646e-02,
          4.57292646e-01, 4.57292646e-01, 3.50427955e-01, 3.15894596e-02,
          6.27723634e-02, 4.57292646e-01, 4.57292646e-01, 1.64601445e-01,
          1.69103473e-01, 1.88202754e-01, 4.23570693e-01, 4.23570693e-01,
          1.67402014e-01, 8.16599429e-02, 4.23570693e-01, 4.23570693e-01,
          4.23570693e-01, 2.19863746e-02, 3.77295673e-01, 5.05929947e-01,
          2.06295013e-01, 3.00274752e-02, 2.00835079e-01, 5.05929947e-01,
          5.05929947e-01, 2.05497332e-02, 6.43001646e-02, 4.57292646e-01,
          4.57292646e-01, 3.50427955e-01, 3.15894596e-02, 6.27723634e-02,
          4.57292646e-01, 4.57292646e-01, 1.64601445e-01, 1.69103473e-01,
          1.88202754e-01, 4.23570693e-01, 4.23570693e-01, 1.67402014e-01,
          8.16599429e-02, 4.23570693e-01, 4.23570693e-01, 4.23570693e-01,
          5.34034707e-02, 5.10980338e-02, 4.25290495e-01, 4.25290495e-01,
          9.49348435e-02, 2.97494948e-01, 4.25290495e-01, 4.25290495e-01,
          4.11442488e-01, 3.34558636e-02, 4.87901196e-02, 5.34596860e-01,
          5.34596860e-01, 6.38448000e-02, 1.47772944e-02, 9.52436775e-02,
          5.34596860e-01, 3.47007602e-01, 4.47682470e-01, 4.44692783e-02,
          9.38490927e-02, 4.47682470e-01, 3.98844600e-01, 4.49282154e-02,
          1.48220018e-01, 4.47682470e-01, 4.47682470e-01, 5.06122522e-02,
          3.97078604e-01, 3.97078604e-01, 2.43495435e-01, 2.73103833e-01,
          3.97078604e-01, 3.97078604e-01, 3.97078604e-01, 2.66905755e-01,
          8.42232704e-02, 3.24848235e-01, 3.22538495e-01, 4.97669846e-01,
          1.85182273e-01, 1.28571810e-02, 2.99135968e-02, 4.97669846e-01,
          4.97669846e-01, 9.73230228e-02, 9.19771474e-03, 1.71994921e-02,
          5.45686722e-01, 5.45686722e-01, 3.33955362e-02, 1.34024611e-02,
          3.00135732e-01, 5.45686722e-01, 3.71850193e-01, 2.53849298e-01,
          3.71850193e-01, 3.71850193e-01, 3.71850193e-01, 3.71850193e-01,
          3.41084987e-01, 9.99018624e-02, 3.37880760e-01, 5.37908554e-01,
          4.03156653e-02, 2.17747748e-01, 4.24449533e-01, 3.70004863e-01,
          2.86781695e-02, 8.33235122e-03, 2.21234471e-01, 5.37908554e-01,
          2.65773758e-02, 1.36877419e-02, 1.24659739e-01, 5.42003989e-01,
          3.02525967e-01, 4.05867398e-03, 7.28718564e-02, 5.42003989e-01,
          5.42003989e-01, 6.48264140e-02, 3.87217879e-01, 3.87217879e-01,
          3.87217879e-01, 1.60825446e-01, 2.57755995e-01, 3.87217879e-01,
          3.87217879e-01, 3.87217879e-01, 1.11416951e-01, 4.19099808e-01,
          5.68898380e-01, 5.68898380e-01, 1.62665486e-01, 3.89629304e-02,
          6.99618310e-02, 1.13359727e-01, 3.36521626e-01, 3.52158062e-02,
          1.53139438e-02, 1.14461459e-01, 3.35674793e-01, 6.24043569e-02,
          3.56040187e-02, 2.82971591e-01, 6.25008464e-01, 6.25008464e-01,
          1.69103473e-01, 1.88202754e-01, 4.23570693e-01, 4.23570693e-01,
          1.67402014e-01, 8.16599429e-02, 4.23570693e-01, 4.23570693e-01,
          4.23570693e-01, 3.98301423e-01, 9.68120992e-02, 2.47913271e-01,
          4.92485851e-01, 4.92485851e-01, 1.21412918e-01, 1.23179980e-01,
          8.97894502e-02, 4.92485851e-01, 1.55105293e-01, 1.82958990e-01,
          3.25726390e-01, 4.52431589e-01, 4.52431589e-01, 2.98506856e-01,
          4.52431589e-01, 3.22359383e-01, 1.57310411e-01, 1.69103473e-01,
          1.88202754e-01, 4.23570693e-01, 4.23570693e-01, 1.67402014e-01,
          8.16599429e-02, 4.23570693e-01, 4.23570693e-01, 4.23570693e-01,
          3.98301423e-01, 9.68120992e-02, 2.47913271e-01, 4.92485851e-01,
          4.92485851e-01, 1.21412918e-01, 1.23179980e-01, 8.97894502e-02,
          4.92485851e-01, 1.55105293e-01, 1.82958990e-01, 3.25726390e-01,
          4.52431589e-01, 4.52431589e-01, 2.98506856e-01, 4.52431589e-01,
          3.22359383e-01, 1.57310411e-01, 4.47682470e-01, 4.44692783e-02,
          9.38490927e-02, 4.47682470e-01, 3.98844600e-01, 4.49282154e-02,
          1.48220018e-01, 4.47682470e-01, 4.47682470e-01, 4.88308519e-01,
          9.76048931e-02, 3.81874405e-02, 2.42829293e-01, 4.44495767e-01,
          1.96814358e-01, 2.40225643e-02, 4.59773719e-01, 4.88308519e-01,
          3.29145551e-01, 3.40672344e-01, 2.98857689e-01, 3.20308447e-01,
          3.40672344e-01, 3.40672344e-01, 3.40672344e-01, 3.40672344e-01,
          3.40672344e-01, 9.73230228e-02, 9.19771474e-03, 1.71994921e-02,
          5.45686722e-01, 5.45686722e-01, 3.33955362e-02, 1.34024611e-02,
          3.00135732e-01, 5.45686722e-01, 5.18030941e-01, 5.75846657e-02,
          6.45148288e-03, 1.95799962e-01, 5.18030941e-01, 5.18030941e-01,
          1.21543417e-02, 5.11055253e-02, 3.81187081e-01, 4.47885901e-01,
          4.47885901e-01, 3.61600406e-02, 5.38510531e-02, 4.47885901e-01,
          4.47885901e-01, 3.22794199e-01, 2.22977266e-01, 1.87073573e-01 ]
      - [ 1.69176757e-01, 3.53982270e-01, 4.72410738e-01, 4.72410738e-01,
          2.18222365e-01, 2.13143259e-01, 4.72410738e-01, 2.40096420e-01,
          1.45410582e-01, 1.89332008e-01, 2.82265633e-01, 4.20743197e-01,
          4.20743197e-01, 9.06474218e-02, 4.42494154e-02, 4.20743197e-01,
          4.20743197e-01, 4.02494878e-01, 3.66013139e-01, 3.66013139e-01,
          3.66013139e-01, 1.99365973e-01, 3.00178736e-01, 2.50391096e-01,
          3.66013139e-01, 3.66013139e-01, 3.66013139e-01, 1.76628113e-01,
          2.35111922e-01, 5.10128438e-01, 2.76245832e-01, 7.29426220e-02,
          5.77891171e-02, 5.10128438e-01, 5.10128438e-01, 2.06797630e-01,
          3.89801979e-01, 1.80065602e-01, 5.04288256e-01, 5.04288256e-01,
          5.04288256e-01, 9.66118649e-02, 9.52642690e-03, 6.63177371e-02,
          1.83988571e-01, 4.42417443e-01, 7.27514252e-02, 7.90874660e-02,
          4.42417443e-01, 4.42417443e-01, 4.42417443e-01, 1.41190803e-02,
          7.18871057e-02, 4.42417443e-01, 2.51388282e-01, 3.91401142e-01,
          3.91401142e-01, 1.79429948e-01, 3.63202602e-01, 5.29939793e-02,
          3.91401142e-01, 3.91401142e-01, 3.91401142e-01, 5.39328039e-01,
          5.39328039e-01, 3.86544198e-01, 2.32585389e-02, 1.63661346e-01,
          4.54213560e-01, 1.40915379e-01, 2.28473470e-02, 9.71250236e-02,
          4.68796730e-01, 2.49548003e-01, 3.64334625e-03, 2.27374956e-01,
          4.68796730e-01, 4.68796730e-01, 3.36405635e-02, 3.34270746e-02,
          4.68796730e-01, 2.51388282e-01, 3.91401142e-01, 3.91401142e-01,
          1.79429948e-01, 3.63202602e-01, 5.29939793e-02, 3.91401142e-01,
          3.91401142e-01, 3.91401142e-01, 5.39328039e-01, 5.39328039e-01,
          3.86544198e-01, 2.32585389e-02, 1.63661346e-01, 4.54213560e-01,
          1.40915379e-01, 2.28473470e-02, 9.71250236e-02, 4.68796730e-01,
          2.49548003e-01, 3.64334625e-03, 2.27374956e-01, 4.68796730e-01,
          4.68796730e-01, 3.36405635e-02, 3.34270746e-02, 4.68796730e-01,
          1.33875921e-01, 3.98144335e-01, 3.98144335e-01, 3.98144335e-01,
          1.91693813e-01, 2.92124525e-02, 3.84584814e-01, 3.98144335e-01,
          3.98144335e-01, 9.54148322e-02, 4.34239149e-01, 4.34239149e-01,
          1.46329328e-01, 5.68100698e-02, 4.34239149e-01, 4.34239149e-01,
          4.34239149e-01, 1.38204202e-01, 1.74293518e-01, 3.88392434e-02,
          1.05074281e-02, 2.49842092e-01, 4.24579918e-01, 4.24579918e-01,
          4.24579918e-01, 4.24579918e-01, 4.24579918e-01, 1.22629508e-01,
          1.40619919e-01, 4.54686135e-01, 4.54686135e-01, 3.33711863e-01,
          5.16612940e-02, 1.40199855e-01, 4.54686135e-01, 4.54686135e-01,
          5.54583184e-02, 1.03239797e-01, 4.85911429e-01, 4.85911429e-01,
          1.49602190e-01, 1.27301095e-02, 1.20125763e-01, 4.85911429e-01,
          4.85911429e-01, 4.56567734e-01, 1.51714049e-02, 3.68965864e-02,
          4.56567734e-01, 4.56567734e-01, 5.40177338e-02, 3.53807546e-02,
          3.94793421e-01, 4.56567734e-01, 3.66013139e-01, 3.66013139e-01,
          3.66013139e-01, 1.99365973e-01, 3.00178736e-01, 2.50391096e-01,
          3.66013139e-01, 3.66013139e-01, 3.66013139e-01, 3.76953751e-01,
          3.76953751e-01, 3.76953751e-01, 2.28514254e-01, 1.19939633e-01,
          2.77605861e-01, 3.76953751e-01, 3.76953751e-01, 3.76953751e-01,
          9.83560532e-02, 2.97483712e-01, 4.04211670e-01, 5.47551215e-02,
          1.44835375e-02, 4.93316621e-01, 4.93316621e-01, 4.93316621e-01,
          1.49513502e-02, 4.42417443e-01, 7.27514252e-02, 7.90874660e-02,
          4.42417443e-01, 4.42417443e-01, 4.42417443e-01, 1.41190803e-02,
          7.18871057e-02, 4.42417443e-01, 3.80977631e-01, 7.20415041e-02,
          4.19260971e-02, 4.44986254e-01, 4.44986254e-01, 4.44986254e-01,
          1.71297163e-01, 1.48558319e-01, 4.44986254e-01, 9.15321931e-02,
          5.98851591e-02, 3.30731943e-02, 1.46945613e-02, 3.91631901e-01,
          5.65672100e-01, 5.65672100e-01, 4.12117034e-01, 1.33757785e-01,
          4.68796730e-01, 2.49548003e-01, 3.64334625e-03, 2.27374956e-01,
          4.68796730e-01, 4.68796730e-01, 3.36405635e-02, 3.34270746e-02,
          4.68796730e-01, 3.11957628e-01, 5.98320179e-03, 7.86157399e-02,
          4.70820010e-01, 4.70820010e-01, 5.40378504e-02, 4.64499630e-02,
          4.70820010e-01, 4.70820010e-01, 7.26057142e-02, 2.70595700e-02,
          9.21254531e-02, 1.63039863e-01, 4.40318957e-02, 3.43276002e-02,
          5.26694477e-01, 5.79919040e-01, 5.79919040e-01, 4.68796730e-01,
          2.49548003e-01, 3.64334625e-03, 2.27374956e-01, 4.68796730e-01,
          4.68796730e-01, 3.36405635e-02, 3.34270746e-02, 4.68796730e-01,
          3.11957628e-01, 5.98320179e-03, 7.86157399e-02, 4.70820010e-01,
          4.70820010e-01, 5.40378504e-02, 4.64499630e-02, 4.70820010e-01,
          4.70820010e-01, 7.26057142e-02, 2.70595700e-02, 9.21254531e-02,
          1.63039863e-01, 4.40318957e-02, 3.43276002e-02, 5.26694477e-01,
          5.79919040e-01, 5.79919040e-01, 1.74293518e-01, 3.88392434e-02,
          1.05074281e-02, 2.49842092e-01, 4.24579918e-01, 4.24579918e-01,
          4.24579918e-01, 4.24579918e-01, 4.24579918e-01, 2.84115970e-01,
          4.16348845e-01, 4.16348845e-01, 4.16348845e-01, 4.16348845e-01,
          6.71643913e-02, 2.29298040e-01, 3.82100791e-01, 1.36542335e-01,
          6.21913783e-02, 2.64443457e-01, 5.21526992e-01, 1.73638999e-01,
          7.52357207e-03, 2.19904035e-01, 5.21526992e-01, 5.21526992e-01,
          1.62656948e-01, 4.56567734e-01, 1.51714049e-02, 3.68965864e-02,
          4.56567734e-01, 4.56567734e-01, 5.40177338e-02, 3.53807546e-02,
          3.94793421e-01, 4.56567734e-01, 4.16220516e-01, 4.16220516e-01,
          1.92150846e-01, 2.61919815e-02, 4.16220516e-01, 4.16220516e-01,
          3.02464962e-01, 2.34836452e-02, 4.16220516e-01, 4.75967735e-01,
          4.75967735e-01, 1.82413653e-01, 1.72474775e-02, 1.14316940e-01,
          4.75967735e-01, 4.75967735e-01, 1.93722039e-01, 6.99720308e-02 ]
      - [ 4.45351511e-01, 4.45351511e-01, 3.50384176e-01, 2.21433444e-03,
          8.96541402e-02, 2.65729606e-01, 4.45351511e-01, 2.94457138e-01,
          3.35273594e-01, 4.50374037e-01, 4.50374037e-01, 4.30708140e-01,
          9.35994647e-03, 1.96985632e-01, 4.50374037e-01, 3.08622539e-01,
          1.08950930e-02, 2.59276092e-01, 1.13101505e-01, 2.34407097e-01,
          1.44312173e-01, 1.84831157e-01, 5.17073572e-01, 5.17073572e-01,
          5.17073572e-01, 2.39854217e-01, 1.11729592e-01, 4.30143565e-01,
          4.81682122e-01, 1.72529936e-01, 3.97622306e-03, 1.67347156e-02,
          4.81682122e-01, 4.81682122e-01, 2.62308359e-01, 1.23468354e-01,
          1.26088768e-01, 5.08574188e-01, 2.82665998e-01, 4.19023819e-02,
          1.40634388e-01, 5.55170178e-01, 5.55170178e-01, 3.66551764e-02,
          2.65449751e-02, 2.79285431e-01, 3.78321052e-01, 1.32302403e-01,
          2.82427877e-01, 3.36523414e-01, 3.78321052e-01, 3.78321052e-01,
          3.78321052e-01, 3.67689073e-01, 1.09420851e-01, 5.03332376e-01,
          2.68690258e-01, 7.61379534e-03, 1.74071789e-02, 5.72720468e-01,
          5.72720468e-01, 1.36604533e-02, 1.43212359e-02, 3.86741251e-01,
          4.27803338e-01, 3.43559712e-01, 4.57921065e-02, 1.30192131e-01,
          4.27803338e-01, 4.27803338e-01, 1.56212166e-01, 3.68277371e-01,
          3.88250321e-01, 3.88250321e-01, 3.88250321e-01, 1.80073097e-01,
          2.08535865e-01, 3.37842256e-01, 2.28864238e-01, 3.88250321e-01,
          3.88250321e-01, 1.09420851e-01, 5.03332376e-01, 2.68690258e-01,
          7.61379534e-03, 1.74071789e-02, 5.72720468e-01, 5.72720468e-01,
          1.36604533e-02, 1.43212359e-02, 3.86741251e-01, 4.27803338e-01,
          3.43559712e-01, 4.57921065e-02, 1.30192131e-01, 4.27803338e-01,
          4.27803338e-01, 1.56212166e-01, 3.68277371e-01, 3.88250321e-01,
          3.88250321e-01, 3.88250321e-01, 1.80073097e-01, 2.08535865e-01,
          3.37842256e-01, 2.28864238e-01, 3.88250321e-01, 3.88250321e-01,
          8.97300690e-02, 4.94655699e-01, 4.94655699e-01, 7.03854710e-02,
          5.17944880e-02, 4.94655699e-01, 4.94655699e-01, 2.44216267e-02,
          6.15304196e-03, 1.90563023e-01, 5.33210039e-01, 5.33210039e-01,
          3.08951855e-01, 1.18699424e-01, 2.64154822e-01, 3.84165615e-01,
          1.91547394e-01, 1.61686882e-01, 1.57709464e-01, 4.14514571e-01,
          4.33074296e-01, 3.28667998e-01, 1.56037793e-01, 9.35105085e-02,
          4.33074296e-01, 4.18963104e-01, 3.27456862e-01, 4.24217850e-01,
          4.55941170e-01, 4.55941170e-01, 1.53212607e-01, 1.82975605e-01,
          4.55941170e-01, 3.61520201e-01, 6.02984242e-02, 2.34761816e-02,
          4.13096875e-01, 4.80406344e-01, 4.80406344e-01, 1.61618054e-01,
          5.44631034e-02, 2.05231570e-02, 1.01432502e-01, 3.03949833e-01,
          4.80406344e-01, 5.36702514e-01, 5.36702514e-01, 2.84662843e-01,
          1.35860711e-01, 6.93736300e-02, 3.73942219e-02, 8.14208835e-02,
          1.34759486e-01, 5.36702514e-01, 1.13101505e-01, 2.34407097e-01,
          1.44312173e-01, 1.84831157e-01, 5.17073572e-01, 5.17073572e-01,
          5.17073572e-01, 2.39854217e-01, 1.11729592e-01, 1.45771444e-01,
          4.64446634e-01, 1.85656518e-01, 4.64446634e-01, 4.64446634e-01,
          2.70192534e-01, 3.48118067e-01, 2.65982896e-01, 1.66054457e-01,
          7.63699934e-02, 2.89331436e-01, 4.92216885e-01, 5.48345089e-01,
          5.48345089e-01, 4.25563343e-02, 8.46800134e-02, 2.11071759e-01,
          8.83394703e-02, 2.79285431e-01, 3.78321052e-01, 1.32302403e-01,
          2.82427877e-01, 3.36523414e-01, 3.78321052e-01, 3.78321052e-01,
          3.78321052e-01, 3.67689073e-01, 3.45485866e-01, 3.62141103e-01,
          3.62141103e-01, 1.61389276e-01, 3.62141103e-01, 3.62141103e-01,
          3.62141103e-01, 3.28623325e-01, 2.95382321e-01, 3.47680360e-01,
          3.73349965e-01, 3.73349965e-01, 3.73349965e-01, 2.92159557e-01,
          3.25242013e-01, 3.73349965e-01, 2.84060955e-01, 2.14470148e-01,
          3.88250321e-01, 3.88250321e-01, 3.88250321e-01, 1.80073097e-01,
          2.08535865e-01, 3.37842256e-01, 2.28864238e-01, 3.88250321e-01,
          3.88250321e-01, 3.70819062e-01, 3.70819062e-01, 3.70819062e-01,
          3.18265676e-01, 2.27945507e-01, 1.34173110e-01, 3.70819062e-01,
          3.70819062e-01, 3.70819062e-01, 4.15186971e-01, 4.15186971e-01,
          4.15186971e-01, 1.36602968e-01, 4.28507216e-02, 6.95716888e-02,
          4.15186971e-01, 4.15186971e-01, 3.29567224e-01, 3.88250321e-01,
          3.88250321e-01, 3.88250321e-01, 1.80073097e-01, 2.08535865e-01,
          3.37842256e-01, 2.28864238e-01, 3.88250321e-01, 3.88250321e-01,
          3.70819062e-01, 3.70819062e-01, 3.70819062e-01, 3.18265676e-01,
          2.27945507e-01, 1.34173110e-01, 3.70819062e-01, 3.70819062e-01,
          3.70819062e-01, 4.15186971e-01, 4.15186971e-01, 4.15186971e-01,
          1.36602968e-01, 4.28507216e-02, 6.95716888e-02, 4.15186971e-01,
          4.15186971e-01, 3.29567224e-01, 1.57709464e-01, 4.14514571e-01,
          4.33074296e-01, 3.28667998e-01, 1.56037793e-01, 9.35105085e-02,
          4.33074296e-01, 4.18963104e-01, 3.27456862e-01, 1.64241850e-01,
          2.63782501e-01, 4.79664564e-01, 3.38502526e-01, 6.52641654e-02,
          1.43188059e-01, 4.79664564e-01, 4.79664564e-01, 2.62815505e-01,
          1.33672208e-01, 3.03284854e-01, 4.47548389e-01, 4.47548389e-01,
          1.24733567e-01, 2.77774245e-01, 4.47548389e-01, 4.19287056e-01,
          1.27523363e-01, 5.36702514e-01, 5.36702514e-01, 2.84662843e-01,
          1.35860711e-01, 6.93736300e-02, 3.73942219e-02, 8.14208835e-02,
          1.34759486e-01, 5.36702514e-01, 6.02539599e-01, 2.15368569e-01,
          2.18076915e-01, 9.62059721e-02, 3.84362787e-02, 8.05030540e-02,
          1.38537094e-01, 3.70848358e-01, 6.02539599e-01, 4.93768990e-01,
          4.93768990e-01, 1.35223895e-01, 1.02861419e-01, 4.49824184e-02,
          1.27718225e-01, 2.53104687e-01, 3.90360981e-01, 4.93768990e-01 ]
      - [ 5.37091911e-01, 5.37091911e-01, 7.49584064e-02, 2.13262662e-02,
          7.82114118e-02, 5.37091911e-01, 3.36333185e-01, 1.06591433e-02,
          6.17162623e-02, 1.48108736e-01, 4.81421918e-01, 4.81421918e-01,
          8.15917999e-02, 4.81421918e-01, 4.81421918e-01, 1.93412438e-01,
          2.99702194e-02, 3.49769369e-02, 4.92452741e-01, 5.81261814e-01,
          5.81261814e-01, 1.76108554e-02, 6.20354041e-02, 2.31206901e-02,
          6.80381581e-02, 2.71651149e-02, 2.56700963e-01, 3.02411079e-01,
          3.65544111e-01, 1.70322761e-01, 9.38202739e-02, 7.75941759e-02,
          5.96314371e-01, 5.96314371e-01, 7.82434791e-02, 8.85108933e-02,
          7.81982541e-02, 6.75230205e-01, 6.75230205e-01, 2.65961021e-01,
          5.16302325e-02, 4.19466011e-02, 4.61703353e-03, 3.60130053e-03,
          8.82155728e-03, 1.33649698e-02, 5.79472721e-01, 7.80738652e-01,
          2.15006202e-01, 3.88716860e-03, 8.89790989e-03, 3.62344552e-03,
          7.34961033e-03, 1.72852166e-02, 8.68035555e-02, 8.85922611e-02,
          3.94068778e-01, 3.06553036e-01, 3.24061126e-01, 1.75520286e-01,
          5.40795267e-01, 5.40795267e-01, 9.59634259e-02, 2.45161057e-02,
          3.52784395e-01, 6.65967047e-01, 6.34726524e-01, 1.44707426e-01,
          6.76388806e-03, 1.77033397e-03, 1.77797303e-02, 2.44638901e-02,
          2.61170277e-03, 6.62424624e-01, 7.41522372e-01, 6.07742071e-02,
          2.63218908e-03, 4.65023145e-03, 9.54814255e-03, 7.38282129e-03,
          7.88307376e-03, 8.68035555e-02, 8.85922611e-02, 3.94068778e-01,
          3.06553036e-01, 3.24061126e-01, 1.75520286e-01, 5.40795267e-01,
          5.40795267e-01, 9.59634259e-02, 2.45161057e-02, 3.52784395e-01,
          6.65967047e-01, 6.34726524e-01, 1.44707426e-01, 6.76388806e-03,
          1.77033397e-03, 1.77797303e-02, 2.44638901e-02, 2.61170277e-03,
          6.62424624e-01, 7.41522372e-01, 6.07742071e-02, 2.63218908e-03,
          4.65023145e-03, 9.54814255e-03, 7.38282129e-03, 7.88307376e-03,
          2.85276789e-02, 2.38052700e-02, 2.02014998e-01, 3.95640582e-01,
          3.39752525e-01, 1.67686455e-02, 4.76377577e-01, 4.76377577e-01,
          4.76377577e-01, 8.84208363e-03, 5.21902740e-01, 5.91514766e-01,
          5.91514766e-01, 1.46652952e-01, 0., 4.49549640e-03,
          1.57817975e-02, 8.79648235e-03, 1.06494280e-03, 6.61390841e-01,
          7.43832767e-01, 4.25684527e-02, 2.65951664e-03, 1.21549820e-03,
          1.26621919e-03, 2.60497141e-03, 4.53254161e-03, 8.37976336e-02,
          5.27946539e-02, 4.91159767e-01, 4.91159767e-01, 5.27905114e-02,
          2.63314899e-02, 1.29820049e-01, 4.91159767e-01, 4.91159767e-01,
          3.34775984e-01, 1.95534334e-01, 4.95222956e-01, 3.26939881e-01,
          1.50510864e-02, 1.69166327e-02, 4.00702953e-02, 4.95222956e-01,
          4.95222956e-01, 3.99646908e-02, 5.29678941e-01, 7.89024532e-01,
          2.72669882e-01, 9.37118605e-02, 1.38263432e-02, 1.24824438e-02,
          1.30476356e-02, 6.13246709e-02, 4.92452741e-01, 5.81261814e-01,
          5.81261814e-01, 1.76108554e-02, 6.20354041e-02, 2.31206901e-02,
          6.80381581e-02, 2.71651149e-02, 2.56700963e-01, 3.16407442e-01,
          3.11148986e-02, 5.84040321e-02, 1.74791291e-02, 7.24443272e-02,
          2.42860764e-02, 5.96005142e-01, 5.96005142e-01, 4.15894538e-01,
          7.13957846e-03, 1.92243066e-02, 1.61409006e-01, 4.89093125e-01,
          4.89093125e-01, 8.79405960e-02, 4.89093125e-01, 4.89093125e-01,
          6.37159795e-02, 1.33649698e-02, 5.79472721e-01, 7.80738652e-01,
          2.15006202e-01, 3.88716860e-03, 8.89790989e-03, 3.62344552e-03,
          7.34961033e-03, 1.72852166e-02, 1.29050119e-02, 4.87167798e-02,
          1.40693352e-01, 1.47783924e-02, 1.19783971e-02, 8.37656949e-03,
          6.96402192e-01, 6.96402192e-01, 1.81562603e-02, 1.29768634e-02,
          4.74543078e-03, 1.24562141e-02, 1.64994085e-03, 1.32446717e-02,
          6.27855882e-02, 7.02804148e-01, 7.02804148e-01, 2.55068801e-02,
          2.61170277e-03, 6.62424624e-01, 7.41522372e-01, 6.07742071e-02,
          2.63218908e-03, 4.65023145e-03, 9.54814255e-03, 7.38282129e-03,
          7.88307376e-03, 1.21125663e-02, 8.50785747e-02, 2.15996116e-01,
          0., 3.24489153e-03, 1.54538257e-02, 6.85077667e-01,
          6.85077667e-01, 1.44722825e-02, 3.40243778e-03, 2.03725952e-03,
          2.12329882e-03, 4.06188564e-03, 1.74391866e-02, 1.39787406e-01,
          6.97546422e-01, 6.97546422e-01, 3.66863911e-03, 2.61170277e-03,
          6.62424624e-01, 7.41522372e-01, 6.07742071e-02, 2.63218908e-03,
          4.65023145e-03, 9.54814255e-03, 7.38282129e-03, 7.88307376e-03,
          1.21125663e-02, 8.50785747e-02, 2.15996116e-01, 0.,
          3.24489153e-03, 1.54538257e-02, 6.85077667e-01, 6.85077667e-01,
          1.44722825e-02, 3.40243778e-03, 2.03725952e-03, 2.12329882e-03,
          4.06188564e-03, 1.74391866e-02, 1.39787406e-01, 6.97546422e-01,
          6.97546422e-01, 3.66863911e-03, 1.06494280e-03, 6.61390841e-01,
          7.43832767e-01, 4.25684527e-02, 2.65951664e-03, 1.21549820e-03,
          1.26621919e-03, 2.60497141e-03, 4.53254161e-03, 6.83213444e-03,
          6.87415451e-02, 3.78935367e-01, 2.60774465e-03, 1.28881587e-02,
          1.07678287e-02, 6.49866939e-01, 6.49866939e-01, 1.43202953e-02,
          3.50868772e-03, 4.29917779e-03, 1.74168893e-03, 2.29600985e-02,
          1.38976544e-01, 9.23812166e-02, 6.94466412e-01, 6.94466412e-01,
          9.50808357e-03, 3.99646908e-02, 5.29678941e-01, 7.89024532e-01,
          2.72669882e-01, 9.37118605e-02, 1.38263432e-02, 1.24824438e-02,
          1.30476356e-02, 6.13246709e-02, 1.17630409e-02, 8.74671638e-02,
          4.86103296e-01, 5.71140796e-02, 4.86103296e-01, 1.96791127e-01,
          4.86103296e-01, 4.86103296e-01, 1.34721948e-02, 4.89711046e-01,
          1.21638373e-01, 1.52344676e-02, 2.79963692e-03, 5.89114390e-02,
          1.23692207e-01, 5.95732212e-01, 5.95732212e-01, 1.03125483e-01 ]
      - [ 1.62477061e-01, 4.83634144e-01, 4.83634144e-01, 3.63842584e-02,
          2.77522597e-02, 1.34811725e-03, 4.83634144e-01, 4.83634144e-01,
          1.76258475e-01, 4.24156338e-01, 4.24156338e-01, 4.24156338e-01,
          4.24156338e-01, 3.09291601e-01, 1.65738594e-02, 6.07118290e-03,
          1.57205965e-02, 4.24156338e-01, 3.14317614e-01, 2.95447409e-01,
          4.18936670e-01, 4.85149533e-01, 4.85149533e-01, 2.49893934e-01,
          8.26020688e-02, 1.68335333e-01, 2.55371869e-01, 1.83765501e-01,
          5.32649696e-01, 5.32649696e-01, 2.63725668e-02, 1.25473309e-02,
          8.65597799e-02, 5.32649696e-01, 2.25723103e-01, 2.24648640e-01,
          5.41800380e-01, 5.41800380e-01, 3.35061222e-01, 3.03290058e-02,
          1.36192646e-02, 2.91993096e-03, 3.11288750e-03, 2.36001499e-02,
          5.41800380e-01, 6.52560472e-01, 4.78672571e-02, 9.26469117e-02,
          1.38956651e-01, 1.24991052e-01, 5.11165895e-02, 4.76335958e-02,
          3.01871449e-01, 6.52560472e-01, 2.84695420e-02, 5.96936166e-01,
          5.96936166e-01, 1.57218814e-01, 5.49451709e-02, 1.34646401e-01,
          4.77651358e-01, 7.75561705e-02, 2.30509024e-02, 4.11393225e-01,
          4.11393225e-01, 4.11393225e-01, 3.86352181e-01, 4.11393225e-01,
          2.00099368e-02, 0., 0., 4.11393225e-01, 5.36038280e-01,
          3.31086963e-02, 3.95627739e-03, 3.62655163e-01, 5.36038280e-01,
          2.27216026e-03, 0., 0., 5.36038280e-01, 2.84695420e-02,
          5.96936166e-01, 5.96936166e-01, 1.57218814e-01, 5.49451709e-02,
          1.34646401e-01, 4.77651358e-01, 7.75561705e-02, 2.30509024e-02,
          4.11393225e-01, 4.11393225e-01, 4.11393225e-01, 3.86352181e-01,
          4.11393225e-01, 2.00099368e-02, 0., 0., 4.11393225e-01,
          5.36038280e-01, 3.31086963e-02, 3.95627739e-03, 3.62655163e-01,
          5.36038280e-01, 2.27216026e-03, 0., 0., 5.36038280e-01,
          4.45098132e-01, 4.45098132e-01, 4.45098132e-01, 3.41459632e-01,
          1.45228073e-01, 1.49004743e-01, 9.30062309e-02, 1.85919598e-01,
          4.45098132e-01, 2.99304783e-01, 8.23464692e-02, 4.71509069e-01,
          4.72644180e-01, 5.35618246e-01, 2.23738164e-01, 0.,
          1.49606578e-02, 3.39711428e-01, 3.28435838e-01, 4.12177108e-02,
          5.15701249e-02, 6.42453909e-01, 6.42453909e-01, 9.71616153e-03,
          0., 1.45694369e-03, 2.36149937e-01, 5.74711144e-01,
          2.30102077e-01, 1.01159886e-01, 9.45999548e-02, 4.30332452e-01,
          1.00046188e-01, 4.61247675e-02, 2.53423005e-01, 5.74711144e-01,
          5.64526618e-01, 7.05607384e-02, 2.89883576e-02, 1.19283803e-01,
          5.64526618e-01, 1.33034781e-01, 0., 2.33620089e-02,
          5.64526618e-01, 5.74501991e-01, 5.48041388e-02, 1.45696014e-01,
          3.58691543e-01, 4.13439840e-01, 7.36142918e-02, 2.37854030e-02,
          6.59578145e-02, 5.74501991e-01, 3.14317614e-01, 2.95447409e-01,
          4.18936670e-01, 4.85149533e-01, 4.85149533e-01, 2.49893934e-01,
          8.26020688e-02, 1.68335333e-01, 2.55371869e-01, 3.82057071e-01,
          4.18548360e-02, 2.16469258e-01, 5.13362348e-01, 5.13362348e-01,
          4.69490103e-02, 6.39557764e-02, 5.81144094e-02, 5.13362348e-01,
          4.78806734e-01, 5.83612472e-02, 8.06177482e-02, 4.78806734e-01,
          4.78806734e-01, 9.49380100e-02, 1.23522557e-01, 2.09804356e-01,
          4.78806734e-01, 6.52560472e-01, 4.78672571e-02, 9.26469117e-02,
          1.38956651e-01, 1.24991052e-01, 5.11165895e-02, 4.76335958e-02,
          3.01871449e-01, 6.52560472e-01, 5.29858053e-01, 9.15248990e-02,
          2.03700379e-01, 5.29858053e-01, 2.99325943e-01, 2.71829311e-03,
          2.94912583e-03, 1.13917299e-01, 5.29858053e-01, 1.29024073e-01,
          8.48143175e-03, 3.27349938e-02, 4.89720106e-01, 4.89720106e-01,
          1.13114081e-01, 7.22498372e-02, 4.89720106e-01, 4.89720106e-01,
          5.36038280e-01, 3.31086963e-02, 3.95627739e-03, 3.62655163e-01,
          5.36038280e-01, 2.27216026e-03, 0., 0., 5.36038280e-01,
          5.47323942e-01, 6.26009132e-04, 0., 1.50762931e-01,
          5.47323942e-01, 4.07402478e-02, 5.72159095e-03, 2.67247856e-01,
          5.47323942e-01, 4.40180004e-01, 1.28656793e-02, 7.41488580e-03,
          8.50294679e-02, 1.92323118e-01, 3.50218490e-02, 4.70726937e-02,
          6.13285005e-01, 6.13285005e-01, 5.36038280e-01, 3.31086963e-02,
          3.95627739e-03, 3.62655163e-01, 5.36038280e-01, 2.27216026e-03,
          0., 0., 5.36038280e-01, 5.47323942e-01, 6.26009132e-04, 0.,
          1.50762931e-01, 5.47323942e-01, 4.07402478e-02, 5.72159095e-03,
          2.67247856e-01, 5.47323942e-01, 4.40180004e-01, 1.28656793e-02,
          7.41488580e-03, 8.50294679e-02, 1.92323118e-01, 3.50218490e-02,
          4.70726937e-02, 6.13285005e-01, 6.13285005e-01, 3.28435838e-01,
          4.12177108e-02, 5.15701249e-02, 6.42453909e-01, 6.42453909e-01,
          9.71616153e-03, 0., 1.45694369e-03, 2.36149937e-01,
          1.15345940e-01, 1.11753093e-02, 2.82307807e-02, 6.87168241e-01,
          6.87168241e-01, 2.32526790e-02, 5.01128845e-03, 7.88458213e-02,
          1.66525647e-01, 1.01422131e-01, 2.94849016e-02, 9.20892283e-02,
          6.58405960e-01, 6.58405960e-01, 1.00290224e-01, 1.02198690e-01,
          1.49225414e-01, 2.53027171e-01, 5.74501991e-01, 5.48041388e-02,
          1.45696014e-01, 3.58691543e-01, 4.13439840e-01, 7.36142918e-02,
          2.37854030e-02, 6.59578145e-02, 5.74501991e-01, 4.54836667e-01,
          1.40875410e-02, 4.55876030e-02, 4.50589448e-01, 3.25550109e-01,
          4.01852168e-02, 2.48841792e-01, 4.54836667e-01, 4.54836667e-01,
          1.00938104e-01, 0., 3.71188787e-03, 4.92414862e-01,
          4.92414862e-01, 2.21602768e-01, 7.21435845e-02, 4.50721830e-01,
          4.92414862e-01 ]
      - [ 4.35955465e-01, 7.40917772e-02, 3.05006206e-02, 1.02499746e-01,
          4.74010617e-01, 2.74969518e-01, 4.74010617e-01, 4.74010617e-01,
          1.96509361e-01, 4.60927010e-01, 2.92955011e-01, 4.60927010e-01,
          4.60927010e-01, 4.60927010e-01, 9.31094512e-02, 5.67611679e-03,
          3.30506600e-02, 2.23527789e-01, 1.23199195e-01, 6.49528950e-02,
          4.29775447e-01, 2.52252370e-01, 4.29775447e-01, 4.05004174e-01,
          4.29775447e-01, 4.29775447e-01, 9.91084278e-02, 5.14044225e-01,
          2.34995902e-01, 2.70276189e-01, 7.34122470e-02, 1.49726188e-02,
          1.37999905e-02, 3.47402632e-01, 5.14044225e-01, 4.60019946e-01,
          5.63257396e-01, 3.08206588e-01, 4.39885765e-01, 1.92291170e-01,
          7.22637028e-02, 1.19623177e-01, 4.66165617e-02, 1.12632953e-01,
          5.63257396e-01, 4.13904995e-01, 7.08818138e-02, 2.78883964e-01,
          3.01936328e-01, 4.02878344e-01, 1.78711072e-01, 3.37192118e-01,
          4.13904995e-01, 4.13904995e-01, 9.05328020e-02, 1.47721782e-01,
          5.00903189e-01, 4.39570606e-01, 3.96986865e-02, 5.94578460e-02,
          5.00903189e-01, 5.00903189e-01, 1.18042059e-01, 3.61447483e-01,
          1.68931752e-01, 3.75622153e-01, 3.75622153e-01, 2.49702841e-01,
          3.32830817e-01, 3.15546095e-01, 3.75622153e-01, 3.75622153e-01,
          1.79123387e-01, 9.25108194e-02, 4.30210590e-01, 4.30210590e-01,
          1.93081528e-01, 3.56389470e-02, 4.30210590e-01, 4.30210590e-01,
          4.19742614e-01, 9.05328020e-02, 1.47721782e-01, 5.00903189e-01,
          4.39570606e-01, 3.96986865e-02, 5.94578460e-02, 5.00903189e-01,
          5.00903189e-01, 1.18042059e-01, 3.61447483e-01, 1.68931752e-01,
          3.75622153e-01, 3.75622153e-01, 2.49702841e-01, 3.32830817e-01,
          3.15546095e-01, 3.75622153e-01, 3.75622153e-01, 1.79123387e-01,
          9.25108194e-02, 4.30210590e-01, 4.30210590e-01, 1.93081528e-01,
          3.56389470e-02, 4.30210590e-01, 4.30210590e-01, 4.19742614e-01,
          1.77647453e-02, 4.64235656e-02, 4.85561103e-01, 4.85561103e-01,
          9.13059860e-02, 1.22266542e-02, 4.85561103e-01, 4.85561103e-01,
          2.02768058e-01, 9.32077169e-02, 9.54939872e-02, 4.46247816e-01,
          4.46247816e-01, 4.46247816e-01, 7.14917853e-02, 2.92958170e-01,
          4.46247816e-01, 3.00419211e-01, 5.88283800e-02, 1.40685067e-01,
          3.99621695e-01, 3.29500705e-01, 5.22224903e-01, 2.42393926e-01,
          2.39135727e-01, 5.22224903e-01, 2.04657987e-01, 4.00766701e-01,
          3.05710375e-01, 4.00766701e-01, 4.00766701e-01, 8.78601596e-02,
          2.78892730e-05, 3.03692043e-01, 4.00766701e-01, 4.00166631e-01,
          1.73288852e-01, 2.68213786e-02, 1.05456039e-01, 8.52186605e-02,
          2.13020995e-01, 1.11847937e-01, 6.55384123e-01, 6.55384123e-01,
          1.65471509e-01, 3.90641272e-01, 3.33249688e-01, 3.90641272e-01,
          3.90641272e-01, 3.90641272e-01, 1.75661072e-01, 1.37706503e-01,
          2.68736422e-01, 3.90641272e-01, 1.23199195e-01, 6.49528950e-02,
          4.29775447e-01, 2.52252370e-01, 4.29775447e-01, 4.05004174e-01,
          4.29775447e-01, 4.29775447e-01, 9.91084278e-02, 1.40996322e-01,
          1.33018300e-01, 4.13738638e-01, 4.13738638e-01, 4.13738638e-01,
          1.64292455e-01, 4.13738638e-01, 4.13738638e-01, 2.74595648e-01,
          1.34895653e-01, 8.27310234e-02, 5.39606690e-01, 5.39606690e-01,
          7.23400339e-02, 5.41121000e-03, 2.18810767e-01, 5.39606690e-01,
          2.07131460e-01, 4.13904995e-01, 7.08818138e-02, 2.78883964e-01,
          3.01936328e-01, 4.02878344e-01, 1.78711072e-01, 3.37192118e-01,
          4.13904995e-01, 4.13904995e-01, 4.04458970e-01, 7.08131269e-02,
          3.28115523e-01, 1.52508497e-01, 2.23732412e-01, 1.52810961e-01,
          4.55529839e-01, 4.55529839e-01, 4.55529839e-01, 4.08794917e-02,
          1.11647658e-01, 5.72515905e-01, 5.72515905e-01, 2.65658624e-03,
          1.78561956e-02, 1.16428576e-01, 5.15205443e-01, 2.12790608e-01,
          1.79123387e-01, 9.25108194e-02, 4.30210590e-01, 4.30210590e-01,
          1.93081528e-01, 3.56389470e-02, 4.30210590e-01, 4.30210590e-01,
          4.19742614e-01, 5.15729152e-02, 3.52911949e-02, 4.38342690e-01,
          2.53387958e-01, 7.60476738e-02, 6.38812482e-02, 5.66927612e-01,
          5.95257998e-01, 2.19540849e-01, 1.38418674e-01, 1.72076315e-01,
          5.84890187e-01, 5.84890187e-01, 1.37637981e-04, 1.34004829e-02,
          9.16095600e-02, 3.48320782e-01, 3.62349719e-01, 1.79123387e-01,
          9.25108194e-02, 4.30210590e-01, 4.30210590e-01, 1.93081528e-01,
          3.56389470e-02, 4.30210590e-01, 4.30210590e-01, 4.19742614e-01,
          5.15729152e-02, 3.52911949e-02, 4.38342690e-01, 2.53387958e-01,
          7.60476738e-02, 6.38812482e-02, 5.66927612e-01, 5.95257998e-01,
          2.19540849e-01, 1.38418674e-01, 1.72076315e-01, 5.84890187e-01,
          5.84890187e-01, 1.37637981e-04, 1.34004829e-02, 9.16095600e-02,
          3.48320782e-01, 3.62349719e-01, 5.88283800e-02, 1.40685067e-01,
          3.99621695e-01, 3.29500705e-01, 5.22224903e-01, 2.42393926e-01,
          2.39135727e-01, 5.22224903e-01, 2.04657987e-01, 3.78499664e-02,
          5.09367511e-02, 2.18786746e-01, 1.66072756e-01, 4.68923390e-01,
          4.68923390e-01, 4.68923390e-01, 4.68923390e-01, 1.90486118e-01,
          1.09340064e-01, 9.33663622e-02, 4.72802788e-01, 4.72802788e-01,
          6.51847851e-03, 5.83301671e-02, 4.72802788e-01, 4.72802788e-01,
          2.77471036e-01, 3.90641272e-01, 3.33249688e-01, 3.90641272e-01,
          3.90641272e-01, 3.90641272e-01, 1.75661072e-01, 1.37706503e-01,
          2.68736422e-01, 3.90641272e-01, 3.81448746e-01, 9.62989181e-02,
          1.57355189e-01, 3.81448746e-01, 3.81448746e-01, 3.81448746e-01,
          3.48110795e-01, 3.36835474e-01, 3.81448746e-01, 3.12042683e-01,
          5.79973422e-02, 2.96132386e-01, 1.21220559e-01, 2.98785806e-01,
          3.55881214e-01, 4.38396066e-01, 4.38396066e-01, 4.38396066e-01 ]
      - [ 3.79226953e-01, 3.53692323e-01, 3.79226953e-01, 3.79226953e-01,
          7.47325942e-02, 7.46611133e-02, 3.79226953e-01, 3.75351310e-01,
          3.79226953e-01, 4.58313912e-01, 1.96057662e-01, 3.35539371e-01,
          4.11685072e-02, 2.94006970e-02, 4.03860547e-02, 4.58313912e-01,
          4.58313912e-01, 4.58313912e-01, 4.25879300e-01, 4.25879300e-01,
          4.25879300e-01, 2.25890532e-01, 1.64811835e-02, 1.68270413e-02,
          1.93128347e-01, 4.25879300e-01, 4.25879300e-01, 2.39983752e-01,
          1.38937473e-01, 4.08018976e-01, 4.08018976e-01, 4.08018976e-01,
          3.36664170e-01, 4.08018976e-01, 2.97789752e-01, 2.26028323e-01,
          3.75536084e-02, 8.72584432e-02, 4.28196758e-01, 4.31274176e-01,
          4.31274176e-01, 2.10530668e-01, 4.31274176e-01, 4.22385842e-01,
          1.50299504e-01, 1.77536964e-01, 3.82920653e-01, 3.82920653e-01,
          3.82920653e-01, 3.82920653e-01, 3.79507095e-01, 3.82920653e-01,
          2.48368353e-01, 1.60628408e-01, 2.91526616e-01, 3.55710626e-01,
          3.55710626e-01, 3.55710626e-01, 3.55710626e-01, 3.36258352e-01,
          3.55710626e-01, 3.55710626e-01, 1.98010847e-01, 1.43946156e-01,
          1.24048613e-01, 2.34641492e-01, 4.43394154e-01, 4.43394154e-01,
          4.11356390e-02, 3.41057420e-01, 4.43394154e-01, 4.43394154e-01,
          6.94467798e-02, 5.74516319e-02, 2.88982868e-01, 4.85288441e-01,
          4.85288441e-01, 1.95001692e-01, 2.42734373e-01, 4.48437780e-01,
          3.66696805e-01, 2.91526616e-01, 3.55710626e-01, 3.55710626e-01,
          3.55710626e-01, 3.55710626e-01, 3.36258352e-01, 3.55710626e-01,
          3.55710626e-01, 1.98010847e-01, 1.43946156e-01, 1.24048613e-01,
          2.34641492e-01, 4.43394154e-01, 4.43394154e-01, 4.11356390e-02,
          3.41057420e-01, 4.43394154e-01, 4.43394154e-01, 6.94467798e-02,
          5.74516319e-02, 2.88982868e-01, 4.85288441e-01, 4.85288441e-01,
          1.95001692e-01, 2.42734373e-01, 4.48437780e-01, 3.66696805e-01,
          3.91716093e-01, 3.91716093e-01, 3.80223066e-01, 1.95506290e-01,
          1.89558581e-01, 3.37024212e-01, 3.91716093e-01, 3.91716093e-01,
          2.23630711e-01, 3.34315926e-01, 3.39089483e-01, 3.39089483e-01,
          3.39089483e-01, 2.82794833e-01, 3.39089483e-01, 3.39089483e-01,
          3.39089483e-01, 3.39089483e-01, 2.26710290e-01, 1.44860476e-01,
          4.38616097e-01, 4.38616097e-01, 2.24855959e-01, 1.33286342e-01,
          2.92189837e-01, 4.38616097e-01, 4.38616097e-01, 1.83363840e-01,
          3.79100412e-01, 3.79100412e-01, 3.09158504e-01, 3.79100412e-01,
          3.79100412e-01, 3.79100412e-01, 3.79100412e-01, 6.86185434e-02,
          2.29103267e-01, 4.44941491e-01, 4.44941491e-01, 5.57315573e-02,
          1.07701115e-01, 3.23465377e-01, 4.44941491e-01, 4.44941491e-01,
          1.78438783e-01, 3.66709739e-01, 3.66709739e-01, 3.66709739e-01,
          9.48598757e-02, 3.47978204e-01, 3.66709739e-01, 3.66709739e-01,
          3.66709739e-01, 2.43706629e-01, 4.25879300e-01, 4.25879300e-01,
          4.25879300e-01, 2.25890532e-01, 1.64811835e-02, 1.68270413e-02,
          1.93128347e-01, 4.25879300e-01, 4.25879300e-01, 4.11539525e-01,
          2.07479805e-01, 4.11539525e-01, 3.18830788e-01, 7.49643100e-03,
          6.56336918e-02, 4.11539525e-01, 4.11539525e-01, 4.11539525e-01,
          2.23068595e-01, 8.30675811e-02, 1.78651571e-01, 1.33569926e-01,
          2.35019904e-02, 3.88198644e-02, 3.85239333e-01, 6.07063770e-01,
          6.07063770e-01, 1.77536964e-01, 3.82920653e-01, 3.82920653e-01,
          3.82920653e-01, 3.82920653e-01, 3.79507095e-01, 3.82920653e-01,
          2.48368353e-01, 1.60628408e-01, 8.34705457e-02, 3.72300684e-01,
          4.03323859e-01, 4.03323859e-01, 3.95997703e-01, 1.80169493e-01,
          4.03323859e-01, 4.03323859e-01, 1.02176443e-01, 1.69715628e-01,
          4.16003197e-01, 4.16003197e-01, 4.16003197e-01, 1.35398969e-01,
          8.26648399e-02, 4.16003197e-01, 4.16003197e-01, 2.76733130e-01,
          6.94467798e-02, 5.74516319e-02, 2.88982868e-01, 4.85288441e-01,
          4.85288441e-01, 1.95001692e-01, 2.42734373e-01, 4.48437780e-01,
          3.66696805e-01, 6.29505590e-02, 3.26917648e-01, 4.20830637e-01,
          4.20830637e-01, 4.20830637e-01, 1.61043629e-01, 3.38006407e-01,
          4.20830637e-01, 1.90738156e-01, 1.84787244e-01, 3.24108630e-01,
          4.17188793e-01, 2.45887056e-01, 2.70621091e-01, 8.56998488e-02,
          4.24843520e-01, 4.24843520e-01, 4.24843520e-01, 6.94467798e-02,
          5.74516319e-02, 2.88982868e-01, 4.85288441e-01, 4.85288441e-01,
          1.95001692e-01, 2.42734373e-01, 4.48437780e-01, 3.66696805e-01,
          6.29505590e-02, 3.26917648e-01, 4.20830637e-01, 4.20830637e-01,
          4.20830637e-01, 1.61043629e-01, 3.38006407e-01, 4.20830637e-01,
          1.90738156e-01, 1.84787244e-01, 3.24108630e-01, 4.17188793e-01,
          2.45887056e-01, 2.70621091e-01, 8.56998488e-02, 4.24843520e-01,
          4.24843520e-01, 4.24843520e-01, 2.26710290e-01, 1.44860476e-01,
          4.38616097e-01, 4.38616097e-01, 2.24855959e-01, 1.33286342e-01,
          2.92189837e-01, 4.38616097e-01, 4.38616097e-01, 7.39114955e-02,
          9.98830423e-02, 3.11488718e-01, 4.62097168e-01, 4.62097168e-01,
          5.01435176e-02, 1.62080258e-01, 4.62097168e-01, 4.62097168e-01,
          4.69799973e-02, 1.10331163e-01, 2.86238611e-01, 4.61744696e-01,
          4.61744696e-01, 1.52711838e-01, 4.61744696e-01, 4.61744696e-01,
          1.51399076e-01, 3.66709739e-01, 3.66709739e-01, 3.66709739e-01,
          9.48598757e-02, 3.47978204e-01, 3.66709739e-01, 3.66709739e-01,
          3.66709739e-01, 2.43706629e-01, 2.12312162e-01, 3.49108428e-01,
          3.46303165e-01, 4.03060526e-01, 2.06491858e-01, 2.42590219e-01,
          4.03060526e-01, 4.03060526e-01, 3.46745044e-01, 2.44002625e-01,
          3.58550042e-01, 3.58550042e-01, 3.58550042e-01, 3.58550042e-01,
          2.10529253e-01, 3.58550042e-01, 3.58550042e-01, 3.48150760e-01 ]
      - [ 4.85186964e-01, 4.85186964e-01, 2.91051298e-01, 4.88465950e-02,
          8.84373784e-02, 4.85186964e-01, 1.48309976e-01, 1.54672191e-01,
          3.84834260e-01, 4.78268147e-01, 4.78268147e-01, 2.49722302e-01,
          9.53819528e-02, 3.90578359e-01, 4.78268147e-01, 2.49584436e-01,
          7.92339221e-02, 1.28144249e-01, 4.68090206e-01, 4.68090206e-01,
          6.09744377e-02, 4.87478636e-02, 4.26208317e-01, 1.98685199e-01,
          1.39200324e-02, 4.18879747e-01, 3.92721504e-01, 4.42463398e-01,
          4.42463398e-01, 3.86320829e-01, 4.79729101e-02, 1.76837936e-01,
          4.42463398e-01, 4.42463398e-01, 1.56874254e-01, 7.11229146e-02,
          4.12488639e-01, 5.43761671e-01, 5.43761671e-01, 1.14567019e-01,
          1.81124717e-01, 4.25347209e-01, 6.31550327e-02, 4.28427868e-02,
          1.98343638e-02, 3.79170477e-01, 3.79170477e-01, 3.79170477e-01,
          3.10806334e-01, 3.79170477e-01, 3.79170477e-01, 3.79170477e-01,
          1.71765625e-01, 8.65239128e-02, 1.22919217e-01, 3.35420102e-01,
          4.45417255e-01, 3.46777081e-01, 2.75469899e-01, 4.45417255e-01,
          4.45417255e-01, 2.23242387e-01, 1.63615972e-01, 2.70611178e-02,
          4.60352987e-01, 4.60352987e-01, 3.73248696e-01, 4.60352987e-01,
          4.60352987e-01, 8.60964879e-02, 5.29373437e-03, 1.46545526e-02,
          7.92849995e-03, 4.83171761e-01, 4.83171761e-01, 1.39067784e-01,
          1.73722357e-01, 4.34772372e-01, 4.83171761e-01, 2.36714289e-01,
          1.29024861e-02, 1.22919217e-01, 3.35420102e-01, 4.45417255e-01,
          3.46777081e-01, 2.75469899e-01, 4.45417255e-01, 4.45417255e-01,
          2.23242387e-01, 1.63615972e-01, 2.70611178e-02, 4.60352987e-01,
          4.60352987e-01, 3.73248696e-01, 4.60352987e-01, 4.60352987e-01,
          8.60964879e-02, 5.29373437e-03, 1.46545526e-02, 7.92849995e-03,
          4.83171761e-01, 4.83171761e-01, 1.39067784e-01, 1.73722357e-01,
          4.34772372e-01, 4.83171761e-01, 2.36714289e-01, 1.29024861e-02,
          1.41607478e-01, 1.07131556e-01, 1.94120035e-01, 2.00761423e-01,
          3.40287268e-01, 1.18433170e-01, 5.25638223e-01, 5.25638223e-01,
          4.50355500e-01, 6.73833713e-02, 6.49350286e-01, 6.49350286e-01,
          2.65046656e-01, 2.33786255e-01, 1.18804805e-01, 6.39662743e-02,
          4.23175506e-02, 2.76104435e-02, 2.31755106e-03, 5.53288400e-01,
          5.53288400e-01, 2.20270399e-02, 5.39174164e-03, 1.77317820e-02,
          5.53288400e-01, 2.74318784e-01, 2.38792342e-03, 5.04842475e-02,
          3.66378427e-02, 3.60225290e-01, 5.13098657e-01, 2.23179221e-01,
          3.03936135e-02, 1.43801615e-01, 5.13098657e-01, 5.13098657e-01,
          1.49143159e-01, 5.52979410e-01, 5.52979410e-01, 1.33907273e-01,
          6.10534549e-02, 5.99233061e-02, 3.51251513e-02, 1.68500423e-01,
          5.52979410e-01, 2.28839740e-02, 4.91860002e-01, 4.91860002e-01,
          1.55269772e-01, 3.63721967e-01, 1.80986702e-01, 4.91860002e-01,
          2.81773955e-01, 1.51633453e-02, 4.68090206e-01, 4.68090206e-01,
          6.09744377e-02, 4.87478636e-02, 4.26208317e-01, 1.98685199e-01,
          1.39200324e-02, 4.18879747e-01, 3.92721504e-01, 1.45054221e-01,
          7.41256401e-02, 1.64913945e-02, 3.28538060e-01, 5.24994373e-01,
          4.72602099e-02, 3.88540775e-02, 5.38754523e-01, 5.38754523e-01,
          1.56574443e-01, 3.44521254e-02, 1.62674010e-01, 5.62425613e-01,
          4.75257486e-01, 4.96913753e-02, 1.24824822e-01, 5.08892119e-01,
          3.50720167e-01, 3.79170477e-01, 3.79170477e-01, 3.79170477e-01,
          3.10806334e-01, 3.79170477e-01, 3.79170477e-01, 3.79170477e-01,
          1.71765625e-01, 8.65239128e-02, 5.32080745e-03, 6.94167195e-03,
          7.35549256e-02, 4.33500260e-01, 4.33500260e-01, 2.42015928e-01,
          4.33500260e-01, 4.33500260e-01, 4.24171507e-01, 1.75159369e-02,
          1.22381328e-02, 1.62723809e-01, 5.20014882e-01, 7.90549293e-02,
          1.04374200e-01, 5.62870026e-01, 5.62870026e-01, 2.15032756e-01,
          7.92849995e-03, 4.83171761e-01, 4.83171761e-01, 1.39067784e-01,
          1.73722357e-01, 4.34772372e-01, 4.83171761e-01, 2.36714289e-01,
          1.29024861e-02, 6.04992616e-04, 5.13574928e-02, 1.63304806e-01,
          5.20883203e-01, 4.02120471e-01, 2.92857379e-01, 5.20883203e-01,
          4.18782443e-01, 2.82851025e-03, 6.77294470e-03, 2.37769261e-02,
          8.75810683e-02, 4.88315105e-01, 4.88315105e-01, 4.00290757e-01,
          4.88315105e-01, 3.24028075e-01, 7.91155025e-02, 7.92849995e-03,
          4.83171761e-01, 4.83171761e-01, 1.39067784e-01, 1.73722357e-01,
          4.34772372e-01, 4.83171761e-01, 2.36714289e-01, 1.29024861e-02,
          6.04992616e-04, 5.13574928e-02, 1.63304806e-01, 5.20883203e-01,
          4.02120471e-01, 2.92857379e-01, 5.20883203e-01, 4.18782443e-01,
          2.82851025e-03, 6.77294470e-03, 2.37769261e-02, 8.75810683e-02,
          4.88315105e-01, 4.88315105e-01, 4.00290757e-01, 4.88315105e-01,
          3.24028075e-01, 7.91155025e-02, 2.31755106e-03, 5.53288400e-01,
          5.53288400e-01, 2.20270399e-02, 5.39174164e-03, 1.77317820e-02,
          5.53288400e-01, 2.74318784e-01, 2.38792342e-03, 2.06617396e-02,
          2.02479586e-02, 1.26852274e-01, 2.83600409e-02, 8.15294236e-02,
          5.88891469e-02, 6.94652379e-01, 6.94652379e-01, 1.15773072e-02,
          4.45583999e-01, 5.42458236e-01, 3.71497899e-01, 1.91897184e-01,
          4.02277321e-01, 1.97012126e-01, 2.85828322e-01, 2.07095712e-01,
          4.14045565e-02, 2.28839740e-02, 4.91860002e-01, 4.91860002e-01,
          1.55269772e-01, 3.63721967e-01, 1.80986702e-01, 4.91860002e-01,
          2.81773955e-01, 1.51633453e-02, 5.07327676e-01, 2.36111000e-01,
          2.92120632e-02, 2.12794133e-02, 8.34767222e-02, 2.17828616e-01,
          5.66404521e-01, 5.43781042e-01, 9.47558135e-02, 6.63752913e-01,
          6.63752913e-01, 7.37404525e-02, 4.76685427e-02, 1.24012053e-01,
          2.55403340e-01, 1.35462612e-01, 5.50395437e-02, 5.03836200e-02 ]
      - [ 1.46323383e-01, 4.63089615e-01, 4.63089615e-01, 2.45939329e-01,
          2.09174991e-01, 3.03195685e-01, 4.63089615e-01, 3.41683120e-01,
          1.33014143e-01, 1.70232356e-01, 5.93103953e-02, 3.44537459e-02,
          6.44826740e-02, 4.52506304e-01, 4.52506304e-01, 4.52506304e-01,
          4.25972372e-01, 4.02367741e-01, 4.38340902e-01, 7.53178075e-02,
          4.38200459e-02, 3.12771648e-02, 4.38340902e-01, 4.38340902e-01,
          4.38340902e-01, 1.62285015e-01, 4.38340902e-01, 4.22504872e-01,
          4.22504872e-01, 4.22504872e-01, 7.09301755e-02, 4.22504872e-01,
          4.22504872e-01, 8.06791112e-02, 1.28018260e-01, 2.74406105e-01,
          3.51327538e-01, 3.51327538e-01, 3.51327538e-01, 2.44306892e-01,
          3.51327538e-01, 3.51327538e-01, 3.51327538e-01, 2.69790232e-01,
          3.51327538e-01, 4.00679350e-01, 2.24393249e-01, 4.00679350e-01,
          4.00679350e-01, 4.00679350e-01, 3.45676512e-01, 1.28402561e-01,
          8.33418146e-02, 4.00679350e-01, 3.21625829e-01, 4.24881041e-01,
          4.24881041e-01, 4.24881041e-01, 1.30999506e-01, 3.10248643e-01,
          1.03745379e-01, 2.76356727e-01, 3.87542933e-01, 2.51186937e-01,
          2.45970815e-01, 3.32660019e-01, 3.46666306e-01, 1.85322031e-01,
          1.41318381e-01, 4.42278236e-01, 4.42278236e-01, 4.42278236e-01,
          3.81170958e-01, 1.38769865e-01, 3.81170958e-01, 3.81170958e-01,
          3.81170958e-01, 1.44016072e-01, 2.90596932e-01, 3.81170958e-01,
          3.81170958e-01, 3.21625829e-01, 4.24881041e-01, 4.24881041e-01,
          4.24881041e-01, 1.30999506e-01, 3.10248643e-01, 1.03745379e-01,
          2.76356727e-01, 3.87542933e-01, 2.51186937e-01, 2.45970815e-01,
          3.32660019e-01, 3.46666306e-01, 1.85322031e-01, 1.41318381e-01,
          4.42278236e-01, 4.42278236e-01, 4.42278236e-01, 3.81170958e-01,
          1.38769865e-01, 3.81170958e-01, 3.81170958e-01, 3.81170958e-01,
          1.44016072e-01, 2.90596932e-01, 3.81170958e-01, 3.81170958e-01,
          1.16933919e-01, 1.19292907e-01, 4.71143246e-01, 4.71143246e-01,
          1.88817784e-01, 1.25949562e-01, 1.67244136e-01, 4.71143246e-01,
          4.71143246e-01, 1.30515650e-01, 5.26932292e-02, 6.76834583e-02,
          5.21311224e-01, 5.21311224e-01, 6.76615387e-02, 9.85139534e-02,
          5.21311224e-01, 3.75263095e-01, 5.14334381e-01, 1.06336223e-02,
          7.72422701e-02, 4.16198522e-01, 5.14334381e-01, 5.61375022e-02,
          4.32991423e-02, 1.30065084e-01, 5.14334381e-01, 3.81672949e-01,
          3.81672949e-01, 3.81672949e-01, 3.67805898e-01, 9.64232385e-02,
