%YAML:1.0
---
opencv_ml_svm:
   format: 3
   svmType: C_SVC
   kernel:
      type: RBF
      gamma: 5.0624999999999998e-01
   C: 1.2500000000000000e+01
   term_criteria: { epsilon:1.1920928955078125e-07, iterations:1000 }
   var_count: 324
   class_count: 9
   class_labels: !!opencv-matrix
      rows: 9
      cols: 1
      dt: i
      data: [ 0, 1, 2, 3, 4, 5, 6, 7, 8 ]
   sv_total: 452
   support_vectors:
      - [ 4.53096390e-01, 4.53096390e-01, 4.38554555e-01, 4.49032821e-02,
          8.67782831e-02, 4.53096390e-01, 3.18537652e-01, 4.90521640e-02,
          2.71727711e-01, 4.15867895e-01, 4.15867895e-01, 3.99944782e-01,
          3.81773971e-02, 1.18724316e-01, 4.15867895e-01, 4.15867895e-01,
          2.96101153e-01, 2.02178970e-01, 3.50829929e-01, 3.50829929e-01,
          3.50829929e-01, 1.08819999e-01, 3.50829929e-01, 3.50829929e-01,
          3.50829929e-01, 3.50829929e-01, 3.50829929e-01, 4.21579331e-02,
          4.66629803e-01, 4.66629803e-01, 2.31905699e-01, 3.63020226e-02,
          4.66629803e-01, 4.66629803e-01, 2.15846479e-01, 1.44570529e-01,
          1.84521809e-01, 3.81867021e-01, 3.81867021e-01, 3.81867021e-01,
          1.92845240e-01, 2.47230008e-01, 3.81867021e-01, 3.81867021e-01,
          3.67032319e-01, 3.67184788e-01, 3.67184788e-01, 2.99574047e-01,
          1.50225431e-01, 3.67184788e-01, 3.53646338e-01, 2.91256189e-01,
          3.67184788e-01, 3.67184788e-01, 2.46953860e-01, 4.00100917e-01,
          4.00100917e-01, 3.59765202e-01, 5.73974401e-02, 4.00100917e-01,
          4.00100917e-01, 3.95828784e-01, 7.27189183e-02, 4.53688532e-01,
          4.53688532e-01, 3.43134433e-01, 4.53688532e-01, 4.53688532e-01,
          1.36845261e-01, 2.55083088e-02, 7.27219582e-02, 1.72418773e-01,
          4.74889338e-01, 1.15390174e-01, 7.11554149e-03, 2.80145407e-01,
          4.74889338e-01, 4.74889338e-01, 8.31585098e-03, 3.55103798e-02,
          4.74889338e-01, 2.46953860e-01, 4.00100917e-01, 4.00100917e-01,
          3.59765202e-01, 5.73974401e-02, 4.00100917e-01, 4.00100917e-01,
          3.95828784e-01, 7.27189183e-02, 4.53688532e-01, 4.53688532e-01,
          3.43134433e-01, 4.53688532e-01, 4.53688532e-01, 1.36845261e-01,
          2.55083088e-02, 7.27219582e-02, 1.72418773e-01, 4.74889338e-01,
          1.15390174e-01, 7.11554149e-03, 2.80145407e-01, 4.74889338e-01,
          4.74889338e-01, 8.31585098e-03, 3.55103798e-02, 4.74889338e-01,
          1.80034742e-01, 4.75821465e-01, 4.75821465e-01, 3.27546924e-01,
          2.34911248e-01, 1.92646757e-01, 1.73891157e-01, 4.75821465e-01,
          2.31938794e-01, 4.33600873e-01, 4.33600873e-01, 4.10203993e-01,
          4.74491045e-02, 1.84469163e-01, 4.33600873e-01, 4.33600873e-01,
          1.78461164e-01, 8.50521252e-02, 5.03236473e-01, 1.36550933e-01,
          5.46073467e-02, 1.34721145e-01, 5.03236473e-01, 5.03236473e-01,
          2.06732601e-01, 8.15033317e-02, 3.82196397e-01, 2.13964675e-02,
          1.72895402e-01, 4.87884372e-01, 4.87884372e-01, 1.10196576e-01,
          1.99087430e-02, 1.05997110e-02, 4.87884372e-01, 4.87884372e-01,
          6.29912764e-02, 2.40536869e-01, 4.20742899e-01, 4.20742899e-01,
          2.79280066e-01, 9.39078778e-02, 3.72902960e-01, 4.20742899e-01,
          4.20742899e-01, 4.83905941e-01, 2.70394050e-02, 3.87435816e-02,
          3.91552985e-01, 4.83905941e-01, 1.44569635e-01, 1.12752527e-01,
          3.21733683e-01, 4.83905941e-01, 3.50829929e-01, 3.50829929e-01,
          3.50829929e-01, 1.08819999e-01, 3.50829929e-01, 3.50829929e-01,
          3.50829929e-01, 3.50829929e-01, 3.50829929e-01, 3.53423089e-01,
          3.96644533e-01, 3.96644533e-01, 3.96644533e-01, 2.65196055e-01,
          1.73043683e-02, 1.17757909e-01, 3.96644533e-01, 3.96644533e-01,
          3.92390378e-02, 5.19024022e-02, 2.12044179e-01, 5.01081288e-01,
          1.23934887e-01, 1.82526689e-02, 5.01081288e-01, 5.01081288e-01,
          4.20545995e-01, 3.67184788e-01, 3.67184788e-01, 2.99574047e-01,
          1.50225431e-01, 3.67184788e-01, 3.53646338e-01, 2.91256189e-01,
          3.67184788e-01, 3.67184788e-01, 3.32778692e-01, 3.32778692e-01,
          3.32778692e-01, 3.32778692e-01, 3.32778692e-01, 3.32778692e-01,
          3.32778692e-01, 3.32778692e-01, 3.32778692e-01, 1.23473704e-01,
          3.88515562e-01, 2.43486270e-01, 1.58682063e-01, 4.68179360e-02,
          4.96615410e-01, 4.96615410e-01, 4.96615410e-01, 4.80821393e-02,
          4.74889338e-01, 1.15390174e-01, 7.11554149e-03, 2.80145407e-01,
          4.74889338e-01, 4.74889338e-01, 8.31585098e-03, 3.55103798e-02,
          4.74889338e-01, 4.42916214e-01, 3.32187936e-02, 2.43796967e-02,
          3.61137122e-01, 4.42916214e-01, 4.42916214e-01, 6.23563454e-02,
          2.73624778e-01, 4.42916214e-01, 1.62433773e-01, 2.48273939e-01,
          2.64470130e-01, 1.15012012e-01, 3.51813287e-01, 4.18583691e-01,
          4.18583691e-01, 4.18583691e-01, 4.18583691e-01, 4.74889338e-01,
          1.15390174e-01, 7.11554149e-03, 2.80145407e-01, 4.74889338e-01,
          4.74889338e-01, 8.31585098e-03, 3.55103798e-02, 4.74889338e-01,
          4.42916214e-01, 3.32187936e-02, 2.43796967e-02, 3.61137122e-01,
          4.42916214e-01, 4.42916214e-01, 6.23563454e-02, 2.73624778e-01,
          4.42916214e-01, 1.62433773e-01, 2.48273939e-01, 2.64470130e-01,
          1.15012012e-01, 3.51813287e-01, 4.18583691e-01, 4.18583691e-01,
          4.18583691e-01, 4.18583691e-01, 5.03236473e-01, 1.36550933e-01,
          5.46073467e-02, 1.34721145e-01, 5.03236473e-01, 5.03236473e-01,
          2.06732601e-01, 8.15033317e-02, 3.82196397e-01, 3.83807361e-01,
          2.53874630e-01, 3.82687420e-01, 4.07871872e-01, 4.07871872e-01,
          6.20336495e-02, 7.70701915e-02, 3.58955443e-01, 4.07871872e-01,
          8.17523077e-02, 2.36809790e-01, 3.46555173e-01, 2.93006748e-01,
          6.63840473e-02, 1.02838017e-01, 4.87093896e-01, 4.87093896e-01,
          4.86739963e-01, 4.83905941e-01, 2.70394050e-02, 3.87435816e-02,
          3.91552985e-01, 4.83905941e-01, 1.44569635e-01, 1.12752527e-01,
          3.21733683e-01, 4.83905941e-01, 4.70039666e-01, 4.70039666e-01,
          1.61161169e-01, 1.35293454e-01, 4.70039666e-01, 4.70039666e-01,
          1.61396757e-01, 3.07313874e-02, 2.00712338e-01, 4.79125559e-01,
          4.79125559e-01, 1.18458003e-01, 4.63493578e-02, 7.62179643e-02,
          4.79125559e-01, 4.79125559e-01, 2.34340325e-01, 8.00746959e-03 ]
      - [ 6.31781518e-01, 6.31781518e-01, 3.52464199e-01, 7.52509534e-02,
          2.61343792e-02, 1.33264007e-03, 3.68840769e-02, 3.64382379e-02,
          2.49258488e-01, 5.44369102e-01, 4.76090133e-01, 2.41529778e-01,
          2.50243843e-01, 1.58174574e-01, 2.94507086e-01, 2.46862456e-01,
          4.26825956e-02, 4.19629693e-01, 6.56172991e-01, 9.60263386e-02,
          2.89216578e-01, 1.59462824e-01, 6.81489408e-02, 6.93586767e-02,
          4.28095087e-02, 5.23440540e-02, 6.56172991e-01, 4.66409355e-01,
          4.66409355e-01, 3.96337956e-01, 9.12948623e-02, 5.00388257e-02,
          1.43380407e-02, 1.56816691e-02, 4.17557657e-01, 4.66409355e-01,
          2.46348336e-01, 3.49345028e-01, 3.49345028e-01, 3.49345028e-01,
          2.85532027e-01, 3.49345028e-01, 3.49345028e-01, 3.49345028e-01,
          3.49345028e-01, 1.43274263e-01, 4.87213224e-01, 4.87213224e-01,
          4.87213224e-01, 8.73727649e-02, 1.80874422e-01, 2.22409725e-01,
          1.43918216e-01, 3.89804989e-01, 3.18223871e-02, 6.03592753e-01,
          6.03592753e-01, 1.19604930e-01, 2.41936762e-02, 1.30658206e-02,
          3.76124382e-01, 3.11240345e-01, 1.04453757e-01, 6.37263432e-02,
          2.71808773e-01, 4.88999277e-01, 2.49143869e-01, 1.36819512e-01,
          2.16353908e-01, 4.88999277e-01, 4.88999277e-01, 2.68724561e-01,
          2.01038405e-01, 2.48438403e-01, 5.63369274e-01, 5.63369274e-01,
          3.47351551e-01, 1.37699172e-01, 2.29793072e-01, 2.02015758e-01,
          1.55682176e-01, 3.18223871e-02, 6.03592753e-01, 6.03592753e-01,
          1.19604930e-01, 2.41936762e-02, 1.30658206e-02, 3.76124382e-01,
          3.11240345e-01, 1.04453757e-01, 6.37263432e-02, 2.71808773e-01,
          4.88999277e-01, 2.49143869e-01, 1.36819512e-01, 2.16353908e-01,
          4.88999277e-01, 4.88999277e-01, 2.68724561e-01, 2.01038405e-01,
          2.48438403e-01, 5.63369274e-01, 5.63369274e-01, 3.47351551e-01,
          1.37699172e-01, 2.29793072e-01, 2.02015758e-01, 1.55682176e-01,
          6.91162376e-03, 1.11111924e-01, 6.94157362e-01, 6.94157362e-01,
          2.47938447e-02, 4.57340293e-03, 9.95411053e-02, 8.01413730e-02,
          1.11132208e-03, 2.80875713e-01, 8.22973773e-02, 2.19123080e-01,
          4.26230043e-01, 9.43927318e-02, 2.27691177e-02, 4.72757399e-01,
          4.72757399e-01, 4.72757399e-01, 5.03761768e-01, 7.06211329e-02,
          7.85955042e-02, 5.03761768e-01, 3.82734179e-01, 6.38793409e-02,
          6.28196746e-02, 2.60699183e-01, 5.03761768e-01, 1.80738550e-02,
          1.16951317e-02, 6.43168390e-01, 7.07248390e-01, 2.78785020e-01,
          9.62502416e-03, 2.23064497e-02, 1.41007314e-02, 1.00353388e-02,
          3.71985920e-02, 4.91381343e-03, 6.72834367e-02, 6.99141443e-01,
          6.99141443e-01, 8.48206785e-03, 8.12131446e-03, 3.24763246e-02,
          9.10812095e-02, 1.61115542e-01, 4.80192667e-03, 2.92737852e-03,
          5.19548118e-01, 6.16411686e-01, 3.95764530e-01, 6.35913573e-03,
          1.04992554e-01, 3.87644678e-01, 6.56172991e-01, 9.60263386e-02,
          2.89216578e-01, 1.59462824e-01, 6.81489408e-02, 6.93586767e-02,
          4.28095087e-02, 5.23440540e-02, 6.56172991e-01, 5.28665066e-01,
          2.85953879e-01, 1.57337233e-01, 2.47604717e-02, 2.48032436e-03,
          1.06015522e-03, 2.28387373e-03, 5.51297426e-01, 5.51297426e-01,
          3.50674123e-01, 4.00375187e-01, 4.00375187e-01, 3.78454417e-01,
          8.19023997e-02, 1.29659161e-01, 2.55106717e-01, 4.00375187e-01,
          4.00375187e-01, 1.43274263e-01, 4.87213224e-01, 4.87213224e-01,
          4.87213224e-01, 8.73727649e-02, 1.80874422e-01, 2.22409725e-01,
          1.43918216e-01, 3.89804989e-01, 6.37651086e-02, 8.18956923e-03,
          9.30874199e-02, 2.79536933e-01, 7.44296312e-02, 7.90416729e-03,
          6.37972504e-02, 6.68101311e-01, 6.68101311e-01, 9.94620938e-03,
          1.72537621e-02, 7.47777000e-02, 2.65212893e-01, 4.22891192e-02,
          4.50185947e-02, 2.78820336e-01, 6.46399498e-01, 6.46399498e-01,
          2.01038405e-01, 2.48438403e-01, 5.63369274e-01, 5.63369274e-01,
          3.47351551e-01, 1.37699172e-01, 2.29793072e-01, 2.02015758e-01,
          1.55682176e-01, 1.30501017e-01, 4.78206500e-02, 1.47335187e-01,
          6.21584475e-01, 6.21584475e-01, 7.83665925e-02, 1.02218240e-01,
          3.89910609e-01, 1.06837422e-01, 5.12287281e-02, 1.36102840e-01,
          2.46433675e-01, 2.03452617e-01, 2.67795473e-01, 5.54988571e-02,
          6.29151285e-01, 6.29151285e-01, 6.31690323e-02, 2.01038405e-01,
          2.48438403e-01, 5.63369274e-01, 5.63369274e-01, 3.47351551e-01,
          1.37699172e-01, 2.29793072e-01, 2.02015758e-01, 1.55682176e-01,
          1.30501017e-01, 4.78206500e-02, 1.47335187e-01, 6.21584475e-01,
          6.21584475e-01, 7.83665925e-02, 1.02218240e-01, 3.89910609e-01,
          1.06837422e-01, 5.12287281e-02, 1.36102840e-01, 2.46433675e-01,
          2.03452617e-01, 2.67795473e-01, 5.54988571e-02, 6.29151285e-01,
          6.29151285e-01, 6.31690323e-02, 5.03761768e-01, 7.06211329e-02,
          7.85955042e-02, 5.03761768e-01, 3.82734179e-01, 6.38793409e-02,
          6.28196746e-02, 2.60699183e-01, 5.03761768e-01, 3.42853874e-01,
          3.43386799e-01, 1.65612400e-01, 4.20542777e-01, 4.20542777e-01,
          1.23772919e-01, 1.00814179e-01, 4.20542777e-01, 4.20542777e-01,
          2.48978421e-01, 3.89709294e-01, 3.89709294e-01, 3.89709294e-01,
          3.89709294e-01, 3.89709294e-01, 3.89709294e-01, 1.37577504e-01,
          6.28397688e-02, 1.61115542e-01, 4.80192667e-03, 2.92737852e-03,
          5.19548118e-01, 6.16411686e-01, 3.95764530e-01, 6.35913573e-03,
          1.04992554e-01, 3.87644678e-01, 1.15704939e-01, 9.09852087e-02,
          5.71835041e-02, 1.13216437e-01, 4.37692612e-01, 4.37692612e-01,
          4.37692612e-01, 4.37692612e-01, 4.37692612e-01, 3.22372973e-01,
          3.96613568e-01, 2.97229886e-01, 3.07932943e-01, 3.96613568e-01,
          3.96613568e-01, 3.96613568e-01, 2.60844857e-01, 1.08147696e-01 ]
      - [ 4.67240870e-01, 4.67240870e-01, 2.90125668e-01, 4.10406813e-02,
          1.18854322e-01, 4.67240870e-01, 4.67240870e-01, 2.74161305e-02,
          1.46087319e-01, 4.29598898e-01, 4.29598898e-01, 4.07676250e-01,
          1.94016621e-02, 1.85823917e-01, 4.29598898e-01, 4.29598898e-01,
          1.83092222e-01, 1.51189134e-01, 3.72732937e-01, 3.72732937e-01,
          2.53669143e-01, 8.98914114e-02, 3.00447583e-01, 3.72732937e-01,
          3.72732937e-01, 3.72732937e-01, 3.72732937e-01, 2.11303264e-01,
          4.67747927e-01, 4.67747927e-01, 2.15914547e-01, 7.01484531e-02,
          4.67747927e-01, 4.67747927e-01, 1.46963388e-01, 4.88697216e-02,
          1.17868595e-01, 3.88655812e-01, 3.88655812e-01, 3.88655812e-01,
          1.60951316e-01, 2.23604113e-01, 3.88655812e-01, 3.88655812e-01,
          3.88655812e-01, 3.68460864e-01, 3.68460864e-01, 1.93645135e-01,
          9.20687243e-02, 3.68460864e-01, 3.68460864e-01, 3.68460864e-01,
          3.68460864e-01, 3.68460864e-01, 9.52168480e-02, 1.55419469e-01,
          4.53397959e-01, 2.78074086e-01, 1.61925390e-01, 3.78953725e-01,
          4.98103201e-01, 4.98103201e-01, 1.13444097e-01, 2.31539160e-01,
          2.09274590e-01, 4.42139715e-01, 4.42139715e-01, 4.42139715e-01,
          4.42139715e-01, 2.72130072e-01, 1.05060674e-01, 1.76449925e-01,
          4.66601759e-01, 4.66601759e-01, 7.11573139e-02, 1.50135651e-01,
          4.66601759e-01, 4.66601759e-01, 2.19355732e-01, 4.50895466e-02,
          2.16139957e-01, 9.52168480e-02, 1.55419469e-01, 4.53397959e-01,
          2.78074086e-01, 1.61925390e-01, 3.78953725e-01, 4.98103201e-01,
          4.98103201e-01, 1.13444097e-01, 2.31539160e-01, 2.09274590e-01,
          4.42139715e-01, 4.42139715e-01, 4.42139715e-01, 4.42139715e-01,
          2.72130072e-01, 1.05060674e-01, 1.76449925e-01, 4.66601759e-01,
          4.66601759e-01, 7.11573139e-02, 1.50135651e-01, 4.66601759e-01,
          4.66601759e-01, 2.19355732e-01, 4.50895466e-02, 2.16139957e-01,
          1.10159293e-01, 1.92104116e-01, 2.50385225e-01, 2.82060564e-01,
          3.53886217e-01, 4.29347038e-01, 4.29347038e-01, 4.29347038e-01,
          3.55202883e-01, 4.52793032e-01, 4.52793032e-01, 2.18865499e-01,
          7.50392824e-02, 2.73237646e-01, 4.52793032e-01, 4.12269771e-01,
          1.17303707e-01, 2.61714369e-01, 4.31062549e-01, 4.31062549e-01,
          3.68406892e-01, 4.31062549e-01, 4.31062549e-01, 2.34555319e-01,
          1.52529687e-01, 4.94306982e-02, 1.89699247e-01, 7.38068819e-02,
          3.15585107e-01, 4.14953649e-01, 4.26512927e-01, 1.84128568e-01,
          2.67245471e-01, 2.59707898e-01, 4.26512927e-01, 4.26512927e-01,
          4.01111454e-01, 4.01111454e-01, 4.01111454e-01, 4.01111454e-01,
          1.25872031e-01, 1.18211202e-01, 2.88567413e-02, 4.01111454e-01,
          4.01111454e-01, 5.00474155e-01, 1.02463402e-01, 1.52422441e-02,
          4.12898630e-01, 5.00474155e-01, 4.82369848e-02, 1.53348818e-02,
          2.44540393e-01, 5.00474155e-01, 3.72732937e-01, 3.72732937e-01,
          2.53669143e-01, 8.98914114e-02, 3.00447583e-01, 3.72732937e-01,
          3.72732937e-01, 3.72732937e-01, 3.72732937e-01, 2.51745701e-01,
          3.87658536e-01, 3.87658536e-01, 3.87658536e-01, 2.31258795e-01,
          2.38739774e-01, 2.66229898e-01, 3.87658536e-01, 3.87658536e-01,
          1.29706189e-01, 1.70845851e-01, 3.00107330e-01, 3.80514175e-01,
          3.80514175e-01, 3.80514175e-01, 3.80514175e-01, 3.80514175e-01,
          3.69007975e-01, 3.68460864e-01, 3.68460864e-01, 1.93645135e-01,
          9.20687243e-02, 3.68460864e-01, 3.68460864e-01, 3.68460864e-01,
          3.68460864e-01, 3.68460864e-01, 3.74662578e-01, 3.74662578e-01,
          1.44890860e-01, 3.74662578e-01, 3.59460890e-01, 3.74662578e-01,
          3.74662578e-01, 3.74662578e-01, 6.17997274e-02, 4.20842886e-01,
          4.20842886e-01, 1.69606492e-01, 2.85873801e-01, 3.41548592e-01,
          4.20842886e-01, 4.20842886e-01, 2.42920518e-01, 3.47148292e-02,
          4.66601759e-01, 4.66601759e-01, 7.11573139e-02, 1.50135651e-01,
          4.66601759e-01, 4.66601759e-01, 2.19355732e-01, 4.50895466e-02,
          2.16139957e-01, 4.08304989e-01, 4.08304989e-01, 1.03328817e-01,
          1.25445619e-01, 3.85927558e-01, 4.08304989e-01, 2.59360462e-01,
          2.94020325e-01, 4.08304989e-01, 3.74335021e-01, 3.74335021e-01,
          6.51479959e-02, 1.05494283e-01, 3.74335021e-01, 3.74335021e-01,
          3.74335021e-01, 3.74335021e-01, 3.74335021e-01, 4.66601759e-01,
          4.66601759e-01, 7.11573139e-02, 1.50135651e-01, 4.66601759e-01,
          4.66601759e-01, 2.19355732e-01, 4.50895466e-02, 2.16139957e-01,
          4.08304989e-01, 4.08304989e-01, 1.03328817e-01, 1.25445619e-01,
          3.85927558e-01, 4.08304989e-01, 2.59360462e-01, 2.94020325e-01,
          4.08304989e-01, 3.74335021e-01, 3.74335021e-01, 6.51479959e-02,
          1.05494283e-01, 3.74335021e-01, 3.74335021e-01, 3.74335021e-01,
          3.74335021e-01, 3.74335021e-01, 4.31062549e-01, 4.31062549e-01,
          3.68406892e-01, 4.31062549e-01, 4.31062549e-01, 2.34555319e-01,
          1.52529687e-01, 4.94306982e-02, 1.89699247e-01, 2.16612369e-01,
          3.20215613e-01, 4.07584012e-01, 4.07584012e-01, 4.07584012e-01,
          9.03611351e-03, 1.25555515e-01, 4.07584012e-01, 4.07584012e-01,
          5.17063886e-02, 1.60125211e-01, 3.20663422e-01, 1.84551761e-01,
          4.43071723e-02, 7.97512680e-02, 5.32445133e-01, 5.32445133e-01,
          5.04148304e-01, 5.00474155e-01, 1.02463402e-01, 1.52422441e-02,
          4.12898630e-01, 5.00474155e-01, 4.82369848e-02, 1.53348818e-02,
          2.44540393e-01, 5.00474155e-01, 4.06848192e-01, 4.06848192e-01,
          3.42527449e-01, 1.87597126e-01, 3.43336195e-01, 4.06848192e-01,
          3.40743124e-01, 9.61831659e-02, 3.21876973e-01, 4.50097233e-01,
          4.50097233e-01, 1.82163879e-01, 3.35541666e-02, 3.04774567e-02,
          4.50097233e-01, 4.50097233e-01, 3.85005921e-01, 4.10618633e-02 ]
      - [ 5.45388401e-01, 5.11347115e-01, 4.34803255e-02, 3.29728574e-02,
          3.65753621e-01, 6.33674711e-02, 6.41409680e-03, 1.84829603e-03,
          5.42969584e-01, 6.58876538e-01, 5.47529310e-02, 2.35547125e-02,
          1.25594772e-02, 3.40554923e-01, 7.34999180e-02, 9.36337374e-03,
          2.75224750e-03, 6.58876538e-01, 5.60971379e-01, 6.51309639e-02,
          5.63037805e-02, 6.13007471e-02, 1.76594451e-01, 3.82852443e-02,
          8.06861892e-02, 5.60971379e-01, 5.60971379e-01, 4.70425695e-01,
          4.70425695e-01, 4.70425695e-01, 4.70425695e-01, 3.12250644e-01,
          5.75518347e-02, 0., 0., 9.63704214e-02, 4.11281019e-01,
          4.11281019e-01, 3.94471586e-01, 3.73169541e-01, 4.11281019e-01,
          4.11281019e-01, 4.68172170e-02, 2.59211194e-02, 1.46819428e-01,
          2.39990398e-01, 2.41745010e-01, 3.67376715e-01, 3.98274422e-01,
          3.10062855e-01, 2.86439568e-01, 3.05161417e-01, 3.98274422e-01,
          3.95555943e-01, 5.52929819e-01, 5.52929819e-01, 4.93734896e-01,
          3.28237414e-01, 6.65097311e-02, 6.52827928e-03, 0.,
          4.48345626e-03, 1.64363191e-01, 4.06917572e-01, 5.03501356e-01,
          5.03501356e-01, 5.03501356e-01, 2.12062702e-01, 4.33885306e-02,
          1.91394705e-02, 1.68602429e-02, 1.46098420e-01, 3.14978361e-01,
          1.24013327e-01, 2.34573260e-01, 4.89270151e-01, 4.89892572e-01,
          4.89892572e-01, 2.66085774e-01, 9.16879997e-02, 1.64038762e-01,
          5.52929819e-01, 5.52929819e-01, 4.93734896e-01, 3.28237414e-01,
          6.65097311e-02, 6.52827928e-03, 0., 4.48345626e-03,
          1.64363191e-01, 4.06917572e-01, 5.03501356e-01, 5.03501356e-01,
          5.03501356e-01, 2.12062702e-01, 4.33885306e-02, 1.91394705e-02,
          1.68602429e-02, 1.46098420e-01, 3.14978361e-01, 1.24013327e-01,
          2.34573260e-01, 4.89270151e-01, 4.89892572e-01, 4.89892572e-01,
          2.66085774e-01, 9.16879997e-02, 1.64038762e-01, 2.00710788e-01,
          4.71715957e-01, 5.10883749e-01, 5.10883749e-01, 4.20726597e-01,
          4.28644614e-03, 2.40641925e-02, 1.22714996e-01, 1.32005334e-01,
          3.11937243e-01, 2.40261748e-01, 2.86718488e-01, 5.36490083e-01,
          6.08542860e-01, 2.31413066e-01, 9.42519680e-02, 9.61190090e-02,
          1.63907290e-01, 2.43164539e-01, 3.14677596e-01, 2.20153123e-01,
          3.87804955e-01, 4.88608360e-01, 1.97083563e-01, 2.22048968e-01,
          2.69230157e-01, 4.88608360e-01, 2.18909476e-02, 5.81447259e-02,
          5.59570432e-01, 5.59570432e-01, 5.59570432e-01, 1.81015562e-02,
          4.01481576e-02, 1.93556368e-01, 1.08587787e-01, 7.50395656e-02,
          5.77155352e-02, 1.13525704e-01, 4.96081322e-01, 7.48391747e-01,
          3.34159464e-01, 1.04040526e-01, 1.49689615e-01, 1.39997140e-01,
          1.77360252e-01, 3.71943802e-01, 1.09502934e-01, 2.77820945e-01,
          6.48292780e-01, 5.28118551e-01, 1.52381882e-01, 8.05273578e-02,
          7.52047747e-02, 5.60971379e-01, 6.51309639e-02, 5.63037805e-02,
          6.13007471e-02, 1.76594451e-01, 3.82852443e-02, 8.06861892e-02,
          5.60971379e-01, 5.60971379e-01, 4.61636893e-02, 6.90531656e-02,
          4.87406850e-01, 4.89231795e-01, 6.52398020e-02, 4.33269404e-02,
          1.62702605e-01, 4.89231795e-01, 4.89231795e-01, 7.21536130e-02,
          1.07146442e-01, 6.62747622e-01, 6.62747622e-01, 2.01666757e-01,
          3.86859737e-02, 1.10160761e-01, 1.35240927e-01, 1.60114616e-01,
          2.39990398e-01, 2.41745010e-01, 3.67376715e-01, 3.98274422e-01,
          3.10062855e-01, 2.86439568e-01, 3.05161417e-01, 3.98274422e-01,
          3.95555943e-01, 1.90498069e-01, 1.62943918e-02, 1.12547010e-01,
          2.05946445e-01, 6.09141216e-02, 3.01414222e-01, 5.19171894e-01,
          5.19171894e-01, 5.19171894e-01, 1.55761078e-01, 5.97457513e-02,
          4.60707575e-01, 4.60707575e-01, 2.44176105e-01, 1.07108332e-01,
          2.70026296e-01, 4.32208717e-01, 4.60707575e-01, 3.14978361e-01,
          1.24013327e-01, 2.34573260e-01, 4.89270151e-01, 4.89892572e-01,
          4.89892572e-01, 2.66085774e-01, 9.16879997e-02, 1.64038762e-01,
          4.08520520e-01, 4.51922342e-02, 6.01611212e-02, 7.85266235e-02,
          3.93711209e-01, 4.08520520e-01, 4.08520520e-01, 4.01903331e-01,
          4.08520520e-01, 1.89687699e-01, 2.35147044e-01, 1.50147647e-01,
          1.48973927e-01, 1.54844061e-01, 4.57013518e-01, 4.57013518e-01,
          4.57013518e-01, 4.57013518e-01, 3.14978361e-01, 1.24013327e-01,
          2.34573260e-01, 4.89270151e-01, 4.89892572e-01, 4.89892572e-01,
          2.66085774e-01, 9.16879997e-02, 1.64038762e-01, 4.08520520e-01,
          4.51922342e-02, 6.01611212e-02, 7.85266235e-02, 3.93711209e-01,
          4.08520520e-01, 4.08520520e-01, 4.01903331e-01, 4.08520520e-01,
          1.89687699e-01, 2.35147044e-01, 1.50147647e-01, 1.48973927e-01,
          1.54844061e-01, 4.57013518e-01, 4.57013518e-01, 4.57013518e-01,
          4.57013518e-01, 2.43164539e-01, 3.14677596e-01, 2.20153123e-01,
          3.87804955e-01, 4.88608360e-01, 1.97083563e-01, 2.22048968e-01,
          2.69230157e-01, 4.88608360e-01, 1.75420403e-01, 2.74900436e-01,
          1.52881086e-01, 5.00518419e-02, 4.10552882e-02, 6.44655347e-01,
          6.44655347e-01, 1.02710940e-01, 1.33967951e-01, 3.54819506e-01,
          5.27636409e-01, 1.59166798e-01, 1.95722859e-02, 8.54644552e-02,
          5.27636409e-01, 5.27636409e-01, 2.11007558e-02, 1.29143111e-02,
          1.77360252e-01, 3.71943802e-01, 1.09502934e-01, 2.77820945e-01,
          6.48292780e-01, 5.28118551e-01, 1.52381882e-01, 8.05273578e-02,
          7.52047747e-02, 1.75305307e-01, 4.81488436e-01, 1.74702838e-01,
          7.28941783e-02, 4.81488436e-01, 4.81488436e-01, 4.81488436e-01,
          1.84959564e-02, 3.09499130e-02, 4.94735003e-01, 4.94735003e-01,
          4.03361380e-01, 6.78684711e-02, 5.37794530e-02, 3.57168823e-01,
          4.43326771e-01, 2.62615574e-03, 1.05921976e-01 ]
      - [ 4.08797830e-01, 5.46974778e-01, 6.08290136e-01, 1.43530980e-01,
          3.89829539e-02, 7.90847372e-03, 4.91967872e-02, 5.15574850e-02,
          3.61040860e-01, 4.78982747e-01, 1.65630504e-01, 1.59028232e-01,
          9.70427021e-02, 3.96714270e-01, 4.78982747e-01, 2.88677573e-01,
          6.39128014e-02, 4.78982747e-01, 2.02758998e-01, 1.80198029e-02,
          1.60422716e-02, 2.94116795e-01, 5.76434910e-01, 5.76434910e-01,
          2.16830119e-01, 2.73903459e-01, 2.81874567e-01, 1.11306058e-02,
          4.34381157e-01, 6.32722318e-01, 6.32722318e-01, 3.60149005e-03,
          9.01941024e-03, 3.97757366e-02, 4.76207025e-02, 1.59027502e-02,
          1.69674143e-01, 3.34378868e-01, 1.83233559e-01, 2.80287676e-02,
          7.07125887e-02, 6.28299654e-01, 6.28299654e-01, 1.55591220e-01,
          6.18833303e-03, 4.20153677e-01, 4.20153677e-01, 7.42781162e-02,
          1.42509311e-01, 4.20153677e-01, 4.20153677e-01, 2.95053959e-01,
          1.65653154e-02, 4.20153677e-01, 1.88856535e-02, 2.27139324e-01,
          6.72566950e-01, 6.72566950e-01, 2.07222030e-02, 9.64275748e-03,
          1.41629815e-01, 1.19351305e-01, 4.26375121e-02, 3.16920057e-02,
          4.18252259e-01, 5.16855121e-01, 9.34942067e-02, 4.46256623e-03,
          9.33792368e-02, 5.16855121e-01, 5.16855121e-01, 6.35108969e-04,
          4.48794603e-01, 4.48794603e-01, 4.48794603e-01, 2.52465695e-01,
          2.60055605e-02, 7.23935142e-02, 4.48794603e-01, 1.87796876e-01,
          2.91422695e-01, 1.88856535e-02, 2.27139324e-01, 6.72566950e-01,
          6.72566950e-01, 2.07222030e-02, 9.64275748e-03, 1.41629815e-01,
          1.19351305e-01, 4.26375121e-02, 3.16920057e-02, 4.18252259e-01,
          5.16855121e-01, 9.34942067e-02, 4.46256623e-03, 9.33792368e-02,
          5.16855121e-01, 5.16855121e-01, 6.35108969e-04, 4.48794603e-01,
          4.48794603e-01, 4.48794603e-01, 2.52465695e-01, 2.60055605e-02,
          7.23935142e-02, 4.48794603e-01, 1.87796876e-01, 2.91422695e-01,
          5.30639701e-02, 1.39253438e-01, 5.61883867e-01, 5.61883867e-01,
          3.07947621e-02, 2.11729798e-02, 1.11560300e-01, 5.61883867e-01,
          1.05825529e-01, 1.52678462e-02, 1.00917354e-01, 4.89524335e-01,
          4.89524335e-01, 2.46218685e-02, 1.31071554e-02, 4.89524335e-01,
          4.89524335e-01, 1.59307808e-01, 7.55756870e-02, 8.89243707e-02,
          4.57527876e-01, 4.57527876e-01, 4.57527876e-01, 1.08956203e-01,
          1.33803979e-01, 4.57527876e-01, 3.38687003e-01, 1.03500731e-01,
          2.01816663e-01, 4.53667313e-01, 4.53667313e-01, 3.94952506e-01,
          2.58703858e-01, 2.82187343e-01, 4.53667313e-01, 1.55045584e-01,
          1.16707934e-02, 4.30335570e-03, 3.52766514e-01, 5.96746862e-01,
          1.23066545e-01, 2.35683303e-02, 3.70608605e-02, 5.96746862e-01,
          3.74372333e-01, 4.37729418e-01, 4.43303405e-04, 2.88467072e-02,
          4.47346896e-01, 4.47346896e-01, 5.08940145e-02, 5.01379091e-03,
          4.47346896e-01, 4.47346896e-01, 2.02758998e-01, 1.80198029e-02,
          1.60422716e-02, 2.94116795e-01, 5.76434910e-01, 5.76434910e-01,
          2.16830119e-01, 2.73903459e-01, 2.81874567e-01, 3.87098640e-01,
          3.87098640e-01, 2.98791200e-01, 3.87098640e-01, 3.87098640e-01,
          2.77093779e-02, 1.78414330e-01, 3.53596330e-01, 3.87098640e-01,
          4.13545996e-01, 4.13545996e-01, 4.13545996e-01, 4.13545996e-01,
          2.79773653e-01, 5.40835224e-02, 3.05563509e-01, 1.99356109e-01,
          3.12213629e-01, 4.20153677e-01, 4.20153677e-01, 7.42781162e-02,
          1.42509311e-01, 4.20153677e-01, 4.20153677e-01, 2.95053959e-01,
          1.65653154e-02, 4.20153677e-01, 2.12360352e-01, 1.90620925e-02,
          4.35109526e-01, 4.35109526e-01, 4.35109526e-01, 5.33341020e-02,
          2.73367446e-02, 4.35109526e-01, 4.35109526e-01, 9.92584135e-03,
          1.75590679e-01, 6.49246752e-01, 6.49246752e-01, 5.88708520e-02,
          6.26671240e-02, 9.20886621e-02, 3.14729184e-01, 6.79500699e-02,
          4.48794603e-01, 4.48794603e-01, 4.48794603e-01, 2.52465695e-01,
          2.60055605e-02, 7.23935142e-02, 4.48794603e-01, 1.87796876e-01,
          2.91422695e-01, 8.94477218e-02, 1.34416848e-01, 4.76927668e-01,
          2.08947495e-01, 2.14626119e-02, 1.23320520e-01, 4.76927668e-01,
          4.76927668e-01, 4.76927668e-01, 1.46838278e-03, 4.02736664e-01,
          5.25037050e-01, 2.57002860e-01, 2.66936258e-03, 7.80260935e-02,
          5.25037050e-01, 4.56928492e-01, 1.73313208e-02, 4.48794603e-01,
          4.48794603e-01, 4.48794603e-01, 2.52465695e-01, 2.60055605e-02,
          7.23935142e-02, 4.48794603e-01, 1.87796876e-01, 2.91422695e-01,
          8.94477218e-02, 1.34416848e-01, 4.76927668e-01, 2.08947495e-01,
          2.14626119e-02, 1.23320520e-01, 4.76927668e-01, 4.76927668e-01,
          4.76927668e-01, 1.46838278e-03, 4.02736664e-01, 5.25037050e-01,
          2.57002860e-01, 2.66936258e-03, 7.80260935e-02, 5.25037050e-01,
          4.56928492e-01, 1.73313208e-02, 7.55756870e-02, 8.89243707e-02,
          4.57527876e-01, 4.57527876e-01, 4.57527876e-01, 1.08956203e-01,
          1.33803979e-01, 4.57527876e-01, 3.38687003e-01, 3.36499840e-01,
          4.39642429e-01, 2.75894850e-01, 1.27143487e-01, 4.39642429e-01,
          4.39642429e-01, 4.39642429e-01, 1.23233840e-01, 4.20047902e-02,
          1.07332416e-01, 4.94591326e-01, 4.94591326e-01, 4.99570137e-03,
          1.49833709e-02, 4.94591326e-01, 4.94591326e-01, 6.93348050e-02,
          9.70255875e-04, 4.37729418e-01, 4.43303405e-04, 2.88467072e-02,
          4.47346896e-01, 4.47346896e-01, 5.08940145e-02, 5.01379091e-03,
          4.47346896e-01, 4.47346896e-01, 4.45068121e-01, 4.45068121e-01,
          2.28153765e-02, 6.44856691e-02, 4.45068121e-01, 4.45068121e-01,
          1.80957466e-02, 1.09374626e-02, 4.45068121e-01, 3.46187711e-01,
          5.50320864e-01, 1.16402879e-01, 7.37241795e-03, 1.63669005e-01,
          5.50320864e-01, 4.77569461e-01, 2.20801719e-02, 7.68667494e-04 ]
      - [ 2.32240725e-02, 2.21397579e-01, 3.13216060e-01, 4.18958277e-01,
          3.88170213e-01, 4.94583845e-01, 4.94583845e-01, 1.78210661e-01,
          1.45647228e-02, 1.03045575e-01, 3.50082397e-01, 5.24436951e-01,
          1.65819034e-01, 5.24436951e-01, 5.24436951e-01, 8.42277780e-02,
          3.80708054e-02, 2.10806280e-02, 3.67792815e-01, 3.67792815e-01,
          3.67792815e-01, 1.17844403e-01, 3.67792815e-01, 1.88513562e-01,
          3.67792815e-01, 3.67792815e-01, 3.67792815e-01, 6.37498945e-02,
          1.95997983e-01, 3.07727605e-01, 3.32631469e-02, 1.90285891e-01,
          6.34844840e-01, 6.34844840e-01, 1.03344254e-01, 4.93460223e-02,
          1.59939781e-01, 5.93829751e-01, 5.93829751e-01, 6.70283735e-02,
          1.92017332e-01, 4.13267314e-01, 1.46236658e-01, 1.42114282e-01,
          9.74032432e-02, 2.27664337e-02, 5.22992074e-01, 5.22992074e-01,
          6.30468968e-03, 1.14562819e-02, 2.35578306e-02, 5.22992074e-01,
          4.15509790e-01, 1.79494265e-02, 1.95886940e-01, 4.53746885e-01,
          2.86270946e-01, 9.16880518e-02, 1.24494791e-01, 4.53746885e-01,
          4.53746885e-01, 4.53746885e-01, 1.66416049e-01, 4.26341802e-01,
          4.45700884e-01, 4.45700884e-01, 4.16352190e-02, 1.08944476e-01,
          4.96672094e-02, 5.58063462e-02, 4.45700884e-01, 4.45700884e-01,
          3.08226384e-02, 4.48332191e-01, 5.18060684e-01, 2.89654103e-03,
          2.15025451e-02, 4.76319576e-03, 5.18060684e-01, 4.94171470e-01,
          1.06777906e-01, 1.95886940e-01, 4.53746885e-01, 2.86270946e-01,
          9.16880518e-02, 1.24494791e-01, 4.53746885e-01, 4.53746885e-01,
          4.53746885e-01, 1.66416049e-01, 4.26341802e-01, 4.45700884e-01,
          4.45700884e-01, 4.16352190e-02, 1.08944476e-01, 4.96672094e-02,
          5.58063462e-02, 4.45700884e-01, 4.45700884e-01, 3.08226384e-02,
          4.48332191e-01, 5.18060684e-01, 2.89654103e-03, 2.15025451e-02,
          4.76319576e-03, 5.18060684e-01, 4.94171470e-01, 1.06777906e-01,
          3.78743932e-02, 1.48360148e-01, 5.01838863e-01, 1.61993504e-01,
          6.93748072e-02, 1.27796173e-01, 5.47927737e-01, 5.47927737e-01,
          2.67216444e-01, 1.45765617e-01, 4.62052554e-01, 4.62052554e-01,
          3.43377471e-01, 7.66812963e-03, 1.05289090e-02, 4.57068384e-02,
          4.62052554e-01, 4.62052554e-01, 4.07335728e-01, 4.07335728e-01,
          4.07335728e-01, 1.40793920e-01, 1.93362180e-02, 5.60738370e-02,
          3.78124028e-01, 4.07335728e-01, 4.07335728e-01, 2.87105646e-02,
          5.82149550e-02, 1.47979975e-01, 1.17829796e-02, 1.28956009e-02,
          2.12281104e-02, 1.07448362e-01, 6.90901875e-01, 6.90901875e-01,
          8.32420141e-02, 1.01359718e-01, 4.92392689e-01, 4.92392689e-01,
          8.04186687e-02, 2.61339601e-02, 3.75857130e-02, 4.91898954e-01,
          4.92392689e-01, 1.69430286e-01, 3.15563791e-02, 2.05986261e-01,
          6.37337625e-01, 3.23908746e-01, 5.48422933e-01, 1.11172095e-01,
          8.27007815e-02, 3.00701588e-01, 3.67792815e-01, 3.67792815e-01,
          3.67792815e-01, 1.17844403e-01, 3.67792815e-01, 1.88513562e-01,
          3.67792815e-01, 3.67792815e-01, 3.67792815e-01, 1.75693154e-01,
          5.05566522e-02, 4.57208455e-02, 4.53228772e-01, 4.53228772e-01,
          1.66784912e-01, 4.53228772e-01, 4.53228772e-01, 3.32379192e-01,
          2.11016893e-01, 1.48477759e-02, 1.44674376e-01, 6.58841550e-01,
          6.58841550e-01, 2.83510052e-02, 7.56665394e-02, 5.51744550e-02,
          2.23663345e-01, 2.27664337e-02, 5.22992074e-01, 5.22992074e-01,
          6.30468968e-03, 1.14562819e-02, 2.35578306e-02, 5.22992074e-01,
          4.15509790e-01, 1.79494265e-02, 1.65888555e-02, 3.70736010e-02,
          9.20726135e-02, 5.98743595e-02, 6.64358810e-02, 3.81708257e-02,
          6.97441399e-01, 6.97441399e-01, 2.46190578e-02, 8.26585069e-02,
          3.41808796e-02, 6.16936266e-01, 6.16936266e-01, 2.59887874e-01,
          6.64838925e-02, 1.21705145e-01, 3.37126285e-01, 1.55533224e-01,
          3.08226384e-02, 4.48332191e-01, 5.18060684e-01, 2.89654103e-03,
          2.15025451e-02, 4.76319576e-03, 5.18060684e-01, 4.94171470e-01,
          1.06777906e-01, 4.81252819e-01, 4.19155449e-01, 7.22036064e-02,
          5.04911784e-03, 4.12764633e-03, 4.83098626e-02, 5.13989925e-01,
          5.13989925e-01, 2.27178410e-01, 4.51092064e-01, 3.19175333e-01,
          1.21815190e-01, 7.57005215e-02, 6.47490919e-02, 2.34356895e-01,
          4.51092064e-01, 4.51092064e-01, 4.51092064e-01, 3.08226384e-02,
          4.48332191e-01, 5.18060684e-01, 2.89654103e-03, 2.15025451e-02,
          4.76319576e-03, 5.18060684e-01, 4.94171470e-01, 1.06777906e-01,
          4.81252819e-01, 4.19155449e-01, 7.22036064e-02, 5.04911784e-03,
          4.12764633e-03, 4.83098626e-02, 5.13989925e-01, 5.13989925e-01,
          2.27178410e-01, 4.51092064e-01, 3.19175333e-01, 1.21815190e-01,
          7.57005215e-02, 6.47490919e-02, 2.34356895e-01, 4.51092064e-01,
          4.51092064e-01, 4.51092064e-01, 4.07335728e-01, 4.07335728e-01,
          4.07335728e-01, 1.40793920e-01, 1.93362180e-02, 5.60738370e-02,
          3.78124028e-01, 4.07335728e-01, 4.07335728e-01, 4.10356015e-01,
          4.10356015e-01, 3.43720615e-02, 4.10364568e-03, 1.17760571e-02,
          3.90644878e-01, 4.10356015e-01, 4.10356015e-01, 4.10356015e-01,
          2.20402211e-01, 3.26721579e-01, 2.46756431e-02, 1.14771938e-02,
          1.14918314e-02, 4.26525414e-01, 5.64760327e-01, 5.64760327e-01,
          1.35392934e-01, 1.69430286e-01, 3.15563791e-02, 2.05986261e-01,
          6.37337625e-01, 3.23908746e-01, 5.48422933e-01, 1.11172095e-01,
          8.27007815e-02, 3.00701588e-01, 4.39714551e-01, 6.61935285e-02,
          2.61528231e-02, 1.09404005e-01, 8.11383352e-02, 6.63023651e-01,
          5.68582833e-01, 3.91959250e-02, 1.09501138e-01, 4.90920544e-01,
          4.90920544e-01, 5.08016646e-02, 2.83438154e-02, 8.12140107e-02,
          4.90920544e-01, 4.90920544e-01, 1.24864593e-01, 7.42557347e-02 ]
      - [ 5.39559126e-01, 5.39559126e-01, 1.49833441e-01, 1.19839221e-01,
          2.83577859e-01, 5.39559126e-01, 3.50695923e-02, 1.53130004e-02,
          5.04713990e-02, 3.85032415e-01, 4.05716062e-01, 5.64148091e-02,
          3.08090877e-02, 5.31127095e-01, 6.27612293e-01, 2.18154471e-02,
          8.44948646e-03, 1.43556911e-02, 1.45259380e-01, 4.50859547e-01,
          4.50859547e-01, 3.85690957e-01, 4.50859547e-01, 4.50859547e-01,
          5.87836206e-02, 5.09103164e-02, 8.05848464e-02, 2.69787759e-01,
          2.94009417e-01, 5.49164265e-02, 4.78600152e-02, 2.79083371e-01,
          5.57942688e-01, 5.57942688e-01, 3.49340081e-01, 8.58425647e-02,
          5.02608776e-01, 5.02608776e-01, 2.08684072e-01, 4.68145944e-02,
          2.68563241e-01, 5.02608776e-01, 1.02180682e-01, 1.63165703e-01,
          2.86710113e-01, 2.15670660e-01, 5.81773400e-01, 5.81773400e-01,
          3.02551091e-01, 1.26550809e-01, 6.46165460e-02, 8.35136324e-02,
          1.62798390e-01, 3.54331583e-01, 4.33617905e-02, 5.91961592e-02,
          1.91940397e-01, 4.03083339e-02, 8.22657347e-02, 2.03255698e-01,
          6.69689178e-01, 6.69689178e-01, 6.64553493e-02, 4.47487086e-01,
          2.90253252e-01, 1.80722952e-01, 4.47487086e-01, 4.47487086e-01,
          4.47487086e-01, 1.16850033e-01, 9.94163603e-02, 2.32607245e-01,
          2.72083193e-01, 4.57011133e-01, 4.57011133e-01, 4.57011133e-01,
          4.57011133e-01, 1.45586759e-01, 1.39804438e-01, 1.63541049e-01,
          1.35951549e-01, 4.33617905e-02, 5.91961592e-02, 1.91940397e-01,
          4.03083339e-02, 8.22657347e-02, 2.03255698e-01, 6.69689178e-01,
          6.69689178e-01, 6.64553493e-02, 4.47487086e-01, 2.90253252e-01,
          1.80722952e-01, 4.47487086e-01, 4.47487086e-01, 4.47487086e-01,
          1.16850033e-01, 9.94163603e-02, 2.32607245e-01, 2.72083193e-01,
          4.57011133e-01, 4.57011133e-01, 4.57011133e-01, 4.57011133e-01,
          1.45586759e-01, 1.39804438e-01, 1.63541049e-01, 1.35951549e-01,
          2.41216328e-02, 1.58753395e-02, 7.32519850e-02, 3.21683884e-01,
          6.49997741e-02, 3.76666002e-02, 5.01730919e-01, 5.60066640e-01,
          5.60066640e-01, 5.38052797e-01, 1.51996329e-01, 7.28555471e-02,
          1.31686538e-01, 2.05665499e-01, 1.64765850e-01, 1.04526892e-01,
          5.38052797e-01, 5.38052797e-01, 3.64783764e-01, 4.52388585e-01,
          4.52388585e-01, 4.52388585e-01, 2.11236179e-01, 7.02264309e-02,
          2.45453522e-01, 3.41679633e-01, 1.47996351e-01, 2.62739211e-02,
          7.84664229e-03, 3.56018692e-02, 5.53184271e-01, 2.72700816e-01,
          2.37636198e-03, 6.81855949e-03, 5.53184271e-01, 5.53184271e-01,
          5.59891611e-02, 1.55720944e-02, 3.64379622e-02, 5.72946668e-01,
          6.45743757e-02, 2.31720898e-02, 7.95751251e-03, 5.72946668e-01,
          5.72946668e-01, 2.21048012e-01, 4.40809935e-01, 4.40809935e-01,
          3.36433291e-01, 1.12599909e-01, 5.56009188e-02, 2.01304704e-01,
          4.40809935e-01, 4.40809935e-01, 1.45259380e-01, 4.50859547e-01,
          4.50859547e-01, 3.85690957e-01, 4.50859547e-01, 4.50859547e-01,
          5.87836206e-02, 5.09103164e-02, 8.05848464e-02, 2.90991008e-01,
          3.61928195e-01, 3.61928195e-01, 3.61928195e-01, 3.61928195e-01,
          3.22361231e-01, 3.61928195e-01, 3.61928195e-01, 1.47782072e-01,
          2.19321072e-01, 1.53729737e-01, 4.04666245e-01, 4.04666245e-01,
          4.04666245e-01, 2.71023840e-01, 1.78871587e-01, 4.04666245e-01,
          4.04666245e-01, 2.15670660e-01, 5.81773400e-01, 5.81773400e-01,
          3.02551091e-01, 1.26550809e-01, 6.46165460e-02, 8.35136324e-02,
          1.62798390e-01, 3.54331583e-01, 2.69279063e-01, 3.39870036e-01,
          3.39870036e-01, 3.39870036e-01, 3.39870036e-01, 3.39870036e-01,
          3.39870036e-01, 3.39870036e-01, 3.39870036e-01, 3.74319255e-01,
          4.19850573e-02, 1.47862837e-01, 4.19132560e-01, 4.19132560e-01,
          4.19132560e-01, 1.31954849e-01, 3.34621459e-01, 4.19132560e-01,
          2.72083193e-01, 4.57011133e-01, 4.57011133e-01, 4.57011133e-01,
          4.57011133e-01, 1.45586759e-01, 1.39804438e-01, 1.63541049e-01,
          1.35951549e-01, 3.70958030e-01, 3.70958030e-01, 3.70958030e-01,
          2.81796932e-01, 3.70958030e-01, 3.70958030e-01, 2.75610119e-01,
          1.45214856e-01, 3.63024533e-01, 4.33936179e-01, 6.44835159e-02,
          7.90613890e-02, 3.94190282e-01, 4.33936179e-01, 4.09188449e-01,
          5.88049889e-02, 3.06717247e-01, 4.33936179e-01, 2.72083193e-01,
          4.57011133e-01, 4.57011133e-01, 4.57011133e-01, 4.57011133e-01,
          1.45586759e-01, 1.39804438e-01, 1.63541049e-01, 1.35951549e-01,
          3.70958030e-01, 3.70958030e-01, 3.70958030e-01, 2.81796932e-01,
          3.70958030e-01, 3.70958030e-01, 2.75610119e-01, 1.45214856e-01,
          3.63024533e-01, 4.33936179e-01, 6.44835159e-02, 7.90613890e-02,
          3.94190282e-01, 4.33936179e-01, 4.09188449e-01, 5.88049889e-02,
          3.06717247e-01, 4.33936179e-01, 3.64783764e-01, 4.52388585e-01,
          4.52388585e-01, 4.52388585e-01, 2.11236179e-01, 7.02264309e-02,
          2.45453522e-01, 3.41679633e-01, 1.47996351e-01, 3.63905132e-01,
          3.63905132e-01, 3.63905132e-01, 3.63905132e-01, 2.50703245e-01,
          1.61679626e-01, 3.35872561e-01, 3.63905132e-01, 3.63905132e-01,
          3.94866318e-01, 3.21222514e-01, 1.82803571e-01, 3.94866318e-01,
          3.94866318e-01, 3.94866318e-01, 1.82400957e-01, 2.15840593e-01,
          3.94866318e-01, 2.21048012e-01, 4.40809935e-01, 4.40809935e-01,
          3.36433291e-01, 1.12599909e-01, 5.56009188e-02, 2.01304704e-01,
          4.40809935e-01, 4.40809935e-01, 3.94254744e-01, 3.94254744e-01,
          3.94254744e-01, 3.94254744e-01, 2.32529476e-01, 2.29001597e-01,
          2.81744331e-01, 2.61022180e-01, 3.46828610e-01, 4.01070029e-01,
          1.83676407e-01, 3.15217495e-01, 1.82944432e-01, 3.95508081e-01,
          4.01070029e-01, 4.01070029e-01, 1.71959609e-01, 4.01070029e-01 ]
      - [ 5.17258883e-01, 5.17258883e-01, 2.24491566e-01, 6.57207221e-02,
          3.68586719e-01, 5.17258883e-01, 2.82588117e-02, 5.65128925e-04,
          2.81616859e-02, 4.66629148e-01, 3.68372083e-01, 2.29127761e-02,
          1.02618979e-02, 5.36938667e-01, 5.92530727e-01, 3.66878998e-03,
          5.56465983e-03, 2.39189789e-02, 1.22124679e-01, 4.83857155e-01,
          4.83857155e-01, 2.01886445e-01, 4.83857155e-01, 4.83857155e-01,
          3.89587656e-02, 2.28723884e-02, 3.13474983e-02, 3.15297127e-01,
          3.51544321e-01, 4.00366969e-02, 1.81708839e-02, 4.49110210e-01,
          4.93976414e-01, 4.93976414e-01, 2.71125019e-01, 8.30871016e-02,
          4.58709925e-01, 3.66178155e-01, 2.16151431e-01, 9.48264375e-02,
          4.58709925e-01, 4.58709925e-01, 1.76834345e-01, 1.86427146e-01,
          3.29163313e-01, 3.15519512e-01, 5.67992032e-01, 5.67992032e-01,
          2.92226464e-01, 2.06766948e-02, 1.32074937e-01, 2.02281214e-02,
          2.02891916e-01, 3.23579878e-01, 7.46235922e-02, 1.87697604e-01,
          2.54109770e-01, 6.71579540e-02, 5.05582914e-02, 9.94084775e-02,
          6.59198999e-01, 6.59198999e-01, 4.48676646e-02, 4.12003338e-01,
          4.12003338e-01, 2.54637927e-01, 2.31448680e-01, 4.12003338e-01,
          4.12003338e-01, 2.88608581e-01, 2.37796783e-01, 2.42169201e-01,
          3.37311715e-01, 4.43950474e-01, 4.43950474e-01, 4.43950474e-01,
          4.43950474e-01, 2.64822155e-01, 5.90204522e-02, 9.17242095e-02,
          1.06726699e-01, 7.46235922e-02, 1.87697604e-01, 2.54109770e-01,
          6.71579540e-02, 5.05582914e-02, 9.94084775e-02, 6.59198999e-01,
          6.59198999e-01, 4.48676646e-02, 4.12003338e-01, 4.12003338e-01,
          2.54637927e-01, 2.31448680e-01, 4.12003338e-01, 4.12003338e-01,
          2.88608581e-01, 2.37796783e-01, 2.42169201e-01, 3.37311715e-01,
          4.43950474e-01, 4.43950474e-01, 4.43950474e-01, 4.43950474e-01,
          2.64822155e-01, 5.90204522e-02, 9.17242095e-02, 1.06726699e-01,
          4.01719324e-02, 2.46093217e-02, 9.27278250e-02, 4.58964199e-01,
          6.08847477e-02, 3.54284458e-02, 5.06134689e-01, 5.06134689e-01,
          5.06134689e-01, 4.59140450e-01, 3.25884938e-01, 1.73774183e-01,
          1.84191629e-01, 2.73354650e-01, 2.78086692e-01, 2.01504320e-01,
          4.59140450e-01, 4.59140450e-01, 2.61594266e-01, 4.69585419e-01,
          4.69585419e-01, 4.69585419e-01, 2.20110029e-01, 3.59631032e-01,
          2.35200837e-01, 1.72373667e-01, 5.03166392e-02, 1.05518498e-01,
          1.63798824e-01, 3.11741680e-01, 5.29387236e-01, 1.34407371e-01,
          2.17612889e-02, 1.65747683e-02, 5.29387236e-01, 5.29387236e-01,
          4.14975099e-02, 7.38684321e-03, 3.03233992e-02, 5.71749091e-01,
          9.54607800e-02, 2.35293396e-02, 3.51735130e-02, 5.71749091e-01,
          5.71749091e-01, 4.22328919e-01, 4.22328919e-01, 4.22328919e-01,
          2.35830426e-01, 5.51420301e-02, 1.89732447e-01, 9.65278223e-02,
          4.22328919e-01, 4.22328919e-01, 1.22124679e-01, 4.83857155e-01,
          4.83857155e-01, 2.01886445e-01, 4.83857155e-01, 4.83857155e-01,
          3.89587656e-02, 2.28723884e-02, 3.13474983e-02, 3.46891522e-01,
          3.74231279e-01, 3.74231279e-01, 3.74231279e-01, 3.74231279e-01,
          1.91147432e-01, 3.74231279e-01, 3.60189706e-01, 9.69959721e-02,
          1.27196461e-01, 1.74837828e-01, 4.15083885e-01, 4.15083885e-01,
          4.15083885e-01, 9.43737254e-02, 2.80582726e-01, 4.15083885e-01,
          4.15083885e-01, 3.15519512e-01, 5.67992032e-01, 5.67992032e-01,
          2.92226464e-01, 2.06766948e-02, 1.32074937e-01, 2.02281214e-02,
          2.02891916e-01, 3.23579878e-01, 1.80459321e-01, 3.67973655e-01,
          3.67973655e-01, 3.67973655e-01, 2.08683446e-01, 3.28301132e-01,
          3.67973655e-01, 3.67973655e-01, 3.67973655e-01, 2.71197289e-01,
          7.53903016e-02, 2.22095177e-01, 4.03735608e-01, 4.03735608e-01,
          4.03735608e-01, 2.28902951e-01, 4.03735608e-01, 4.03735608e-01,
          3.37311715e-01, 4.43950474e-01, 4.43950474e-01, 4.43950474e-01,
          4.43950474e-01, 2.64822155e-01, 5.90204522e-02, 9.17242095e-02,
          1.06726699e-01, 3.64215285e-01, 3.64215285e-01, 3.64215285e-01,
          3.64215285e-01, 3.64215285e-01, 3.64215285e-01, 2.70920128e-01,
          1.59697622e-01, 3.18659037e-01, 4.63385493e-01, 6.09925985e-02,
          5.89345992e-02, 4.04599339e-01, 4.63385493e-01, 2.99868524e-01,
          9.92499962e-02, 2.83773869e-01, 4.63385493e-01, 3.37311715e-01,
          4.43950474e-01, 4.43950474e-01, 4.43950474e-01, 4.43950474e-01,
          2.64822155e-01, 5.90204522e-02, 9.17242095e-02, 1.06726699e-01,
          3.64215285e-01, 3.64215285e-01, 3.64215285e-01, 3.64215285e-01,
          3.64215285e-01, 3.64215285e-01, 2.70920128e-01, 1.59697622e-01,
          3.18659037e-01, 4.63385493e-01, 6.09925985e-02, 5.89345992e-02,
          4.04599339e-01, 4.63385493e-01, 2.99868524e-01, 9.92499962e-02,
          2.83773869e-01, 4.63385493e-01, 2.61594266e-01, 4.69585419e-01,
          4.69585419e-01, 4.69585419e-01, 2.20110029e-01, 3.59631032e-01,
          2.35200837e-01, 1.72373667e-01, 5.03166392e-02, 3.54876578e-01,
          3.54876578e-01, 3.54876578e-01, 3.54876578e-01, 2.91391730e-01,
          2.88726777e-01, 2.69365460e-01, 3.54876578e-01, 3.54876578e-01,
          3.90832782e-01, 3.30245852e-01, 1.91761315e-01, 3.90832782e-01,
          3.90832782e-01, 3.90832782e-01, 7.77425393e-02, 2.83664376e-01,
          3.90832782e-01, 4.22328919e-01, 4.22328919e-01, 4.22328919e-01,
          2.35830426e-01, 5.51420301e-02, 1.89732447e-01, 9.65278223e-02,
          4.22328919e-01, 4.22328919e-01, 4.02785689e-01, 4.02785689e-01,
          4.02785689e-01, 4.02785689e-01, 1.86276585e-01, 1.65910542e-01,
          2.91728288e-01, 1.93556294e-01, 4.02785689e-01, 3.96681100e-01,
          1.07919589e-01, 3.00176978e-01, 2.00007781e-01, 3.96681100e-01,
          3.96681100e-01, 3.96681100e-01, 2.59811282e-01, 3.96681100e-01 ]
      - [ 3.98079246e-01, 3.98079246e-01, 3.98079246e-01, 2.80254841e-01,
          2.85351366e-01, 3.98079246e-01, 3.98079246e-01, 1.03924237e-01,
          1.81437433e-01, 3.58823568e-01, 3.58823568e-01, 3.58823568e-01,
          3.58823568e-01, 3.58823568e-01, 3.58823568e-01, 3.03217679e-01,
          5.65112233e-02, 3.58823568e-01, 3.66223246e-01, 2.80585960e-02,
          1.31721392e-01, 4.93892193e-01, 4.26029712e-01, 2.61169369e-03,
          1.57186687e-02, 4.16168153e-01, 4.93892193e-01, 3.32090497e-01,
          3.67513478e-01, 3.67513478e-01, 3.05617929e-01, 4.69837114e-02,
          3.39269489e-01, 3.67513478e-01, 3.67513478e-01, 3.67513478e-01,
          4.12731022e-02, 4.01845783e-01, 4.01845783e-01, 4.01845783e-01,
          8.56814012e-02, 3.36685717e-01, 4.01845783e-01, 4.01845783e-01,
          2.57261306e-01, 8.67995173e-02, 3.61502469e-01, 4.77301568e-01,
          4.77301568e-01, 1.02055095e-01, 2.97834948e-02, 6.98889717e-02,
          3.96708399e-01, 4.77301568e-01, 2.63281018e-02, 4.82901096e-01,
          4.82901096e-01, 1.79575056e-01, 6.52613631e-03, 2.65942365e-02,
          4.82901096e-01, 4.82901096e-01, 1.69448540e-01, 6.69099092e-02,
          1.86750039e-01, 4.51819479e-01, 4.51819479e-01, 1.43642679e-01,
          2.44241599e-02, 4.51819479e-01, 4.51819479e-01, 3.44007641e-01,
          1.08457819e-01, 5.55465221e-02, 4.75971490e-01, 6.29966676e-01,
          4.71067786e-01, 5.84554337e-02, 1.14514902e-01, 2.21587569e-01,
          2.60611296e-01, 2.63281018e-02, 4.82901096e-01, 4.82901096e-01,
          1.79575056e-01, 6.52613631e-03, 2.65942365e-02, 4.82901096e-01,
          4.82901096e-01, 1.69448540e-01, 6.69099092e-02, 1.86750039e-01,
          4.51819479e-01, 4.51819479e-01, 1.43642679e-01, 2.44241599e-02,
          4.51819479e-01, 4.51819479e-01, 3.44007641e-01, 1.08457819e-01,
          5.55465221e-02, 4.75971490e-01, 6.29966676e-01, 4.71067786e-01,
          5.84554337e-02, 1.14514902e-01, 2.21587569e-01, 2.60611296e-01,
          4.67673643e-03, 9.70121920e-02, 5.53494573e-01, 5.53494573e-01,
          1.31167853e-02, 8.98018014e-03, 2.42038697e-01, 5.53494573e-01,
          8.44707265e-02, 4.40422148e-01, 3.16211730e-02, 2.03630313e-01,
          3.76919329e-01, 1.41012639e-01, 1.50580406e-02, 3.69840562e-01,
          4.79485333e-01, 4.79485333e-01, 4.62366968e-01, 1.77450553e-02,
          6.65588006e-02, 4.62366968e-01, 4.13253784e-01, 5.03824838e-02,
          8.37567747e-02, 4.11040932e-01, 4.62366968e-01, 2.29934324e-02,
          5.48262149e-03, 4.64594930e-01, 5.02384722e-01, 4.88955975e-02,
          9.97928251e-03, 1.37527227e-01, 5.02384722e-01, 5.02384722e-01,
          8.23864415e-02, 4.53099329e-03, 9.58180800e-02, 5.86157680e-01,
          5.86157680e-01, 3.88290808e-02, 5.68197761e-03, 2.46773049e-01,
          4.78078693e-01, 3.76266986e-01, 3.70080546e-02, 8.15560459e-04,
          2.95024127e-01, 4.90275145e-01, 4.90275145e-01, 4.76597473e-02,
          2.36398816e-01, 4.75627661e-01, 3.66223246e-01, 2.80585960e-02,
          1.31721392e-01, 4.93892193e-01, 4.26029712e-01, 2.61169369e-03,
          1.57186687e-02, 4.16168153e-01, 4.93892193e-01, 6.72893301e-02,
          2.11246498e-02, 7.08902478e-02, 4.65702504e-01, 3.74530435e-01,
          1.13302447e-01, 4.26147878e-01, 4.65702504e-01, 4.65702504e-01,
          3.71386856e-01, 1.96616367e-01, 3.71386856e-01, 3.71386856e-01,
          3.71386856e-01, 3.28510910e-01, 3.71386856e-01, 3.71386856e-01,
          1.48805276e-01, 8.67995173e-02, 3.61502469e-01, 4.77301568e-01,
          4.77301568e-01, 1.02055095e-01, 2.97834948e-02, 6.98889717e-02,
          3.96708399e-01, 4.77301568e-01, 1.42562259e-02, 1.20392181e-02,
          2.90303547e-02, 1.14474744e-01, 1.06225103e-01, 5.49740605e-02,
          3.46813470e-01, 6.49858117e-01, 6.49858117e-01, 4.21365462e-02,
          3.04086227e-02, 4.29397076e-01, 4.29397076e-01, 3.54973465e-01,
          3.18995237e-01, 4.29397076e-01, 4.29397076e-01, 1.66490078e-01,
          1.08457819e-01, 5.55465221e-02, 4.75971490e-01, 6.29966676e-01,
          4.71067786e-01, 5.84554337e-02, 1.14514902e-01, 2.21587569e-01,
          2.60611296e-01, 3.90917324e-02, 3.75607312e-02, 1.56795502e-01,
          4.86605018e-01, 4.86605018e-01, 1.30341202e-01, 4.86605018e-01,
          4.86605018e-01, 5.90725914e-02, 3.96857262e-01, 3.96857262e-01,
          3.96857262e-01, 2.12124303e-01, 1.35497600e-01, 9.07343701e-02,
          3.96857262e-01, 3.96857262e-01, 3.70091617e-01, 1.08457819e-01,
          5.55465221e-02, 4.75971490e-01, 6.29966676e-01, 4.71067786e-01,
          5.84554337e-02, 1.14514902e-01, 2.21587569e-01, 2.60611296e-01,
          3.90917324e-02, 3.75607312e-02, 1.56795502e-01, 4.86605018e-01,
          4.86605018e-01, 1.30341202e-01, 4.86605018e-01, 4.86605018e-01,
          5.90725914e-02, 3.96857262e-01, 3.96857262e-01, 3.96857262e-01,
          2.12124303e-01, 1.35497600e-01, 9.07343701e-02, 3.96857262e-01,
          3.96857262e-01, 3.70091617e-01, 4.62366968e-01, 1.77450553e-02,
          6.65588006e-02, 4.62366968e-01, 4.13253784e-01, 5.03824838e-02,
          8.37567747e-02, 4.11040932e-01, 4.62366968e-01, 3.40037584e-01,
          3.31994027e-01, 3.40037584e-01, 3.40037584e-01, 3.40037584e-01,
          2.77495414e-01, 3.40037584e-01, 3.40037584e-01, 3.40037584e-01,
          1.67600259e-01, 4.01700258e-01, 4.01700258e-01, 4.01700258e-01,
          3.00654292e-01, 4.01700258e-01, 4.01700258e-01, 2.62174189e-01,
          4.41963226e-02, 3.76266986e-01, 3.70080546e-02, 8.15560459e-04,
          2.95024127e-01, 4.90275145e-01, 4.90275145e-01, 4.76597473e-02,
          2.36398816e-01, 4.75627661e-01, 4.00176436e-01, 3.08323085e-01,
          3.99522334e-02, 1.15552224e-01, 4.00176436e-01, 4.00176436e-01,
          4.00176436e-01, 4.00176436e-01, 2.92035460e-01, 3.85412872e-01,
          3.85412872e-01, 3.85412872e-01, 2.36556277e-01, 1.95720837e-01,
          3.85412872e-01, 3.85412872e-01, 3.85412872e-01, 1.03081316e-01 ]
      - [ 4.18693125e-01, 4.18693125e-01, 3.16616893e-01, 1.78836863e-02,
          4.18693125e-01, 4.18693125e-01, 4.18693125e-01, 1.32838994e-01,
          3.29472572e-02, 4.46669430e-01, 4.46669430e-01, 3.01600825e-02,
          2.57305447e-02, 3.71657401e-01, 4.46669430e-01, 2.25080773e-01,
          8.43898058e-02, 4.46669430e-01, 4.09792811e-01, 4.09792811e-01,
          2.72531688e-01, 8.45478326e-02, 4.09792811e-01, 5.56531772e-02,
          4.09792811e-01, 2.67836392e-01, 4.09792811e-01, 4.63567704e-01,
          4.63567704e-01, 4.63567704e-01, 2.15220414e-02, 1.00186348e-01,
          3.48232538e-01, 4.63567704e-01, 5.85655198e-02, 2.43592244e-02,
          3.82454455e-01, 3.87745947e-01, 9.77433994e-02, 3.93947810e-02,
          4.63327974e-01, 4.63327974e-01, 4.63327974e-01, 1.84181273e-01,
          9.85233560e-02, 3.09027761e-01, 1.59101427e-01, 1.67597964e-01,
          1.57510310e-01, 5.56711078e-01, 4.70548004e-01, 3.96968156e-01,
          2.07957998e-01, 2.97586441e-01, 1.21540964e-01, 5.50544679e-01,
          5.50544679e-01, 4.47218418e-01, 2.50338376e-01, 1.00545153e-01,
          3.06725383e-01, 7.80292526e-02, 2.40645595e-02, 1.23625331e-01,
          2.13482335e-01, 2.31815517e-01, 1.10016048e-01, 3.40609699e-01,
          5.56876242e-01, 5.56876242e-01, 3.61429781e-01, 2.95040850e-02,
          4.19627726e-01, 4.19627726e-01, 1.77948922e-01, 9.47571099e-02,
          4.19627726e-01, 4.19627726e-01, 4.19627726e-01, 1.25736639e-01,
          2.42727607e-01, 1.21540964e-01, 5.50544679e-01, 5.50544679e-01,
          4.47218418e-01, 2.50338376e-01, 1.00545153e-01, 3.06725383e-01,
          7.80292526e-02, 2.40645595e-02, 1.23625331e-01, 2.13482335e-01,
          2.31815517e-01, 1.10016048e-01, 3.40609699e-01, 5.56876242e-01,
          5.56876242e-01, 3.61429781e-01, 2.95040850e-02, 4.19627726e-01,
          4.19627726e-01, 1.77948922e-01, 9.47571099e-02, 4.19627726e-01,
          4.19627726e-01, 4.19627726e-01, 1.25736639e-01, 2.42727607e-01,
          1.59819350e-01, 4.01710570e-01, 4.32577997e-01, 4.32577997e-01,
          1.28354028e-01, 4.32577997e-01, 4.32577997e-01, 1.83855489e-01,
          9.99635756e-02, 1.91479713e-01, 4.09170538e-01, 4.09170538e-01,
          2.47093946e-01, 4.09170538e-01, 4.09170538e-01, 4.09170538e-01,
          1.07876852e-01, 2.22379327e-01, 5.17779827e-01, 5.17779827e-01,
          5.17779827e-01, 2.41700798e-01, 2.69170642e-01, 1.82183385e-01,
          1.43472552e-01, 1.67501103e-02, 7.49212429e-02, 3.48485649e-01,
          3.49004239e-01, 3.49004239e-01, 3.49004239e-01, 1.49810180e-01,
          3.49004239e-01, 3.49004239e-01, 3.49004239e-01, 3.49004239e-01,
          3.55524659e-01, 3.55524659e-01, 3.55524659e-01, 3.55524659e-01,
          3.15599591e-01, 1.09818920e-01, 3.55524659e-01, 3.55524659e-01,
          3.55524659e-01, 3.03550214e-01, 4.53117818e-01, 4.53117818e-01,
          4.53117818e-01, 4.53117818e-01, 2.35718444e-01, 1.22729562e-01,
          6.58253804e-02, 8.43179226e-02, 4.09792811e-01, 4.09792811e-01,
          2.72531688e-01, 8.45478326e-02, 4.09792811e-01, 5.56531772e-02,
          4.09792811e-01, 2.67836392e-01, 4.09792811e-01, 4.25472468e-01,
          6.24512807e-02, 1.77650958e-01, 3.25131416e-01, 3.85785788e-01,
          3.42975795e-01, 1.31184906e-01, 4.41429943e-01, 4.41429943e-01,
          8.19362700e-02, 3.01926397e-02, 4.58477646e-01, 4.58477646e-01,
          3.18998009e-01, 1.73549399e-01, 1.22920021e-01, 4.58477646e-01,
          4.58477646e-01, 3.09027761e-01, 1.59101427e-01, 1.67597964e-01,
          1.57510310e-01, 5.56711078e-01, 4.70548004e-01, 3.96968156e-01,
          2.07957998e-01, 2.97586441e-01, 2.87560433e-01, 1.96242884e-01,
          1.39184952e-01, 8.32815990e-02, 5.58156788e-01, 5.58156788e-01,
          3.83941591e-01, 1.44798428e-01, 2.35499024e-01, 3.46268147e-01,
          3.48166972e-01, 3.48166972e-01, 3.48166972e-01, 1.67565018e-01,
          3.48166972e-01, 3.48166972e-01, 3.48166972e-01, 3.48166972e-01,
          4.19627726e-01, 4.19627726e-01, 1.77948922e-01, 9.47571099e-02,
          4.19627726e-01, 4.19627726e-01, 4.19627726e-01, 1.25736639e-01,
          2.42727607e-01, 5.41219652e-01, 5.41219652e-01, 4.17046137e-02,
          4.41679824e-03, 2.57144719e-01, 1.57516092e-01, 1.20503195e-01,
          9.28683802e-02, 5.41219652e-01, 3.98923248e-01, 3.98923248e-01,
          3.98923248e-01, 1.97782353e-01, 1.00687090e-02, 4.42389734e-02,
          3.98923248e-01, 3.98923248e-01, 3.98923248e-01, 4.19627726e-01,
          4.19627726e-01, 1.77948922e-01, 9.47571099e-02, 4.19627726e-01,
          4.19627726e-01, 4.19627726e-01, 1.25736639e-01, 2.42727607e-01,
          5.41219652e-01, 5.41219652e-01, 4.17046137e-02, 4.41679824e-03,
          2.57144719e-01, 1.57516092e-01, 1.20503195e-01, 9.28683802e-02,
          5.41219652e-01, 3.98923248e-01, 3.98923248e-01, 3.98923248e-01,
          1.97782353e-01, 1.00687090e-02, 4.42389734e-02, 3.98923248e-01,
          3.98923248e-01, 3.98923248e-01, 5.17779827e-01, 5.17779827e-01,
          5.17779827e-01, 2.41700798e-01, 2.69170642e-01, 1.82183385e-01,
          1.43472552e-01, 1.67501103e-02, 7.49212429e-02, 3.74266326e-01,
          3.74266326e-01, 2.54569054e-01, 3.74266326e-01, 3.74266326e-01,
          3.66680503e-01, 2.12275013e-01, 2.27076650e-01, 3.74266326e-01,
          9.61770788e-02, 1.97474480e-01, 1.56753153e-01, 2.81954911e-02,
          5.93750216e-02, 6.20490551e-01, 6.20490551e-01, 3.73760343e-01,
          8.33827704e-02, 3.03550214e-01, 4.53117818e-01, 4.53117818e-01,
          4.53117818e-01, 4.53117818e-01, 2.35718444e-01, 1.22729562e-01,
          6.58253804e-02, 8.43179226e-02, 7.76216090e-02, 4.87363786e-02,
          5.83317019e-02, 3.38754416e-01, 6.45433843e-01, 6.45433843e-01,
          1.67492241e-01, 3.04948594e-02, 6.96094558e-02, 4.34060901e-01,
          4.68489170e-01, 1.86981112e-01, 2.28303652e-02, 3.31313074e-01,
          4.68489170e-01, 4.68489170e-01, 5.64856678e-02, 4.82822396e-03 ]
      - [ 6.95828348e-02, 1.15572533e-03, 1.40681984e-02, 2.06878912e-02,
          9.66890976e-02, 5.52509367e-01, 5.52509367e-01, 5.52509367e-01,
          2.52715468e-01, 3.87526490e-03, 6.93963990e-02, 3.88768256e-01,
          2.23423839e-01, 4.65041637e-01, 4.65041637e-01, 4.65041637e-01,
          3.74515682e-01, 2.03000642e-02, 3.81729454e-01, 2.14083835e-01,
          2.63601094e-01, 2.82190144e-01, 3.81637305e-01, 3.76657009e-01,
          3.81729454e-01, 3.81729454e-01, 2.76709259e-01, 2.12579630e-02,
          4.76160087e-02, 1.49766374e-02, 1.61270518e-02, 1.16538011e-01,
          8.81848812e-01, 4.38857377e-01, 5.19655794e-02, 3.82459983e-02,
          3.77436802e-02, 1.98098198e-01, 5.54583967e-01, 6.36355728e-02,
          5.54583967e-01, 5.54583967e-01, 1.44143313e-01, 3.84279564e-02,
          6.92879856e-02, 4.28772420e-01, 4.28772420e-01, 4.28772420e-01,
          6.08435981e-02, 2.04107985e-01, 1.27644897e-01, 4.28772420e-01,
          3.35164100e-01, 2.93842494e-01, 1.01741984e-01, 1.99907452e-01,
          6.03005327e-02, 4.79279757e-02, 5.44268452e-02, 6.76255882e-01,
          6.76255882e-01, 1.01409845e-01, 9.54523385e-02, 3.09287757e-01,
          4.73562062e-01, 4.73562062e-01, 1.75347239e-01, 1.27258942e-01,
          3.52852285e-01, 3.34800392e-01, 1.98252514e-01, 3.58116448e-01,
          7.86428340e-03, 5.61006188e-01, 5.61006188e-01, 4.74756435e-02,
          2.29187659e-03, 3.07855420e-02, 5.36709487e-01, 2.70443976e-01,
          2.18242910e-02, 1.01741984e-01, 1.99907452e-01, 6.03005327e-02,
          4.79279757e-02, 5.44268452e-02, 6.76255882e-01, 6.76255882e-01,
          1.01409845e-01, 9.54523385e-02, 3.09287757e-01, 4.73562062e-01,
          4.73562062e-01, 1.75347239e-01, 1.27258942e-01, 3.52852285e-01,
          3.34800392e-01, 1.98252514e-01, 3.58116448e-01, 7.86428340e-03,
          5.61006188e-01, 5.61006188e-01, 4.74756435e-02, 2.29187659e-03,
          3.07855420e-02, 5.36709487e-01, 2.70443976e-01, 2.18242910e-02,
          7.10983351e-02, 1.58610314e-01, 4.58787858e-01, 2.91090667e-01,
          4.73278761e-02, 1.44138753e-01, 5.49841523e-01, 5.49841523e-01,
          2.03493997e-01, 4.56034601e-01, 4.57184225e-01, 4.57184225e-01,
          1.63619846e-01, 1.31792426e-02, 1.31231332e-02, 3.84315923e-02,
          3.63069236e-01, 4.57184225e-01, 2.61609197e-01, 4.67057139e-01,
          4.67057139e-01, 5.19502126e-02, 1.40767507e-02, 1.10947695e-02,
          2.87709802e-01, 4.32054877e-01, 4.67057139e-01, 5.97865088e-03,
          4.24454510e-02, 8.53433684e-02, 1.22729972e-01, 3.00751757e-02,
          1.61242839e-02, 1.00176655e-01, 6.91993058e-01, 6.91993058e-01,
          8.45424458e-02, 1.34972885e-01, 4.96851921e-01, 4.96851921e-01,
          2.30674818e-01, 3.14285327e-03, 2.25481708e-02, 4.18757617e-01,
          4.96851921e-01, 1.98704794e-01, 1.36806399e-01, 3.56078207e-01,
          5.19878387e-01, 5.19878387e-01, 2.05940425e-01, 6.14703186e-02,
          1.76064894e-01, 4.38270092e-01, 3.81729454e-01, 2.14083835e-01,
          2.63601094e-01, 2.82190144e-01, 3.81637305e-01, 3.76657009e-01,
          3.81729454e-01, 3.81729454e-01, 2.76709259e-01, 2.48474047e-01,
          3.41841549e-01, 3.41841549e-01, 3.41841549e-01, 3.41841549e-01,
          3.41841549e-01, 3.41841549e-01, 3.41841549e-01, 3.41841549e-01,
          1.89200014e-01, 4.96953309e-01, 4.96953309e-01, 4.96953309e-01,
          4.49488968e-01, 7.88006708e-02, 4.62794676e-02, 5.69200441e-02,
          6.87085241e-02, 4.28772420e-01, 4.28772420e-01, 4.28772420e-01,
          6.08435981e-02, 2.04107985e-01, 1.27644897e-01, 4.28772420e-01,
          3.35164100e-01, 2.93842494e-01, 1.90340981e-01, 9.12441537e-02,
          1.44676700e-01, 2.56927818e-01, 2.87684262e-01, 1.00909434e-01,
          5.55326998e-01, 5.55326998e-01, 3.91452074e-01, 9.55796540e-02,
          8.68262202e-02, 2.43104383e-01, 6.60907328e-01, 6.60907328e-01,
          9.60306153e-02, 7.30809793e-02, 8.31456780e-02, 1.50183588e-01,
          7.86428340e-03, 5.61006188e-01, 5.61006188e-01, 4.74756435e-02,
          2.29187659e-03, 3.07855420e-02, 5.36709487e-01, 2.70443976e-01,
          2.18242910e-02, 1.34073839e-01, 9.28954482e-02, 1.70658961e-01,
          3.16115655e-02, 4.46926765e-02, 3.74638364e-02, 6.79998577e-01,
          6.79998577e-01, 9.10233557e-02, 3.52888316e-01, 1.64909333e-01,
          3.52888316e-01, 3.52888316e-01, 3.52888316e-01, 3.12358826e-01,
          3.52888316e-01, 3.52888316e-01, 3.52888316e-01, 7.86428340e-03,
          5.61006188e-01, 5.61006188e-01, 4.74756435e-02, 2.29187659e-03,
          3.07855420e-02, 5.36709487e-01, 2.70443976e-01, 2.18242910e-02,
          1.34073839e-01, 9.28954482e-02, 1.70658961e-01, 3.16115655e-02,
          4.46926765e-02, 3.74638364e-02, 6.79998577e-01, 6.79998577e-01,
          9.10233557e-02, 3.52888316e-01, 1.64909333e-01, 3.52888316e-01,
          3.52888316e-01, 3.52888316e-01, 3.12358826e-01, 3.52888316e-01,
          3.52888316e-01, 3.52888316e-01, 2.61609197e-01, 4.67057139e-01,
          4.67057139e-01, 5.19502126e-02, 1.40767507e-02, 1.10947695e-02,
          2.87709802e-01, 4.32054877e-01, 4.67057139e-01, 4.39929545e-01,
          4.39929545e-01, 1.40603319e-01, 5.25849126e-03, 5.53726871e-03,
          8.99331793e-02, 4.39929545e-01, 4.39929545e-01, 4.39929545e-01,
          4.66130227e-01, 2.84995854e-01, 7.16166273e-02, 8.15400388e-04,
          8.81977938e-03, 1.99510798e-01, 4.66130227e-01, 4.66130227e-01,
          4.66130227e-01, 1.98704794e-01, 1.36806399e-01, 3.56078207e-01,
          5.19878387e-01, 5.19878387e-01, 2.05940425e-01, 6.14703186e-02,
          1.76064894e-01, 4.38270092e-01, 4.43312794e-01, 1.52533025e-01,
          3.13202664e-02, 1.92953721e-01, 2.18637526e-01, 6.35939300e-01,
          4.64110672e-01, 1.28578812e-01, 2.26922512e-01, 4.42250818e-01,
          4.42250818e-01, 4.65520807e-02, 7.75403157e-02, 2.30570376e-01,
          4.42250818e-01, 4.42250818e-01, 3.26685071e-01, 2.12541088e-01 ]
      - [ 4.45351511e-01, 4.45351511e-01, 3.50384176e-01, 2.21433444e-03,
          8.96541402e-02, 2.65729606e-01, 4.45351511e-01, 2.94457138e-01,
          3.35273594e-01, 4.50374037e-01, 4.50374037e-01, 4.30708140e-01,
          9.35994647e-03, 1.96985632e-01, 4.50374037e-01, 3.08622539e-01,
          1.08950930e-02, 2.59276092e-01, 1.13101505e-01, 2.34407097e-01,
          1.44312173e-01, 1.84831157e-01, 5.17073572e-01, 5.17073572e-01,
          5.17073572e-01, 2.39854217e-01, 1.11729592e-01, 4.30143565e-01,
          4.81682122e-01, 1.72529936e-01, 3.97622306e-03, 1.67347156e-02,
          4.81682122e-01, 4.81682122e-01, 2.62308359e-01, 1.23468354e-01,
          1.26088768e-01, 5.08574188e-01, 2.82665998e-01, 4.19023819e-02,
          1.40634388e-01, 5.55170178e-01, 5.55170178e-01, 3.66551764e-02,
          2.65449751e-02, 2.79285431e-01, 3.78321052e-01, 1.32302403e-01,
          2.82427877e-01, 3.36523414e-01, 3.78321052e-01, 3.78321052e-01,
          3.78321052e-01, 3.67689073e-01, 1.09420851e-01, 5.03332376e-01,
          2.68690258e-01, 7.61379534e-03, 1.74071789e-02, 5.72720468e-01,
          5.72720468e-01, 1.36604533e-02, 1.43212359e-02, 3.86741251e-01,
          4.27803338e-01, 3.43559712e-01, 4.57921065e-02, 1.30192131e-01,
          4.27803338e-01, 4.27803338e-01, 1.56212166e-01, 3.68277371e-01,
          3.88250321e-01, 3.88250321e-01, 3.88250321e-01, 1.80073097e-01,
          2.08535865e-01, 3.37842256e-01, 2.28864238e-01, 3.88250321e-01,
          3.88250321e-01, 1.09420851e-01, 5.03332376e-01, 2.68690258e-01,
          7.61379534e-03, 1.74071789e-02, 5.72720468e-01, 5.72720468e-01,
          1.36604533e-02, 1.43212359e-02, 3.86741251e-01, 4.27803338e-01,
          3.43559712e-01, 4.57921065e-02, 1.30192131e-01, 4.27803338e-01,
          4.27803338e-01, 1.56212166e-01, 3.68277371e-01, 3.88250321e-01,
          3.88250321e-01, 3.88250321e-01, 1.80073097e-01, 2.08535865e-01,
          3.37842256e-01, 2.28864238e-01, 3.88250321e-01, 3.88250321e-01,
          8.97300690e-02, 4.94655699e-01, 4.94655699e-01, 7.03854710e-02,
          5.17944880e-02, 4.94655699e-01, 4.94655699e-01, 2.44216267e-02,
          6.15304196e-03, 1.90563023e-01, 5.33210039e-01, 5.33210039e-01,
          3.08951855e-01, 1.18699424e-01, 2.64154822e-01, 3.84165615e-01,
          1.91547394e-01, 1.61686882e-01, 1.57709464e-01, 4.14514571e-01,
          4.33074296e-01, 3.28667998e-01, 1.56037793e-01, 9.35105085e-02,
          4.33074296e-01, 4.18963104e-01, 3.27456862e-01, 4.24217850e-01,
          4.55941170e-01, 4.55941170e-01, 1.53212607e-01, 1.82975605e-01,
          4.55941170e-01, 3.61520201e-01, 6.02984242e-02, 2.34761816e-02,
          4.13096875e-01, 4.80406344e-01, 4.80406344e-01, 1.61618054e-01,
          5.44631034e-02, 2.05231570e-02, 1.01432502e-01, 3.03949833e-01,
          4.80406344e-01, 5.36702514e-01, 5.36702514e-01, 2.84662843e-01,
          1.35860711e-01, 6.93736300e-02, 3.73942219e-02, 8.14208835e-02,
          1.34759486e-01, 5.36702514e-01, 1.13101505e-01, 2.34407097e-01,
          1.44312173e-01, 1.84831157e-01, 5.17073572e-01, 5.17073572e-01,
          5.17073572e-01, 2.39854217e-01, 1.11729592e-01, 1.45771444e-01,
          4.64446634e-01, 1.85656518e-01, 4.64446634e-01, 4.64446634e-01,
          2.70192534e-01, 3.48118067e-01, 2.65982896e-01, 1.66054457e-01,
          7.63699934e-02, 2.89331436e-01, 4.92216885e-01, 5.48345089e-01,
          5.48345089e-01, 4.25563343e-02, 8.46800134e-02, 2.11071759e-01,
          8.83394703e-02, 2.79285431e-01, 3.78321052e-01, 1.32302403e-01,
          2.82427877e-01, 3.36523414e-01, 3.78321052e-01, 3.78321052e-01,
          3.78321052e-01, 3.67689073e-01, 3.45485866e-01, 3.62141103e-01,
          3.62141103e-01, 1.61389276e-01, 3.62141103e-01, 3.62141103e-01,
          3.62141103e-01, 3.28623325e-01, 2.95382321e-01, 3.47680360e-01,
          3.73349965e-01, 3.73349965e-01, 3.73349965e-01, 2.92159557e-01,
          3.25242013e-01, 3.73349965e-01, 2.84060955e-01, 2.14470148e-01,
          3.88250321e-01, 3.88250321e-01, 3.88250321e-01, 1.80073097e-01,
          2.08535865e-01, 3.37842256e-01, 2.28864238e-01, 3.88250321e-01,
          3.88250321e-01, 3.70819062e-01, 3.70819062e-01, 3.70819062e-01,
          3.18265676e-01, 2.27945507e-01, 1.34173110e-01, 3.70819062e-01,
          3.70819062e-01, 3.70819062e-01, 4.15186971e-01, 4.15186971e-01,
          4.15186971e-01, 1.36602968e-01, 4.28507216e-02, 6.95716888e-02,
          4.15186971e-01, 4.15186971e-01, 3.29567224e-01, 3.88250321e-01,
          3.88250321e-01, 3.88250321e-01, 1.80073097e-01, 2.08535865e-01,
          3.37842256e-01, 2.28864238e-01, 3.88250321e-01, 3.88250321e-01,
          3.70819062e-01, 3.70819062e-01, 3.70819062e-01, 3.18265676e-01,
          2.27945507e-01, 1.34173110e-01, 3.70819062e-01, 3.70819062e-01,
          3.70819062e-01, 4.15186971e-01, 4.15186971e-01, 4.15186971e-01,
          1.36602968e-01, 4.28507216e-02, 6.95716888e-02, 4.15186971e-01,
          4.15186971e-01, 3.29567224e-01, 1.57709464e-01, 4.14514571e-01,
          4.33074296e-01, 3.28667998e-01, 1.56037793e-01, 9.35105085e-02,
          4.33074296e-01, 4.18963104e-01, 3.27456862e-01, 1.64241850e-01,
          2.63782501e-01, 4.79664564e-01, 3.38502526e-01, 6.52641654e-02,
          1.43188059e-01, 4.79664564e-01, 4.79664564e-01, 2.62815505e-01,
          1.33672208e-01, 3.03284854e-01, 4.47548389e-01, 4.47548389e-01,
          1.24733567e-01, 2.77774245e-01, 4.47548389e-01, 4.19287056e-01,
          1.27523363e-01, 5.36702514e-01, 5.36702514e-01, 2.84662843e-01,
          1.35860711e-01, 6.93736300e-02, 3.73942219e-02, 8.14208835e-02,
          1.34759486e-01, 5.36702514e-01, 6.02539599e-01, 2.15368569e-01,
          2.18076915e-01, 9.62059721e-02, 3.84362787e-02, 8.05030540e-02,
          1.38537094e-01, 3.70848358e-01, 6.02539599e-01, 4.93768990e-01,
          4.93768990e-01, 1.35223895e-01, 1.02861419e-01, 4.49824184e-02,
          1.27718225e-01, 2.53104687e-01, 3.90360981e-01, 4.93768990e-01 ]
      - [ 1.62477061e-01, 4.83634144e-01, 4.83634144e-01, 3.63842584e-02,
          2.77522597e-02, 1.34811725e-03, 4.83634144e-01, 4.83634144e-01,
          1.76258475e-01, 4.24156338e-01, 4.24156338e-01, 4.24156338e-01,
          4.24156338e-01, 3.09291601e-01, 1.65738594e-02, 6.07118290e-03,
          1.57205965e-02, 4.24156338e-01, 3.14317614e-01, 2.95447409e-01,
          4.18936670e-01, 4.85149533e-01, 4.85149533e-01, 2.49893934e-01,
          8.26020688e-02, 1.68335333e-01, 2.55371869e-01, 1.83765501e-01,
          5.32649696e-01, 5.32649696e-01, 2.63725668e-02, 1.25473309e-02,
          8.65597799e-02, 5.32649696e-01, 2.25723103e-01, 2.24648640e-01,
          5.41800380e-01, 5.41800380e-01, 3.35061222e-01, 3.03290058e-02,
          1.36192646e-02, 2.91993096e-03, 3.11288750e-03, 2.36001499e-02,
          5.41800380e-01, 6.52560472e-01, 4.78672571e-02, 9.26469117e-02,
          1.38956651e-01, 1.24991052e-01, 5.11165895e-02, 4.76335958e-02,
          3.01871449e-01, 6.52560472e-01, 2.84695420e-02, 5.96936166e-01,
          5.96936166e-01, 1.57218814e-01, 5.49451709e-02, 1.34646401e-01,
          4.77651358e-01, 7.75561705e-02, 2.30509024e-02, 4.11393225e-01,
          4.11393225e-01, 4.11393225e-01, 3.86352181e-01, 4.11393225e-01,
          2.00099368e-02, 0., 0., 4.11393225e-01, 5.36038280e-01,
          3.31086963e-02, 3.95627739e-03, 3.62655163e-01, 5.36038280e-01,
          2.27216026e-03, 0., 0., 5.36038280e-01, 2.84695420e-02,
          5.96936166e-01, 5.96936166e-01, 1.57218814e-01, 5.49451709e-02,
          1.34646401e-01, 4.77651358e-01, 7.75561705e-02, 2.30509024e-02,
          4.11393225e-01, 4.11393225e-01, 4.11393225e-01, 3.86352181e-01,
          4.11393225e-01, 2.00099368e-02, 0., 0., 4.11393225e-01,
          5.36038280e-01, 3.31086963e-02, 3.95627739e-03, 3.62655163e-01,
          5.36038280e-01, 2.27216026e-03, 0., 0., 5.36038280e-01,
          4.45098132e-01, 4.45098132e-01, 4.45098132e-01, 3.41459632e-01,
          1.45228073e-01, 1.49004743e-01, 9.30062309e-02, 1.85919598e-01,
          4.45098132e-01, 2.99304783e-01, 8.23464692e-02, 4.71509069e-01,
          4.72644180e-01, 5.35618246e-01, 2.23738164e-01, 0.,
          1.49606578e-02, 3.39711428e-01, 3.28435838e-01, 4.12177108e-02,
          5.15701249e-02, 6.42453909e-01, 6.42453909e-01, 9.71616153e-03,
          0., 1.45694369e-03, 2.36149937e-01, 5.74711144e-01,
          2.30102077e-01, 1.01159886e-01, 9.45999548e-02, 4.30332452e-01,
          1.00046188e-01, 4.61247675e-02, 2.53423005e-01, 5.74711144e-01,
          5.64526618e-01, 7.05607384e-02, 2.89883576e-02, 1.19283803e-01,
          5.64526618e-01, 1.33034781e-01, 0., 2.33620089e-02,
          5.64526618e-01, 5.74501991e-01, 5.48041388e-02, 1.45696014e-01,
          3.58691543e-01, 4.13439840e-01, 7.36142918e-02, 2.37854030e-02,
          6.59578145e-02, 5.74501991e-01, 3.14317614e-01, 2.95447409e-01,
          4.18936670e-01, 4.85149533e-01, 4.85149533e-01, 2.49893934e-01,
          8.26020688e-02, 1.68335333e-01, 2.55371869e-01, 3.82057071e-01,
          4.18548360e-02, 2.16469258e-01, 5.13362348e-01, 5.13362348e-01,
          4.69490103e-02, 6.39557764e-02, 5.81144094e-02, 5.13362348e-01,
          4.78806734e-01, 5.83612472e-02, 8.06177482e-02, 4.78806734e-01,
          4.78806734e-01, 9.49380100e-02, 1.23522557e-01, 2.09804356e-01,
          4.78806734e-01, 6.52560472e-01, 4.78672571e-02, 9.26469117e-02,
          1.38956651e-01, 1.24991052e-01, 5.11165895e-02, 4.76335958e-02,
          3.01871449e-01, 6.52560472e-01, 5.29858053e-01, 9.15248990e-02,
          2.03700379e-01, 5.29858053e-01, 2.99325943e-01, 2.71829311e-03,
          2.94912583e-03, 1.13917299e-01, 5.29858053e-01, 1.29024073e-01,
          8.48143175e-03, 3.27349938e-02, 4.89720106e-01, 4.89720106e-01,
          1.13114081e-01, 7.22498372e-02, 4.89720106e-01, 4.89720106e-01,
          5.36038280e-01, 3.31086963e-02, 3.95627739e-03, 3.62655163e-01,
          5.36038280e-01, 2.27216026e-03, 0., 0., 5.36038280e-01,
          5.47323942e-01, 6.26009132e-04, 0., 1.50762931e-01,
          5.47323942e-01, 4.07402478e-02, 5.72159095e-03, 2.67247856e-01,
          5.47323942e-01, 4.40180004e-01, 1.28656793e-02, 7.41488580e-03,
          8.50294679e-02, 1.92323118e-01, 3.50218490e-02, 4.70726937e-02,
          6.13285005e-01, 6.13285005e-01, 5.36038280e-01, 3.31086963e-02,
          3.95627739e-03, 3.62655163e-01, 5.36038280e-01, 2.27216026e-03,
          0., 0., 5.36038280e-01, 5.47323942e-01, 6.26009132e-04, 0.,
          1.50762931e-01, 5.47323942e-01, 4.07402478e-02, 5.72159095e-03,
          2.67247856e-01, 5.47323942e-01, 4.40180004e-01, 1.28656793e-02,
          7.41488580e-03, 8.50294679e-02, 1.92323118e-01, 3.50218490e-02,
          4.70726937e-02, 6.13285005e-01, 6.13285005e-01, 3.28435838e-01,
          4.12177108e-02, 5.15701249e-02, 6.42453909e-01, 6.42453909e-01,
          9.71616153e-03, 0., 1.45694369e-03, 2.36149937e-01,
          1.15345940e-01, 1.11753093e-02, 2.82307807e-02, 6.87168241e-01,
          6.87168241e-01, 2.32526790e-02, 5.01128845e-03, 7.88458213e-02,
          1.66525647e-01, 1.01422131e-01, 2.94849016e-02, 9.20892283e-02,
          6.58405960e-01, 6.58405960e-01, 1.00290224e-01, 1.02198690e-01,
          1.49225414e-01, 2.53027171e-01, 5.74501991e-01, 5.48041388e-02,
          1.45696014e-01, 3.58691543e-01, 4.13439840e-01, 7.36142918e-02,
          2.37854030e-02, 6.59578145e-02, 5.74501991e-01, 4.54836667e-01,
          1.40875410e-02, 4.55876030e-02, 4.50589448e-01, 3.25550109e-01,
          4.01852168e-02, 2.48841792e-01, 4.54836667e-01, 4.54836667e-01,
          1.00938104e-01, 0., 3.71188787e-03, 4.92414862e-01,
          4.92414862e-01, 2.21602768e-01, 7.21435845e-02, 4.50721830e-01,
          4.92414862e-01 ]
      - [ 4.35955465e-01, 7.40917772e-02, 3.05006206e-02, 1.02499746e-01,
          4.74010617e-01, 2.74969518e-01, 4.74010617e-01, 4.74010617e-01,
          1.96509361e-01, 4.60927010e-01, 2.92955011e-01, 4.60927010e-01,
          4.60927010e-01, 4.60927010e-01, 9.31094512e-02, 5.67611679e-03,
          3.30506600e-02, 2.23527789e-01, 1.23199195e-01, 6.49528950e-02,
          4.29775447e-01, 2.52252370e-01, 4.29775447e-01, 4.05004174e-01,
          4.29775447e-01, 4.29775447e-01, 9.91084278e-02, 5.14044225e-01,
          2.34995902e-01, 2.70276189e-01, 7.34122470e-02, 1.49726188e-02,
          1.37999905e-02, 3.47402632e-01, 5.14044225e-01, 4.60019946e-01,
          5.63257396e-01, 3.08206588e-01, 4.39885765e-01, 1.92291170e-01,
          7.22637028e-02, 1.19623177e-01, 4.66165617e-02, 1.12632953e-01,
          5.63257396e-01, 4.13904995e-01, 7.08818138e-02, 2.78883964e-01,
          3.01936328e-01, 4.02878344e-01, 1.78711072e-01, 3.37192118e-01,
          4.13904995e-01, 4.13904995e-01, 9.05328020e-02, 1.47721782e-01,
          5.00903189e-01, 4.39570606e-01, 3.96986865e-02, 5.94578460e-02,
          5.00903189e-01, 5.00903189e-01, 1.18042059e-01, 3.61447483e-01,
          1.68931752e-01, 3.75622153e-01, 3.75622153e-01, 2.49702841e-01,
          3.32830817e-01, 3.15546095e-01, 3.75622153e-01, 3.75622153e-01,
          1.79123387e-01, 9.25108194e-02, 4.30210590e-01, 4.30210590e-01,
          1.93081528e-01, 3.56389470e-02, 4.30210590e-01, 4.30210590e-01,
          4.19742614e-01, 9.05328020e-02, 1.47721782e-01, 5.00903189e-01,
          4.39570606e-01, 3.96986865e-02, 5.94578460e-02, 5.00903189e-01,
          5.00903189e-01, 1.18042059e-01, 3.61447483e-01, 1.68931752e-01,
          3.75622153e-01, 3.75622153e-01, 2.49702841e-01, 3.32830817e-01,
          3.15546095e-01, 3.75622153e-01, 3.75622153e-01, 1.79123387e-01,
          9.25108194e-02, 4.30210590e-01, 4.30210590e-01, 1.93081528e-01,
          3.56389470e-02, 4.30210590e-01, 4.30210590e-01, 4.19742614e-01,
          1.77647453e-02, 4.64235656e-02, 4.85561103e-01, 4.85561103e-01,
          9.13059860e-02, 1.22266542e-02, 4.85561103e-01, 4.85561103e-01,
          2.02768058e-01, 9.32077169e-02, 9.54939872e-02, 4.46247816e-01,
          4.46247816e-01, 4.46247816e-01, 7.14917853e-02, 2.92958170e-01,
          4.46247816e-01, 3.00419211e-01, 5.88283800e-02, 1.40685067e-01,
          3.99621695e-01, 3.29500705e-01, 5.22224903e-01, 2.42393926e-01,
          2.39135727e-01, 5.22224903e-01, 2.04657987e-01, 4.00766701e-01,
          3.05710375e-01, 4.00766701e-01, 4.00766701e-01, 8.78601596e-02,
          2.78892730e-05, 3.03692043e-01, 4.00766701e-01, 4.00166631e-01,
          1.73288852e-01, 2.68213786e-02, 1.05456039e-01, 8.52186605e-02,
          2.13020995e-01, 1.11847937e-01, 6.55384123e-01, 6.55384123e-01,
          1.65471509e-01, 3.90641272e-01, 3.33249688e-01, 3.90641272e-01,
          3.90641272e-01, 3.90641272e-01, 1.75661072e-01, 1.37706503e-01,
          2.68736422e-01, 3.90641272e-01, 1.23199195e-01, 6.49528950e-02,
          4.29775447e-01, 2.52252370e-01, 4.29775447e-01, 4.05004174e-01,
          4.29775447e-01, 4.29775447e-01, 9.91084278e-02, 1.40996322e-01,
          1.33018300e-01, 4.13738638e-01, 4.13738638e-01, 4.13738638e-01,
          1.64292455e-01, 4.13738638e-01, 4.13738638e-01, 2.74595648e-01,
          1.34895653e-01, 8.27310234e-02, 5.39606690e-01, 5.39606690e-01,
          7.23400339e-02, 5.41121000e-03, 2.18810767e-01, 5.39606690e-01,
          2.07131460e-01, 4.13904995e-01, 7.08818138e-02, 2.78883964e-01,
          3.01936328e-01, 4.02878344e-01, 1.78711072e-01, 3.37192118e-01,
          4.13904995e-01, 4.13904995e-01, 4.04458970e-01, 7.08131269e-02,
          3.28115523e-01, 1.52508497e-01, 2.23732412e-01, 1.52810961e-01,
          4.55529839e-01, 4.55529839e-01, 4.55529839e-01, 4.08794917e-02,
          1.11647658e-01, 5.72515905e-01, 5.72515905e-01, 2.65658624e-03,
          1.78561956e-02, 1.16428576e-01, 5.15205443e-01, 2.12790608e-01,
          1.79123387e-01, 9.25108194e-02, 4.30210590e-01, 4.30210590e-01,
          1.93081528e-01, 3.56389470e-02, 4.30210590e-01, 4.30210590e-01,
          4.19742614e-01, 5.15729152e-02, 3.52911949e-02, 4.38342690e-01,
          2.53387958e-01, 7.60476738e-02, 6.38812482e-02, 5.66927612e-01,
          5.95257998e-01, 2.19540849e-01, 1.38418674e-01, 1.72076315e-01,
          5.84890187e-01, 5.84890187e-01, 1.37637981e-04, 1.34004829e-02,
          9.16095600e-02, 3.48320782e-01, 3.62349719e-01, 1.79123387e-01,
          9.25108194e-02, 4.30210590e-01, 4.30210590e-01, 1.93081528e-01,
          3.56389470e-02, 4.30210590e-01, 4.30210590e-01, 4.19742614e-01,
          5.15729152e-02, 3.52911949e-02, 4.38342690e-01, 2.53387958e-01,
          7.60476738e-02, 6.38812482e-02, 5.66927612e-01, 5.95257998e-01,
          2.19540849e-01, 1.38418674e-01, 1.72076315e-01, 5.84890187e-01,
          5.84890187e-01, 1.37637981e-04, 1.34004829e-02, 9.16095600e-02,
          3.48320782e-01, 3.62349719e-01, 5.88283800e-02, 1.40685067e-01,
          3.99621695e-01, 3.29500705e-01, 5.22224903e-01, 2.42393926e-01,
          2.39135727e-01, 5.22224903e-01, 2.04657987e-01, 3.78499664e-02,
          5.09367511e-02, 2.18786746e-01, 1.66072756e-01, 4.68923390e-01,
          4.68923390e-01, 4.68923390e-01, 4.68923390e-01, 1.90486118e-01,
          1.09340064e-01, 9.33663622e-02, 4.72802788e-01, 4.72802788e-01,
          6.51847851e-03, 5.83301671e-02, 4.72802788e-01, 4.72802788e-01,
          2.77471036e-01, 3.90641272e-01, 3.33249688e-01, 3.90641272e-01,
          3.90641272e-01, 3.90641272e-01, 1.75661072e-01, 1.37706503e-01,
          2.68736422e-01, 3.90641272e-01, 3.81448746e-01, 9.62989181e-02,
          1.57355189e-01, 3.81448746e-01, 3.81448746e-01, 3.81448746e-01,
          3.48110795e-01, 3.36835474e-01, 3.81448746e-01, 3.12042683e-01,
          5.79973422e-02, 2.96132386e-01, 1.21220559e-01, 2.98785806e-01,
          3.55881214e-01, 4.38396066e-01, 4.38396066e-01, 4.38396066e-01 ]
      - [ 3.79226953e-01, 3.53692323e-01, 3.79226953e-01, 3.79226953e-01,
          7.47325942e-02, 7.46611133e-02, 3.79226953e-01, 3.75351310e-01,
          3.79226953e-01, 4.58313912e-01, 1.96057662e-01, 3.35539371e-01,
          4.11685072e-02, 2.94006970e-02, 4.03860547e-02, 4.58313912e-01,
          4.58313912e-01, 4.58313912e-01, 4.25879300e-01, 4.25879300e-01,
          4.25879300e-01, 2.25890532e-01, 1.64811835e-02, 1.68270413e-02,
          1.93128347e-01, 4.25879300e-01, 4.25879300e-01, 2.39983752e-01,
          1.38937473e-01, 4.08018976e-01, 4.08018976e-01, 4.08018976e-01,
          3.36664170e-01, 4.08018976e-01, 2.97789752e-01, 2.26028323e-01,
          3.75536084e-02, 8.72584432e-02, 4.28196758e-01, 4.31274176e-01,
          4.31274176e-01, 2.10530668e-01, 4.31274176e-01, 4.22385842e-01,
          1.50299504e-01, 1.77536964e-01, 3.82920653e-01, 3.82920653e-01,
          3.82920653e-01, 3.82920653e-01, 3.79507095e-01, 3.82920653e-01,
          2.48368353e-01, 1.60628408e-01, 2.91526616e-01, 3.55710626e-01,
          3.55710626e-01, 3.55710626e-01, 3.55710626e-01, 3.36258352e-01,
          3.55710626e-01, 3.55710626e-01, 1.98010847e-01, 1.43946156e-01,
          1.24048613e-01, 2.34641492e-01, 4.43394154e-01, 4.43394154e-01,
          4.11356390e-02, 3.41057420e-01, 4.43394154e-01, 4.43394154e-01,
          6.94467798e-02, 5.74516319e-02, 2.88982868e-01, 4.85288441e-01,
          4.85288441e-01, 1.95001692e-01, 2.42734373e-01, 4.48437780e-01,
          3.66696805e-01, 2.91526616e-01, 3.55710626e-01, 3.55710626e-01,
          3.55710626e-01, 3.55710626e-01, 3.36258352e-01, 3.55710626e-01,
          3.55710626e-01, 1.98010847e-01, 1.43946156e-01, 1.24048613e-01,
          2.34641492e-01, 4.43394154e-01, 4.43394154e-01, 4.11356390e-02,
          3.41057420e-01, 4.43394154e-01, 4.43394154e-01, 6.94467798e-02,
          5.74516319e-02, 2.88982868e-01, 4.85288441e-01, 4.85288441e-01,
          1.95001692e-01, 2.42734373e-01, 4.48437780e-01, 3.66696805e-01,
          3.91716093e-01, 3.91716093e-01, 3.80223066e-01, 1.95506290e-01,
          1.89558581e-01, 3.37024212e-01, 3.91716093e-01, 3.91716093e-01,
          2.23630711e-01, 3.34315926e-01, 3.39089483e-01, 3.39089483e-01,
          3.39089483e-01, 2.82794833e-01, 3.39089483e-01, 3.39089483e-01,
          3.39089483e-01, 3.39089483e-01, 2.26710290e-01, 1.44860476e-01,
          4.38616097e-01, 4.38616097e-01, 2.24855959e-01, 1.33286342e-01,
          2.92189837e-01, 4.38616097e-01, 4.38616097e-01, 1.83363840e-01,
          3.79100412e-01, 3.79100412e-01, 3.09158504e-01, 3.79100412e-01,
          3.79100412e-01, 3.79100412e-01, 3.79100412e-01, 6.86185434e-02,
          2.29103267e-01, 4.44941491e-01, 4.44941491e-01, 5.57315573e-02,
          1.07701115e-01, 3.23465377e-01, 4.44941491e-01, 4.44941491e-01,
          1.78438783e-01, 3.66709739e-01, 3.66709739e-01, 3.66709739e-01,
          9.48598757e-02, 3.47978204e-01, 3.66709739e-01, 3.66709739e-01,
          3.66709739e-01, 2.43706629e-01, 4.25879300e-01, 4.25879300e-01,
          4.25879300e-01, 2.25890532e-01, 1.64811835e-02, 1.68270413e-02,
          1.93128347e-01, 4.25879300e-01, 4.25879300e-01, 4.11539525e-01,
          2.07479805e-01, 4.11539525e-01, 3.18830788e-01, 7.49643100e-03,
          6.56336918e-02, 4.11539525e-01, 4.11539525e-01, 4.11539525e-01,
          2.23068595e-01, 8.30675811e-02, 1.78651571e-01, 1.33569926e-01,
          2.35019904e-02, 3.88198644e-02, 3.85239333e-01, 6.07063770e-01,
          6.07063770e-01, 1.77536964e-01, 3.82920653e-01, 3.82920653e-01,
          3.82920653e-01, 3.82920653e-01, 3.79507095e-01, 3.82920653e-01,
          2.48368353e-01, 1.60628408e-01, 8.34705457e-02, 3.72300684e-01,
          4.03323859e-01, 4.03323859e-01, 3.95997703e-01, 1.80169493e-01,
          4.03323859e-01, 4.03323859e-01, 1.02176443e-01, 1.69715628e-01,
          4.16003197e-01, 4.16003197e-01, 4.16003197e-01, 1.35398969e-01,
          8.26648399e-02, 4.16003197e-01, 4.16003197e-01, 2.76733130e-01,
          6.94467798e-02, 5.74516319e-02, 2.88982868e-01, 4.85288441e-01,
          4.85288441e-01, 1.95001692e-01, 2.42734373e-01, 4.48437780e-01,
          3.66696805e-01, 6.29505590e-02, 3.26917648e-01, 4.20830637e-01,
          4.20830637e-01, 4.20830637e-01, 1.61043629e-01, 3.38006407e-01,
          4.20830637e-01, 1.90738156e-01, 1.84787244e-01, 3.24108630e-01,
          4.17188793e-01, 2.45887056e-01, 2.70621091e-01, 8.56998488e-02,
          4.24843520e-01, 4.24843520e-01, 4.24843520e-01, 6.94467798e-02,
          5.74516319e-02, 2.88982868e-01, 4.85288441e-01, 4.85288441e-01,
          1.95001692e-01, 2.42734373e-01, 4.48437780e-01, 3.66696805e-01,
          6.29505590e-02, 3.26917648e-01, 4.20830637e-01, 4.20830637e-01,
          4.20830637e-01, 1.61043629e-01, 3.38006407e-01, 4.20830637e-01,
          1.90738156e-01, 1.84787244e-01, 3.24108630e-01, 4.17188793e-01,
          2.45887056e-01, 2.70621091e-01, 8.56998488e-02, 4.24843520e-01,
          4.24843520e-01, 4.24843520e-01, 2.26710290e-01, 1.44860476e-01,
          4.38616097e-01, 4.38616097e-01, 2.24855959e-01, 1.33286342e-01,
          2.92189837e-01, 4.38616097e-01, 4.38616097e-01, 7.39114955e-02,
          9.98830423e-02, 3.11488718e-01, 4.62097168e-01, 4.62097168e-01,
          5.01435176e-02, 1.62080258e-01, 4.62097168e-01, 4.62097168e-01,
          4.69799973e-02, 1.10331163e-01, 2.86238611e-01, 4.61744696e-01,
          4.61744696e-01, 1.52711838e-01, 4.61744696e-01, 4.61744696e-01,
          1.51399076e-01, 3.66709739e-01, 3.66709739e-01, 3.66709739e-01,
          9.48598757e-02, 3.47978204e-01, 3.66709739e-01, 3.66709739e-01,
          3.66709739e-01, 2.43706629e-01, 2.12312162e-01, 3.49108428e-01,
          3.46303165e-01, 4.03060526e-01, 2.06491858e-01, 2.42590219e-01,
          4.03060526e-01, 4.03060526e-01, 3.46745044e-01, 2.44002625e-01,
          3.58550042e-01, 3.58550042e-01, 3.58550042e-01, 3.58550042e-01,
          2.10529253e-01, 3.58550042e-01, 3.58550042e-01, 3.48150760e-01 ]
      - [ 2.70650119e-01, 2.02389538e-01, 1.46347597e-01, 6.76279562e-03,
          2.05047444e-01, 5.52654624e-01, 5.52654624e-01, 4.10816222e-01,
          1.92707315e-01, 3.96876596e-02, 6.64012671e-01, 7.24687994e-01,
          1.49092630e-01, 8.02342873e-03, 1.05616404e-02, 1.07297814e-02,
          3.65251675e-02, 3.53811234e-02, 1.28260313e-03, 4.97548580e-01,
          5.28712928e-01, 7.68602937e-02, 2.59440532e-03, 1.35683978e-03,
          5.28712928e-01, 4.26815599e-01, 1.08200707e-03, 1.24193244e-01,
          3.19574058e-01, 3.56276155e-01, 2.24579703e-02, 1.80880874e-01,
          1.29842818e-01, 5.88215172e-01, 5.88215172e-01, 8.69866908e-02,
          6.34258911e-02, 7.02988803e-01, 7.02988803e-01, 8.31371825e-03,
          0., 9.93345515e-04, 3.08542349e-03, 1.76646579e-02,
          1.34710250e-02, 3.49976541e-03, 5.85645914e-01, 5.85645914e-01,
          1.23422248e-02, 3.44731775e-03, 1.04831494e-02, 4.72412318e-01,
          2.91082740e-01, 9.99248005e-04, 2.10601315e-01, 4.51076776e-01,
          3.86949182e-01, 1.51127446e-02, 1.93262324e-01, 3.25157456e-02,
          4.88606513e-01, 4.88606513e-01, 2.85409063e-01, 4.30126488e-02,
          7.03217745e-01, 7.03217745e-01, 4.57778573e-02, 9.80788842e-04,
          8.01976857e-05, 4.22512501e-04, 1.46171695e-03, 9.08491085e-04,
          1.96934841e-03, 6.13993108e-01, 6.41965747e-01, 4.39724922e-02,
          2.31443183e-03, 6.74515218e-03, 4.19703662e-01, 1.62302241e-01,
          1.24344754e-03, 2.10601315e-01, 4.51076776e-01, 3.86949182e-01,
          1.51127446e-02, 1.93262324e-01, 3.25157456e-02, 4.88606513e-01,
          4.88606513e-01, 2.85409063e-01, 4.30126488e-02, 7.03217745e-01,
          7.03217745e-01, 4.57778573e-02, 9.80788842e-04, 8.01976857e-05,
          4.22512501e-04, 1.46171695e-03, 9.08491085e-04, 1.96934841e-03,
          6.13993108e-01, 6.41965747e-01, 4.39724922e-02, 2.31443183e-03,
          6.74515218e-03, 4.19703662e-01, 1.62302241e-01, 1.24344754e-03,
          3.83613929e-02, 1.58874363e-01, 2.80174524e-01, 4.25097257e-01,
          2.52978742e-01, 3.48727219e-03, 4.63838488e-01, 4.63838488e-01,
          4.63838488e-01, 6.73930952e-03, 6.02327585e-01, 7.65236080e-01,
          2.07401812e-01, 2.69600432e-02, 2.31525116e-03, 0.,
          1.31131588e-02, 3.51939513e-03, 2.75567104e-03, 5.43223381e-01,
          7.37775445e-01, 1.46726310e-01, 1.49113806e-02, 4.33142856e-03,
          3.42489809e-01, 1.18943058e-01, 2.75567104e-03, 3.98652442e-02,
          4.47367355e-02, 4.91415262e-01, 4.91415262e-01, 1.42477170e-01,
          8.93641822e-03, 7.18729943e-02, 4.91415262e-01, 4.91415262e-01,
          8.16189721e-02, 3.48377079e-01, 4.94442701e-01, 3.56833965e-01,
          7.47251213e-02, 1.84925850e-02, 1.88765656e-02, 4.94442701e-01,
          4.94442701e-01, 1.08311512e-02, 6.23489380e-01, 6.23489380e-01,
          2.09276885e-01, 3.74412745e-01, 5.04134744e-02, 1.55290931e-01,
          6.13472648e-02, 4.21596132e-02, 1.28260313e-03, 4.97548580e-01,
          5.28712928e-01, 7.68602937e-02, 2.59440532e-03, 1.35683978e-03,
          5.28712928e-01, 4.26815599e-01, 1.08200707e-03, 4.06073732e-03,
          1.48903951e-03, 2.88409786e-03, 1.08245571e-04, 5.44218626e-03,
          1.24531519e-02, 7.04338968e-01, 7.04338968e-01, 2.38883961e-02,
          1.18304953e-01, 1.48245931e-01, 4.64855403e-01, 4.64855403e-01,
          1.65164247e-01, 8.62947404e-02, 4.64855403e-01, 4.64855403e-01,
          2.45552227e-01, 3.49976541e-03, 5.85645914e-01, 5.85645914e-01,
          1.23422248e-02, 3.44731775e-03, 1.04831494e-02, 4.72412318e-01,
          2.91082740e-01, 9.99248005e-04, 9.84903381e-05, 2.19208232e-04,
          9.69583401e-04, 4.15743765e-04, 8.30796547e-04, 3.24689387e-03,
          7.04579532e-01, 7.04579532e-01, 9.46328323e-03, 5.83715402e-02,
          3.98960859e-02, 1.20680436e-01, 1.00091789e-02, 1.54551402e-01,
          1.59577876e-01, 6.61252677e-01, 6.61252677e-01, 2.23325059e-01,
          1.96934841e-03, 6.13993108e-01, 6.41965747e-01, 4.39724922e-02,
          2.31443183e-03, 6.74515218e-03, 4.19703662e-01, 1.62302241e-01,
          1.24344754e-03, 0., 2.26773074e-04, 7.08171516e-04,
          6.25681350e-05, 2.19565773e-04, 4.02491586e-03, 7.04594970e-01,
          7.04594970e-01, 6.44784933e-03, 1.03121370e-01, 1.83101557e-02,
          4.48062643e-02, 5.43898270e-02, 2.97111571e-02, 5.10318354e-02,
          6.65476978e-01, 6.65476978e-01, 2.97009945e-01, 1.96934841e-03,
          6.13993108e-01, 6.41965747e-01, 4.39724922e-02, 2.31443183e-03,
          6.74515218e-03, 4.19703662e-01, 1.62302241e-01, 1.24344754e-03,
          0., 2.26773074e-04, 7.08171516e-04, 6.25681350e-05,
          2.19565773e-04, 4.02491586e-03, 7.04594970e-01, 7.04594970e-01,
          6.44784933e-03, 1.03121370e-01, 1.83101557e-02, 4.48062643e-02,
          5.43898270e-02, 2.97111571e-02, 5.10318354e-02, 6.65476978e-01,
          6.65476978e-01, 2.97009945e-01, 2.75567104e-03, 5.43223381e-01,
          7.37775445e-01, 1.46726310e-01, 1.49113806e-02, 4.33142856e-03,
          3.42489809e-01, 1.18943058e-01, 2.75567104e-03, 2.98775703e-04,
          3.90857970e-03, 1.43051241e-02, 1.30474300e-03, 1.65451819e-03,
          6.22895267e-03, 7.04522550e-01, 7.04522550e-01, 2.98775703e-04,
          3.08077842e-01, 4.97612298e-01, 3.58698249e-01, 3.13760340e-02,
          6.91150129e-02, 1.08052716e-01, 4.97612298e-01, 4.97612298e-01,
          1.05654649e-01, 1.08311512e-02, 6.23489380e-01, 6.23489380e-01,
          2.09276885e-01, 3.74412745e-01, 5.04134744e-02, 1.55290931e-01,
          6.13472648e-02, 4.21596132e-02, 1.03470601e-01, 5.71292862e-02,
          3.24193179e-03, 4.25318442e-03, 2.04337075e-01, 3.06547463e-01,
          6.49173498e-01, 6.49173498e-01, 3.07041425e-02, 4.82027024e-01,
          4.82027024e-01, 9.06360820e-02, 4.51470129e-02, 9.74577665e-02,
          4.82027024e-01, 4.82027024e-01, 1.94591314e-01, 9.03795585e-02 ]
      - [ 5.07859230e-01, 5.07859230e-01, 1.04563780e-01, 2.17155684e-02,
          1.07514694e-01, 5.07859230e-01, 4.42994207e-01, 2.42490564e-02,
          3.69917750e-02, 1.73901454e-01, 5.30615628e-01, 5.30615628e-01,
          3.71139422e-02, 3.03361237e-01, 5.30615628e-01, 1.59855112e-01,
          1.31248813e-02, 2.58621667e-02, 4.09184039e-01, 4.09184039e-01,
          4.09184039e-01, 2.43901312e-02, 4.40937243e-02, 4.64740768e-02,
          4.09184039e-01, 3.92499000e-01, 4.09184039e-01, 3.23867261e-01,
          4.73267376e-01, 2.66928345e-01, 7.76921809e-02, 2.39151537e-01,
          5.00610292e-01, 5.00610292e-01, 1.37534574e-01, 1.07288755e-01,
          1.26369623e-02, 7.04436183e-01, 7.04436183e-01, 1.64946113e-02,
          2.12704227e-03, 7.45558692e-03, 3.39733995e-03, 1.77691155e-03,
          9.40444297e-04, 1.02102589e-02, 5.61753750e-01, 5.61753750e-01,
          1.29367784e-02, 6.31746091e-03, 2.04299837e-02, 5.14821053e-01,
          3.12164217e-01, 6.29228307e-03, 5.01905158e-02, 3.84420902e-01,
          4.96979713e-01, 2.57041752e-01, 1.37528747e-01, 1.03056736e-01,
          4.96979713e-01, 4.96979713e-01, 9.03666019e-02, 1.67709100e-03,
          7.03056097e-01, 7.03056097e-01, 6.62480891e-02, 3.58479866e-03,
          4.23546699e-05, 2.95365520e-04, 3.44403321e-04, 1.20215188e-03,
          1.00070732e-02, 6.23414338e-01, 6.23414338e-01, 1.40179619e-02,
          0., 1.18809789e-02, 4.26059306e-01, 1.85564533e-01,
          9.28270537e-03, 5.01905158e-02, 3.84420902e-01, 4.96979713e-01,
          2.57041752e-01, 1.37528747e-01, 1.03056736e-01, 4.96979713e-01,
          4.96979713e-01, 9.03666019e-02, 1.67709100e-03, 7.03056097e-01,
          7.03056097e-01, 6.62480891e-02, 3.58479866e-03, 4.23546699e-05,
          2.95365520e-04, 3.44403321e-04, 1.20215188e-03, 1.00070732e-02,
          6.23414338e-01, 6.23414338e-01, 1.40179619e-02, 0.,
          1.18809789e-02, 4.26059306e-01, 1.85564533e-01, 9.28270537e-03,
          7.16087371e-02, 1.33881584e-01, 3.47223282e-01, 4.34761107e-01,
          3.08938414e-01, 2.30053142e-02, 4.34761107e-01, 4.34761107e-01,
          4.34761107e-01, 2.48974562e-03, 5.16799152e-01, 7.21532643e-01,
          4.50772703e-01, 4.35334444e-02, 3.06834187e-03, 2.29269608e-05,
          4.70900326e-04, 1.35278955e-04, 9.59605444e-03, 5.38907290e-01,
          7.18909800e-01, 1.75214276e-01, 1.80870853e-03, 1.28273051e-02,
          3.70227128e-01, 1.30454689e-01, 2.29129959e-02, 3.56060341e-02,
          8.08930323e-02, 4.81000245e-01, 4.86917019e-01, 1.95133328e-01,
          2.57068127e-02, 7.72121027e-02, 4.86917019e-01, 4.86917019e-01,
