%YAML:1.0
---
opencv_ml_svm:
   format: 3
   svmType: C_SVC
   kernel:
      type: RBF
      gamma: 5.0624999999999998e-01
   C: 1.2500000000000000e+01
   term_criteria: { epsilon:1.1920928955078125e-07, iterations:1000 }
   var_count: 324
   class_count: 9
   class_labels: !!opencv-matrix
      rows: 9
      cols: 1
      dt: i
      data: [ 0, 1, 2, 3, 4, 5, 6, 7, 8 ]
   sv_total: 417
   support_vectors:
      - [ 5.36524057e-01, 5.36524057e-01, 1.97475150e-01, 1.25636771e-01,
          2.64454156e-01, 5.36524057e-01, 1.35461129e-02, 1.17837277e-03,
          7.85226077e-02, 4.62475985e-01, 3.96306127e-01, 2.92450693e-02,
          4.85804118e-02, 5.34130394e-01, 5.78055441e-01, 1.57434661e-02,
          5.32245915e-03, 1.87183116e-02, 2.32545391e-01, 4.59200680e-01,
          4.59200680e-01, 2.55209833e-01, 4.59200680e-01, 4.59200680e-01,
          1.41056091e-01, 1.00317292e-01, 5.27489595e-02, 3.01834702e-01,
          2.78594047e-01, 2.45402902e-02, 2.86144037e-02, 3.93347949e-01,
          5.80088913e-01, 5.54522634e-01, 1.09090447e-01, 1.15956880e-01,
          4.95870322e-01, 4.95870322e-01, 1.07156582e-01, 1.64406985e-01,
          4.37646896e-01, 4.95870322e-01, 7.73108378e-02, 6.39000088e-02,
          1.31446570e-01, 2.65462548e-01, 5.57931662e-01, 5.57931662e-01,
          3.23789418e-01, 1.16963826e-01, 6.89202175e-02, 2.81623572e-01,
          2.67814219e-01, 1.64548308e-01, 1.11918762e-01, 1.93870261e-01,
          2.43836313e-01, 1.42827788e-02, 9.81106535e-02, 2.83997297e-01,
          6.15052998e-01, 6.15052998e-01, 1.92942232e-01, 4.96525735e-01,
          4.96525735e-01, 2.02849582e-01, 2.88311392e-01, 4.96525735e-01,
          2.89051861e-01, 7.80623928e-02, 1.00304917e-01, 1.77342281e-01,
          3.51604760e-01, 4.36533988e-01, 4.36533988e-01, 4.36533988e-01,
          4.36533988e-01, 1.46346539e-01, 1.44228250e-01, 2.56148666e-01,
          4.39845845e-02, 1.11918762e-01, 1.93870261e-01, 2.43836313e-01,
          1.42827788e-02, 9.81106535e-02, 2.83997297e-01, 6.15052998e-01,
          6.15052998e-01, 1.92942232e-01, 4.96525735e-01, 4.96525735e-01,
          2.02849582e-01, 2.88311392e-01, 4.96525735e-01, 2.89051861e-01,
          7.80623928e-02, 1.00304917e-01, 1.77342281e-01, 3.51604760e-01,
          4.36533988e-01, 4.36533988e-01, 4.36533988e-01, 4.36533988e-01,
          1.46346539e-01, 1.44228250e-01, 2.56148666e-01, 4.39845845e-02,
          2.72660740e-02, 3.02166939e-02, 1.82629600e-01, 2.09184036e-01,
          6.48424849e-02, 9.36291441e-02, 5.48568666e-01, 5.48568666e-01,
          5.48568666e-01, 4.13518429e-01, 4.13518429e-01, 1.80699557e-01,
          1.69710666e-01, 4.13518429e-01, 2.30917633e-01, 1.61569268e-01,
          4.13518429e-01, 4.13518429e-01, 3.68409246e-01, 4.52402562e-01,
          4.52402562e-01, 4.52402562e-01, 3.51968229e-01, 2.34828085e-01,
          1.64882526e-01, 1.85673967e-01, 7.11654797e-02, 1.59013346e-02,
          5.48637798e-03, 1.97457951e-02, 5.49357772e-01, 2.97087133e-01,
          3.92980222e-03, 1.35307256e-02, 5.49357772e-01, 5.49357772e-01,
          8.11001137e-02, 2.73246188e-02, 4.14419882e-02, 5.71058691e-01,
          8.05988163e-02, 8.59565847e-03, 1.90344192e-02, 5.71058691e-01,
          5.71058691e-01, 3.29208046e-01, 4.24824476e-01, 4.24824476e-01,
          3.54625642e-01, 1.06314912e-01, 1.02592327e-01, 1.33744583e-01,
          4.24824476e-01, 4.24824476e-01, 2.32545391e-01, 4.59200680e-01,
          4.59200680e-01, 2.55209833e-01, 4.59200680e-01, 4.59200680e-01,
          1.41056091e-01, 1.00317292e-01, 5.27489595e-02, 3.20358634e-01,
          3.44180554e-01, 3.44180554e-01, 3.44180554e-01, 3.44180554e-01,
          3.09132636e-01, 3.44180554e-01, 3.44180554e-01, 2.95984626e-01,
          2.10957184e-01, 1.81833237e-01, 4.05647606e-01, 4.05647606e-01,
          4.05647606e-01, 2.31054425e-01, 2.05536559e-01, 4.05647606e-01,
          4.05647606e-01, 2.65462548e-01, 5.57931662e-01, 5.57931662e-01,
          3.23789418e-01, 1.16963826e-01, 6.89202175e-02, 2.81623572e-01,
          2.67814219e-01, 1.64548308e-01, 2.15812698e-01, 3.44597936e-01,
          3.44597936e-01, 3.44597936e-01, 3.44597936e-01, 3.44597936e-01,
          3.44597936e-01, 3.44597936e-01, 3.44597936e-01, 3.94847363e-01,
          7.80268386e-02, 1.55374736e-01, 3.94847363e-01, 3.94847363e-01,
          3.94847363e-01, 1.74354494e-01, 3.94847363e-01, 3.94847363e-01,
          3.51604760e-01, 4.36533988e-01, 4.36533988e-01, 4.36533988e-01,
          4.36533988e-01, 1.46346539e-01, 1.44228250e-01, 2.56148666e-01,
          4.39845845e-02, 3.84630054e-01, 3.84630054e-01, 3.84630054e-01,
          2.47394890e-01, 3.84630054e-01, 3.84630054e-01, 1.35797516e-01,
          1.69913143e-01, 3.84630054e-01, 4.36460257e-01, 4.81985174e-02,
          5.83031401e-02, 3.54910433e-01, 4.36460257e-01, 4.34273690e-01,
          5.64274192e-02, 3.17310452e-01, 4.36460257e-01, 3.51604760e-01,
          4.36533988e-01, 4.36533988e-01, 4.36533988e-01, 4.36533988e-01,
          1.46346539e-01, 1.44228250e-01, 2.56148666e-01, 4.39845845e-02,
          3.84630054e-01, 3.84630054e-01, 3.84630054e-01, 2.47394890e-01,
          3.84630054e-01, 3.84630054e-01, 1.35797516e-01, 1.69913143e-01,
          3.84630054e-01, 4.36460257e-01, 4.81985174e-02, 5.83031401e-02,
          3.54910433e-01, 4.36460257e-01, 4.34273690e-01, 5.64274192e-02,
          3.17310452e-01, 4.36460257e-01, 3.68409246e-01, 4.52402562e-01,
          4.52402562e-01, 4.52402562e-01, 3.51968229e-01, 2.34828085e-01,
          1.64882526e-01, 1.85673967e-01, 7.11654797e-02, 3.46485436e-01,
          3.46485436e-01, 3.46485436e-01, 3.46485436e-01, 3.46485436e-01,
          2.71307945e-01, 2.87341386e-01, 3.46485436e-01, 3.46485436e-01,
          3.86179209e-01, 3.34271878e-01, 2.67224550e-01, 3.86179209e-01,
          3.86179209e-01, 3.86179209e-01, 8.38737115e-02, 2.45537400e-01,
          3.86179209e-01, 3.29208046e-01, 4.24824476e-01, 4.24824476e-01,
          3.54625642e-01, 1.06314912e-01, 1.02592327e-01, 1.33744583e-01,
          4.24824476e-01, 4.24824476e-01, 3.78263175e-01, 3.78263175e-01,
          3.78263175e-01, 3.78263175e-01, 3.70169759e-01, 1.98209792e-01,
          2.20183924e-01, 2.36668855e-01, 3.78263175e-01, 4.31192964e-01,
          1.82541534e-01, 2.10597157e-01, 2.07231835e-01, 4.31192964e-01,
          4.31192964e-01, 3.32985640e-01, 1.43129796e-01, 4.31192964e-01 ]
      - [ 4.35955465e-01, 7.40917772e-02, 3.05006206e-02, 1.02499746e-01,
          4.74010617e-01, 2.74969518e-01, 4.74010617e-01, 4.74010617e-01,
          1.96509361e-01, 4.60927010e-01, 2.92955011e-01, 4.60927010e-01,
          4.60927010e-01, 4.60927010e-01, 9.31094512e-02, 5.67611679e-03,
          3.30506600e-02, 2.23527789e-01, 1.23199195e-01, 6.49528950e-02,
          4.29775447e-01, 2.52252370e-01, 4.29775447e-01, 4.05004174e-01,
          4.29775447e-01, 4.29775447e-01, 9.91084278e-02, 5.14044225e-01,
          2.34995902e-01, 2.70276189e-01, 7.34122470e-02, 1.49726188e-02,
          1.37999905e-02, 3.47402632e-01, 5.14044225e-01, 4.60019946e-01,
          5.63257396e-01, 3.08206588e-01, 4.39885765e-01, 1.92291170e-01,
          7.22637028e-02, 1.19623177e-01, 4.66165617e-02, 1.12632953e-01,
          5.63257396e-01, 4.13904995e-01, 7.08818138e-02, 2.78883964e-01,
          3.01936328e-01, 4.02878344e-01, 1.78711072e-01, 3.37192118e-01,
          4.13904995e-01, 4.13904995e-01, 9.05328020e-02, 1.47721782e-01,
          5.00903189e-01, 4.39570606e-01, 3.96986865e-02, 5.94578460e-02,
          5.00903189e-01, 5.00903189e-01, 1.18042059e-01, 3.61447483e-01,
          1.68931752e-01, 3.75622153e-01, 3.75622153e-01, 2.49702841e-01,
          3.32830817e-01, 3.15546095e-01, 3.75622153e-01, 3.75622153e-01,
          1.79123387e-01, 9.25108194e-02, 4.30210590e-01, 4.30210590e-01,
          1.93081528e-01, 3.56389470e-02, 4.30210590e-01, 4.30210590e-01,
          4.19742614e-01, 9.05328020e-02, 1.47721782e-01, 5.00903189e-01,
          4.39570606e-01, 3.96986865e-02, 5.94578460e-02, 5.00903189e-01,
          5.00903189e-01, 1.18042059e-01, 3.61447483e-01, 1.68931752e-01,
          3.75622153e-01, 3.75622153e-01, 2.49702841e-01, 3.32830817e-01,
          3.15546095e-01, 3.75622153e-01, 3.75622153e-01, 1.79123387e-01,
          9.25108194e-02, 4.30210590e-01, 4.30210590e-01, 1.93081528e-01,
          3.56389470e-02, 4.30210590e-01, 4.30210590e-01, 4.19742614e-01,
          1.77647453e-02, 4.64235656e-02, 4.85561103e-01, 4.85561103e-01,
          9.13059860e-02, 1.22266542e-02, 4.85561103e-01, 4.85561103e-01,
          2.02768058e-01, 9.32077169e-02, 9.54939872e-02, 4.46247816e-01,
          4.46247816e-01, 4.46247816e-01, 7.14917853e-02, 2.92958170e-01,
          4.46247816e-01, 3.00419211e-01, 5.88283800e-02, 1.40685067e-01,
          3.99621695e-01, 3.29500705e-01, 5.22224903e-01, 2.42393926e-01,
          2.39135727e-01, 5.22224903e-01, 2.04657987e-01, 4.00766701e-01,
          3.05710375e-01, 4.00766701e-01, 4.00766701e-01, 8.78601596e-02,
          2.78892730e-05, 3.03692043e-01, 4.00766701e-01, 4.00166631e-01,
          1.73288852e-01, 2.68213786e-02, 1.05456039e-01, 8.52186605e-02,
          2.13020995e-01, 1.11847937e-01, 6.55384123e-01, 6.55384123e-01,
          1.65471509e-01, 3.90641272e-01, 3.33249688e-01, 3.90641272e-01,
          3.90641272e-01, 3.90641272e-01, 1.75661072e-01, 1.37706503e-01,
          2.68736422e-01, 3.90641272e-01, 1.23199195e-01, 6.49528950e-02,
          4.29775447e-01, 2.52252370e-01, 4.29775447e-01, 4.05004174e-01,
          4.29775447e-01, 4.29775447e-01, 9.91084278e-02, 1.40996322e-01,
          1.33018300e-01, 4.13738638e-01, 4.13738638e-01, 4.13738638e-01,
          1.64292455e-01, 4.13738638e-01, 4.13738638e-01, 2.74595648e-01,
          1.34895653e-01, 8.27310234e-02, 5.39606690e-01, 5.39606690e-01,
          7.23400339e-02, 5.41121000e-03, 2.18810767e-01, 5.39606690e-01,
          2.07131460e-01, 4.13904995e-01, 7.08818138e-02, 2.78883964e-01,
          3.01936328e-01, 4.02878344e-01, 1.78711072e-01, 3.37192118e-01,
          4.13904995e-01, 4.13904995e-01, 4.04458970e-01, 7.08131269e-02,
          3.28115523e-01, 1.52508497e-01, 2.23732412e-01, 1.52810961e-01,
          4.55529839e-01, 4.55529839e-01, 4.55529839e-01, 4.08794917e-02,
          1.11647658e-01, 5.72515905e-01, 5.72515905e-01, 2.65658624e-03,
          1.78561956e-02, 1.16428576e-01, 5.15205443e-01, 2.12790608e-01,
          1.79123387e-01, 9.25108194e-02, 4.30210590e-01, 4.30210590e-01,
          1.93081528e-01, 3.56389470e-02, 4.30210590e-01, 4.30210590e-01,
          4.19742614e-01, 5.15729152e-02, 3.52911949e-02, 4.38342690e-01,
          2.53387958e-01, 7.60476738e-02, 6.38812482e-02, 5.66927612e-01,
          5.95257998e-01, 2.19540849e-01, 1.38418674e-01, 1.72076315e-01,
          5.84890187e-01, 5.84890187e-01, 1.37637981e-04, 1.34004829e-02,
          9.16095600e-02, 3.48320782e-01, 3.62349719e-01, 1.79123387e-01,
          9.25108194e-02, 4.30210590e-01, 4.30210590e-01, 1.93081528e-01,
          3.56389470e-02, 4.30210590e-01, 4.30210590e-01, 4.19742614e-01,
          5.15729152e-02, 3.52911949e-02, 4.38342690e-01, 2.53387958e-01,
          7.60476738e-02, 6.38812482e-02, 5.66927612e-01, 5.95257998e-01,
          2.19540849e-01, 1.38418674e-01, 1.72076315e-01, 5.84890187e-01,
          5.84890187e-01, 1.37637981e-04, 1.34004829e-02, 9.16095600e-02,
          3.48320782e-01, 3.62349719e-01, 5.88283800e-02, 1.40685067e-01,
          3.99621695e-01, 3.29500705e-01, 5.22224903e-01, 2.42393926e-01,
          2.39135727e-01, 5.22224903e-01, 2.04657987e-01, 3.78499664e-02,
          5.09367511e-02, 2.18786746e-01, 1.66072756e-01, 4.68923390e-01,
          4.68923390e-01, 4.68923390e-01, 4.68923390e-01, 1.90486118e-01,
          1.09340064e-01, 9.33663622e-02, 4.72802788e-01, 4.72802788e-01,
          6.51847851e-03, 5.83301671e-02, 4.72802788e-01, 4.72802788e-01,
          2.77471036e-01, 3.90641272e-01, 3.33249688e-01, 3.90641272e-01,
          3.90641272e-01, 3.90641272e-01, 1.75661072e-01, 1.37706503e-01,
          2.68736422e-01, 3.90641272e-01, 3.81448746e-01, 9.62989181e-02,
          1.57355189e-01, 3.81448746e-01, 3.81448746e-01, 3.81448746e-01,
          3.48110795e-01, 3.36835474e-01, 3.81448746e-01, 3.12042683e-01,
          5.79973422e-02, 2.96132386e-01, 1.21220559e-01, 2.98785806e-01,
          3.55881214e-01, 4.38396066e-01, 4.38396066e-01, 4.38396066e-01 ]
      - [ 5.38102627e-01, 5.38102627e-01, 2.32053891e-01, 7.70501494e-02,
          1.51484102e-01, 5.38102627e-01, 2.01900735e-01, 6.38901815e-03,
          4.92443144e-02, 4.47986513e-01, 4.47986513e-01, 4.91205193e-02,
          4.01500985e-02, 1.31860837e-01, 4.04830724e-01, 8.63565356e-02,
          4.47986513e-01, 4.47986513e-01, 7.25849718e-02, 1.76070482e-02,
          2.36434508e-02, 2.62498129e-02, 3.77195418e-01, 8.85329992e-02,
          2.85854012e-01, 6.14496112e-01, 6.14496112e-01, 3.66767824e-01,
          4.54667300e-01, 4.54667300e-01, 1.72816306e-01, 4.54667300e-01,
          4.54667300e-01, 5.91198578e-02, 1.84751153e-02, 1.86689775e-02,
          1.01707950e-01, 3.00912946e-01, 3.95261973e-01, 3.95261973e-01,
          3.95261973e-01, 2.97198683e-01, 3.95261973e-01, 3.95261973e-01,
          1.60221323e-01, 1.00613537e-03, 1.00322124e-02, 6.62692711e-02,
          4.97065276e-01, 3.92909050e-01, 1.51313663e-01, 4.97065276e-01,
          4.97065276e-01, 2.68416554e-01, 2.44489703e-02, 4.89014536e-01,
          4.89014536e-01, 1.83382362e-01, 4.89014536e-01, 4.89014536e-01,
          6.29067644e-02, 8.98715667e-03, 1.76090561e-02, 3.13489847e-02,
          3.76208872e-01, 5.17956436e-01, 1.65252924e-01, 9.64302719e-02,
          6.54687434e-02, 5.17956436e-01, 5.17956436e-01, 8.11240226e-02,
          3.91847521e-01, 3.70767317e-03, 7.93982148e-02, 3.91847521e-01,
          3.91847521e-01, 2.61726260e-01, 3.91847521e-01, 3.91847521e-01,
          3.91847521e-01, 2.44489703e-02, 4.89014536e-01, 4.89014536e-01,
          1.83382362e-01, 4.89014536e-01, 4.89014536e-01, 6.29067644e-02,
          8.98715667e-03, 1.76090561e-02, 3.13489847e-02, 3.76208872e-01,
          5.17956436e-01, 1.65252924e-01, 9.64302719e-02, 6.54687434e-02,
          5.17956436e-01, 5.17956436e-01, 8.11240226e-02, 3.91847521e-01,
          3.70767317e-03, 7.93982148e-02, 3.91847521e-01, 3.91847521e-01,
          2.61726260e-01, 3.91847521e-01, 3.91847521e-01, 3.91847521e-01,
          2.44754925e-02, 5.77675998e-01, 5.77675998e-01, 5.40130675e-01,
          1.34146631e-01, 7.33557045e-02, 5.16456552e-02, 7.20506310e-02,
          5.68981804e-02, 2.83748597e-01, 2.32220575e-01, 3.78897667e-01,
          3.78897667e-01, 3.78897667e-01, 1.98543221e-02, 3.78897667e-01,
          3.78897667e-01, 3.78897667e-01, 5.62753379e-01, 0.,
          3.47055582e-04, 2.80073863e-02, 5.62753379e-01, 6.93337247e-02,
          1.31829783e-01, 1.46066949e-01, 5.62753379e-01, 1.07453078e-01,
          1.12727776e-01, 4.10894811e-01, 4.41059202e-01, 4.41059202e-01,
          1.02068640e-01, 1.18131906e-01, 4.41059202e-01, 4.41059202e-01,
          1.28150746e-01, 3.77297886e-02, 1.44194037e-01, 6.55836821e-01,
          6.55836821e-01, 1.30670741e-01, 3.06032803e-02, 7.73433074e-02,
          2.65663534e-01, 1.26155704e-01, 1.66507587e-02, 9.89932939e-03,
          5.66123240e-02, 9.45161939e-01, 2.07508147e-01, 3.94996926e-02,
          4.61284779e-02, 1.76057905e-01, 7.25849718e-02, 1.76070482e-02,
          2.36434508e-02, 2.62498129e-02, 3.77195418e-01, 8.85329992e-02,
          2.85854012e-01, 6.14496112e-01, 6.14496112e-01, 2.12105110e-01,
          9.16587859e-02, 1.69641346e-01, 5.03663421e-01, 5.03663421e-01,
          2.00963885e-01, 4.70261991e-01, 3.41042817e-01, 1.66147470e-01,
          4.16313782e-02, 1.13478892e-01, 4.67327535e-01, 5.16042709e-01,
          5.16042709e-01, 1.93785697e-01, 1.76399082e-01, 3.90157819e-01,
          9.13672969e-02, 1.00613537e-03, 1.00322124e-02, 6.62692711e-02,
          4.97065276e-01, 3.92909050e-01, 1.51313663e-01, 4.97065276e-01,
          4.97065276e-01, 2.68416554e-01, 7.02667907e-02, 1.24535650e-01,
          1.60866693e-01, 2.63662487e-02, 9.24609229e-02, 1.99217856e-01,
          6.61736548e-01, 6.61736548e-01, 1.49487883e-01, 1.58907533e-01,
          1.83123738e-01, 4.54439551e-01, 4.54439551e-01, 1.89800262e-01,
          6.34511411e-02, 3.35301638e-01, 4.54439551e-01, 4.05772924e-01,
          3.91847521e-01, 3.70767317e-03, 7.93982148e-02, 3.91847521e-01,
          3.91847521e-01, 2.61726260e-01, 3.91847521e-01, 3.91847521e-01,
          3.91847521e-01, 6.25965118e-01, 4.44592461e-02, 3.33592407e-02,
          1.75309349e-02, 3.26654136e-01, 7.03961775e-02, 2.74822146e-01,
          1.39652491e-01, 6.25965118e-01, 6.39105737e-01, 6.40758406e-03,
          1.05840536e-02, 8.10349453e-03, 2.46690601e-01, 8.93186107e-02,
          1.24842376e-01, 3.03428024e-01, 6.39105737e-01, 3.91847521e-01,
          3.70767317e-03, 7.93982148e-02, 3.91847521e-01, 3.91847521e-01,
          2.61726260e-01, 3.91847521e-01, 3.91847521e-01, 3.91847521e-01,
          6.25965118e-01, 4.44592461e-02, 3.33592407e-02, 1.75309349e-02,
          3.26654136e-01, 7.03961775e-02, 2.74822146e-01, 1.39652491e-01,
          6.25965118e-01, 6.39105737e-01, 6.40758406e-03, 1.05840536e-02,
          8.10349453e-03, 2.46690601e-01, 8.93186107e-02, 1.24842376e-01,
          3.03428024e-01, 6.39105737e-01, 5.62753379e-01, 0.,
          3.47055582e-04, 2.80073863e-02, 5.62753379e-01, 6.93337247e-02,
          1.31829783e-01, 1.46066949e-01, 5.62753379e-01, 5.74968755e-01,
          0., 0., 1.03448899e-02, 5.74968755e-01, 4.88255173e-02,
          3.27463495e-04, 7.28847401e-04, 5.74968755e-01, 4.67834443e-01,
          4.42485884e-02, 4.31590108e-03, 1.93588231e-02, 4.67834443e-01,
          3.27370852e-01, 3.68281633e-01, 3.05885106e-01, 4.67834443e-01,
          1.26155704e-01, 1.66507587e-02, 9.89932939e-03, 5.66123240e-02,
          9.45161939e-01, 2.07508147e-01, 3.94996926e-02, 4.61284779e-02,
          1.76057905e-01, 4.00196463e-01, 1.57243669e-01, 2.60995328e-02,
          5.66371232e-02, 8.57558370e-01, 1.62565067e-01, 4.99531440e-02,
          6.50254413e-02, 1.84699208e-01, 4.82398838e-01, 4.82398838e-01,
          3.17167640e-02, 7.84010962e-02, 4.82398838e-01, 4.82398838e-01,
          2.09295347e-01, 9.37589929e-02, 6.78190067e-02 ]
      - [ 5.50139487e-01, 5.50139487e-01, 1.80422366e-01, 1.23852566e-02,
          7.49572888e-02, 2.78116725e-02, 1.18139267e-01, 1.83006242e-01,
          5.50139487e-01, 5.32172501e-01, 2.03497514e-01, 9.88969952e-02,
          1.77697223e-02, 9.31149442e-03, 1.02470377e-02, 5.72740257e-01,
          5.72740257e-01, 5.75437956e-02, 1.04478011e-02, 1.22296482e-01,
          4.06087250e-01, 2.27779988e-02, 1.24178648e-01, 8.42690542e-02,
          6.28559351e-01, 6.28559351e-01, 2.31895223e-02, 4.23457384e-01,
          4.23457384e-01, 4.23457384e-01, 1.59443706e-01, 4.22137320e-01,
          3.10713593e-02, 1.62376046e-01, 2.18063459e-01, 4.23457384e-01,
          2.19295709e-03, 2.68483590e-02, 5.78847453e-02, 1.79496482e-02,
          3.16587422e-04, 2.46415078e-03, 7.03056574e-01, 7.03056574e-01,
          0., 7.10444758e-04, 1.45214498e-01, 4.72615719e-01,
          4.27638972e-03, 2.20446251e-02, 3.62507291e-02, 6.11392021e-01,
          6.11392021e-01, 4.83026030e-03, 3.47523719e-01, 3.63792479e-01,
          4.86798674e-01, 4.69369024e-01, 1.29403099e-01, 3.25497776e-01,
          2.00557768e-01, 1.62465841e-01, 3.08913589e-01, 1.26840046e-03,
          1.06122987e-02, 4.07429412e-02, 3.09406854e-02, 0.,
          5.52504836e-03, 7.03635871e-01, 7.03635871e-01, 2.67302711e-03,
          8.88103433e-03, 1.76522642e-01, 5.36423981e-01, 2.04671407e-03,
          8.20685085e-03, 3.68563980e-02, 5.79846919e-01, 5.79846919e-01,
          3.66796553e-02, 3.47523719e-01, 3.63792479e-01, 4.86798674e-01,
          4.69369024e-01, 1.29403099e-01, 3.25497776e-01, 2.00557768e-01,
          1.62465841e-01, 3.08913589e-01, 1.26840046e-03, 1.06122987e-02,
          4.07429412e-02, 3.09406854e-02, 0., 5.52504836e-03,
          7.03635871e-01, 7.03635871e-01, 2.67302711e-03, 8.88103433e-03,
          1.76522642e-01, 5.36423981e-01, 2.04671407e-03, 8.20685085e-03,
          3.68563980e-02, 5.79846919e-01, 5.79846919e-01, 3.66796553e-02,
          3.60650182e-01, 3.88579667e-01, 3.95759016e-01, 2.12026551e-01,
          1.16450049e-01, 1.73109531e-01, 3.95759016e-01, 3.95759016e-01,
          3.95759016e-01, 6.85678935e-03, 1.40590537e-02, 1.87809933e-02,
          8.14894866e-03, 1.09080803e-02, 8.61118641e-03, 7.04310834e-01,
          7.04310834e-01, 2.18997686e-03, 1.24110514e-02, 2.00962439e-01,
          5.61891794e-01, 5.51771896e-04, 1.12003339e-02, 6.88865483e-02,
          5.61891794e-01, 5.61891794e-01, 4.25534733e-02, 2.09310666e-01,
          4.81477678e-02, 1.68949291e-01, 2.22385764e-01, 4.29087013e-01,
          3.67590249e-01, 4.29087013e-01, 4.29087013e-01, 4.29087013e-01,
          2.04057116e-02, 2.30941307e-02, 2.31268071e-02, 3.16101573e-02,
          2.40335632e-02, 1.21316286e-02, 7.03334212e-01, 7.03334212e-01,
          2.03132294e-02, 2.27990169e-02, 2.71068066e-01, 5.51507413e-01,
          2.66950894e-02, 2.61344742e-02, 6.79924935e-02, 5.51507413e-01,
          5.51507413e-01, 4.46651168e-02, 1.04478011e-02, 1.22296482e-01,
          4.06087250e-01, 2.27779988e-02, 1.24178648e-01, 8.42690542e-02,
          6.28559351e-01, 6.28559351e-01, 2.31895223e-02, 3.64547670e-02,
          6.85452402e-01, 6.85452402e-01, 3.35732959e-02, 4.05918658e-02,
          1.13528576e-02, 4.55703624e-02, 1.09071396e-01, 1.87779978e-01,
          1.54150233e-01, 1.68137267e-01, 3.65306735e-01, 4.64731216e-04,
          0., 4.90655676e-02, 2.62695342e-01, 6.07058823e-01,
          6.07058823e-01, 7.10444758e-04, 1.45214498e-01, 4.72615719e-01,
          4.27638972e-03, 2.20446251e-02, 3.62507291e-02, 6.11392021e-01,
          6.11392021e-01, 4.83026030e-03, 2.12602608e-04, 7.02646136e-01,
          7.02646136e-01, 2.25116895e-03, 5.19302953e-03, 8.58723372e-03,
          5.94858080e-02, 4.36482392e-02, 3.63401673e-03, 0.,
          4.41003591e-01, 5.12761295e-01, 0., 0., 4.39619981e-02,
          5.12761295e-01, 5.12761295e-01, 9.84366313e-02, 8.88103433e-03,
          1.76522642e-01, 5.36423981e-01, 2.04671407e-03, 8.20685085e-03,
          3.68563980e-02, 5.79846919e-01, 5.79846919e-01, 3.66796553e-02,
          2.84499768e-03, 7.02895582e-01, 7.02895582e-01, 0.,
          1.84336654e-03, 1.52986664e-02, 6.07377253e-02, 2.88360771e-02,
          9.63560957e-03, 0., 4.88132864e-01, 5.00197947e-01,
          6.97875395e-04, 0., 7.83305615e-02, 5.00197947e-01,
          5.00197947e-01, 7.41073687e-04, 8.88103433e-03, 1.76522642e-01,
          5.36423981e-01, 2.04671407e-03, 8.20685085e-03, 3.68563980e-02,
          5.79846919e-01, 5.79846919e-01, 3.66796553e-02, 2.84499768e-03,
          7.02895582e-01, 7.02895582e-01, 0., 1.84336654e-03,
          1.52986664e-02, 6.07377253e-02, 2.88360771e-02, 9.63560957e-03,
          0., 4.88132864e-01, 5.00197947e-01, 6.97875395e-04, 0.,
          7.83305615e-02, 5.00197947e-01, 5.00197947e-01, 7.41073687e-04,
          1.24110514e-02, 2.00962439e-01, 5.61891794e-01, 5.51771896e-04,
          1.12003339e-02, 6.88865483e-02, 5.61891794e-01, 5.61891794e-01,
          4.25534733e-02, 2.29248963e-03, 7.01917708e-01, 7.01917708e-01,
          2.25911476e-03, 5.23536757e-04, 1.04315383e-02, 6.90255463e-02,
          5.17253764e-02, 7.52473529e-03, 2.64777932e-02, 4.59418416e-01,
          5.07650971e-01, 8.69408436e-03, 0., 9.50881764e-02,
          5.07650971e-01, 5.07650971e-01, 3.02949734e-02, 2.27990169e-02,
          2.71068066e-01, 5.51507413e-01, 2.66950894e-02, 2.61344742e-02,
          6.79924935e-02, 5.51507413e-01, 5.51507413e-01, 4.46651168e-02,
          1.11282049e-02, 7.02735364e-01, 7.02735364e-01, 1.18166832e-02,
          3.72375292e-03, 1.20959952e-02, 5.58655113e-02, 3.94944213e-02,
          1.43721793e-02, 2.46357061e-02, 2.80347705e-01, 4.65793759e-01,
          2.29480222e-01, 1.50184408e-01, 4.65793759e-01, 4.65793759e-01,
          4.32293028e-01, 5.62180430e-02 ]
      - [ 3.47977638e-01, 4.66131300e-01, 4.66131300e-01, 1.41032845e-01,
          1.92158893e-01, 4.66131300e-01, 4.02810603e-01, 4.28853817e-02,
          3.88539918e-02, 4.99747127e-01, 4.99747127e-01, 2.39699721e-01,
          1.87963769e-02, 3.82530093e-01, 4.99747127e-01, 1.80327520e-01,
          5.82420342e-02, 7.56204948e-02, 4.94416565e-01, 4.94416565e-01,
          5.90235069e-02, 2.16460079e-02, 2.31180876e-01, 1.69531390e-01,
          2.27697380e-02, 4.94416565e-01, 4.18404609e-01, 2.96818256e-01,
          4.59898204e-01, 4.59898204e-01, 9.35026407e-02, 1.71922043e-01,
          4.59898204e-01, 4.59898204e-01, 1.21168949e-01, 9.10933316e-02,
          3.37808460e-01, 5.15644073e-01, 5.15644073e-01, 1.44017085e-01,
          2.11540475e-01, 5.14618397e-01, 1.34807929e-01, 1.22200800e-02,
          1.76962726e-02, 2.94891506e-01, 3.82021993e-01, 3.82021993e-01,
          3.79512846e-01, 3.82021993e-01, 3.82021993e-01, 3.82021993e-01,
          1.68200791e-01, 8.48351195e-02, 1.43579796e-01, 3.38568747e-01,
          4.34996575e-01, 2.81406909e-01, 5.01887687e-02, 4.34996575e-01,
          4.34996575e-01, 4.34996575e-01, 1.47695675e-01, 8.78263451e-03,
          4.62224305e-01, 4.62224305e-01, 3.37033004e-01, 4.62224305e-01,
          4.62224305e-01, 1.63032681e-01, 2.09747292e-02, 9.48180165e-03,
          5.35053434e-04, 5.09547770e-01, 5.09547770e-01, 1.37261927e-01,
          1.59615576e-01, 2.77752101e-01, 5.09547770e-01, 3.07002783e-01,
          1.67011824e-02, 1.43579796e-01, 3.38568747e-01, 4.34996575e-01,
          2.81406909e-01, 5.01887687e-02, 4.34996575e-01, 4.34996575e-01,
          4.34996575e-01, 1.47695675e-01, 8.78263451e-03, 4.62224305e-01,
          4.62224305e-01, 3.37033004e-01, 4.62224305e-01, 4.62224305e-01,
          1.63032681e-01, 2.09747292e-02, 9.48180165e-03, 5.35053434e-04,
          5.09547770e-01, 5.09547770e-01, 1.37261927e-01, 1.59615576e-01,
          2.77752101e-01, 5.09547770e-01, 3.07002783e-01, 1.67011824e-02,
          1.08554564e-01, 2.20626801e-01, 2.24772558e-01, 1.66166008e-01,
          1.60748288e-01, 1.94984049e-01, 5.95278740e-01, 5.95278740e-01,
          2.87905425e-01, 9.02129486e-02, 6.91112220e-01, 6.91112220e-01,
          9.14443582e-02, 8.43456388e-02, 2.60892138e-02, 3.94457541e-02,
          6.42577037e-02, 8.85912329e-02, 2.01717298e-03, 5.35245121e-01,
          5.35245121e-01, 3.43726315e-02, 2.47638836e-03, 1.57172978e-02,
          5.35245121e-01, 3.65476519e-01, 1.34474412e-02, 3.60557064e-02,
          4.72774655e-02, 6.81251734e-02, 3.95135134e-01, 4.93727922e-01,
          5.43188713e-02, 3.10658187e-01, 4.93727922e-01, 4.93727922e-01,
          5.64624518e-02, 5.71172655e-01, 5.71172655e-01, 3.56650263e-01,
          1.33639514e-01, 2.94767264e-02, 5.07986024e-02, 1.91093296e-01,
          3.91927421e-01, 2.73673702e-02, 4.81933087e-01, 4.81933087e-01,
          1.54143468e-01, 3.82766753e-01, 2.10941821e-01, 4.81933087e-01,
          2.86069483e-01, 3.24987918e-02, 4.94416565e-01, 4.94416565e-01,
          5.90235069e-02, 2.16460079e-02, 2.31180876e-01, 1.69531390e-01,
          2.27697380e-02, 4.94416565e-01, 4.18404609e-01, 1.01328045e-01,
          6.17885292e-02, 2.61852313e-02, 4.48364526e-01, 2.86473483e-01,
          1.07960152e-02, 1.09919399e-01, 5.84847331e-01, 5.84847331e-01,
          1.29049033e-01, 9.51904338e-03, 3.18160713e-01, 5.19212842e-01,
          3.15688759e-01, 5.76106720e-02, 1.45469025e-01, 5.19212842e-01,
          4.62104589e-01, 2.94891506e-01, 3.82021993e-01, 3.82021993e-01,
          3.79512846e-01, 3.82021993e-01, 3.82021993e-01, 3.82021993e-01,
          1.68200791e-01, 8.48351195e-02, 1.50042083e-02, 7.83621799e-03,
          1.94069892e-01, 4.80352014e-01, 3.66976380e-01, 2.08522022e-01,
          4.80352014e-01, 4.80352014e-01, 2.94763446e-01, 5.61783239e-02,
          6.93959817e-02, 4.81388122e-01, 4.83757794e-01, 6.07162081e-02,
          9.73698422e-02, 4.83757794e-01, 4.83757794e-01, 2.00573489e-01,
          5.35053434e-04, 5.09547770e-01, 5.09547770e-01, 1.37261927e-01,
          1.59615576e-01, 2.77752101e-01, 5.09547770e-01, 3.07002783e-01,
          1.67011824e-02, 3.62253934e-03, 6.45351643e-03, 2.11968437e-01,
          4.87695068e-01, 4.78795737e-01, 2.59885699e-01, 4.87695068e-01,
          4.21345234e-01, 1.15373731e-02, 1.45111948e-01, 4.12078500e-01,
          4.40392554e-01, 3.05367291e-01, 4.31932777e-01, 2.72396743e-01,
          4.40392554e-01, 2.47551993e-01, 3.93248871e-02, 5.35053434e-04,
          5.09547770e-01, 5.09547770e-01, 1.37261927e-01, 1.59615576e-01,
          2.77752101e-01, 5.09547770e-01, 3.07002783e-01, 1.67011824e-02,
          3.62253934e-03, 6.45351643e-03, 2.11968437e-01, 4.87695068e-01,
          4.78795737e-01, 2.59885699e-01, 4.87695068e-01, 4.21345234e-01,
          1.15373731e-02, 1.45111948e-01, 4.12078500e-01, 4.40392554e-01,
          3.05367291e-01, 4.31932777e-01, 2.72396743e-01, 4.40392554e-01,
          2.47551993e-01, 3.93248871e-02, 2.01717298e-03, 5.35245121e-01,
          5.35245121e-01, 3.43726315e-02, 2.47638836e-03, 1.57172978e-02,
          5.35245121e-01, 3.65476519e-01, 1.34474412e-02, 1.79718472e-02,
          4.35329974e-02, 7.76275620e-02, 1.88495647e-02, 5.96225969e-02,
          8.90903920e-02, 7.06862152e-01, 6.87709153e-01, 1.59546100e-02,
          4.54872370e-01, 4.54872370e-01, 4.54872370e-01, 1.49287149e-01,
          3.99562478e-01, 3.85674655e-01, 1.77374199e-01, 1.02590017e-01,
          4.54086401e-02, 2.73673702e-02, 4.81933087e-01, 4.81933087e-01,
          1.54143468e-01, 3.82766753e-01, 2.10941821e-01, 4.81933087e-01,
          2.86069483e-01, 3.24987918e-02, 5.07307827e-01, 5.07307827e-01,
          9.26766247e-02, 1.67663209e-02, 1.26116976e-01, 3.47345173e-01,
          5.07307827e-01, 2.67427027e-01, 7.68659487e-02, 4.87720490e-01,
          4.87720490e-01, 1.70007467e-01, 3.06697246e-02, 1.08804174e-01,
          4.87720490e-01, 4.87720490e-01, 3.27965319e-02, 2.97738854e-02 ]
      - [ 2.93401778e-01, 4.03819472e-01, 6.22554719e-01, 4.82813001e-01,
          2.15620156e-02, 1.04141021e-02, 2.35972345e-01, 9.85172689e-02,
          2.40800008e-01, 2.42822304e-01, 3.38297576e-01, 1.91535100e-01,
          1.70932536e-03, 1.78340860e-02, 6.09634936e-01, 6.09634936e-01,
          1.97235823e-01, 3.58723663e-02, 4.33986008e-01, 4.33986008e-01,
          1.25149861e-01, 1.33652553e-01, 3.37343633e-01, 4.33986008e-01,
          2.90564448e-01, 1.02641799e-01, 4.33986008e-01, 1.95495244e-02,
          1.92334026e-01, 6.04624689e-01, 6.04624689e-01, 1.34574054e-02,
          1.81341246e-02, 4.40093994e-01, 1.75868675e-01, 1.79956779e-02,
          3.08702756e-02, 4.95148480e-01, 4.95148480e-01, 1.21374279e-02,
          2.17855768e-03, 1.15157291e-01, 4.95148480e-01, 4.95148480e-01,
          6.00431289e-04, 4.97682422e-01, 4.97682422e-01, 4.97682422e-01,
          3.19524072e-02, 3.42481118e-03, 3.80405560e-02, 3.39658409e-01,
          1.42549977e-01, 3.37339401e-01, 4.47139814e-02, 1.57888487e-01,
          6.20672643e-01, 6.20672643e-01, 2.82827448e-02, 9.74766351e-03,
          2.97050476e-01, 3.17906320e-01, 7.87875280e-02, 1.62604675e-02,
          1.86303020e-01, 5.12751281e-01, 4.11565930e-01, 4.07660473e-03,
          3.29479426e-02, 5.12751281e-01, 5.12751281e-01, 2.59907972e-02,
          1.43585438e-02, 1.84652597e-01, 5.17203212e-01, 5.17203212e-01,
          4.89226073e-01, 1.22489318e-01, 2.54422218e-01, 3.24367076e-01,
          3.52588259e-02, 4.47139814e-02, 1.57888487e-01, 6.20672643e-01,
          6.20672643e-01, 2.82827448e-02, 9.74766351e-03, 2.97050476e-01,
          3.17906320e-01, 7.87875280e-02, 1.62604675e-02, 1.86303020e-01,
          5.12751281e-01, 4.11565930e-01, 4.07660473e-03, 3.29479426e-02,
          5.12751281e-01, 5.12751281e-01, 2.59907972e-02, 1.43585438e-02,
          1.84652597e-01, 5.17203212e-01, 5.17203212e-01, 4.89226073e-01,
          1.22489318e-01, 2.54422218e-01, 3.24367076e-01, 3.52588259e-02,
          4.18597199e-02, 5.16112670e-02, 5.53259254e-01, 5.53259254e-01,
          7.42560700e-02, 7.46821985e-03, 2.20484316e-01, 5.53259254e-01,
          1.32622451e-01, 9.22674499e-03, 2.86057331e-02, 4.92118657e-01,
          4.92118657e-01, 1.37512879e-02, 2.76928190e-02, 4.26412404e-01,
          4.92118657e-01, 2.91299731e-01, 2.18262896e-01, 2.76298411e-02,
          1.11673571e-01, 4.75305527e-01, 4.75305527e-01, 1.51720718e-01,
          8.77445638e-02, 4.75305527e-01, 4.75305527e-01, 3.80409688e-01,
          3.80409688e-01, 3.80409688e-01, 3.80409688e-01, 3.80409688e-01,
          7.32632577e-02, 1.76967934e-01, 3.80409688e-01, 3.02068204e-01,
          2.17107423e-02, 8.72974657e-03, 5.50078452e-01, 5.86451173e-01,
          1.65804207e-01, 1.68964127e-03, 6.96213171e-02, 5.02127230e-01,
          2.50225127e-01, 4.21928793e-01, 4.09707660e-03, 5.86650223e-02,
          4.50668871e-01, 4.50668871e-01, 3.98989245e-02, 3.80326319e-03,
          4.50668871e-01, 4.50668871e-01, 4.33986008e-01, 4.33986008e-01,
          1.25149861e-01, 1.33652553e-01, 3.37343633e-01, 4.33986008e-01,
          2.90564448e-01, 1.02641799e-01, 4.33986008e-01, 2.23382458e-01,
          6.88281804e-02, 4.72657293e-01, 4.72657293e-01, 2.02016085e-01,
          1.33607844e-02, 7.76734203e-02, 4.72657293e-01, 4.72657293e-01,
          1.05553810e-02, 3.67363214e-01, 6.19980812e-01, 6.19980812e-01,
          2.03929171e-02, 3.72563340e-02, 1.10119037e-01, 2.72782654e-01,
          4.06159572e-02, 4.97682422e-01, 4.97682422e-01, 4.97682422e-01,
          3.19524072e-02, 3.42481118e-03, 3.80405560e-02, 3.39658409e-01,
          1.42549977e-01, 3.37339401e-01, 4.78424653e-02, 1.37633249e-01,
          5.18921673e-01, 1.84651956e-01, 3.49652255e-03, 4.56145108e-02,
          5.18921673e-01, 5.18921673e-01, 3.59940827e-01, 1.00750702e-04,
          4.16518837e-01, 5.29223382e-01, 2.55633324e-01, 9.56881500e-04,
          4.73874994e-02, 5.29223382e-01, 4.39806312e-01, 6.90874225e-03,
          1.43585438e-02, 1.84652597e-01, 5.17203212e-01, 5.17203212e-01,
          4.89226073e-01, 1.22489318e-01, 2.54422218e-01, 3.24367076e-01,
          3.52588259e-02, 1.19619758e-03, 3.15939039e-01, 4.57415879e-01,
          6.14751242e-02, 2.95927525e-01, 4.57415879e-01, 4.57415879e-01,
          4.20196861e-01, 2.58847652e-03, 1.29358389e-03, 5.42886198e-01,
          5.42886198e-01, 8.57997593e-03, 2.84793391e-03, 2.52524197e-01,
          5.42886198e-01, 2.15695560e-01, 5.07958047e-03, 1.43585438e-02,
          1.84652597e-01, 5.17203212e-01, 5.17203212e-01, 4.89226073e-01,
          1.22489318e-01, 2.54422218e-01, 3.24367076e-01, 3.52588259e-02,
          1.19619758e-03, 3.15939039e-01, 4.57415879e-01, 6.14751242e-02,
          2.95927525e-01, 4.57415879e-01, 4.57415879e-01, 4.20196861e-01,
          2.58847652e-03, 1.29358389e-03, 5.42886198e-01, 5.42886198e-01,
          8.57997593e-03, 2.84793391e-03, 2.52524197e-01, 5.42886198e-01,
          2.15695560e-01, 5.07958047e-03, 2.18262896e-01, 2.76298411e-02,
          1.11673571e-01, 4.75305527e-01, 4.75305527e-01, 1.51720718e-01,
          8.77445638e-02, 4.75305527e-01, 4.75305527e-01, 4.41087067e-01,
          4.41087067e-01, 2.40030959e-01, 1.58387229e-01, 4.41087067e-01,
          4.41087067e-01, 3.21737051e-01, 3.63154151e-02, 1.72707319e-01,
          1.72687545e-01, 4.90634918e-01, 4.90634918e-01, 6.26609381e-03,
          7.26922043e-03, 4.90634918e-01, 4.90634918e-01, 4.77754697e-02,
          3.66400671e-03, 4.21928793e-01, 4.09707660e-03, 5.86650223e-02,
          4.50668871e-01, 4.50668871e-01, 3.98989245e-02, 3.80326319e-03,
          4.50668871e-01, 4.50668871e-01, 4.48901325e-01, 4.27226901e-01,
          9.52017959e-03, 7.87684843e-02, 4.48901325e-01, 4.48901325e-01,
          2.35507172e-02, 9.68759973e-03, 4.48901325e-01, 2.29649842e-01,
          4.94935870e-01, 5.78941740e-02, 1.10617885e-02, 8.39865953e-02,
          5.98862410e-01, 5.70739388e-01, 2.32939646e-02, 2.94905882e-02 ]
      - [ 5.24107695e-01, 5.24107695e-01, 8.88481513e-02, 5.59227206e-02,
          5.65740764e-02, 5.24107695e-01, 3.58080059e-01, 1.32266864e-01,
          1.03737377e-01, 4.72728252e-01, 4.10442680e-01, 1.03820480e-01,
          6.29126877e-02, 4.72728252e-01, 4.72728252e-01, 1.12628303e-01,
          5.31558245e-02, 3.55178565e-01, 5.35272181e-01, 5.69387078e-02,
          6.09496459e-02, 8.54227841e-02, 5.35272181e-01, 3.34135383e-01,
          2.72299666e-02, 9.19978321e-02, 5.35272181e-01, 2.25620404e-01,
          4.82357562e-01, 4.82357562e-01, 2.43836604e-02, 4.34590280e-02,
          4.82357562e-01, 4.82357562e-01, 7.52036273e-02, 7.39174858e-02,
          4.90958065e-01, 4.90958065e-01, 4.90958065e-01, 3.24440971e-02,
          1.42736316e-01, 1.88951716e-01, 1.72349736e-01, 7.45057762e-02,
          4.23783392e-01, 4.95008618e-01, 8.08831863e-03, 1.58264674e-03,
          5.50063550e-02, 4.95008618e-01, 4.95008618e-01, 1.04355849e-01,
          3.06298006e-02, 4.95008618e-01, 1.47998840e-01, 5.41919172e-01,
          5.41919172e-01, 7.35212341e-02, 5.45988418e-02, 1.28413022e-01,
          5.41919172e-01, 1.47974402e-01, 2.11855590e-01, 3.21267508e-02,
          4.90330189e-01, 5.03749132e-01, 1.75362192e-02, 6.60351440e-02,
          1.45634130e-01, 5.03749132e-01, 4.68445688e-01, 2.58440431e-02,
          3.74088228e-01, 1.39088839e-01, 1.94348097e-02, 5.87600209e-02,
          4.44289505e-01, 4.44289505e-01, 4.44289505e-01, 4.44289505e-01,
          2.07054034e-01, 1.47998840e-01, 5.41919172e-01, 5.41919172e-01,
          7.35212341e-02, 5.45988418e-02, 1.28413022e-01, 5.41919172e-01,
          1.47974402e-01, 2.11855590e-01, 3.21267508e-02, 4.90330189e-01,
          5.03749132e-01, 1.75362192e-02, 6.60351440e-02, 1.45634130e-01,
          5.03749132e-01, 4.68445688e-01, 2.58440431e-02, 3.74088228e-01,
          1.39088839e-01, 1.94348097e-02, 5.87600209e-02, 4.44289505e-01,
          4.44289505e-01, 4.44289505e-01, 4.44289505e-01, 2.07054034e-01,
          3.47220063e-01, 4.53770608e-01, 4.53770608e-01, 1.26387239e-01,
          4.05347832e-02, 2.30697133e-02, 1.82004571e-01, 4.53770608e-01,
          4.53770608e-01, 3.08354706e-01, 4.21991110e-01, 4.21991110e-01,
          9.96728241e-02, 6.24542870e-03, 1.85944457e-02, 4.21991110e-01,
          4.21991110e-01, 4.21991110e-01, 4.53583211e-01, 4.53583211e-01,
          2.23692432e-02, 3.48026981e-03, 2.69119325e-03, 2.39303604e-01,
          4.53583211e-01, 4.53583211e-01, 3.38721871e-01, 2.61231456e-02,
          1.34347528e-01, 4.88616049e-01, 4.88616049e-01, 1.39299750e-01,
          7.00405007e-03, 4.41834070e-02, 4.88616049e-01, 4.88616049e-01,
          1.32346287e-01, 7.01280609e-02, 4.23343629e-01, 4.78611946e-01,
          2.61608660e-01, 4.78611946e-01, 2.69520849e-01, 1.62283599e-01,
          4.09891307e-01, 9.62716490e-02, 5.99599481e-02, 3.40046622e-02,
          7.23540634e-02, 4.25637588e-02, 6.86409295e-01, 6.86409295e-01,
          1.39211893e-01, 1.01910613e-01, 5.35272181e-01, 5.69387078e-02,
          6.09496459e-02, 8.54227841e-02, 5.35272181e-01, 3.34135383e-01,
          2.72299666e-02, 9.19978321e-02, 5.35272181e-01, 6.33899331e-01,
          4.28656004e-02, 1.11438923e-01, 2.23000318e-01, 3.40431720e-01,
          2.88386382e-02, 8.19057971e-02, 5.09429872e-02, 6.33899331e-01,
          4.61779356e-01, 3.97049785e-02, 2.42475688e-01, 4.61779356e-01,
          1.59130335e-01, 4.08032350e-02, 2.34666616e-01, 4.61779356e-01,
          4.61779356e-01, 4.95008618e-01, 8.08831863e-03, 1.58264674e-03,
          5.50063550e-02, 4.95008618e-01, 4.95008618e-01, 1.04355849e-01,
          3.06298006e-02, 4.95008618e-01, 4.98364061e-01, 9.38767102e-03,
          3.22107109e-03, 3.81593257e-02, 4.98364061e-01, 4.98364061e-01,
          6.25484507e-04, 6.59971265e-04, 4.98364061e-01, 4.35123116e-01,
          1.20252268e-02, 2.37870682e-02, 5.75293154e-02, 4.35123116e-01,
          4.35123116e-01, 4.35123116e-01, 2.12067813e-01, 4.35123116e-01,
          3.74088228e-01, 1.39088839e-01, 1.94348097e-02, 5.87600209e-02,
          4.44289505e-01, 4.44289505e-01, 4.44289505e-01, 4.44289505e-01,
          2.07054034e-01, 1.05442561e-01, 4.46193963e-02, 5.67197017e-02,
          1.02198161e-01, 6.71200693e-01, 6.71200693e-01, 2.11846977e-01,
          7.70850554e-02, 1.21188603e-01, 4.59527820e-02, 5.64636551e-02,
          4.15930375e-02, 3.61172743e-02, 6.92975700e-01, 6.92975700e-01,
          1.36693448e-01, 5.79719618e-02, 4.76632081e-02, 3.74088228e-01,
          1.39088839e-01, 1.94348097e-02, 5.87600209e-02, 4.44289505e-01,
          4.44289505e-01, 4.44289505e-01, 4.44289505e-01, 2.07054034e-01,
          1.05442561e-01, 4.46193963e-02, 5.67197017e-02, 1.02198161e-01,
          6.71200693e-01, 6.71200693e-01, 2.11846977e-01, 7.70850554e-02,
          1.21188603e-01, 4.59527820e-02, 5.64636551e-02, 4.15930375e-02,
          3.61172743e-02, 6.92975700e-01, 6.92975700e-01, 1.36693448e-01,
          5.79719618e-02, 4.76632081e-02, 4.53583211e-01, 4.53583211e-01,
          2.23692432e-02, 3.48026981e-03, 2.69119325e-03, 2.39303604e-01,
          4.53583211e-01, 4.53583211e-01, 3.38721871e-01, 2.07115978e-01,
          1.45420328e-01, 7.77074024e-02, 3.40745077e-02, 8.54300857e-02,
          3.40457380e-01, 6.17556095e-01, 6.17556095e-01, 1.91389114e-01,
          3.87208939e-01, 6.21831059e-01, 6.18793488e-01, 6.09410331e-02,
          1.92880705e-01, 9.38144177e-02, 1.27211839e-01, 6.17168844e-02,
          6.76138997e-02, 9.62716490e-02, 5.99599481e-02, 3.40046622e-02,
          7.23540634e-02, 4.25637588e-02, 6.86409295e-01, 6.86409295e-01,
          1.39211893e-01, 1.01910613e-01, 4.52816069e-01, 4.52816069e-01,
          1.57902971e-01, 7.23051503e-02, 7.83800855e-02, 4.52816069e-01,
          4.52816069e-01, 2.61124611e-01, 2.66113907e-01, 5.61512113e-01,
          5.61512113e-01, 8.55638757e-02, 1.98322404e-02, 6.32255152e-02,
          5.61512113e-01, 1.84111580e-01, 5.83402114e-03, 5.34996912e-02 ]
      - [ 1.40604988e-01, 1.25280112e-01, 5.32991827e-01, 2.29010284e-01,
          1.53253391e-01, 8.37594494e-02, 5.32991827e-01, 5.32991827e-01,
          1.54995486e-01, 1.96592912e-01, 1.61116898e-01, 5.50420702e-01,
          5.50420702e-01, 5.50420702e-01, 1.18709601e-01, 2.26270799e-02,
          1.38188247e-02, 7.88183808e-02, 4.39961523e-01, 3.26170884e-02,
          1.14509858e-01, 4.45697606e-01, 4.45697606e-01, 4.45697606e-01,
          1.35804102e-01, 4.57445271e-02, 4.13921803e-01, 2.09561005e-01,
          4.39804792e-01, 4.39804792e-01, 1.31825775e-01, 2.32103333e-01,
          1.31824359e-01, 4.39804792e-01, 4.39804792e-01, 2.98915237e-01,
          6.40192926e-01, 6.40192926e-01, 3.34386021e-01, 1.63858812e-02,
          7.77087137e-02, 1.86829478e-01, 2.11084951e-02, 1.16740894e-02,
          1.42499626e-01, 4.80274349e-01, 3.87754053e-01, 1.44315613e-02,
          1.20822914e-01, 4.80274349e-01, 3.66411179e-01, 1.40212635e-02,
          5.99932186e-02, 4.80274349e-01, 1.81539133e-01, 4.16637182e-01,
          4.16637182e-01, 1.73675299e-01, 2.49144077e-01, 5.20868301e-02,
          4.16637182e-01, 4.16637182e-01, 4.16637182e-01, 1.73067614e-01,
          4.77969319e-01, 4.77969319e-01, 1.55198928e-02, 7.38854110e-02,
          4.77969319e-01, 4.77969319e-01, 2.13753924e-01, 8.01752415e-03,
          5.48214726e-02, 7.89449215e-02, 2.22672075e-02, 3.35790396e-01,
          5.37179649e-01, 5.37179649e-01, 5.21925569e-01, 1.39286220e-01,
          5.67086935e-02, 1.81539133e-01, 4.16637182e-01, 4.16637182e-01,
          1.73675299e-01, 2.49144077e-01, 5.20868301e-02, 4.16637182e-01,
          4.16637182e-01, 4.16637182e-01, 1.73067614e-01, 4.77969319e-01,
          4.77969319e-01, 1.55198928e-02, 7.38854110e-02, 4.77969319e-01,
          4.77969319e-01, 2.13753924e-01, 8.01752415e-03, 5.48214726e-02,
          7.89449215e-02, 2.22672075e-02, 3.35790396e-01, 5.37179649e-01,
          5.37179649e-01, 5.21925569e-01, 1.39286220e-01, 5.67086935e-02,
          4.90564294e-02, 2.47292578e-01, 4.52004254e-01, 4.52004254e-01,
          1.84780478e-01, 4.12581638e-02, 2.80798048e-01, 4.52004254e-01,
          4.52004254e-01, 9.70125012e-03, 3.09070081e-01, 4.61671352e-01,
          4.61671352e-01, 1.17188739e-02, 7.13480636e-02, 4.61671352e-01,
          4.61671352e-01, 2.04891384e-01, 4.96677488e-01, 3.43981273e-02,
          5.84693700e-02, 5.53049035e-02, 3.34824845e-02, 7.47009739e-02,
          4.90522027e-01, 4.96677488e-01, 4.96677488e-01, 2.58070603e-02,
          1.41312361e-01, 4.45838749e-01, 4.45838749e-01, 3.82260799e-01,
          6.06477149e-02, 1.73266470e-01, 4.45838749e-01, 4.45838749e-01,
          1.30610755e-02, 6.34734854e-02, 4.93161172e-01, 4.93161172e-01,
          1.30847096e-01, 6.21364033e-03, 2.97295600e-02, 4.93161172e-01,
          4.93161172e-01, 4.80062485e-01, 2.40553822e-02, 8.02022144e-02,
          4.80062485e-01, 4.80062485e-01, 8.34714249e-02, 1.14728706e-02,
          2.43423432e-01, 4.80062485e-01, 4.39961523e-01, 3.26170884e-02,
          1.14509858e-01, 4.45697606e-01, 4.45697606e-01, 4.45697606e-01,
          1.35804102e-01, 4.57445271e-02, 4.13921803e-01, 1.79984942e-01,
          2.94557214e-02, 9.38035250e-02, 5.00893295e-01, 5.00893295e-01,
          5.00893295e-01, 2.57480651e-01, 8.39785933e-02, 3.56237531e-01,
          4.91660647e-02, 2.40737610e-02, 5.43562919e-02, 4.93205674e-02,
          4.95085776e-01, 4.95085776e-01, 4.95085776e-01, 4.95085776e-01,
          7.89411217e-02, 4.80274349e-01, 3.87754053e-01, 1.44315613e-02,
          1.20822914e-01, 4.80274349e-01, 3.66411179e-01, 1.40212635e-02,
          5.99932186e-02, 4.80274349e-01, 3.56743395e-01, 1.87080000e-02,
          3.69262882e-02, 3.51723820e-01, 4.42438543e-01, 3.83836702e-02,
          5.16267680e-02, 5.20682514e-01, 5.20682514e-01, 8.87365043e-02,
          3.23135220e-02, 4.90478426e-02, 5.18202223e-02, 3.54986563e-02,
          5.71878534e-03, 5.39192021e-01, 5.86563230e-01, 5.86563230e-01,
          5.48214726e-02, 7.89449215e-02, 2.22672075e-02, 3.35790396e-01,
          5.37179649e-01, 5.37179649e-01, 5.21925569e-01, 1.39286220e-01,
          5.67086935e-02, 1.55802425e-02, 1.39690861e-01, 4.70489472e-01,
          4.70489472e-01, 4.70489472e-01, 2.69068498e-02, 2.44729817e-01,
          4.70489472e-01, 1.71715975e-01, 1.41420355e-02, 9.44162533e-02,
          4.78228569e-01, 2.42328346e-01, 7.34773837e-03, 1.06723513e-02,
          5.77166378e-01, 5.77166378e-01, 1.76880553e-01, 5.48214726e-02,
          7.89449215e-02, 2.22672075e-02, 3.35790396e-01, 5.37179649e-01,
          5.37179649e-01, 5.21925569e-01, 1.39286220e-01, 5.67086935e-02,
          1.55802425e-02, 1.39690861e-01, 4.70489472e-01, 4.70489472e-01,
          4.70489472e-01, 2.69068498e-02, 2.44729817e-01, 4.70489472e-01,
          1.71715975e-01, 1.41420355e-02, 9.44162533e-02, 4.78228569e-01,
          2.42328346e-01, 7.34773837e-03, 1.06723513e-02, 5.77166378e-01,
          5.77166378e-01, 1.76880553e-01, 4.96677488e-01, 3.43981273e-02,
          5.84693700e-02, 5.53049035e-02, 3.34824845e-02, 7.47009739e-02,
          4.90522027e-01, 4.96677488e-01, 4.96677488e-01, 4.83349532e-01,
          4.83349532e-01, 4.83349532e-01, 1.26247257e-01, 1.09209307e-02,
          1.53462186e-01, 4.46295381e-01, 1.18236452e-01, 2.03775436e-01,
          1.25269547e-01, 4.33370411e-01, 4.46291536e-01, 2.18597148e-02,
          1.28829582e-02, 4.40097898e-01, 4.46291536e-01, 4.46291536e-01,
          1.34665817e-02, 4.80062485e-01, 2.40553822e-02, 8.02022144e-02,
          4.80062485e-01, 4.80062485e-01, 8.34714249e-02, 1.14728706e-02,
          2.43423432e-01, 4.80062485e-01, 4.22920048e-01, 4.22920048e-01,
          3.30148339e-02, 5.46698533e-02, 4.22920048e-01, 4.22920048e-01,
          3.82997096e-01, 2.85436735e-02, 3.58817041e-01, 4.75045532e-01,
          4.75045532e-01, 1.34724200e-01, 3.07554659e-02, 1.63173810e-01,
          4.75045532e-01, 4.75045532e-01, 1.07370779e-01, 1.87966540e-01 ]
      - [ 4.38653052e-01, 4.38653052e-01, 4.38653052e-01, 2.37528324e-01,
          2.22264856e-01, 4.38653052e-01, 3.14156651e-01, 2.95724124e-02,
          1.43395036e-01, 3.33364695e-01, 4.37194049e-01, 4.99948084e-01,
          4.87976857e-02, 4.08880830e-01, 4.99948084e-01, 1.15651622e-01,
          1.77865773e-02, 9.78959724e-02, 4.05043364e-01, 4.05043364e-01,
          4.05043364e-01, 7.99393579e-02, 1.35610193e-01, 3.18570793e-01,
          4.05043364e-01, 3.71433735e-01, 2.74740547e-01, 3.60383838e-01,
          5.03310978e-01, 1.61892593e-01, 1.16135344e-01, 2.15756774e-01,
          5.03310978e-01, 5.03310978e-01, 1.36595652e-01, 1.50036868e-02,
          1.55129954e-02, 5.80986202e-01, 5.80986202e-01, 3.00921760e-02,
          8.18478838e-02, 4.91640866e-01, 2.58463591e-01, 5.19438200e-02,
          7.14409165e-03, 9.51001595e-04, 5.44103205e-01, 5.44103205e-01,
          7.38803018e-03, 2.98651448e-03, 2.36128885e-02, 5.44103205e-01,
          3.25266242e-01, 1.20089622e-03, 1.89732254e-01, 2.90448993e-01,
          1.81557283e-01, 6.28098175e-02, 3.72110218e-01, 4.75523472e-01,
          4.75523472e-01, 4.75523472e-01, 1.45428896e-01, 4.11390305e-01,
          5.00831127e-01, 5.00831127e-01, 3.72207835e-02, 3.95213403e-02,
          1.29755884e-02, 9.59495455e-02, 2.46857464e-01, 5.00831127e-01,
          1.47388205e-02, 5.46138942e-01, 5.46138942e-01, 2.43459479e-03,
          4.37547592e-03, 1.79112405e-02, 5.46138942e-01, 3.09808910e-01,
          5.65531775e-02, 1.89732254e-01, 2.90448993e-01, 1.81557283e-01,
          6.28098175e-02, 3.72110218e-01, 4.75523472e-01, 4.75523472e-01,
          4.75523472e-01, 1.45428896e-01, 4.11390305e-01, 5.00831127e-01,
          5.00831127e-01, 3.72207835e-02, 3.95213403e-02, 1.29755884e-02,
          9.59495455e-02, 2.46857464e-01, 5.00831127e-01, 1.47388205e-02,
          5.46138942e-01, 5.46138942e-01, 2.43459479e-03, 4.37547592e-03,
          1.79112405e-02, 5.46138942e-01, 3.09808910e-01, 5.65531775e-02,
          8.76988694e-02, 3.51757407e-01, 4.92291778e-01, 1.79746613e-01,
          2.33111113e-01, 2.00062007e-01, 4.92291778e-01, 4.92291778e-01,
          9.96527448e-02, 3.31995040e-01, 4.89333689e-01, 4.89333689e-01,
          9.20830965e-02, 1.24464808e-02, 4.26251767e-03, 1.38522610e-02,
          3.97121340e-01, 4.89333689e-01, 3.35084230e-01, 4.48599309e-01,
          4.48599309e-01, 3.40556093e-02, 1.38961319e-02, 3.32662091e-02,
          3.67351890e-01, 3.76970470e-01, 4.48599309e-01, 1.13011308e-01,
          1.14184365e-01, 3.49690109e-01, 4.66143698e-01, 2.57437915e-01,
          7.14232549e-02, 3.52144539e-01, 4.66143698e-01, 4.66143698e-01,
          4.26141657e-02, 3.62808108e-01, 6.33317828e-01, 6.33317828e-01,
          1.44459754e-01, 3.07456348e-02, 5.55314310e-02, 7.63757527e-02,
          1.65279403e-01, 1.16520062e-01, 6.04546741e-02, 2.74001598e-01,
          5.87211668e-01, 3.99560064e-01, 5.40258348e-01, 2.60372907e-01,
          3.56516168e-02, 1.90835223e-01, 4.05043364e-01, 4.05043364e-01,
          4.05043364e-01, 7.99393579e-02, 1.35610193e-01, 3.18570793e-01,
          4.05043364e-01, 3.71433735e-01, 2.74740547e-01, 2.67505795e-01,
          2.59672496e-02, 1.76323354e-02, 2.02377930e-01, 4.02034134e-01,
          9.06223506e-02, 5.75367212e-01, 5.75367212e-01, 2.20939860e-01,
          1.55159859e-02, 2.46702507e-02, 1.91754475e-01, 5.45423687e-01,
          5.45423687e-01, 1.74008846e-01, 1.19141996e-01, 3.69692296e-01,
          4.25222158e-01, 9.51001595e-04, 5.44103205e-01, 5.44103205e-01,
          7.38803018e-03, 2.98651448e-03, 2.36128885e-02, 5.44103205e-01,
          3.25266242e-01, 1.20089622e-03, 7.47441407e-03, 1.35586560e-01,
          9.19987708e-02, 2.11718213e-03, 4.37506242e-03, 1.79843903e-02,
          6.94888949e-01, 6.94888949e-01, 8.46018177e-03, 4.89644296e-02,
          1.44960970e-01, 3.52460474e-01, 2.88524270e-01, 3.69853467e-01,
          4.13661897e-01, 4.69039291e-01, 4.69039291e-01, 1.28552243e-01,
          1.47388205e-02, 5.46138942e-01, 5.46138942e-01, 2.43459479e-03,
          4.37547592e-03, 1.79112405e-02, 5.46138942e-01, 3.09808910e-01,
          5.65531775e-02, 3.53053510e-01, 5.11491120e-01, 2.11423293e-01,
          8.21501773e-04, 1.82161841e-03, 1.09335538e-02, 5.11491120e-01,
          5.11491120e-01, 2.01375082e-01, 4.58574742e-01, 3.66271794e-01,
          7.44733587e-02, 8.79245438e-03, 5.37477322e-02, 1.07652418e-01,
          4.58574742e-01, 4.58574742e-01, 4.58574742e-01, 1.47388205e-02,
          5.46138942e-01, 5.46138942e-01, 2.43459479e-03, 4.37547592e-03,
          1.79112405e-02, 5.46138942e-01, 3.09808910e-01, 5.65531775e-02,
          3.53053510e-01, 5.11491120e-01, 2.11423293e-01, 8.21501773e-04,
          1.82161841e-03, 1.09335538e-02, 5.11491120e-01, 5.11491120e-01,
          2.01375082e-01, 4.58574742e-01, 3.66271794e-01, 7.44733587e-02,
          8.79245438e-03, 5.37477322e-02, 1.07652418e-01, 4.58574742e-01,
          4.58574742e-01, 4.58574742e-01, 3.35084230e-01, 4.48599309e-01,
          4.48599309e-01, 3.40556093e-02, 1.38961319e-02, 3.32662091e-02,
          3.67351890e-01, 3.76970470e-01, 4.48599309e-01, 4.17440236e-01,
          4.17440236e-01, 5.51904850e-02, 1.74101666e-02, 9.79147293e-03,
          3.55664849e-01, 4.17440236e-01, 4.17440236e-01, 4.10928339e-01,
          2.22176179e-01, 4.79392081e-01, 4.27547917e-02, 5.05576935e-03,
          3.94970132e-03, 3.71252239e-01, 5.34429789e-01, 5.34429789e-01,
          6.74991235e-02, 1.16520062e-01, 6.04546741e-02, 2.74001598e-01,
          5.87211668e-01, 3.99560064e-01, 5.40258348e-01, 2.60372907e-01,
          3.56516168e-02, 1.90835223e-01, 2.18577668e-01, 1.76604509e-01,
          1.27532892e-02, 7.32118413e-02, 4.08646017e-02, 6.71934068e-01,
          6.71934068e-01, 2.42312476e-02, 5.96337877e-02, 4.93781239e-01,
          4.93781239e-01, 3.95554528e-02, 7.10524768e-02, 4.40578647e-02,
          4.93781239e-01, 4.93781239e-01, 9.36891064e-02, 4.95668948e-02 ]
      - [ 4.61468577e-01, 5.73827028e-01, 1.75766610e-02, 5.97842177e-03,
          1.63984671e-01, 6.15585148e-01, 2.09350735e-01, 1.19204093e-02,
          3.83713916e-02, 3.04617941e-01, 4.37958956e-01, 4.37958956e-01,
          3.37393284e-01, 4.06341046e-01, 4.37958956e-01, 1.84363469e-01,
          1.07962511e-01, 5.30653745e-02, 2.04046592e-01, 3.58977824e-01,
          3.58977824e-01, 3.58977824e-01, 3.58977824e-01, 2.56696552e-01,
          3.58977824e-01, 3.58977824e-01, 3.40139329e-01, 4.58468258e-01,
          1.93620026e-01, 7.28273168e-02, 5.60676530e-02, 4.58468258e-01,
          4.58468258e-01, 4.58468258e-01, 3.01851481e-01, 1.32655621e-01,
          4.34373766e-01, 4.34373766e-01, 4.34373766e-01, 4.34373766e-01,
          3.88166100e-01, 1.26148745e-01, 1.34620115e-01, 1.44080564e-01,
          1.88336059e-01, 3.47176015e-01, 3.24369460e-01, 3.47176015e-01,
          3.47176015e-01, 3.47176015e-01, 2.91309536e-01, 2.88561016e-01,
          3.47176015e-01, 3.47176015e-01, 7.39607066e-02, 9.82299149e-02,
          1.52861953e-01, 6.81799576e-02, 4.56711471e-01, 1.79327041e-01,
          5.81180036e-01, 5.81180036e-01, 1.86488539e-01, 4.02771235e-01,
          4.56045836e-01, 4.56045836e-01, 3.56411457e-01, 4.56045836e-01,
          1.81942716e-01, 2.10954294e-01, 5.34954853e-02, 4.23205458e-02,
          3.68192554e-01, 3.68192554e-01, 3.18481058e-01, 3.21347445e-01,
          3.68192554e-01, 3.68192554e-01, 2.99822628e-01, 1.54611781e-01,
          3.68192554e-01, 7.39607066e-02, 9.82299149e-02, 1.52861953e-01,
          6.81799576e-02, 4.56711471e-01, 1.79327041e-01, 5.81180036e-01,
          5.81180036e-01, 1.86488539e-01, 4.02771235e-01, 4.56045836e-01,
          4.56045836e-01, 3.56411457e-01, 4.56045836e-01, 1.81942716e-01,
          2.10954294e-01, 5.34954853e-02, 4.23205458e-02, 3.68192554e-01,
          3.68192554e-01, 3.18481058e-01, 3.21347445e-01, 3.68192554e-01,
          3.68192554e-01, 2.99822628e-01, 1.54611781e-01, 3.68192554e-01,
          7.79340491e-02, 3.16113569e-02, 7.36049041e-02, 2.17365235e-01,
          8.11302885e-02, 1.91863272e-02, 2.42867678e-01, 6.58692122e-01,
          6.58692122e-01, 3.37376893e-01, 5.08422017e-01, 5.08422017e-01,
          5.08422017e-01, 5.86548261e-03, 6.06176406e-02, 1.39560446e-01,
          2.48375833e-01, 1.44027397e-01, 3.50360453e-01, 3.50360453e-01,
          3.50360453e-01, 3.50360453e-01, 3.23249042e-01, 3.27321976e-01,
          2.19898537e-01, 3.50360453e-01, 3.50360453e-01, 1.12768179e-02,
          1.47556164e-03, 2.31100515e-01, 5.59445381e-01, 3.79672945e-02,
          7.33155431e-03, 2.10687984e-02, 5.59445381e-01, 5.59445381e-01,
          2.88258314e-01, 4.31084245e-01, 4.31084245e-01, 4.02227521e-01,
          1.57908071e-02, 7.58169368e-02, 3.84947322e-02, 4.31084245e-01,
          4.31084245e-01, 3.55173320e-01, 3.55173320e-01, 3.55173320e-01,
          3.55173320e-01, 3.55173320e-01, 3.55173320e-01, 2.41500631e-01,
          2.34717801e-01, 3.55173320e-01, 2.04046592e-01, 3.58977824e-01,
          3.58977824e-01, 3.58977824e-01, 3.58977824e-01, 2.56696552e-01,
          3.58977824e-01, 3.58977824e-01, 3.40139329e-01, 1.44004598e-01,
          2.03659743e-01, 3.68981749e-01, 3.68981749e-01, 3.68981749e-01,
          3.42365116e-01, 3.68981749e-01, 3.68981749e-01, 3.68981749e-01,
          5.94106056e-02, 1.00569250e-02, 4.17225420e-01, 5.25462151e-01,
          1.05999887e-01, 6.84311911e-02, 2.22164109e-01, 5.25462151e-01,
          4.46707636e-01, 3.47176015e-01, 3.24369460e-01, 3.47176015e-01,
          3.47176015e-01, 3.47176015e-01, 2.91309536e-01, 2.88561016e-01,
          3.47176015e-01, 3.47176015e-01, 3.82694155e-01, 6.65581748e-02,
          9.10376459e-02, 3.58709425e-01, 3.82694155e-01, 3.82694155e-01,
          3.82694155e-01, 3.50017667e-01, 3.82694155e-01, 2.21321821e-01,
          2.46993884e-01, 4.03448343e-01, 4.03448343e-01, 3.17888230e-01,
          4.03448343e-01, 4.03448343e-01, 2.88734049e-01, 2.24672452e-01,
          3.68192554e-01, 3.68192554e-01, 3.18481058e-01, 3.21347445e-01,
          3.68192554e-01, 3.68192554e-01, 2.99822628e-01, 1.54611781e-01,
          3.68192554e-01, 2.60061920e-01, 1.16735622e-01, 1.04041718e-01,
          4.11930054e-01, 4.11930054e-01, 2.35306025e-01, 4.11930054e-01,
          4.11930054e-01, 4.11930054e-01, 1.65160105e-01, 4.03326154e-01,
          1.80881739e-01, 9.23901517e-03, 3.66349459e-01, 4.53169018e-01,
          4.53169018e-01, 4.51647222e-01, 1.54267937e-01, 3.68192554e-01,
          3.68192554e-01, 3.18481058e-01, 3.21347445e-01, 3.68192554e-01,
          3.68192554e-01, 2.99822628e-01, 1.54611781e-01, 3.68192554e-01,
          2.60061920e-01, 1.16735622e-01, 1.04041718e-01, 4.11930054e-01,
          4.11930054e-01, 2.35306025e-01, 4.11930054e-01, 4.11930054e-01,
          4.11930054e-01, 1.65160105e-01, 4.03326154e-01, 1.80881739e-01,
          9.23901517e-03, 3.66349459e-01, 4.53169018e-01, 4.53169018e-01,
          4.51647222e-01, 1.54267937e-01, 3.50360453e-01, 3.50360453e-01,
          3.50360453e-01, 3.50360453e-01, 3.23249042e-01, 3.27321976e-01,
          2.19898537e-01, 3.50360453e-01, 3.50360453e-01, 3.57898265e-01,
          3.57898265e-01, 2.31776699e-01, 3.57898265e-01, 2.14629233e-01,
          3.57898265e-01, 3.57898265e-01, 3.57898265e-01, 3.57898265e-01,
          1.43627211e-01, 4.96835262e-02, 3.14865671e-02, 0.,
          6.00896068e-02, 5.48768640e-01, 5.48768640e-01, 5.48768640e-01,
          2.51752764e-01, 3.55173320e-01, 3.55173320e-01, 3.55173320e-01,
          3.55173320e-01, 3.55173320e-01, 3.55173320e-01, 2.41500631e-01,
          2.34717801e-01, 3.55173320e-01, 2.80106872e-01, 1.33220270e-01,
          2.68243384e-02, 9.26915631e-02, 4.24514383e-01, 4.24514383e-01,
          4.24514383e-01, 4.11570847e-01, 4.24514383e-01, 5.38754642e-01,
          5.38754642e-01, 2.65459623e-03, 3.21326265e-03, 1.03703558e-01,
          4.34591740e-01, 4.02328163e-01, 1.87312230e-01, 1.32329032e-01 ]
      - [ 5.05915403e-01, 5.05915403e-01, 8.65035951e-02, 1.43491477e-02,
          4.65583622e-01, 5.05915403e-01, 3.16955000e-02, 6.94430259e-04,
          4.04224619e-02, 3.84784102e-01, 2.87970066e-01, 4.92940247e-02,
          1.89266969e-02, 6.10519350e-01, 6.21593952e-01, 1.82798076e-02,
          1.42035093e-02, 1.92642473e-02, 1.66986823e-01, 4.36522007e-01,
          4.36522007e-01, 4.18413162e-01, 4.36522007e-01, 4.36522007e-01,
          1.56595752e-01, 7.66020566e-02, 9.45433509e-03, 1.89238161e-01,
          2.95911252e-01, 6.27429709e-02, 1.27270576e-02, 3.34876686e-01,
          5.49713552e-01, 5.49713552e-01, 3.79355222e-01, 8.13287646e-02,
          4.68649000e-01, 4.68649000e-01, 1.62525624e-01, 1.74593970e-01,
          3.76268506e-01, 4.68649000e-01, 1.27776176e-01, 2.04774648e-01,
          2.82291323e-01, 3.20229679e-01, 5.22514045e-01, 5.22514045e-01,
          4.81910080e-01, 5.14329225e-02, 9.97042730e-02, 1.52227789e-01,
          2.06584439e-01, 1.88464284e-01, 2.52297707e-02, 8.25540423e-02,
          1.57505170e-01, 2.45229721e-01, 1.94987714e-01, 1.78166613e-01,
          6.44112945e-01, 6.44112945e-01, 4.05664854e-02, 4.34210211e-01,
          4.49654907e-01, 3.15371931e-01, 4.49654907e-01, 4.49654907e-01,
          2.49007434e-01, 4.90790270e-02, 1.09292232e-01, 1.56791955e-01,
          3.50635529e-01, 4.50332940e-01, 4.50332940e-01, 4.50332940e-01,
          4.50332940e-01, 2.07059503e-01, 5.99511750e-02, 6.83149472e-02,
          1.01107709e-01, 2.52297707e-02, 8.25540423e-02, 1.57505170e-01,
          2.45229721e-01, 1.94987714e-01, 1.78166613e-01, 6.44112945e-01,
          6.44112945e-01, 4.05664854e-02, 4.34210211e-01, 4.49654907e-01,
          3.15371931e-01, 4.49654907e-01, 4.49654907e-01, 2.49007434e-01,
          4.90790270e-02, 1.09292232e-01, 1.56791955e-01, 3.50635529e-01,
          4.50332940e-01, 4.50332940e-01, 4.50332940e-01, 4.50332940e-01,
          2.07059503e-01, 5.99511750e-02, 6.83149472e-02, 1.01107709e-01,
          7.67097324e-02, 4.18251678e-02, 3.03370990e-02, 3.35125417e-01,
          1.03988491e-01, 5.08360155e-02, 4.77009892e-01, 5.62398612e-01,
          5.62398612e-01, 3.55087638e-01, 4.68097538e-01, 2.99541056e-01,
          2.53425986e-01, 2.04029992e-01, 1.08832911e-01, 6.68502152e-02,
          4.68097538e-01, 4.68097538e-01, 4.43838865e-01, 4.83980805e-01,
          4.83980805e-01, 4.83980805e-01, 1.66712642e-01, 1.53924942e-01,
          1.58527702e-01, 7.83937871e-02, 1.12686835e-01, 1.93209238e-02,
          1.18029201e-02, 8.30670670e-02, 5.57490528e-01, 2.33565882e-01,
          8.50916840e-03, 2.76018516e-03, 5.57490528e-01, 5.57490528e-01,
          6.88380226e-02, 4.28844728e-02, 4.07428630e-02, 5.70465744e-01,
          9.63988677e-02, 6.30701846e-03, 2.09668819e-02, 5.70465744e-01,
          5.70465744e-01, 4.15165335e-01, 4.15165335e-01, 4.15165335e-01,
          3.44639271e-01, 6.43852875e-02, 3.18678431e-02, 1.00519307e-01,
          4.15165335e-01, 4.15165335e-01, 1.66986823e-01, 4.36522007e-01,
          4.36522007e-01, 4.18413162e-01, 4.36522007e-01, 4.36522007e-01,
          1.56595752e-01, 7.66020566e-02, 9.45433509e-03, 2.65837580e-01,
          3.59553188e-01, 3.59553188e-01, 3.59553188e-01, 3.59553188e-01,
          3.07249367e-01, 3.59553188e-01, 3.59553188e-01, 2.35934034e-01,
          2.13922188e-01, 2.53299534e-01, 3.69522899e-01, 3.69522899e-01,
          3.69522899e-01, 3.62225384e-01, 2.69150257e-01, 3.69522899e-01,
          3.69522899e-01, 3.20229679e-01, 5.22514045e-01, 5.22514045e-01,
          4.81910080e-01, 5.14329225e-02, 9.97042730e-02, 1.52227789e-01,
          2.06584439e-01, 1.88464284e-01, 3.04218948e-01, 3.01947951e-01,
          3.40770870e-01, 3.40770870e-01, 3.40770870e-01, 3.40770870e-01,
          3.40770870e-01, 3.40770870e-01, 3.40770870e-01, 3.26005042e-01,
          7.86933675e-02, 1.20771974e-01, 3.96012157e-01, 3.96012157e-01,
          3.96012157e-01, 3.14693063e-01, 3.77692789e-01, 3.96012157e-01,
          3.50635529e-01, 4.50332940e-01, 4.50332940e-01, 4.50332940e-01,
          4.50332940e-01, 2.07059503e-01, 5.99511750e-02, 6.83149472e-02,
          1.01107709e-01, 3.79853427e-01, 3.79853427e-01, 3.29386294e-01,
          2.76131660e-01, 3.79853427e-01, 3.79853427e-01, 2.53011942e-01,
          1.61254451e-01, 3.79853427e-01, 4.13351864e-01, 8.01311433e-02,
          1.35740519e-01, 4.13351864e-01, 4.13351864e-01, 3.06490988e-01,
          1.50959432e-01, 4.13351864e-01, 4.13351864e-01, 3.50635529e-01,
          4.50332940e-01, 4.50332940e-01, 4.50332940e-01, 4.50332940e-01,
          2.07059503e-01, 5.99511750e-02, 6.83149472e-02, 1.01107709e-01,
          3.79853427e-01, 3.79853427e-01, 3.29386294e-01, 2.76131660e-01,
          3.79853427e-01, 3.79853427e-01, 2.53011942e-01, 1.61254451e-01,
          3.79853427e-01, 4.13351864e-01, 8.01311433e-02, 1.35740519e-01,
          4.13351864e-01, 4.13351864e-01, 3.06490988e-01, 1.50959432e-01,
          4.13351864e-01, 4.13351864e-01, 4.43838865e-01, 4.83980805e-01,
          4.83980805e-01, 4.83980805e-01, 1.66712642e-01, 1.53924942e-01,
          1.58527702e-01, 7.83937871e-02, 1.12686835e-01, 3.47054809e-01,
          3.33293289e-01, 3.47054809e-01, 3.47054809e-01, 3.47054809e-01,
          2.15732604e-01, 3.40918154e-01, 3.47054809e-01, 3.47054809e-01,
          3.57992589e-01, 3.57992589e-01, 3.09844255e-01, 3.57992589e-01,
          3.57992589e-01, 3.57992589e-01, 2.61966497e-01, 2.50681579e-01,
          3.57992589e-01, 4.15165335e-01, 4.15165335e-01, 4.15165335e-01,
          3.44639271e-01, 6.43852875e-02, 3.18678431e-02, 1.00519307e-01,
          4.15165335e-01, 4.15165335e-01, 3.77869815e-01, 3.77869815e-01,
          3.77869815e-01, 3.77869815e-01, 2.06847996e-01, 3.67414296e-01,
          2.53425926e-01, 2.00730860e-01, 3.77869815e-01, 4.29657370e-01,
          8.69814381e-02, 1.89753279e-01, 1.13702014e-01, 4.24501121e-01,
          4.29657370e-01, 4.29657370e-01, 1.43473879e-01, 4.29657370e-01 ]
      - [ 4.45351511e-01, 4.45351511e-01, 3.50384176e-01, 2.21433444e-03,
          8.96541402e-02, 2.65729606e-01, 4.45351511e-01, 2.94457138e-01,
          3.35273594e-01, 4.50374037e-01, 4.50374037e-01, 4.30708140e-01,
          9.35994647e-03, 1.96985632e-01, 4.50374037e-01, 3.08622539e-01,
          1.08950930e-02, 2.59276092e-01, 1.13101505e-01, 2.34407097e-01,
          1.44312173e-01, 1.84831157e-01, 5.17073572e-01, 5.17073572e-01,
          5.17073572e-01, 2.39854217e-01, 1.11729592e-01, 4.30143565e-01,
          4.81682122e-01, 1.72529936e-01, 3.97622306e-03, 1.67347156e-02,
          4.81682122e-01, 4.81682122e-01, 2.62308359e-01, 1.23468354e-01,
          1.26088768e-01, 5.08574188e-01, 2.82665998e-01, 4.19023819e-02,
          1.40634388e-01, 5.55170178e-01, 5.55170178e-01, 3.66551764e-02,
          2.65449751e-02, 2.79285431e-01, 3.78321052e-01, 1.32302403e-01,
          2.82427877e-01, 3.36523414e-01, 3.78321052e-01, 3.78321052e-01,
          3.78321052e-01, 3.67689073e-01, 1.09420851e-01, 5.03332376e-01,
          2.68690258e-01, 7.61379534e-03, 1.74071789e-02, 5.72720468e-01,
          5.72720468e-01, 1.36604533e-02, 1.43212359e-02, 3.86741251e-01,
          4.27803338e-01, 3.43559712e-01, 4.57921065e-02, 1.30192131e-01,
          4.27803338e-01, 4.27803338e-01, 1.56212166e-01, 3.68277371e-01,
          3.88250321e-01, 3.88250321e-01, 3.88250321e-01, 1.80073097e-01,
          2.08535865e-01, 3.37842256e-01, 2.28864238e-01, 3.88250321e-01,
          3.88250321e-01, 1.09420851e-01, 5.03332376e-01, 2.68690258e-01,
          7.61379534e-03, 1.74071789e-02, 5.72720468e-01, 5.72720468e-01,
          1.36604533e-02, 1.43212359e-02, 3.86741251e-01, 4.27803338e-01,
          3.43559712e-01, 4.57921065e-02, 1.30192131e-01, 4.27803338e-01,
          4.27803338e-01, 1.56212166e-01, 3.68277371e-01, 3.88250321e-01,
          3.88250321e-01, 3.88250321e-01, 1.80073097e-01, 2.08535865e-01,
          3.37842256e-01, 2.28864238e-01, 3.88250321e-01, 3.88250321e-01,
          8.97300690e-02, 4.94655699e-01, 4.94655699e-01, 7.03854710e-02,
          5.17944880e-02, 4.94655699e-01, 4.94655699e-01, 2.44216267e-02,
          6.15304196e-03, 1.90563023e-01, 5.33210039e-01, 5.33210039e-01,
          3.08951855e-01, 1.18699424e-01, 2.64154822e-01, 3.84165615e-01,
          1.91547394e-01, 1.61686882e-01, 1.57709464e-01, 4.14514571e-01,
          4.33074296e-01, 3.28667998e-01, 1.56037793e-01, 9.35105085e-02,
          4.33074296e-01, 4.18963104e-01, 3.27456862e-01, 4.24217850e-01,
          4.55941170e-01, 4.55941170e-01, 1.53212607e-01, 1.82975605e-01,
          4.55941170e-01, 3.61520201e-01, 6.02984242e-02, 2.34761816e-02,
          4.13096875e-01, 4.80406344e-01, 4.80406344e-01, 1.61618054e-01,
          5.44631034e-02, 2.05231570e-02, 1.01432502e-01, 3.03949833e-01,
          4.80406344e-01, 5.36702514e-01, 5.36702514e-01, 2.84662843e-01,
          1.35860711e-01, 6.93736300e-02, 3.73942219e-02, 8.14208835e-02,
          1.34759486e-01, 5.36702514e-01, 1.13101505e-01, 2.34407097e-01,
          1.44312173e-01, 1.84831157e-01, 5.17073572e-01, 5.17073572e-01,
          5.17073572e-01, 2.39854217e-01, 1.11729592e-01, 1.45771444e-01,
          4.64446634e-01, 1.85656518e-01, 4.64446634e-01, 4.64446634e-01,
          2.70192534e-01, 3.48118067e-01, 2.65982896e-01, 1.66054457e-01,
          7.63699934e-02, 2.89331436e-01, 4.92216885e-01, 5.48345089e-01,
          5.48345089e-01, 4.25563343e-02, 8.46800134e-02, 2.11071759e-01,
          8.83394703e-02, 2.79285431e-01, 3.78321052e-01, 1.32302403e-01,
          2.82427877e-01, 3.36523414e-01, 3.78321052e-01, 3.78321052e-01,
          3.78321052e-01, 3.67689073e-01, 3.45485866e-01, 3.62141103e-01,
          3.62141103e-01, 1.61389276e-01, 3.62141103e-01, 3.62141103e-01,
          3.62141103e-01, 3.28623325e-01, 2.95382321e-01, 3.47680360e-01,
          3.73349965e-01, 3.73349965e-01, 3.73349965e-01, 2.92159557e-01,
          3.25242013e-01, 3.73349965e-01, 2.84060955e-01, 2.14470148e-01,
          3.88250321e-01, 3.88250321e-01, 3.88250321e-01, 1.80073097e-01,
          2.08535865e-01, 3.37842256e-01, 2.28864238e-01, 3.88250321e-01,
          3.88250321e-01, 3.70819062e-01, 3.70819062e-01, 3.70819062e-01,
          3.18265676e-01, 2.27945507e-01, 1.34173110e-01, 3.70819062e-01,
          3.70819062e-01, 3.70819062e-01, 4.15186971e-01, 4.15186971e-01,
          4.15186971e-01, 1.36602968e-01, 4.28507216e-02, 6.95716888e-02,
          4.15186971e-01, 4.15186971e-01, 3.29567224e-01, 3.88250321e-01,
          3.88250321e-01, 3.88250321e-01, 1.80073097e-01, 2.08535865e-01,
          3.37842256e-01, 2.28864238e-01, 3.88250321e-01, 3.88250321e-01,
          3.70819062e-01, 3.70819062e-01, 3.70819062e-01, 3.18265676e-01,
          2.27945507e-01, 1.34173110e-01, 3.70819062e-01, 3.70819062e-01,
          3.70819062e-01, 4.15186971e-01, 4.15186971e-01, 4.15186971e-01,
          1.36602968e-01, 4.28507216e-02, 6.95716888e-02, 4.15186971e-01,
          4.15186971e-01, 3.29567224e-01, 1.57709464e-01, 4.14514571e-01,
          4.33074296e-01, 3.28667998e-01, 1.56037793e-01, 9.35105085e-02,
          4.33074296e-01, 4.18963104e-01, 3.27456862e-01, 1.64241850e-01,
          2.63782501e-01, 4.79664564e-01, 3.38502526e-01, 6.52641654e-02,
          1.43188059e-01, 4.79664564e-01, 4.79664564e-01, 2.62815505e-01,
          1.33672208e-01, 3.03284854e-01, 4.47548389e-01, 4.47548389e-01,
          1.24733567e-01, 2.77774245e-01, 4.47548389e-01, 4.19287056e-01,
          1.27523363e-01, 5.36702514e-01, 5.36702514e-01, 2.84662843e-01,
          1.35860711e-01, 6.93736300e-02, 3.73942219e-02, 8.14208835e-02,
          1.34759486e-01, 5.36702514e-01, 6.02539599e-01, 2.15368569e-01,
          2.18076915e-01, 9.62059721e-02, 3.84362787e-02, 8.05030540e-02,
          1.38537094e-01, 3.70848358e-01, 6.02539599e-01, 4.93768990e-01,
          4.93768990e-01, 1.35223895e-01, 1.02861419e-01, 4.49824184e-02,
          1.27718225e-01, 2.53104687e-01, 3.90360981e-01, 4.93768990e-01 ]
      - [ 1.62039220e-01, 9.93121639e-02, 1.45108417e-01, 3.95573884e-01,
          3.95573884e-01, 3.95573884e-01, 3.95573884e-01, 3.95573884e-01,
          3.95573884e-01, 1.46713480e-01, 3.01130980e-01, 3.72420281e-01,
          3.72420281e-01, 3.72420281e-01, 3.72420281e-01, 3.72420281e-01,
          3.72420281e-01, 2.27801383e-01, 4.15316343e-01, 4.15316343e-01,
          4.15316343e-01, 3.92819017e-01, 4.15316343e-01, 2.01801136e-01,
          5.16914278e-02, 1.22060075e-01, 3.05449605e-01, 3.61702085e-01,
          3.34350646e-01, 1.77605495e-01, 1.82367340e-01, 8.70664492e-02,
          4.12576526e-01, 4.12576526e-01, 4.12576526e-01, 4.12576526e-01,
          3.64578247e-01, 3.64578247e-01, 3.13677102e-01, 2.29500785e-01,
          3.33945036e-01, 3.64578247e-01, 3.44687521e-01, 2.88609803e-01,
          3.64578247e-01, 3.62860978e-01, 2.54243553e-01, 3.62860978e-01,
          3.62860978e-01, 3.62860978e-01, 3.62860978e-01, 2.95177221e-01,
          2.33659849e-01, 3.62860978e-01, 8.76174346e-02, 4.17517036e-01,
          4.17517036e-01, 3.05105507e-01, 1.01112612e-01, 4.17517036e-01,
          4.17517036e-01, 4.17517036e-01, 1.15051679e-01, 2.97605246e-01,
          3.78475577e-01, 3.78475577e-01, 3.78475577e-01, 5.17234616e-02,
          2.13335827e-01, 3.78475577e-01, 3.78475577e-01, 3.78475577e-01,
          1.41454861e-01, 2.21857965e-01, 4.07277644e-01, 4.07277644e-01,
          1.96806490e-01, 2.42059693e-01, 4.07277644e-01, 4.07277644e-01,
          4.07277644e-01, 8.76174346e-02, 4.17517036e-01, 4.17517036e-01,
          3.05105507e-01, 1.01112612e-01, 4.17517036e-01, 4.17517036e-01,
          4.17517036e-01, 1.15051679e-01, 2.97605246e-01, 3.78475577e-01,
          3.78475577e-01, 3.78475577e-01, 5.17234616e-02, 2.13335827e-01,
          3.78475577e-01, 3.78475577e-01, 3.78475577e-01, 1.41454861e-01,
          2.21857965e-01, 4.07277644e-01, 4.07277644e-01, 1.96806490e-01,
          2.42059693e-01, 4.07277644e-01, 4.07277644e-01, 4.07277644e-01,
          1.00015350e-01, 2.54463881e-01, 3.96072477e-01, 3.96072477e-01,
          2.20676735e-01, 3.08470696e-01, 3.87223989e-01, 3.96072477e-01,
          3.96072477e-01, 5.25350384e-02, 1.25092670e-01, 4.75358069e-01,
          4.75358069e-01, 2.49088809e-01, 5.74521795e-02, 8.73885453e-02,
          4.75358069e-01, 4.75358069e-01, 4.33864594e-01, 2.16031019e-02,
          1.31461561e-01, 4.33864594e-01, 4.33864594e-01, 5.62488660e-02,
          1.83196187e-01, 4.33864594e-01, 4.33864594e-01, 6.72493726e-02,
          1.39135778e-01, 1.16191931e-01, 4.19199616e-01, 4.19199616e-01,
          4.01989490e-01, 3.06466460e-01, 4.19199616e-01, 4.19199616e-01,
          3.68556350e-01, 3.68556350e-01, 3.68556350e-01, 3.68556350e-01,
          2.73532987e-01, 2.30708823e-01, 2.30799109e-01, 3.68556350e-01,
          3.68556350e-01, 4.32677954e-01, 1.96474493e-01, 1.03293963e-01,
          4.32677954e-01, 4.32677954e-01, 6.89195395e-02, 7.48677477e-02,
          4.32677954e-01, 4.32677954e-01, 4.15316343e-01, 4.15316343e-01,
          4.15316343e-01, 3.92819017e-01, 4.15316343e-01, 2.01801136e-01,
          5.16914278e-02, 1.22060075e-01, 3.05449605e-01, 3.52054983e-01,
          2.74880111e-01, 2.59502053e-01, 4.70080912e-01, 4.70080912e-01,
          3.71295363e-02, 2.72145960e-02, 2.51821935e-01, 4.70080912e-01,
          3.65243912e-01, 3.59974235e-01, 3.65243912e-01, 3.65243912e-01,
          3.65243912e-01, 1.05042294e-01, 2.57945389e-01, 3.49548578e-01,
          3.65243912e-01, 3.62860978e-01, 2.54243553e-01, 3.62860978e-01,
          3.62860978e-01, 3.62860978e-01, 3.62860978e-01, 2.95177221e-01,
          2.33659849e-01, 3.62860978e-01, 4.72446531e-01, 9.04825404e-02,
          2.33130962e-01, 4.72446531e-01, 4.72446531e-01, 1.25675956e-02,
          1.43664540e-03, 1.99401632e-01, 4.72446531e-01, 1.33952439e-01,
          3.60688381e-02, 2.36795414e-02, 4.93365675e-01, 4.93365675e-01,
          3.54101621e-02, 1.93590634e-02, 4.93365675e-01, 4.93365675e-01,
          1.41454861e-01, 2.21857965e-01, 4.07277644e-01, 4.07277644e-01,
          1.96806490e-01, 2.42059693e-01, 4.07277644e-01, 4.07277644e-01,
          4.07277644e-01, 4.32437807e-01, 6.34111091e-02, 3.70771140e-01,
          4.57143933e-01, 4.57143933e-01, 1.79689214e-01, 3.27928411e-03,
          8.77405256e-02, 4.57143933e-01, 1.05060115e-01, 1.60582513e-01,
          1.60775781e-01, 4.44428355e-01, 4.44428355e-01, 2.12664798e-01,
          3.12401682e-01, 4.44428355e-01, 4.44428355e-01, 1.41454861e-01,
          2.21857965e-01, 4.07277644e-01, 4.07277644e-01, 1.96806490e-01,
          2.42059693e-01, 4.07277644e-01, 4.07277644e-01, 4.07277644e-01,
          4.32437807e-01, 6.34111091e-02, 3.70771140e-01, 4.57143933e-01,
          4.57143933e-01, 1.79689214e-01, 3.27928411e-03, 8.77405256e-02,
          4.57143933e-01, 1.05060115e-01, 1.60582513e-01, 1.60775781e-01,
          4.44428355e-01, 4.44428355e-01, 2.12664798e-01, 3.12401682e-01,
          4.44428355e-01, 4.44428355e-01, 4.33864594e-01, 2.16031019e-02,
          1.31461561e-01, 4.33864594e-01, 4.33864594e-01, 5.62488660e-02,
          1.83196187e-01, 4.33864594e-01, 4.33864594e-01, 4.71080989e-01,
          5.16413245e-03, 2.56438907e-02, 4.35735375e-01, 4.71080989e-01,
          3.03336799e-01, 7.56296283e-03, 2.16616675e-01, 4.71080989e-01,
          3.62383723e-01, 3.62383723e-01, 2.06500590e-01, 1.85696468e-01,
          3.62383723e-01, 3.62383723e-01, 3.62383723e-01, 3.62383723e-01,
          3.62383723e-01, 4.32677954e-01, 1.96474493e-01, 1.03293963e-01,
          4.32677954e-01, 4.32677954e-01, 6.89195395e-02, 7.48677477e-02,
          4.32677954e-01, 4.32677954e-01, 5.09241045e-01, 6.57129809e-02,
          9.43424329e-02, 2.26828009e-01, 5.09241045e-01, 3.56208920e-01,
          9.77260917e-02, 1.25817597e-01, 5.09241045e-01, 4.01203543e-01,
          2.38810673e-01, 1.63131922e-01, 1.28601849e-01, 4.01203543e-01,
          4.01203543e-01, 3.84143561e-01, 3.23090822e-01, 4.01203543e-01 ]
      - [ 2.77797222e-01, 7.46333897e-02, 4.83588755e-01, 3.60695064e-01,
          4.83588755e-01, 4.83588755e-01, 8.56249407e-02, 5.58011979e-02,
          2.65156657e-01, 1.23591863e-01, 1.28811419e-01, 2.79243588e-01,
          8.96352753e-02, 6.58871293e-01, 6.58871293e-01, 5.13838716e-02,
          2.86475606e-02, 6.21266477e-02, 3.75471473e-01, 3.75471473e-01,
          3.75471473e-01, 1.42771706e-01, 3.75471473e-01, 3.75471473e-01,
          1.89022616e-01, 3.07022333e-01, 3.75471473e-01, 8.74287114e-02,
          1.32352158e-01, 9.54554230e-02, 2.66976971e-02, 1.93587884e-01,
          6.75744236e-01, 6.75744236e-01, 5.90432063e-02, 6.36072010e-02,
          1.05859965e-01, 4.79613125e-01, 4.79613125e-01, 7.21687451e-02,
          3.11784446e-01, 4.79613125e-01, 3.97806466e-01, 1.77526817e-01,
          4.16330993e-02, 6.85358271e-02, 5.14920652e-01, 6.08629882e-01,
          3.19184288e-02, 1.55636072e-02, 2.83527281e-02, 4.87884939e-01,
          3.33396286e-01, 4.90163565e-02, 1.66872025e-01, 4.87483412e-01,
          1.85009941e-01, 7.96705559e-02, 3.31648402e-02, 4.87483412e-01,
          4.87483412e-01, 4.58426565e-01, 5.03355004e-02, 4.13225234e-01,
          4.13225234e-01, 4.13225234e-01, 4.38400172e-02, 2.04687053e-03,
          5.51007986e-02, 3.70316684e-01, 4.13225234e-01, 4.13225234e-01,
          1.12699382e-01, 5.53186178e-01, 6.19663060e-01, 1.91130992e-02,
          0., 9.76360403e-04, 4.03134614e-01, 2.56783247e-01,
          2.49586195e-01, 1.66872025e-01, 4.87483412e-01, 1.85009941e-01,
          7.96705559e-02, 3.31648402e-02, 4.87483412e-01, 4.87483412e-01,
          4.58426565e-01, 5.03355004e-02, 4.13225234e-01, 4.13225234e-01,
          4.13225234e-01, 4.38400172e-02, 2.04687053e-03, 5.51007986e-02,
          3.70316684e-01, 4.13225234e-01, 4.13225234e-01, 1.12699382e-01,
          5.53186178e-01, 6.19663060e-01, 1.91130992e-02, 0.,
          9.76360403e-04, 4.03134614e-01, 2.56783247e-01, 2.49586195e-01,
          1.64785534e-02, 4.32930179e-02, 4.30742562e-01, 2.98000216e-01,
          5.38262650e-02, 5.50382137e-02, 5.25301397e-01, 5.25301397e-01,
          4.00568664e-01, 2.80650526e-01, 4.69274342e-01, 4.69274342e-01,
          4.55683172e-01, 3.42775807e-02, 1.94527209e-02, 1.14658810e-01,
          1.83154598e-01, 4.69274342e-01, 4.00704294e-01, 4.00704294e-01,
          4.00704294e-01, 4.00704294e-01, 7.72736073e-02, 1.13408137e-02,
          1.62829801e-01, 4.00704294e-01, 4.00704294e-01, 5.09615056e-02,
          9.20155942e-02, 2.90128946e-01, 9.46564376e-02, 3.75540368e-02,
          2.54470892e-02, 1.02208331e-01, 6.62075222e-01, 6.62075222e-01,
          1.80712640e-01, 5.32087535e-02, 4.94826049e-01, 4.94826049e-01,
          2.62017995e-01, 1.65587999e-02, 3.78087945e-02, 3.93260926e-01,
          4.94826049e-01, 2.32208461e-01, 1.08712809e-02, 1.74985439e-01,
          5.38737535e-01, 5.33861876e-01, 2.00055227e-01, 2.12924723e-02,
          6.32511899e-02, 5.38737535e-01, 3.75471473e-01, 3.75471473e-01,
          3.75471473e-01, 1.42771706e-01, 3.75471473e-01, 3.75471473e-01,
          1.89022616e-01, 3.07022333e-01, 3.75471473e-01, 1.25820220e-01,
          4.17798311e-02, 6.44545406e-02, 4.46291268e-01, 4.46291268e-01,
          3.06064397e-01, 4.46291268e-01, 4.46291268e-01, 2.88846880e-01,
          1.53522402e-01, 4.15665209e-02, 4.04571779e-02, 4.88645613e-01,
          4.88645613e-01, 1.12020433e-01, 4.34200853e-01, 4.88645613e-01,
          2.25351423e-01, 6.85358271e-02, 5.14920652e-01, 6.08629882e-01,
          3.19184288e-02, 1.55636072e-02, 2.83527281e-02, 4.87884939e-01,
          3.33396286e-01, 4.90163565e-02, 6.00555837e-02, 5.71348406e-02,
          2.80093551e-01, 3.33497450e-02, 3.30181755e-02, 2.25967970e-02,
          6.71702862e-01, 6.71702862e-01, 5.37433438e-02, 1.82006344e-01,
          9.50553790e-02, 3.11922133e-01, 4.47405100e-01, 4.47405100e-01,
          1.84636325e-01, 4.47405100e-01, 4.47405100e-01, 1.45937547e-01,
          1.12699382e-01, 5.53186178e-01, 6.19663060e-01, 1.91130992e-02,
          0., 9.76360403e-04, 4.03134614e-01, 2.56783247e-01,
          2.49586195e-01, 4.12027836e-01, 2.71117896e-01, 2.93938607e-01,
          1.94588751e-02, 5.34177432e-03, 5.12868427e-02, 5.58581293e-01,
          5.58581293e-01, 1.94130450e-01, 4.63598937e-01, 3.47407460e-01,
          6.91313893e-02, 8.64669606e-02, 1.43085383e-02, 5.02111688e-02,
          4.63598937e-01, 4.63598937e-01, 4.63598937e-01, 1.12699382e-01,
          5.53186178e-01, 6.19663060e-01, 1.91130992e-02, 0.,
          9.76360403e-04, 4.03134614e-01, 2.56783247e-01, 2.49586195e-01,
          4.12027836e-01, 2.71117896e-01, 2.93938607e-01, 1.94588751e-02,
          5.34177432e-03, 5.12868427e-02, 5.58581293e-01, 5.58581293e-01,
          1.94130450e-01, 4.63598937e-01, 3.47407460e-01, 6.91313893e-02,
          8.64669606e-02, 1.43085383e-02, 5.02111688e-02, 4.63598937e-01,
          4.63598937e-01, 4.63598937e-01, 4.00704294e-01, 4.00704294e-01,
          4.00704294e-01, 4.00704294e-01, 7.72736073e-02, 1.13408137e-02,
          1.62829801e-01, 4.00704294e-01, 4.00704294e-01, 4.02108580e-01,
          4.02108580e-01, 1.37715086e-01, 2.62514651e-02, 7.86165819e-02,
          4.02108580e-01, 4.02108580e-01, 4.02108580e-01, 4.02108580e-01,
          3.71321529e-01, 2.23756373e-01, 6.20375499e-02, 1.71767384e-01,
          1.25530422e-01, 4.82258946e-01, 4.82258946e-01, 4.82258946e-01,
          2.45774120e-01, 2.32208461e-01, 1.08712809e-02, 1.74985439e-01,
          5.38737535e-01, 5.33861876e-01, 2.00055227e-01, 2.12924723e-02,
          6.32511899e-02, 5.38737535e-01, 4.96186823e-01, 1.07492872e-01,
          3.88554372e-02, 2.43392512e-01, 3.03867012e-01, 5.58990061e-01,
          4.70403343e-01, 7.02718720e-02, 2.11871848e-01, 4.36994642e-01,
          4.36994642e-01, 8.92220959e-02, 1.42973773e-02, 2.11326167e-01,
          4.36994642e-01, 4.36994642e-01, 1.68941602e-01, 3.87830645e-01 ]
      - [ 1.88238114e-01, 3.71933848e-01, 4.25835669e-01, 2.84504026e-01,
          2.62504876e-01, 2.23073587e-01, 4.25835669e-01, 4.25835669e-01,
          2.79922396e-01, 3.77826810e-01, 1.64375186e-01, 2.35650301e-01,
          3.77826810e-01, 3.77826810e-01, 2.39074335e-01, 3.77826810e-01,
          3.77826810e-01, 3.77826810e-01, 3.69217187e-01, 1.78486213e-01,
          3.69217187e-01, 3.69217187e-01, 3.41759980e-01, 3.69217187e-01,
          1.72412515e-01, 3.69217187e-01, 3.69217187e-01, 1.68491542e-01,
          4.21817124e-01, 4.21817124e-01, 4.21817124e-01, 4.21817124e-01,
          1.71337545e-01, 3.19980621e-01, 3.18214804e-01, 1.50577188e-01,
          4.05008703e-01, 4.05008703e-01, 2.83082217e-01, 9.04238895e-02,
          2.70448685e-01, 2.56116241e-01, 4.05008703e-01, 4.05008703e-01,
          3.35820973e-01, 2.42611304e-01, 1.91415429e-01, 4.50805098e-01,
          2.25180626e-01, 1.82444960e-01, 5.57088815e-02, 4.50805098e-01,
          4.50805098e-01, 4.50805098e-01, 1.89882785e-01, 1.58066481e-01,
          3.72193187e-01, 4.37958777e-01, 4.37958777e-01, 6.06155545e-02,
          1.58591017e-01, 4.37958777e-01, 4.37958777e-01, 1.34835467e-01,
          2.78868735e-01, 4.42562580e-01, 4.42562580e-01, 4.42562580e-01,
          8.29417855e-02, 9.26976129e-02, 3.17351699e-01, 4.42562580e-01,
          3.59662980e-01, 4.29489136e-01, 4.29489136e-01, 2.12482840e-01,
          1.90725818e-01, 6.71586916e-02, 4.29489136e-01, 4.29489136e-01,
          2.06089854e-01, 1.89882785e-01, 1.58066481e-01, 3.72193187e-01,
          4.37958777e-01, 4.37958777e-01, 6.06155545e-02, 1.58591017e-01,
          4.37958777e-01, 4.37958777e-01, 1.34835467e-01, 2.78868735e-01,
          4.42562580e-01, 4.42562580e-01, 4.42562580e-01, 8.29417855e-02,
          9.26976129e-02, 3.17351699e-01, 4.42562580e-01, 3.59662980e-01,
          4.29489136e-01, 4.29489136e-01, 2.12482840e-01, 1.90725818e-01,
          6.71586916e-02, 4.29489136e-01, 4.29489136e-01, 2.06089854e-01,
          4.86681461e-01, 2.97178388e-01, 1.27913937e-01, 1.63171038e-01,
          3.09575409e-01, 1.12046070e-01, 2.11824089e-01, 4.86681461e-01,
          4.86681461e-01, 1.18099347e-01, 1.15128681e-01, 4.68265623e-01,
          4.68265623e-01, 1.11076586e-01, 8.08434188e-02, 2.68619269e-01,
          4.68265623e-01, 4.68265623e-01, 1.60316288e-01, 1.13182724e-01,
          4.09537524e-01, 4.09537524e-01, 4.09537524e-01, 2.88114667e-01,
          4.09537524e-01, 4.09537524e-01, 1.89162582e-01, 2.63053983e-01,
          3.18326533e-01, 4.79985684e-01, 4.79985684e-01, 4.79985684e-01,
          1.73886687e-01, 6.53015524e-02, 1.46293476e-01, 2.78595418e-01,
          1.86466351e-01, 2.89430320e-01, 2.47667521e-01, 3.56444687e-01,
          3.22937042e-01, 2.94348031e-01, 4.72914428e-01, 4.72914428e-01,
          2.23873988e-01, 3.81738931e-01, 2.30850518e-01, 1.49147555e-01,
          3.81738931e-01, 3.81738931e-01, 3.81738931e-01, 3.09403777e-01,
          3.10315162e-01, 3.81738931e-01, 3.69217187e-01, 1.78486213e-01,
          3.69217187e-01, 3.69217187e-01, 3.41759980e-01, 3.69217187e-01,
          1.72412515e-01, 3.69217187e-01, 3.69217187e-01, 1.09790333e-01,
          3.47310811e-01, 4.99494374e-01, 4.99494374e-01, 6.32333159e-02,
          1.92406088e-01, 9.51612964e-02, 4.99494374e-01, 2.52536118e-01,
          1.81077972e-01, 1.77094117e-01, 9.68459100e-02, 5.31693436e-02,
          2.80985177e-01, 4.70185190e-01, 4.70185190e-01, 4.70185190e-01,
          4.20441419e-01, 2.42611304e-01, 1.91415429e-01, 4.50805098e-01,
          2.25180626e-01, 1.82444960e-01, 5.57088815e-02, 4.50805098e-01,
          4.50805098e-01, 4.50805098e-01, 1.66567639e-02, 7.78056085e-02,
          4.94114697e-01, 4.94114697e-01, 2.49060974e-01, 1.09688684e-01,
          3.28380674e-01, 4.94114697e-01, 2.72743464e-01, 1.45211630e-02,
          1.47319034e-01, 4.35462415e-01, 4.42578524e-01, 4.42578524e-01,
          4.42578524e-01, 4.42578524e-01, 2.28470117e-02, 3.59209627e-03,
          3.59662980e-01, 4.29489136e-01, 4.29489136e-01, 2.12482840e-01,
          1.90725818e-01, 6.71586916e-02, 4.29489136e-01, 4.29489136e-01,
          2.06089854e-01, 3.95162165e-01, 4.01714712e-01, 2.50055492e-01,
          2.75907516e-01, 4.01714712e-01, 2.05852076e-01, 4.01714712e-01,
          4.01714712e-01, 1.15356170e-01, 3.68942559e-01, 2.94754446e-01,
          3.68942559e-01, 3.63867521e-01, 3.68942559e-01, 2.78330505e-01,
          1.37744084e-01, 3.68942559e-01, 3.68942559e-01, 3.59662980e-01,
          4.29489136e-01, 4.29489136e-01, 2.12482840e-01, 1.90725818e-01,
          6.71586916e-02, 4.29489136e-01, 4.29489136e-01, 2.06089854e-01,
          3.95162165e-01, 4.01714712e-01, 2.50055492e-01, 2.75907516e-01,
          4.01714712e-01, 2.05852076e-01, 4.01714712e-01, 4.01714712e-01,
          1.15356170e-01, 3.68942559e-01, 2.94754446e-01, 3.68942559e-01,
          3.63867521e-01, 3.68942559e-01, 2.78330505e-01, 1.37744084e-01,
          3.68942559e-01, 3.68942559e-01, 1.60316288e-01, 1.13182724e-01,
          4.09537524e-01, 4.09537524e-01, 4.09537524e-01, 2.88114667e-01,
          4.09537524e-01, 4.09537524e-01, 1.89162582e-01, 1.87882245e-01,
          4.71223116e-01, 4.71223116e-01, 1.16898445e-02, 8.80992040e-02,
          3.23947221e-01, 4.71223116e-01, 4.13483053e-01, 1.00158446e-01,
          3.48131955e-01, 3.48131955e-01, 3.48131955e-01, 1.89820454e-01,
          3.48131955e-01, 3.34842056e-01, 3.48131955e-01, 3.48131955e-01,
          3.48131955e-01, 3.81738931e-01, 2.30850518e-01, 1.49147555e-01,
          3.81738931e-01, 3.81738931e-01, 3.81738931e-01, 3.09403777e-01,
          3.10315162e-01, 3.81738931e-01, 2.08989859e-01, 3.74543101e-01,
          3.74543101e-01, 2.40993872e-01, 3.74543101e-01, 3.74543101e-01,
          3.74543101e-01, 2.29800358e-01, 3.74543101e-01, 3.54598969e-01,
          3.54598969e-01, 3.54598969e-01, 2.39326194e-01, 3.20029527e-01,
          3.54598969e-01, 3.54598969e-01, 3.11111152e-01, 3.33570093e-01 ]
      - [ 4.37468827e-01, 4.37468827e-01, 3.51741731e-01, 2.18481272e-01,
          9.20979232e-02, 4.37468827e-01, 4.37468827e-01, 6.74341843e-02,
          2.13608399e-01, 3.70937824e-01, 3.70937824e-01, 3.70937824e-01,
          3.70937824e-01, 3.52241457e-01, 3.70937824e-01, 3.08658034e-01,
          2.63624564e-02, 2.97120929e-01, 5.07675827e-01, 4.09768894e-02,
          1.53168976e-01, 4.20799971e-01, 4.39940989e-01, 4.19115648e-02,
          1.02415355e-02, 2.86073685e-01, 5.07675827e-01, 3.59721035e-01,
          3.59721035e-01, 3.59721035e-01, 2.96562463e-01, 5.15958145e-02,
          3.59721035e-01, 3.59721035e-01, 3.59721035e-01, 3.59721035e-01,
          5.63028008e-02, 4.02377278e-01, 4.02377278e-01, 4.02377278e-01,
          1.13833897e-01, 3.29345345e-01, 4.02377278e-01, 4.02377278e-01,
          2.48689458e-01, 7.88433850e-02, 4.41068679e-01, 5.05378187e-01,
          5.05378187e-01, 1.04010209e-01, 9.19713676e-02, 5.56369349e-02,
          2.54077464e-01, 4.43230033e-01, 3.81721631e-02, 4.87594277e-01,
          4.87594277e-01, 1.44445166e-01, 1.59706473e-02, 3.62372585e-02,
          4.87594277e-01, 4.87594277e-01, 1.42294258e-01, 9.21046659e-02,
          1.65677518e-01, 4.66372013e-01, 4.66372013e-01, 1.50667280e-01,
          1.39326826e-01, 4.66372013e-01, 4.66372013e-01, 2.17452079e-01,
          1.86166361e-01, 7.58453682e-02, 4.35622960e-01, 6.52164340e-01,
          4.87279207e-01, 2.01909348e-01, 7.92460218e-02, 1.83745429e-01,
          1.40506685e-01, 3.81721631e-02, 4.87594277e-01, 4.87594277e-01,
          1.44445166e-01, 1.59706473e-02, 3.62372585e-02, 4.87594277e-01,
          4.87594277e-01, 1.42294258e-01, 9.21046659e-02, 1.65677518e-01,
          4.66372013e-01, 4.66372013e-01, 1.50667280e-01, 1.39326826e-01,
          4.66372013e-01, 4.66372013e-01, 2.17452079e-01, 1.86166361e-01,
          7.58453682e-02, 4.35622960e-01, 6.52164340e-01, 4.87279207e-01,
          2.01909348e-01, 7.92460218e-02, 1.83745429e-01, 1.40506685e-01,
          2.04006545e-02, 7.14334771e-02, 5.59804738e-01, 5.59804738e-01,
          7.65037769e-03, 9.72806755e-03, 1.84908316e-01, 5.59804738e-01,
          1.20011337e-01, 3.76718909e-01, 4.90476899e-02, 2.22656026e-01,
          3.39518696e-01, 1.42325148e-01, 7.04821870e-02, 4.14951265e-01,
          4.94208336e-01, 4.94208336e-01, 5.04554570e-01, 2.10988484e-02,
          9.01813284e-02, 5.04554570e-01, 3.43393654e-01, 1.33691996e-01,
          2.50814222e-02, 2.93658435e-01, 5.04554570e-01, 2.15959083e-02,
          2.79682554e-05, 4.60449815e-01, 5.04532635e-01, 5.28309271e-02,
          1.41178991e-03, 1.26601219e-01, 5.04532635e-01, 5.04532635e-01,
          8.73324275e-02, 6.16616756e-03, 8.74006450e-02, 5.99902570e-01,
          5.99902570e-01, 9.89186298e-03, 1.17273396e-02, 2.02700466e-01,
          4.66494411e-01, 4.28563416e-01, 1.36047807e-02, 1.48448665e-02,
          3.25946689e-01, 5.07705331e-01, 5.07705331e-01, 7.84918375e-04,
          1.03202768e-01, 4.22416061e-01, 5.07675827e-01, 4.09768894e-02,
          1.53168976e-01, 4.20799971e-01, 4.39940989e-01, 4.19115648e-02,
          1.02415355e-02, 2.86073685e-01, 5.07675827e-01, 3.63202430e-02,
          4.13814606e-03, 1.82065159e-01, 5.32699764e-01, 2.60001808e-01,
          1.43588837e-02, 2.02686906e-01, 5.32699764e-01, 5.32699764e-01,
          1.35808056e-02, 1.38214394e-01, 4.64067549e-01, 4.64067549e-01,
          2.28743345e-01, 2.29328439e-01, 4.64067549e-01, 4.64067549e-01,
          9.86264497e-02, 7.88433850e-02, 4.41068679e-01, 5.05378187e-01,
          5.05378187e-01, 1.04010209e-01, 9.19713676e-02, 5.56369349e-02,
          2.54077464e-01, 4.43230033e-01, 3.17517184e-02, 1.02345943e-02,
          4.72867265e-02, 2.78026819e-01, 1.16425738e-01, 2.79118903e-02,
          3.38211328e-01, 6.26250207e-01, 6.26250207e-01, 6.84581399e-02,
          3.00079048e-01, 4.07561898e-01, 3.21754426e-01, 3.42489243e-01,
          9.19457823e-02, 4.91597980e-01, 4.91597980e-01, 1.47083431e-01,
          1.86166361e-01, 7.58453682e-02, 4.35622960e-01, 6.52164340e-01,
          4.87279207e-01, 2.01909348e-01, 7.92460218e-02, 1.83745429e-01,
          1.40506685e-01, 1.42743528e-01, 9.52711180e-02, 9.34988409e-02,
          4.84815419e-01, 4.84815419e-01, 1.16691001e-01, 4.84815419e-01,
          4.84815419e-01, 5.62386438e-02, 2.98067927e-01, 4.03068841e-01,
          4.54737753e-01, 2.60723293e-01, 2.27250963e-01, 4.89710383e-02,
          4.54737753e-01, 4.54737753e-01, 4.20893319e-02, 1.86166361e-01,
          7.58453682e-02, 4.35622960e-01, 6.52164340e-01, 4.87279207e-01,
          2.01909348e-01, 7.92460218e-02, 1.83745429e-01, 1.40506685e-01,
          1.42743528e-01, 9.52711180e-02, 9.34988409e-02, 4.84815419e-01,
          4.84815419e-01, 1.16691001e-01, 4.84815419e-01, 4.84815419e-01,
          5.62386438e-02, 2.98067927e-01, 4.03068841e-01, 4.54737753e-01,
          2.60723293e-01, 2.27250963e-01, 4.89710383e-02, 4.54737753e-01,
          4.54737753e-01, 4.20893319e-02, 5.04554570e-01, 2.10988484e-02,
          9.01813284e-02, 5.04554570e-01, 3.43393654e-01, 1.33691996e-01,
          2.50814222e-02, 2.93658435e-01, 5.04554570e-01, 3.54162544e-01,
          3.54162544e-01, 2.57798672e-01, 3.54162544e-01, 3.54162544e-01,
          2.57110387e-01, 3.33629936e-01, 3.54162544e-01, 3.54162544e-01,
          2.60766834e-01, 3.60015810e-01, 3.86856198e-01, 3.86856198e-01,
          3.45341772e-01, 3.86856198e-01, 3.86856198e-01, 2.74553180e-01,
          7.24792480e-02, 4.28563416e-01, 1.36047807e-02, 1.48448665e-02,
          3.25946689e-01, 5.07705331e-01, 5.07705331e-01, 7.84918375e-04,
          1.03202768e-01, 4.22416061e-01, 3.82843047e-01, 3.82843047e-01,
          3.69294286e-02, 4.67405915e-02, 3.82843047e-01, 3.82843047e-01,
          3.82843047e-01, 3.82843047e-01, 3.36472869e-01, 4.40146536e-01,
          4.40146536e-01, 1.68425217e-01, 6.73584118e-02, 1.27083957e-01,
          3.51511836e-01, 4.40146536e-01, 4.40146536e-01, 2.19254091e-01 ]
      - [ 1.62477061e-01, 4.83634144e-01, 4.83634144e-01, 3.63842584e-02,
          2.77522597e-02, 1.34811725e-03, 4.83634144e-01, 4.83634144e-01,
          1.76258475e-01, 4.24156338e-01, 4.24156338e-01, 4.24156338e-01,
          4.24156338e-01, 3.09291601e-01, 1.65738594e-02, 6.07118290e-03,
          1.57205965e-02, 4.24156338e-01, 3.14317614e-01, 2.95447409e-01,
          4.18936670e-01, 4.85149533e-01, 4.85149533e-01, 2.49893934e-01,
          8.26020688e-02, 1.68335333e-01, 2.55371869e-01, 1.83765501e-01,
          5.32649696e-01, 5.32649696e-01, 2.63725668e-02, 1.25473309e-02,
          8.65597799e-02, 5.32649696e-01, 2.25723103e-01, 2.24648640e-01,
          5.41800380e-01, 5.41800380e-01, 3.35061222e-01, 3.03290058e-02,
          1.36192646e-02, 2.91993096e-03, 3.11288750e-03, 2.36001499e-02,
          5.41800380e-01, 6.52560472e-01, 4.78672571e-02, 9.26469117e-02,
          1.38956651e-01, 1.24991052e-01, 5.11165895e-02, 4.76335958e-02,
          3.01871449e-01, 6.52560472e-01, 2.84695420e-02, 5.96936166e-01,
          5.96936166e-01, 1.57218814e-01, 5.49451709e-02, 1.34646401e-01,
          4.77651358e-01, 7.75561705e-02, 2.30509024e-02, 4.11393225e-01,
          4.11393225e-01, 4.11393225e-01, 3.86352181e-01, 4.11393225e-01,
          2.00099368e-02, 0., 0., 4.11393225e-01, 5.36038280e-01,
          3.31086963e-02, 3.95627739e-03, 3.62655163e-01, 5.36038280e-01,
          2.27216026e-03, 0., 0., 5.36038280e-01, 2.84695420e-02,
          5.96936166e-01, 5.96936166e-01, 1.57218814e-01, 5.49451709e-02,
          1.34646401e-01, 4.77651358e-01, 7.75561705e-02, 2.30509024e-02,
          4.11393225e-01, 4.11393225e-01, 4.11393225e-01, 3.86352181e-01,
          4.11393225e-01, 2.00099368e-02, 0., 0., 4.11393225e-01,
          5.36038280e-01, 3.31086963e-02, 3.95627739e-03, 3.62655163e-01,
          5.36038280e-01, 2.27216026e-03, 0., 0., 5.36038280e-01,
          4.45098132e-01, 4.45098132e-01, 4.45098132e-01, 3.41459632e-01,
          1.45228073e-01, 1.49004743e-01, 9.30062309e-02, 1.85919598e-01,
          4.45098132e-01, 2.99304783e-01, 8.23464692e-02, 4.71509069e-01,
          4.72644180e-01, 5.35618246e-01, 2.23738164e-01, 0.,
          1.49606578e-02, 3.39711428e-01, 3.28435838e-01, 4.12177108e-02,
          5.15701249e-02, 6.42453909e-01, 6.42453909e-01, 9.71616153e-03,
          0., 1.45694369e-03, 2.36149937e-01, 5.74711144e-01,
          2.30102077e-01, 1.01159886e-01, 9.45999548e-02, 4.30332452e-01,
          1.00046188e-01, 4.61247675e-02, 2.53423005e-01, 5.74711144e-01,
